tree
version=v3
num_class=1
num_tree_per_iteration=1
label_index=0
max_feature_idx=190
objective=regression
feature_names=feature_0 feature_1 feature_2 feature_3 feature_4 feature_5 feature_6 feature_7 feature_8 feature_9 feature_10 feature_11 feature_12 feature_13 feature_14 feature_15 feature_16 feature_17 feature_18 feature_19 feature_20 feature_21 feature_22 feature_23 feature_24 feature_25 feature_26 feature_27 feature_28 feature_29 feature_30 feature_31 feature_32 feature_33 feature_34 feature_35 feature_36 feature_37 feature_38 feature_39 feature_40 feature_41 feature_42 feature_43 feature_44 feature_45 feature_46 feature_47 feature_48 feature_49 feature_50 feature_51 feature_52 feature_53 feature_54 feature_55 feature_56 feature_57 feature_58 feature_59 feature_60 feature_61 feature_62 embedding_0 embedding_1 embedding_2 embedding_3 embedding_4 embedding_5 embedding_6 embedding_7 embedding_8 embedding_9 embedding_10 embedding_11 embedding_12 embedding_13 embedding_14 embedding_15 embedding_16 embedding_17 embedding_18 embedding_19 embedding_20 embedding_21 embedding_22 embedding_23 embedding_24 embedding_25 embedding_26 embedding_27 embedding_28 embedding_29 embedding_30 embedding_31 embedding_32 embedding_33 embedding_34 embedding_35 embedding_36 embedding_37 embedding_38 embedding_39 embedding_40 embedding_41 embedding_42 embedding_43 embedding_44 embedding_45 embedding_46 embedding_47 embedding_48 embedding_49 embedding_50 embedding_51 embedding_52 embedding_53 embedding_54 embedding_55 embedding_56 embedding_57 embedding_58 embedding_59 embedding_60 embedding_61 embedding_62 embedding_63 embedding_64 embedding_65 embedding_66 embedding_67 embedding_68 embedding_69 embedding_70 embedding_71 embedding_72 embedding_73 embedding_74 embedding_75 embedding_76 embedding_77 embedding_78 embedding_79 embedding_80 embedding_81 embedding_82 embedding_83 embedding_84 embedding_85 embedding_86 embedding_87 embedding_88 embedding_89 embedding_90 embedding_91 embedding_92 embedding_93 embedding_94 embedding_95 embedding_96 embedding_97 embedding_98 embedding_99 embedding_100 embedding_101 embedding_102 embedding_103 embedding_104 embedding_105 embedding_106 embedding_107 embedding_108 embedding_109 embedding_110 embedding_111 embedding_112 embedding_113 embedding_114 embedding_115 embedding_116 embedding_117 embedding_118 embedding_119 embedding_120 embedding_121 embedding_122 embedding_123 embedding_124 embedding_125 embedding_126 embedding_127
feature_infos=[-1.5202257474817547:3.2360877404799364] [-0.77084557373751905:1.2972766972655805] [-1.811090239332388:1.3226889017797077] [-3.7808714042531846:5.2357761483160541] [-2.4686036611570672:2.9512480341708414] [-1.9980931236569193:4.8777520644931514] [-1.4878200702591688:4.0835248290393] [-4.309595557418497:8.0352468744061749] [-3.9960230254055631:4.1281712774402415] [-3.985328414784342:5.0425154526207914] [-1.9820141872088881:11.432691146663414] [-2.3122369909856952:3.9622601609373498] [-1.5586245404341232:1.7755032124004588] [-0.95378758873936753:8.7876505379033301] [-0.95374180518751672:1.0485018005511337] [-1.5071116883897426:7.7550971995452382] [-1.3548443886994797:1.9115454882559055] [-1.5451358052740396:8.998882025803864] [-1.4770637962077213:1.7906132388990585] [-0.75517455721952675:6.1473868972014865] [-0.70220840705790522:1.4240786495134317] [-2.5360302672582842:3.7931632145077496] [-1.2743008249987884:0.78474405759013044] [-2.5736741976654929:3.5641180234119654] [-1.2775956246193096:0.78272027606385575] [-3.0964176255095106:3.9311786809141633] [-1.9139658581391805:0.52247535960345315] [-1.6064368938563474:2.2845799621874336] [-0.14175594962310092:44.387465901923768] [-3.8280934198893424:5.7481205267946596] [-0.20685426752825201:43.760144249139707] [-0.33186474746249395:43.259333127076069] [-0.25529755003541849:43.853479713514808] [-0.20685399718805317:43.760146428288735] [-1.2373756337465613:35.009272439787075] [-31.236125617983351:3.7632947634913845] [-43.958685225855739:0.54763124969255772] [-1.095361955937455:1.8438100848596786] [-0.2724647492802808:43.100135913816558] [-0.21919692235586755:43.991967219069629] [-0.39892468963669381:42.477612641608296] [-0.27379631038661828:42.524359491708296] [-0.25037821254864367:43.585472786953204] [-1.4009885117810301:2.6410520807748057] [-2.5641533149484164:2.7439402814063216] [-2.3105918206118461:5.2670302316114253] [-1.4979751089823492:3.2012877503780137] [-0.96883018009501365:1.771622625812133] [-1.1816824381413:5.4982834853610667] [-0.73291762126816262:3.64112941253279] [-0.67798424332021456:5.2136620920015559] [-62.920580343123831:0.016876291327274098] [-42.015549624459666:8.8169352136997166] [-0.94103029143611239:3.0171885751200898] [-0.99990878970033059:2.1377384350340631] [-62.911551020579502:0.039326269363655214] [-62.911445524637529:0.036356209447557845] [-0.37456046681191002:57.896000384782567] [-0.40655329118830269:56.712537332223988] [-0.26310157852356136:59.035541251370752] [-33.274990687495524:30.11216171235354] [-0.23595853645922737:61.015565326757084] [-0.99316933799423457:1.7755119170302369] [0.59948039054870605:3.2605407238006592] [0.29629689455032349:2.4190876483917236] [0.43441474437713623:2.1452291011810303] [0.24901275336742401:2.1799848079681396] [0.32822135090827942:1.7536193132400513] [0.38581815361976624:2.0973875522613525] [0.33379611372947693:2.2261953353881836] [0.29735171794891357:2.1550421714782715] [0.36345919966697693:2.7469987869262695] [0.30242517590522766:2.244016170501709] [0.29758727550506592:2.1463606357574463] [0.37371781468391418:2.0816733837127686] [0.21770395338535309:1.6116434335708618] [0.54219818115234375:3.8528540134429932] [0.37727585434913635:2.2334461212158203] [0.49633121490478516:3.489945650100708] [0.37261134386062622:2.0325648784637451] [0.25983709096908569:2.1113324165344238] [0.60050970315933228:3.2508246898651123] [0.44199174642562866:2.4965050220489502] [0.44609636068344116:2.6976540088653564] [0:0.82059562206268311] [0.45988532900810242:2.8514955043792725] [0.44726857542991638:3.2012250423431396] [0.26841521263122559:2.3738307952880859] [0.5069395899772644:3.0357658863067627] [0.44493624567985535:2.7121412754058838] [0.27592864632606506:1.5892696380615234] [0.41088303923606873:1.9770228862762451] [0.41896885633468628:2.5431132316589355] [0.42616388201713562:2.3460354804992676] [0.33673125505447388:2.6668953895568848] [0.30643221735954285:2.4085342884063721] [0.24794277548789978:2.2148914337158203] [0.33290991187095642:2.186378002166748] [0.58469218015670776:2.9641323089599609] [0.38409164547920227:2.5668675899505615] [0.3949749767780304:1.8664337396621704] [0.41798016428947449:2.3516461849212646] [0.40892747044563293:2.7857258319854736] [0.36520266532897949:1.9490917921066284] [0.20411473512649536:1.5206971168518066] [0.38956755399703979:1.8118797540664673] [0.47542276978492737:2.5876379013061523] [0.4262029230594635:2.4128947257995605] [0.4051767885684967:2.1528186798095703] [0.32783040404319763:1.7518606185913086] [0.31484881043434143:2.2759606838226318] [0.32432031631469727:2.9906582832336426] [0.29096180200576782:2.1382870674133301] [0.33031472563743591:2.2523415088653564] [0.48103028535842896:3.7240757942199707] [0.46573671698570251:3.0912830829620361] [0.1103513166308403:1.3849444389343262] [0.15907104313373566:1.7040861845016479] [0.66352719068527222:3.3903615474700928] [0.2875213623046875:2.2855560779571533] [0.75502389669418335:3.7193944454193115] [0.1573471873998642:1.445675253868103] [0.36227881908416748:2.9104342460632324] [0.34119114279747009:2.2113032341003418] [0.28245577216148376:1.9785186052322388] [0.23764011263847351:2.0570304393768311] [0.11566301435232162:1.5325198173522949] [0.26445573568344116:1.7411652803421021] [0.61738848686218262:3.5727288722991943] [0.24456167221069336:2.1955926418304443] [0.29519882798194885:1.2858306169509888] [0.37914025783538818:1.8913578987121582] [0.29423367977142334:2.2572598457336426] [0.33674493432044983:2.1577498912811279] [0.3207014799118042:1.4185433387756348] [0.35885545611381531:2.6467931270599365] [0.34092885255813599:2.8660244941711426] [0.4876217246055603:3.0962445735931396] [0.53879910707473755:3.2968435287475586] [0.27519193291664124:2.1703393459320068] [0.47774079442024231:2.7378571033477783] [0.4281536340713501:2.4086654186248779] [0.37847989797592163:2.3128175735473633] [0.20512630045413971:1.9723232984542847] [0.38211581110954285:2.5491664409637451] [0.47491049766540527:3.2103283405303955] [0.35836848616600037:2.2343413829803467] [0.24269099533557892:2.0379595756530762] [0.15889467298984528:1.5591155290603638] [0.36190685629844666:2.5619449615478516] [0.34501105546951294:2.8275933265686035] [0.43648931384086609:2.8390247821807861] [0.1893119215965271:1.4674931764602661] [0.28152790665626526:2.4772751331329346] [0.1781071275472641:1.5708043575286865] [0.21529553830623627:1.7722935676574707] [0.52048975229263306:3.1459531784057617] [0.29561862349510193:2.5886926651000977] [0.41331729292869568:3.2327401638031006] [0.45351934432983398:2.5956270694732666] [0.33994176983833313:2.7805733680725098] [0.49986559152603149:3.4858927726745605] [0.34191972017288208:2.0456550121307373] [0.2863878607749939:1.8319958448410034] [0.48001065850257874:2.3503496646881104] [0.42815178632736206:1.6747506856918335] [0.37313443422317505:1.8819692134857178] [0.19068107008934021:1.9315242767333984] [0.35146191716194153:2.4953699111938477] [0.30832353234291077:2.4375209808349609] [0.33495190739631653:2.3152589797973633] [0.2130056768655777:1.6864564418792725] [0.20462527871131897:1.2591255903244019] [0.36632022261619568:2.3047220706939697] [0.22618664801120758:2.4574086666107178] [0.41709232330322266:2.5705497264862061] [0.39384442567825317:2.4389488697052002] [0.70257550477981567:3.4886536598205566] [0.56701397895812988:3.0372543334960938] [0.42564591765403748:3.0716824531555176] [0.22557260096073151:2.7270388603210449] [0.52791708707809448:2.0775322914123535] [0.33226147294044495:1.5808669328689575] [0.22919405996799469:1.2480871677398682] [0.58570891618728638:3.3151211738586426] [0.49308112263679504:2.5394043922424316] [0.69513881206512451:3.2940301895141602] [0.37161320447921753:3.1177375316619873] [0.35555237531661987:2.7183256149291992] [0.67651993036270142:4.0607404708862305] [0.62749379873275757:3.8566999435424805]
tree_sizes=3471 2710 3049 2613 2806 2868 3010 2767 2682 2424 2717 2746 2988 3140 2895 3252 2946 2586 3113 3045 3007 3113 2552 2791 2986 2982 3023 3069 2734 2849 2810 2873 3380 3318 3357 3109 2890 3241 3013 3193 2913 2923 2904 2959 2888 2838 2832 2668 3165 2901 2748 3164 3105 3701 2610 3278 3715 3395 3445 3165 2773 2718 3124 3170 2584 2598 2886 2804 3342 3264 2915 3416 2953 2714 3238 2722 3369 3749 3420 3357 3771 4045 3446 2654 2746 3414 2727 3062 3679 3651 3657 2681 3095 3130 2869 2612 3298 3124 2841 3008 3033 3313 3089 2717 2910 2548 2914 2938 3188 3479 3525 3265 2667 2670 2875 2811 3120 3160 3188 2988 2940 2796 2837 2876 2671 3113 2947 2354 2622 2906 2830 2674 2740 2772 2629 2472 2310 2574 2913 2663 2593 2211 2444 2398 2539 2944 3126 2524 2422 2324 2363 2222 2563 2454 2427 2532 2386 2528 2418 2499 3355 2692 3298 2815 2994 2812 2519 2757 2919 2955 2957 2964 2537 3336 2941 2565 2109 3400 2483 2378 3221 2859 2467 2160 2350 2844 2758 2743 2756 2453 3086 2365 2723 2652 3285 2539 3126 2104 2885 2683 2445 2185 2216 2043 2695 2415 2181 2722 2201 2223 2101 2188 2323 2345 2491 2905 2466 2464 2249 2747 2645 2558 2323 2574 3219 2738 2577 2128 2747 2241 2617 2066 2609 2162 2262 2609 1772 2143 2268 2603 1550 1627 1385 1164 1583 1484 1580 1983 2530 2447 2403 2495 2579 2761 2249 2410 2549 2557 2459 2258 2157 2266 2452 1896 2509 2186 2432 2231 1723 1752 2725 2180 2003 1375 1902 1441 2654 2220 2795 2145 2166 2246 1856 2134 2115 2610 2779 2420 2193 2524 2043 2473 2657 2393 2239 2227 2285 2052 1853 1851

Tree=0
num_leaves=37
num_cat=0
split_feature=49 0 45 45 45 65 53 23 9 5 49 9 28 15 23 0 59 92 165 77 7 61 48 4 130 49 45 183 49 23 99 23 45 45 5 9
split_gain=115.854 35.249 18.5473 13.6584 11.4774 4.76122 6.10436 4.74527 3.06673 3.67514 2.05383 3.56807 1.99402 1.71373 1.51205 1.44488 1.11393 1.10618 1.68878 0.922219 1.10725 0.788221 0.525876 0.417987 0.373998 0.611874 0.209985 0.209894 0.125101 0.0858533 0.4551 0.485063 0.0640828 0.0998163 0.0135308 0.00553451
threshold=0.75981271566390862 -0.26120158890365985 -0.63200465714466558 0.51902654066140086 0.23126874120988414 1.3438393473625185 0.68545442402034185 -1.4411053949666759 1.9648414069144964 0.18539165704478433 -0.073339100298177667 0.38203761197982994 -0.052505021814439189 -0.37588478034185097 1.7373941480912933 0.57814785014840342 0.11152888642443588 1.1081437289714815 1.2087294995784761 1.7481952309608462 -1.1131631420353232 0.22163048497083127 -0.36115964492474328 0.015829591281516221 0.90401270389556898 0.2043781716891844 1.2863806725321119 0.64664558321237575 0.34323680768286546 0.86056668793737068 1.1285376906394962 -0.929622709876888 -0.82384319011234342 -1.0000000180025095e-35 -0.67745510367443973 -0.4972978296505402
decision_type=2 2 2 2 2 2 2 2 2 2 2 2 2 2 2 2 2 2 2 2 2 2 2 2 2 2 2 2 2 2 2 2 2 2 2 2
left_child=1 3 29 8 10 6 13 -4 9 14 11 15 -9 -6 24 21 -12 -18 23 20 -14 -3 34 -19 25 -1 -24 -28 -27 30 -2 -32 -13 -34 -5 -29
right_child=2 4 7 22 5 -7 -8 12 -10 -11 16 32 19 -15 -16 -17 17 18 -20 -21 -22 -23 26 -25 -26 28 27 35 -30 -31 31 -33 33 -35 -36 -37
leaf_value=0.56137787607067891 0.57998171846435098 0.56525252323562769 0.57998171846435098 0.57534519120817096 0.57998171846435098 0.57998171846435098 0.57998171846435098 0.57998171846435098 0.57998171846435098 0.57998171846435098 0.57998171846435098 0.57998171846435098 0.57998171846435098 0.61021269003468992 0.57998171846435098 0.57998171846435098 0.57998171846435098 0.57998171846435098 0.57998171846435098 0.57998171846435098 0.61084576950661007 0.57998171846435098 0.57998171846435098 0.59659179225175085 0.57998171846435098 0.57998171846435098 0.57998171846435098 0.57998171846435098 0.57630326604355242 0.57998171846435098 0.57998171846435098 0.58604729408349565 0.5834392983634975 0.57998171846435098 0.57998171846435098 0.58675402697969425
leaf_weight=507 12.999999999999998 77 17 48 13.999999999999998 36 41 12.999999999999998 15.999999999999998 22 40 14.999999999999998 12.999999999999998 59 14.999999999999998 45 12.999999999999998 12.999999999999998 18 12.999999999999998 259 20 59 34 13.999999999999998 22 12.999999999999998 13.999999999999998 52 15.999999999999998 12.999999999999998 59 29 12.999999999999998 12.999999999999998 22
leaf_count=507 13 77 17 48 14 36 41 13 16 22 40 15 13 59 15 45 13 13 18 13 259 20 59 34 14 22 13 14 52 16 13 59 29 13 13 22
internal_value=0.579982 0.573365 0.601292 0.567491 0.582656 0.593475 0.59809 0.606895 0.564448 0.563929 0.578987 0.575263 0.608255 0.60623 0.563257 0.570796 0.58137 0.585738 0.588686 0.609147 0.609956 0.567531 0.579982 0.593427 0.562889 0.562645 0.580988 0.583343 0.577546 0.579982 0.581444 0.583969 0.579982 0.581778 0.575926 0.585246
internal_weight=0 1284 416 817 467 150 114 315 648 632 317 199 298 73 610 142 118 78 65 285 272 97 169 47 595 581 108 49 74 101 85 72 57 42 61 36
internal_count=1700 1284 416 817 467 150 114 315 648 632 317 199 298 73 610 142 118 78 65 285 272 97 169 47 595 581 108 49 74 101 85 72 57 42 61 36
is_linear=0
shrinkage=1


Tree=1
num_leaves=33
num_cat=0
split_feature=49 0 45 45 45 23 53 67 9 5 49 9 28 23 0 15 59 44 39 61 77 7 50 48 45 183 78 45 20 45 5 153
split_gain=105.926 32.3057 16.9667 12.4528 10.5818 4.28441 4.11509 4.21713 2.85341 3.39906 1.83528 3.33094 1.6936 1.3621 1.28806 1.05622 1.00807 1.10095 0.759022 0.679328 0.651859 0.809748 0.622699 0.481135 0.194977 0.197731 0.0674655 0.0564897 0.430896 0.0170905 0.0359891 0.000891923
threshold=0.75981271566390862 -0.26120158890365985 -0.63200465714466558 0.51902654066140086 0.23126874120988414 -1.4411053949666759 0.68545442402034185 1.1143691539764407 1.9648414069144964 0.18539165704478433 -0.073339100298177667 0.38203761197982994 -0.052505021814439189 1.7373941480912933 0.57814785014840342 -0.37588478034185097 0.11152888642443588 -0.22272260597943946 0.043002094501367438 0.22163048497083127 1.7481952309608462 -1.1131631420353232 1.2860835164268984 -0.36115964492474328 1.2863806725321119 0.64664558321237575 1.8615268826484683 -0.82384319011234342 -1.0000000180025095e-35 2.1496540708866618 -0.72570271188110624 1.237900918722153
decision_type=2 2 2 2 2 2 2 2 2 2 2 2 2 2 2 2 2 2 2 2 2 2 2 2 2 2 2 2 2 2 2 2
left_child=1 3 26 8 10 -4 7 15 9 13 11 14 -7 22 19 -6 -12 -18 -19 -3 21 -14 -1 29 -25 -26 31 -13 -29 30 -5 -2
right_child=2 4 5 23 6 12 -8 -9 -10 -11 16 27 20 -15 -16 -17 17 18 -20 -21 -22 -23 -24 24 25 -27 -28 28 -30 -31 -32 -33
leaf_value=-0.016598245444321306 0 -0.014051739927422395 0 -0.0054357552998272295 0 0 0 0 0 0 0 0 0 0 0 0.026941243741151269 0 0.012802380348500125 0 0 0 0.029444358750736522 0 0 0 0.005073498327246774 0.0020193084431729702 0 0.006067890533163308 0 0 -0.00026937128029984266
leaf_weight=582 40 77 17 35 13.999999999999998 12.999999999999998 51 23 15.999999999999998 22 40 14.999999999999998 12.999999999999998 14.999999999999998 45 62 25 38 14.999999999999998 20 12.999999999999998 259 12.999999999999998 59 12.999999999999998 36 35 13.999999999999998 28 12.999999999999998 12.999999999999998 26
leaf_count=582 40 77 17 35 14 13 51 23 16 22 40 15 13 15 45 62 25 38 15 20 13 259 13 59 13 36 35 14 28 13 13 26
internal_value=0 -0.0063165 0.0203872 -0.0119445 0.00254463 0.0257463 0.0129463 0.0184902 -0.0148507 -0.0153519 -0.000926511 -0.00448015 0.027039 -0.0159991 -0.00881818 0.0237221 0.00116838 0.00542299 0.00933942 -0.0119133 0.0278753 0.0286223 -0.0163483 0 0.000942479 0.00322113 0 0 0.00168681 -0.00388774 -0.00446772 0
internal_weight=0 1284 416 817 467 315 150 99 648 632 317 199 298 610 142 76 118 78 53 97 285 272 595 169 108 49 101 57 42 61 48 66
internal_count=1700 1284 416 817 467 315 150 99 648 632 317 199 298 610 142 76 118 78 53 97 285 272 595 169 108 49 101 57 42 61 48 66
is_linear=0
shrinkage=0.046


Tree=2
num_leaves=38
num_cat=0
split_feature=49 0 45 45 45 6 37 65 39 9 28 25 48 49 9 23 0 7 4 96 115 53 48 76 54 50 126 154 154 148 134 2 21 153 7 45 20
split_gain=96.9941 29.5229 15.2887 11.2658 9.77796 4.28254 4.39219 4.19127 4.98389 2.64656 2.61972 2.43921 2.38373 1.65566 3.09783 1.19825 1.14628 1.04169 0.888711 1.39271 1.73259 0.967257 0.442394 0.554496 0.254834 0.219227 0.272625 0.18948 0.0958682 0.0757082 0.0667908 0.0637745 0.377193 0.651895 0.0460013 0.0447164 0.398877
threshold=0.75981271566390862 -0.26120158890365985 -0.63200465714466558 0.51902654066140086 0.23126874120988414 0.21952756017100714 1.1090170746603953 1.3438393473625185 -0.0016523275837714007 1.9648414069144964 -0.051809550077689157 -1.3395185489035919 0.31673121892607381 -0.073339100298177667 0.38203761197982994 1.7373941480912933 0.57814785014840342 1.5321602362128208 -0.27523651828238999 1.3544812560081485 1.3505037844181065 0.33680052088405615 -0.36115964492474328 2.3709197521209719 1.0316548575201112 1.0381227057879523 0.90026901364326484 0.8407947659492494 0.7086945861577989 0.7824406236410143 0.99394924640655524 0.31540274927939121 0.54106610290907342 1.0533446550369265 0.50342336689409806 -0.82384319011234342 -1.0000000180025095e-35
decision_type=2 2 2 2 2 2 2 2 2 2 2 2 2 2 2 2 2 2 2 2 2 2 2 2 2 2 2 2 2 2 2 2 2 2 2 2 2
left_child=1 3 31 9 13 6 10 8 -6 12 -4 -12 15 14 16 17 24 25 -15 20 -20 -22 29 27 -3 26 -1 28 -24 -5 -25 32 33 -2 -7 -16 -37
right_child=2 4 5 22 7 34 -8 -9 -10 -11 11 -13 -14 18 35 -17 -18 -19 19 -21 21 -23 23 30 -26 -27 -28 -29 -30 -31 -32 -33 -34 -35 -36 36 -38
leaf_value=-0.016638198607977602 0 -0.013065992602433898 0 0 0 0.0017171976458697708 0 0 0.024157438119328717 0 0 0.032934352257446571 0 0 0 0 0 0 0 0 0 0.01611757382507064 0 0.0081496036007312391 0 0 0 -0.0037834108046062159 0.0026911547123555919 -0.0052382966709343106 0 0 0 0.0066680240278128499 0 0 0.0057888671888789295
leaf_weight=529 13.999999999999998 77 12.999999999999998 24 41 33 39 36 73 15.999999999999998 13.999999999999998 203 20 15.999999999999998 14.999999999999998 14.999999999999998 45 17 15.999999999999998 25 20 41 17 21 20 17 34 28 28 37 13.999999999999998 21 13.999999999999998 52 12.999999999999998 13.999999999999998 28
leaf_count=529 14 77 13 24 41 33 39 36 73 16 14 203 20 16 15 15 45 17 16 25 20 41 17 21 20 17 34 28 28 37 14 21 14 52 13 14 28
internal_value=0 -0.00601474 0.0195369 -0.0114002 0.00242202 0.0246327 0.0272803 0.0124341 0.0167695 -0.014165 0.0301796 0.0314788 -0.0146488 -0.000864755 -0.00426933 -0.0151605 -0.0084677 -0.0154875 0.000978752 0.00442072 0.00800965 0.0118773 0 0.000864693 -0.0114002 -0.0158333 -0.0160962 0 0 -0.0037443 0.00598501 0 0.0012987 0.00375973 0 0 0.00150077
internal_weight=0 1284 416 817 467 315 269 150 114 648 230 217 632 317 199 612 142 597 118 102 77 61 169 108 97 580 563 73 45 61 35 101 80 66 46 57 42
internal_count=1700 1284 416 817 467 315 269 150 114 648 230 217 632 317 199 612 142 597 118 102 77 61 169 108 97 580 563 73 45 61 35 101 80 66 46 57 42
is_linear=0
shrinkage=0.046


Tree=3
num_leaves=33
num_cat=0
split_feature=49 4 45 45 45 5 53 49 9 23 9 23 39 44 9 96 7 86 154 7 19 130 105 4 44 78 32 49 78 65 67 153
split_gain=89.2321 25.7124 14.113 10.8751 9.27926 6.13173 4.88579 4.18712 6.34149 3.77249 3.12068 3.01064 1.27428 1.43068 1.27137 2.53424 1.22772 1.42648 0.785305 0.735723 0.780975 0.358144 0.441328 0.228719 0.48438 0.158439 0.120001 0.109967 0.0482343 0.0260506 0.559645 0.00206922
threshold=0.75981271566390862 -0.38095708221594665 -0.63200465714466558 1.2863806725321119 0.23126874120988414 1.0000000180025095e-35 0.68545442402034185 -0.28162705428869922 0.44065997475518792 -1.4411053949666759 1.5544848674869902 1.7373941480912933 0.023091975978631468 -1.2562696764235106 0.088925798103039841 1.3544812560081485 -1.1131631420353232 2.0810183405876166 1.1464036703109743 1.6056414411641582 0.80128537858129023 0.59906397163867964 1.2536283969879152 0.91378526722349773 0.40250957243734459 1.5266453981399539 0.0023543932173912658 0.27380748968602497 1.8615268826484683 1.3422620058059695 0.92698335051536573 1.237900918722153
decision_type=2 2 2 2 2 2 2 2 2 2 2 2 2 2 2 2 2 2 2 2 2 2 2 2 2 2 2 2 2 2 2 2
left_child=1 3 28 10 7 29 -7 8 12 -4 11 18 13 -3 15 25 -11 -18 19 20 -1 -5 -23 24 -10 -9 27 -16 31 30 -6 -2
right_child=2 4 9 21 5 6 -8 14 23 16 -12 -13 -14 -15 26 -17 17 -19 -20 -21 -22 22 -24 -25 -26 -27 -28 -29 -30 -31 -32 -33
leaf_value=-0.016785144985937365 0 0 0 0 0 0.023229374190484511 0 0 0.0068861510565121301 0 0 0 0 -0.012804261178073132 0 0 0.026809957680713589 0 0 0 0 0.0080647209432206674 0 0 0 0.01322559122162628 0 -0.0044109809212758986 0.0017074167626273868 0 0.0052473404862514684 -0.00041028990831708782
leaf_weight=489 40 12.999999999999998 17 14.999999999999998 24 73 18 20 33 14.999999999999998 22 18 23 191 17 28 264 19 12.999999999999998 12.999999999999998 24 26 23 19 12.999999999999998 49 15.999999999999998 25 35 34 45 26
leaf_count=489 40 13 17 15 24 73 18 20 33 15 22 18 23 191 17 28 264 19 13 13 24 26 23 19 13 49 16 25 35 34 45 26
internal_value=0 -0.00575413 0.0187531 -0.012277 7.15771e-05 0.00910494 0.0178686 -0.00282 -0.00647164 0.0236481 -0.0143919 -0.015072 -0.0106177 -0.0117755 0.00109165 0.00544385 0.0248581 0.0256876 -0.0157025 -0.0159944 -0.0162892 0 0.00393228 0.000931325 0.003427 0.0109254 0 -0.00245852 0 0 0.000893739 0
internal_weight=0 1284 416 643 641 194 91 447 292 315 579 557 227 204 155 97 298 283 539 526 513 64 49 65 46 69 58 42 101 103 69 66
internal_count=1700 1284 416 643 641 194 91 447 292 315 579 557 227 204 155 97 298 283 539 526 513 64 49 65 46 69 58 42 101 103 69 66
is_linear=0
shrinkage=0.046


Tree=4
num_leaves=35
num_cat=0
split_feature=0 49 45 49 2 13 45 34 5 13 9 45 1 13 135 13 67 39 4 175 9 72 111 84 52 58 82 45 8 9 67 50 50 12
split_gain=78.5455 25.4705 16.5865 7.80571 4.83508 4.24629 4.01597 2.75905 1.95439 1.71483 1.59948 3.21146 2.26791 2.57799 1.18627 0.999823 0.910967 0.829582 0.812524 0.914677 0.85434 0.523178 1.25371 0.483416 0.453959 0.310378 0.262494 0.247942 0.218554 0.213563 0.217732 0.2103 0.181741 0.0175402
threshold=-0.26120158890365985 1.0000000180025095e-35 -0.63200465714466558 -0.55934432627606123 0.67354893683505934 -0.40318456418999765 2.3414926038543395 -0.3445755314046941 -0.67745510367443973 -0.064351933698077762 0.20617052365375585 1.0000000180025095e-35 1.0000000180025095e-35 -0.14906009132105771 1.7579372048377992 2.900433583106222 1.1178870558738712 -0.039640602949263463 0.24466777397313869 1.9748275279998782 -1.6111227223823421 1.3590558290481569 1.3277629822492603 0.26798344105482108 -0.060667878532038443 0.31540928478628633 1.7232565283775332 -1.0000000180025095e-35 -0.51945339130488077 0.96826123973341005 0.4571495801210404 0.97371025236324671 -0.053774735701328104 -0.6827096223165634
decision_type=2 2 2 2 2 2 2 2 2 2 2 2 2 2 2 2 2 2 2 2 2 2 2 2 2 2 2 2 2 2 2 2 2 2
left_child=3 10 21 6 5 -4 18 -7 23 27 11 24 13 -12 -11 17 -15 -9 19 20 -1 22 -3 32 -2 28 -23 -10 -13 30 -22 -24 -5 -19
right_child=1 2 4 8 -6 7 -8 15 9 14 12 25 -14 16 -16 -17 -18 33 -20 -21 29 26 31 -25 -26 -27 -28 -29 -30 -31 -32 -33 -34 -35
leaf_value=0 0 0 0 0 0 0 0 0 -0.0037659628506012781 0.011228805615290631 0 0 0 0.018414021775188229 0 0 0 0 0 0 0 -0.0040412379972586312 0 0 -0.010781379336708048 0 0 0 0.00542659755914784 0 -0.015541961320903668 0.012252385722275759 -0.0082738346833495513 0.026992194852965602
leaf_weight=18 47 32 39 13.999999999999998 15.999999999999998 13.999999999999998 15.999999999999998 26 43 48 12.999999999999998 14.999999999999998 27 41 18 13.999999999999998 20 12.999999999999998 13.999999999999998 25 12.999999999999998 34 19 17 81 20 25 48 38 34 454 28 87 282
leaf_count=18 47 32 39 14 16 14 16 26 43 48 13 15 27 41 18 14 20 13 14 25 13 34 19 17 81 20 25 48 38 34 454 28 87 282
internal_value=0 0.0101826 0.0161522 -0.00962733 0.0209017 0.0219377 -0.0128508 0.0236809 -0.0012261 0 0 -0.00287418 0.00413127 0.00938803 0.00732648 0.0245285 0.0140117 0.0251889 -0.0136054 -0.0138936 -0.0143548 0 0.00374319 -0.00620861 -0.00812751 3.64745e-05 0 -0.000968371 0.00352011 -0.0147333 -0.0152919 0.00894319 -0.00742705 0.0263884
internal_weight=0 844 542 849 404 388 574 349 275 157 302 201 101 74 66 335 61 321 558 544 519 138 79 118 128 73 59 91 53 501 467 47 101 295
internal_count=1693 844 542 849 404 388 574 349 275 157 302 201 101 74 66 335 61 321 558 544 519 138 79 118 128 73 59 91 53 501 467 47 101 295
is_linear=0
shrinkage=0.046


Tree=5
num_leaves=36
num_cat=0
split_feature=0 49 45 49 2 13 45 15 34 0 109 5 39 13 45 9 1 3 135 25 45 4 147 9 52 72 111 84 45 67 34 111 140 3 25
split_gain=72.0872 23.5698 12.7984 6.96467 3.83514 3.88639 3.78696 2.33878 1.84562 2.01688 1.81246 1.78232 1.69272 1.54101 1.35809 2.30481 1.93581 2.16609 1.09648 0.752503 0.748045 0.726417 1.17396 0.735428 0.70472 0.556616 1.5283 0.446022 0.228566 0.218255 0.174538 0.16029 0.111094 0.0721761 0.0136358
threshold=-0.26120158890365985 0.065519535695503367 -0.63200465714466558 -0.55934432627606123 0.67354893683505934 -0.91143350992787742 2.3414926038543395 -0.71756147909917323 -0.3293105966245537 1.9770635819018421 0.52375212311744701 -0.67745510367443973 -0.038919072163174966 -0.064351933698077762 0.13534947472604528 0.20617052365375585 1.0000000180025095e-35 -0.18189718661541313 1.7579372048377992 0.16639494533005231 -0.15240832472547133 0.24466777397313869 1.4973512649536136 -1.6111227223823421 -0.060667878532038443 1.3590558290481569 1.3277629822492603 0.26798344105482108 -1.0000000180025095e-35 0.96473506093025219 -0.29505083349808475 0.79990246891975414 2.003639435768128 -0.31548864299868812 -0.40250570804710228
decision_type=2 2 2 2 2 2 2 2 2 2 2 2 2 2 2 2 2 2 2 2 2 2 2 2 2 2 2 2 2 2 2 2 2 2 2
left_child=3 14 25 6 5 -4 21 34 -9 10 -10 27 -12 28 15 20 17 -16 -15 29 24 22 23 -1 -2 26 -3 30 -13 -17 -5 -25 -27 -32 -7
right_child=1 2 4 11 -6 7 -8 8 9 -11 12 13 -14 18 16 19 -18 -19 -20 -21 -22 -23 -24 31 -26 32 -28 -29 -30 -31 33 -33 -34 -35 -36
leaf_value=0 0 0 0 0 0 0 0 0 0 0 0 -0.0035927688692980273 0.028378518109677526 0.010712387982171617 0 0 0 0.017526977408174039 0 0 0 0 0 0 -0.010862535602288411 -0.0025550042480536549 0.010012134629957949 0 0 0.0081717778236317807 -0.0091521447816013905 -0.014414417247521391 0 0 0.0012319917806758809
leaf_weight=18 47 31 13.999999999999998 21 13.999999999999998 13.999999999999998 15.999999999999998 13.999999999999998 14.999999999999998 33 23 43 241 48 26 12.999999999999998 44 35 18 31 28 13.999999999999998 18 24 74 36 44 17 48 31 67 484 17 12.999999999999998 19
leaf_count=18 47 31 14 21 14 14 16 14 15 33 23 43 241 48 26 13 44 35 18 31 28 14 18 24 74 36 44 17 48 31 67 484 17 13 19
internal_value=0 0.00975175 0.0158961 -0.00922645 0.0201553 0.0210532 -0.0122854 0.021987 0.0233997 0.0241791 0.0258664 -0.00116876 0.0268629 0 0 -0.00188792 0.00444553 0.0100576 0.00695088 0.000471282 -0.00616243 -0.0130238 -0.013297 -0.0136961 -0.00773582 0 0.00396256 -0.00592803 -0.000886522 0.0060464 -0.00709924 -0.0140461 0 -0.00826095 0
internal_weight=0 844 515 849 387 373 574 359 326 312 279 275 264 157 329 224 105 61 66 75 149 558 544 526 121 128 75 118 91 44 101 508 53 80 33
internal_count=1693 844 515 849 387 373 574 359 326 312 279 275 264 157 329 224 105 61 66 75 149 558 544 526 121 128 75 118 91 44 101 508 53 80 33
is_linear=0
shrinkage=0.046


Tree=6
num_leaves=37
num_cat=0
split_feature=0 49 45 45 2 19 49 13 29 4 9 45 1 13 48 5 172 4 92 130 126 5 48 121 109 63 111 3 58 9 126 126 82 35 4 90
split_gain=66.227 21.7935 14.063 6.77922 4.20384 3.82599 3.47655 1.52931 1.51255 1.37688 1.26955 2.78409 2.0037 2.36649 2.40533 0.970665 0.707023 0.907115 0.666713 0.603276 0.562165 0.5559 0.350297 0.272937 0.272015 0.255199 0.832976 0.67951 0.235714 0.202013 0.148425 0.10021 0.0842636 0.0770346 0.0341334 0.00593397
threshold=-0.26120158890365985 1.0000000180025095e-35 -0.63200465714466558 0.51902654066140086 0.67354893683505934 -0.68750238609775194 0.2043781716891844 -0.48789272181297755 -0.69836355347017609 1.9308438569640438 0.20617052365375585 1.0000000180025095e-35 1.0000000180025095e-35 -0.14906009132105771 1.3596213962404691 -0.67745510367443973 0.77486626505851752 -0.78242757816616193 1.1957529604434969 0.79548561275005347 0.7852100849151612 -0.20171124600870385 -0.11056371738183275 0.81269481182098402 0.99973151087760936 1.9679665446281436 1.2951852291822437 -0.18189718661541313 0.31540928478628633 -0.14556365299839216 0.7261186778545381 0.88590676188468942 1.7232565283775332 0.40192974964105949 -0.27523651828238999 0.84513074159622203
decision_type=2 2 2 2 2 2 2 2 2 2 2 2 2 2 2 2 2 2 2 2 2 2 2 2 2 2 2 2 2 2 2 2 2 2 2 2
left_child=3 10 25 6 5 24 19 -7 -9 -10 11 22 13 -12 -15 18 17 -17 -5 31 -21 -22 -2 -20 -4 26 -3 -28 29 35 34 -1 -27 -24 -8 -13
right_child=1 2 4 15 -6 7 30 8 9 -11 12 28 -14 14 -16 16 -18 -19 23 20 21 -23 33 -25 -26 32 27 -29 -30 -31 -32 -33 -34 -35 -36 -37
leaf_value=-0.013899498369103593 0 0 0.0050014464998183071 0 0 0 -0.0027253064495443126 0 0.024987674457570948 0 0 0 0 0.018633932024869515 0 0 0 0.0079082174753286934 -0.0085339952637924713 0 -0.0076037943348655525 0 -0.0093838892051217732 0 0 -0.0023601254460514434 0 0.0097920201063706191 0 0 0 0 0 0 0 0.0061266990482020693
leaf_weight=463 22 29 23 12.999999999999998 15.999999999999998 15.999999999999998 52 12.999999999999998 282 23 12.999999999999998 12.999999999999998 27 45 15.999999999999998 15.999999999999998 26 61 50 27 41 12.999999999999998 93 12.999999999999998 31 32 12.999999999999998 39 20 14.999999999999998 37 15.999999999999998 25 12.999999999999998 21 25
leaf_count=463 22 29 23 13 16 16 52 13 282 23 13 13 27 45 16 16 26 61 50 27 41 13 93 13 31 32 13 39 20 15 37 16 25 13 21 25
internal_value=0 0.00935529 0.0148785 -0.00883472 0.019252 0.02022 -0.0109688 0.0223424 0.0231187 0.0238275 0 -0.00263423 0.00357577 0.00864511 0.013143 0 0.00197067 0.00496201 -0.00466463 -0.0125333 -0.000255261 -0.00470342 -0.00754435 -0.00697406 0 0 0.00258183 0.00665371 0 0.00306741 0 -0.0136492 0 -0.0087018 -0.00207405 0.0049364
internal_weight=0 844 542 849 404 388 670 334 318 305 302 201 101 74 61 179 103 77 76 560 81 54 128 63 54 138 81 52 73 53 110 479 57 106 73 38
internal_count=1693 844 542 849 404 388 670 334 318 305 302 201 101 74 61 179 103 77 76 560 81 54 128 63 54 138 81 52 73 53 110 479 57 106 73 38
is_linear=0
shrinkage=0.046


Tree=7
num_leaves=35
num_cat=0
split_feature=0 49 45 45 50 9 50 1 34 31 4 5 45 9 1 61 45 4 5 9 45 172 4 92 25 52 9 126 130 5 15 121 67 2
split_gain=60.6394 20.0853 11.0207 6.13446 5.44053 3.34041 3.24686 2.98026 3.30528 3.7024 1.97749 1.36902 1.09941 1.9424 1.73381 1.62587 1.28239 0.98871 0.847447 0.762872 0.671932 0.645045 0.846114 0.624362 0.581606 0.577085 0.507409 0.676455 0.739744 0.493929 0.477468 0.244748 0.191119 0.00100983
threshold=-0.26120158890365985 0.065519535695503367 -0.056489058241632487 0.51902654066140086 -0.027269741479129868 -0.84903200630268827 0.95504943537170994 1.0000000180025095e-35 0.34615413338377549 -0.0095004142646831474 1.4658071991550441 -0.40704409023707572 0.13534947472604528 0.20617052365375585 1.0000000180025095e-35 0.22293924740350937 1.0945421395644341 1.9308438569640438 -0.67745510367443973 0.96826123973341005 -0.15240832472547133 0.77486626505851752 -0.78242757816616193 1.1957529604434969 0.16639494533005231 -0.060667878532038443 -1.6111227223823421 0.88590676188468942 0.8507784068584443 0.13826608623827272 -0.66215444686825597 0.81269481182098402 0.96473506093025219 -1.0000000180025095e-35
decision_type=2 2 2 2 2 2 2 2 2 2 2 2 2 2 2 2 2 2 2 2 2 2 2 2 2 2 2 2 2 2 2 2 2 2
left_child=3 12 7 6 -4 -6 19 8 9 -3 30 -7 13 20 15 16 -14 -13 23 26 25 22 -20 -5 32 -2 -1 28 29 -28 -11 -25 -15 -9
right_child=1 2 4 18 5 11 -8 33 -10 10 -12 17 14 24 -16 -17 -18 -19 21 -21 -22 -23 -24 31 -26 -27 27 -29 -30 -31 -32 -33 -34 -35
leaf_value=0 0 0 0 0 0 0 0 0 0 0 0 0.027775561346634128 0.020225111847049802 0 0 0 0 0 0 0 0 0 0.007544499175545818 -0.0081415095452760794 0 -0.010029264589110479 -0.013342458012876039 0 0 0 0.020361114789256413 0 0.0072613850346460373 -0.00019532149869445136
leaf_weight=24 47 26 18 12.999999999999998 17 14.999999999999998 53 33 24 13.999999999999998 18 195 28 12.999999999999998 44 14.999999999999998 18 20 15.999999999999998 35 28 26 61 50 31 74 491 41 12.999999999999998 12.999999999999998 79 12.999999999999998 31 56
leaf_count=24 47 26 18 13 17 15 53 33 24 14 18 195 28 13 44 15 18 20 16 35 28 26 61 50 31 74 491 41 13 13 79 13 31 56
internal_value=0 0.00894179 0.0146136 -0.00846449 0.0218807 0.0236698 -0.0104958 0.00506996 0.00889268 0.0119991 0.0157567 0.0251475 0 -0.00175677 0.00394588 0.00932376 0.0137858 0.0262676 0 -0.011435 -0.00567648 0.00175525 0.00467386 -0.0044064 0 -0.00717131 -0.0118911 -0.0122231 -0.012807 -0.0130903 0.0184746 -0.00666255 0.00528806 0
internal_weight=0 844 515 849 265 247 670 250 161 137 111 230 329 224 105 61 46 215 179 617 149 103 77 76 75 121 582 558 517 504 93 63 44 89
internal_count=1693 844 515 849 265 247 670 250 161 137 111 230 329 224 105 61 46 215 179 617 149 103 77 76 75 121 582 558 517 504 93 63 44 89
is_linear=0
shrinkage=0.046


Tree=8
num_leaves=33
num_cat=0
split_feature=0 45 48 13 45 2 19 8 84 0 149 49 8 28 45 53 45 7 147 27 15 9 59 51 148 112 3 19 50 3 3 7
split_gain=53.0472 11.3524 9.57402 7.75841 7.67002 5.02171 2.91573 3.58529 2.76491 3.33066 2.50594 2.417 2.09145 1.69651 2.48551 1.92871 1.16198 0.868121 0.702451 0.394256 0.254549 0.141537 0.118153 0.109974 0.423956 0.0954903 0.0961028 0.0543326 0.0577701 0.0021907 0.0657946 0.0497389
threshold=1.0000000180025095e-35 -0.63200465714466558 0.035280819708227058 -0.23376824894403769 1.4782192054997896 0.67354893683505934 -0.68750238609775194 -1.2513627879576559 0.082855836988892415 1.9770635819018421 1.6558873653411867 0.27380748968602497 1.3835110399923349 -0.015337229634181953 -0.91976245659618228 0.93296742566988511 0.80678434011291744 1.5321602362128208 1.3171758651733401 0.8254486411710158 -0.5513403824064218 -0.61454255520125611 0.040164516576899213 0.016171934065451091 0.91844759285449995 0.74029485583305366 0.83263467013577486 1.0719740630683889 0.82891364207204854 -0.012737037624036001 -0.86858743138145555 -0.74575711727863658
decision_type=2 2 2 2 2 2 2 2 2 2 2 2 2 2 2 2 2 2 2 2 2 2 2 2 2 2 2 2 2 2 2 2
left_child=2 23 4 -3 11 6 20 -8 -9 10 12 17 18 16 -15 -16 19 27 -10 -4 -5 -6 -23 25 -25 -2 -27 28 -1 30 -13 -32
right_child=1 3 13 5 21 -7 7 8 9 -11 -12 29 -14 14 15 -17 -18 -19 -20 -21 -22 22 -24 24 -26 26 -28 -29 -30 -31 31 -33
leaf_value=-0.012839864507940552 0 0 -0.0068932686199241529 0 0 0 0 0 0.02721738652688406 0 0 0 0 0 0.012832352955033004 0 0 0 0 0 0.0041020465386878398 0 0.0041491652831030209 -0.0051382288283548083 0 0.0022387869665726761 0 0 0 0 0 -0.002464595873801774
leaf_weight=569 15.999999999999998 60 78 17 14.999999999999998 22 37 23 204 27 22 24 13.999999999999998 13.999999999999998 76 12.999999999999998 27 33 15.999999999999998 12.999999999999998 32 19 32 42 12.999999999999998 85 14.999999999999998 25 14.999999999999998 13.999999999999998 13.999999999999998 41
leaf_count=569 16 60 78 17 15 22 37 23 204 27 22 24 14 14 76 13 27 33 16 13 32 19 32 42 13 85 15 25 15 14 14 41
internal_value=0 0.00981958 -0.0070038 0.0134865 -0.00937435 0.0157448 0.0169976 0.0186595 0.0203732 0.0216673 0.0233777 -0.0108558 0.0249109 0 0.00555266 0.00973492 -0.00187259 -0.0119535 0.0260798 -0.00561811 0 0.000154089 0.0024294 0 -0.00196327 0.00042214 0.00149234 -0.0123953 -0.0126656 0 -0.000242219 -0.00161713
internal_weight=0 645 1022 474 801 414 392 343 306 283 256 735 234 221 103 89 118 642 220 91 49 66 51 171 55 116 100 609 584 93 79 55
internal_count=1667 645 1022 474 801 414 392 343 306 283 256 735 234 221 103 89 118 642 220 91 49 66 51 171 55 116 100 609 584 93 79 55
is_linear=0
shrinkage=0.046


Tree=9
num_leaves=30
num_cat=0
split_feature=49 4 45 45 15 48 45 41 74 8 3 54 49 148 43 3 23 149 57 7 47 31 7 29 19 48 130 5 20
split_gain=44.8089 15.3534 7.28403 5.46907 5.83396 5.03641 5.8051 4.02165 3.32716 2.69694 2.41289 2.24816 3.42298 3.7156 1.95776 1.4885 1.45992 1.40182 1.28503 1.62631 1.11339 1.02301 0.993115 0.693631 0.606159 0.280183 0.0404168 0.347282 0.0270322
threshold=0.75981271566390862 -0.32274386030316554 1.2863806725321119 -0.82384319011234342 -0.71756147909917323 0.058053872412321135 -0.53608539066082672 -0.059619138495320766 0.78112378716468822 -1.3245537276229336 -0.8283673217838694 1.1604157512547535 0.86395669265916941 1.0611705839633945 0.46094272327384483 -0.42454887347834513 1.8250768941066855 1.7472410440444948 0.26776788334878404 0.87082939165078466 -0.51208804577715583 0.041636339627155718 1.6056414411641582 1.5281837679538623 1.2073184053119383 1.1762522064451921 0.59906397163867964 -0.75711975908544737 -1.0000000180025095e-35
decision_type=2 2 2 2 2 2 2 2 2 2 2 2 2 2 2 2 2 2 2 2 2 2 2 2 2 2 2 2 2
left_child=1 2 16 -2 -5 10 18 -8 -9 -6 -3 12 -11 -14 15 -10 17 21 19 25 -12 22 24 -17 -1 -7 -4 -28 -20
right_child=3 5 26 4 9 6 7 8 14 11 20 -13 13 -15 -16 23 -18 -19 28 -21 -22 -23 -24 -25 -26 -27 27 -29 -30
leaf_value=-0.013243029229043872 0 0 0 0 0 -0.010202420131670057 0 0 0 0 -0.0098679447115880177 0 0.02242756103869168 0 0 0.018603595323557147 0 0 0 0 0 0 0 0 0 0 0 0.0051434483500458813 0.0015766684462950569
leaf_weight=497 61 46 20 32 21 66 50 19 12.999999999999998 22 127 12.999999999999998 232 14.999999999999998 14.999999999999998 122 13.999999999999998 15.999999999999998 12.999999999999998 20 76 25 23 12.999999999999998 15.999999999999998 12.999999999999998 12.999999999999998 31 23
leaf_count=497 61 46 20 32 21 66 50 19 13 22 127 13 232 15 15 122 14 16 13 20 76 25 23 13 16 13 13 31 23
internal_value=0 -0.00466496 -0.00958262 0.0130279 0.0153354 0 0.00395848 0.00878773 0.0120496 0.0173422 -0.00443877 0.0185306 0.0194335 0.020991 0.0143285 0.0159405 -0.0113071 -0.011675 -0.00093357 -0.00535272 -0.0070226 -0.0120615 -0.0125022 0.0173752 -0.0129386 -0.00891399 0 0.001394 0
internal_weight=0 1271 655 396 335 616 367 232 182 303 249 282 269 247 163 148 591 577 135 99 203 561 536 135 513 79 64 44 36
internal_count=1667 1271 655 396 335 616 367 232 182 303 249 282 269 247 163 148 591 577 135 99 203 561 536 135 513 79 64 44 36
is_linear=0
shrinkage=0.046


Tree=10
num_leaves=34
num_cat=0
split_feature=0 45 45 50 19 50 45 2 25 8 48 130 84 168 15 8 130 5 8 45 34 182 80 9 23 15 140 48 147 23 148 99 107
split_gain=44.567 9.84379 8.34487 6.57479 3.97701 3.47122 3.29548 2.8782 2.60387 2.80148 2.13906 2.69391 2.47444 1.91356 1.91415 1.84403 1.7155 1.45507 1.42221 1.22832 1.10301 1.10215 0.881236 0.548886 0.487621 0.291615 1.00286 0.25654 0.253263 0.330777 0.0892156 0.0769303 0.0180808
threshold=1.0000000180025095e-35 -0.056489058241632487 0.51902654066140086 -0.027269741479129868 -1.0000000180025095e-35 1.4715338597373702 -0.82384319011234342 0.67354893683505934 -1.0048711057405597 1.3103201003270575 -0.26525830820354285 0.59906397163867964 0.20193672105669977 1.0007186532020571 -0.41282280182912906 -1.2513627879576559 0.90401270389556898 1.6934099228531549 0.43202882434372697 2.3414926038543395 -0.39705306171786925 1.2239268422126772 0.88205384612083448 -1.5525003596069842 -1.0976813064063895 -0.24660170513637766 1.8376670479774477 0.072070266976390865 1.516590440273285 1.7373941480912933 0.99652501940727245 0.9673434406518937 1.3942198038101199
decision_type=2 2 2 2 2 2 2 2 2 2 2 2 2 2 2 2 2 2 2 2 2 2 2 2 2 2 2 2 2 2 2 2 2
left_child=2 4 5 25 18 16 -6 13 -5 15 19 -12 -13 -8 -15 -10 20 -16 30 -4 -1 22 27 -24 -25 -3 32 31 29 -26 -2 -22 -27
right_child=1 3 10 8 6 -7 7 -9 9 -11 11 12 -14 14 17 -17 -18 -19 -20 -21 21 -23 23 24 28 26 -28 -29 -30 -31 -32 -33 -34
leaf_value=0 -0.0074226275529177847 0 -0.0072677390622106442 0 0 0 0 0 0 0 0 0.015014785614737895 0 0 0.020028145793489254 0.025381147559680239 0 0 0 0 -0.0038742806271932608 0 0 0 -0.012222413639938591 0 0 0 0 0 0 0 0.011233297825834524
leaf_weight=31 71 26 73 20 85 32 12.999999999999998 12.999999999999998 22 15.999999999999998 32 63 44 18 83 157 15.999999999999998 12.999999999999998 31 12.999999999999998 47 15.999999999999998 24 30 539 23 18 18 12.999999999999998 15.999999999999998 13.999999999999998 14.999999999999998 22
leaf_count=31 71 26 73 20 85 32 13 13 22 16 32 63 44 18 83 157 16 13 31 13 47 16 24 30 539 23 18 18 13 16 14 15 22
internal_value=0 0.00901493 -0.00640512 0.0153781 0.00199295 -0.00864652 0.00634394 0.0106997 0.019977 0.0216394 0 0.00484934 0.00915518 0.0131967 0.0151501 0.0233074 -0.00935366 0.017741 -0.00248111 -0.00382332 -0.00970599 -0.0100759 -0.0103518 -0.0111329 -0.0114393 0 0.00312938 0 -0.0118146 -0.0119925 -0.00661825 -0.00295872 0.00780101
internal_weight=0 645 1022 304 341 797 225 140 215 195 225 139 107 127 114 179 765 96 116 86 749 718 702 622 598 89 63 80 568 555 85 62 45
internal_count=1667 645 1022 304 341 797 225 140 215 195 225 139 107 127 114 179 765 96 116 86 749 718 702 622 598 89 63 80 568 555 85 62 45
is_linear=0
shrinkage=0.046


Tree=11
num_leaves=34
num_cat=0
split_feature=0 45 48 45 19 36 19 45 149 8 4 2 4 28 1 45 168 15 47 8 5 65 9 19 93 9 34 9 59 148 5 55 45
split_gain=40.7842 9.03762 7.69791 6.31504 4.06218 3.59398 3.57092 2.98812 2.93812 2.71797 3.73385 2.69975 1.81847 3.53205 2.52173 2.43765 1.77486 1.73144 1.50209 1.32829 1.29428 0.692645 0.577841 0.557362 0.497374 0.469334 0.430305 0.109256 0.0975313 0.0714288 0.0584123 0.0562611 0.380685
threshold=1.0000000180025095e-35 -0.056489058241632487 0.035280819708227058 1.4782192054997896 -0.68750238609775194 0.2578441862507122 -1.0000000180025095e-35 -0.82384319011234342 1.6632278442382815 -1.2513627879576559 0.037241351065527735 0.67354893683505934 -0.32274386030316554 -0.014750710634754227 1.0000000180025095e-35 -0.63200465714466558 1.0007186532020571 -0.41282280182912906 1.3148804914942753 0.43202882434372697 1.6934099228531549 0.83958241343498241 2.0234637696898545 1.0719740630683889 1.4428063154220585 -1.5525003596069842 -0.42796282784507661 -0.61454255520125611 0.040164516576899213 0.99652501940727245 -1.0000000180025095e-35 0.016975418634953627 0.51902654066140086
decision_type=2 2 2 2 2 2 2 2 2 2 2 2 2 2 2 2 2 2 2 2 2 2 2 2 2 2 2 2 2 2 2 2 2
left_child=2 6 3 18 -3 8 19 -8 9 -6 -11 16 24 31 15 -15 -9 -18 22 29 30 -12 23 25 -4 -1 -27 -5 -29 -2 -19 -14 -33
right_child=1 4 12 27 5 -7 7 11 -10 10 21 -13 13 14 -16 -17 17 20 -20 -21 -22 -23 -24 -25 -26 26 -28 28 -30 -31 -32 32 -34
leaf_value=0 -0.0070812348009347739 0 0 0 0 0 0 0 0 0 0 0 0 0 0 0.022973061200747949 0 0 0 0 0 0.025931990151281177 0 0 -0.0075492585399573337 0 -0.010957500763515444 0 0.0036972310069351413 0 0.020998326816726049 -0.0046913228611581755 0
leaf_weight=24 71 49 25 14.999999999999998 26 14.999999999999998 85 12.999999999999998 13.999999999999998 30 15.999999999999998 12.999999999999998 26 13.999999999999998 22 39 18 13.999999999999998 22 31 12.999999999999998 154 14.999999999999998 33 40 12.999999999999998 628 19 32 13.999999999999998 69 42 12.999999999999998
leaf_count=24 71 49 25 15 26 15 85 13 14 30 16 13 26 14 22 39 18 14 22 31 13 154 15 33 40 13 628 19 32 14 69 42 13
internal_value=0 0.00863215 -0.00611911 -0.00825285 0.0147378 0.0171068 0.0018398 0.0060041 0.01851 0.0197826 0.021702 0.0101536 0 0.00409811 0.0116003 0.0170609 0.0125946 0.0144794 -0.00961278 -0.00227214 0.0169446 0.0245063 -0.00998572 -0.0101789 -0.0043458 -0.010513 -0.0107801 0 0.00212888 -0.00633308 0.019107 0 -0.0014711
internal_weight=0 645 1022 801 304 255 341 225 240 226 200 140 221 156 75 53 127 114 735 116 96 170 713 698 65 665 641 66 51 85 83 81 55
internal_count=1667 645 1022 801 304 255 341 225 240 226 200 140 221 156 75 53 127 114 735 116 96 170 713 698 65 665 641 66 51 85 83 81 55
is_linear=0
shrinkage=0.046


Tree=12
num_leaves=37
num_cat=0
split_feature=49 0 46 46 46 1 148 130 165 39 19 9 9 133 172 120 19 113 9 16 9 28 126 48 0 35 49 134 134 154 134 155 126 68 154 171
split_gain=39.2066 10.5163 7.84171 6.17725 3.94768 3.20516 6.17655 3.74395 2.47641 1.5998 1.57909 1.51294 1.34648 1.14268 1.1196 0.938327 0.929979 0.679079 0.661663 0.642141 0.649949 0.637151 0.682706 0.522039 0.411695 0.791505 0.316005 0.725464 0.279892 0.589058 0.25851 0.222727 0.208943 0.131095 0.0470747 0.105582
threshold=0.75981271566390862 -0.26120158890365985 -1.0000000180025095e-35 0.73796447732621073 -0.32315939414225842 1.0000000180025095e-35 0.88358250260353099 0.58588541150093087 1.2980956435203554 -0.053296979811726035 -1.0000000180025095e-35 2.0820861324652125 0.557904700305904 0.89258786439895643 0.94347283244133007 2.3779760599136357 0.66594103633774082 0.96749363541603095 -1.5525003596069842 -1.0000000180025095e-35 1.2613730536102004 0.033473380617327138 0.90026901364326484 -0.10400497020238196 0.8579309964990911 -0.21429291222831295 -0.073339100298177667 0.97872563600540174 0.95213838815689089 0.71080833822488798 0.893037533760071 1.0553928315639498 0.75135171413421642 0.89281774759292609 1.0485715985298159 0.92829738855361954
decision_type=2 2 2 2 2 2 2 2 2 2 2 2 2 2 2 2 2 2 2 2 2 2 2 2 2 2 2 2 2 2 2 2 2 2 2 2
left_child=1 3 10 11 13 6 7 -6 9 -4 34 14 17 -3 16 -9 18 -12 -1 -15 24 22 33 -11 25 -21 27 -7 29 -5 -31 -30 -19 -20 35 -2
right_child=2 4 8 28 5 26 -8 15 -10 23 12 -13 -14 19 -16 -17 -18 32 21 20 -22 -23 -24 -25 -26 -27 -28 -29 31 30 -32 -33 -34 -35 -36 -37
leaf_value=0 0 0 0 0 0 -0.0070200768702807911 0 0.022507617762810222 0 0 0 0 0 0 0 0 0 0.012809882088019614 0 0 0 0 0 0.021612032808021056 0 -0.011466089825119645 0.0016473216554573449 0 -0.004129391883658194 0.0069637968512381949 0 0 0 -0.011608213750380857 0 -0.0035240838512554848
leaf_weight=23 23 43 12.999999999999998 30 23 43 47 72 15.999999999999998 14.999999999999998 13.999999999999998 13.999999999999998 45 21 12.999999999999998 12.999999999999998 35 54 50 26 15.999999999999998 13.999999999999998 21 183 21 72 31 23 31 48 24 17 12.999999999999998 521 13.999999999999998 26
leaf_count=23 23 43 13 30 23 43 47 72 16 15 14 14 45 21 13 13 35 54 50 26 16 14 21 183 21 72 31 23 31 48 24 17 13 521 14 26
internal_value=0 -0.00422019 0.0120045 -0.00732515 0.000549872 0.00516401 0.00933312 0.0156849 0.0182671 0.0195914 0.00204845 -0.00917722 0.00572806 -0.00298169 -0.00952322 0.0201437 -0.00979975 0.00928476 -0.0102229 -0.00518067 -0.00640924 -0.0105254 -0.0107555 0.0206426 -0.00762608 -0.00891663 0 -0.00297573 0 0.0022896 0.00497349 -0.00109426 0.0112099 -0.0110664 0 -0.00142564
internal_weight=0 1292 416 841 451 252 155 108 227 211 189 691 126 199 677 85 664 81 629 156 135 606 592 198 119 98 97 66 150 102 72 48 67 571 63 49
internal_count=1708 1292 416 841 451 252 155 108 227 211 189 691 126 199 677 85 664 81 629 156 135 606 592 198 119 98 97 66 150 102 72 48 67 571 63 49
is_linear=0
shrinkage=0.046


Tree=13
num_leaves=39
num_cat=0
split_feature=49 4 45 45 9 165 19 8 7 0 64 0 6 84 134 44 59 15 1 67 28 92 8 23 84 44 32 7 148 8 7 0 74 13 134 67 133 4
split_gain=36.0848 11.5844 11.0022 5.51425 4.98643 3.14076 2.18304 2.04199 1.98817 1.9792 1.79873 2.79 1.3103 0.991977 0.991314 0.870044 0.861745 0.823821 0.698081 1.44133 2.05086 1.31064 0.665225 0.58904 0.533875 0.440046 0.470701 0.317065 0.283427 0.969959 0.45759 0.191099 0.138914 0.129411 0.115626 0.0849375 0.0506783 0.0254063
threshold=1.0000000180025095e-35 -0.27523651828238999 -0.056489058241632487 0.13534947472604528 0.73377178863197801 1.2980956435203554 -1.0000000180025095e-35 0.94436540200066965 0.20949854708874868 0.57814785014840342 0.44999404251575476 1.9770635819018421 -1.0000000180025095e-35 0.28153055012226108 0.89437505900859848 -1.5242263243164185 0.3835328441593569 -0.83761004893282687 1.0000000180025095e-35 1.0226826906204225 -0.023982307938235314 1.5873441636562349 0.94436540200066965 1.5474148650579433 0.28153055012226108 1.5636550466399435 0.038059860855750895 -0.084426272716600678 0.96809838414192206 0.50521976400900448 -0.59879470737596197 -0.26120158890365985 0.89553872942924506 -0.31847640656701764 0.86779924035072342 1.1192100644111636 1.3235979557037356 0.84018234296595862
decision_type=2 2 2 2 2 2 2 2 2 2 2 2 2 2 2 2 2 2 2 2 2 2 2 2 2 2 2 2 2 2 2 2 2 2 2 2 2 2
left_child=3 14 6 4 9 7 28 10 16 15 -4 12 -12 31 34 -1 35 -17 19 20 -5 32 36 24 25 26 -19 -21 29 30 -3 -14 -20 -6 -2 -8 -16 -35
right_child=1 2 5 18 33 -7 8 -9 -10 -11 11 -13 13 -15 22 17 -18 23 21 27 -22 -23 -24 -25 -26 -27 -28 -29 -30 -31 -32 -33 -34 37 -36 -37 -38 -39
leaf_value=0 0 0 0 0 0 0 0.012409424057348626 0 0 0 0 0 0 0 -0.0088636409816825849 0 0 -0.012330074552081013 0 0 0.012039956640702123 0 0 0 0 0 0 -0.0034922993956771984 0 0 -0.0096388524570577543 0.026155184982185744 -0.0089378439400590922 0.0027598321119094277 0.003685781586375387 0 0 0
leaf_weight=12.999999999999998 50 12.999999999999998 13.999999999999998 48 26 19 77 39 67 42 13.999999999999998 24 12.999999999999998 12.999999999999998 50 15.999999999999998 12.999999999999998 457 12.999999999999998 36 52 36 14.999999999999998 12.999999999999998 28 21 12.999999999999998 55 15.999999999999998 25 39 166 55 43 18 24 14.999999999999998 17
leaf_count=13 50 13 14 48 26 19 77 39 67 42 14 24 13 13 50 16 13 457 13 36 52 36 15 13 28 21 13 55 16 25 39 166 55 43 18 24 15 17
internal_value=0 0.00754088 0.0106528 -0.00597967 -0.00824623 0.0170324 0.00194211 0.01825 0.00558639 -0.00975684 0.0200998 0.0210984 0.0229272 0.0240504 -0.00146236 -0.010478 0.00929772 -0.0107588 0 0.000885929 0.00565638 -0.00357219 -0.00549299 -0.0110684 -0.0113128 -0.0117294 -0.0120709 0 -0.000204662 -0.00279969 -0.00714621 0.0251427 -0.00776486 0 0 0.0107529 -0.00766728 0.00213615
internal_weight=0 724 576 984 689 302 274 283 181 603 244 230 206 192 148 561 114 548 295 191 100 104 80 532 519 491 470 91 93 77 52 179 68 86 68 101 65 60
internal_count=1708 724 576 984 689 302 274 283 181 603 244 230 206 192 148 561 114 548 295 191 100 104 80 532 519 491 470 91 93 77 52 179 68 86 68 101 65 60
is_linear=0
shrinkage=0.046


Tree=14
num_leaves=36
num_cat=0
split_feature=49 0 45 45 8 45 1 170 130 48 19 9 126 36 9 133 172 19 113 9 28 126 16 9 152 0 35 134 5 154 49 134 169 93 67
split_gain=33.33 8.99771 6.32294 5.28538 3.6763 3.32481 2.71288 5.50618 3.86831 2.00809 1.3557 1.34402 1.22941 1.20448 1.18736 1.02078 1.00712 0.831852 0.608053 0.604388 0.579049 0.632564 0.565362 0.576932 0.400708 0.326427 0.692244 0.230148 0.991529 0.837716 0.217858 0.635687 0.0289409 0.0514912 0.0220099
threshold=0.75981271566390862 -0.26120158890365985 -0.056489058241632487 0.71086507362907858 0.94436540200066965 -0.34424685769314906 1.0000000180025095e-35 1.3958327203989032 0.58588541150093087 -0.10400497020238196 -1.0000000180025095e-35 2.0820861324652125 0.8692727625370027 -0.018379149181670162 0.557904700305904 0.89258786439895643 0.94347283244133007 0.66594103633774082 0.96749363541603095 -1.5525003596069842 0.033473380617327138 0.90026901364326484 -1.0000000180025095e-35 1.2613730536102004 0.99728640913963329 0.8579309964990911 -0.21429291222831295 0.95213838815689089 -0.73467901108234657 0.71080833822488798 -0.073339100298177667 0.97872563600540174 1.553630727529526 1.3411522924900057 1.1477232933044437
decision_type=2 2 2 2 2 2 2 2 2 2 2 2 2 2 2 2 2 2 2 2 2 2 2 2 2 2 2 2 2 2 2 2 2 2 2
left_child=1 3 10 11 9 15 7 8 -7 -4 32 16 -11 -10 18 -3 17 19 -12 -1 21 -21 -17 25 -20 26 -24 28 -5 -30 31 -8 33 -2 -29
right_child=2 5 4 27 -6 6 30 -9 13 12 14 -13 -14 -15 -16 22 -18 -19 24 20 -22 -23 23 -25 -26 -27 -28 34 29 -31 -32 -33 -34 -35 -36
leaf_value=0 0 0 0 0 0 0 -0.0064064780977320553 0 0 0.021565937784309042 0 0 0 0.02139346602276811 0 0 0 0 0.012397221872613601 -0.01025030398570924 0 0 0 0 0 0 -0.010622211096767186 -0.001603889426228703 0 0.009204703646532534 0.001147635819757419 0 0 -0.002381438913642466 0
leaf_weight=23 19 43 17 32 28 24 43 44 12.999999999999998 169 13.999999999999998 13.999999999999998 12.999999999999998 74 45 21 12.999999999999998 35 53 571 13.999999999999998 21 26 15.999999999999998 13.999999999999998 21 72 32 19 51 31 23 13.999999999999998 30 15.999999999999998
leaf_count=23 19 43 17 32 28 24 43 44 13 169 14 14 13 74 45 21 13 35 53 571 14 21 26 16 14 21 72 32 19 51 31 23 14 30 16
internal_value=0 -0.00386486 0.0110968 -0.00674251 0.0167874 0.000481335 0.00477558 0.00860873 0.0144374 0.0189883 0.00182788 -0.00845664 0.0204347 0.0189739 0.00527039 -0.00264513 -0.00878603 -0.0090507 0.00861515 -0.00944836 -0.00973498 -0.00995393 -0.00477182 -0.00593067 0.0104369 -0.00708234 -0.00824344 0 0.00210317 0.00603434 0 -0.00252287 0 -0.00111782 -0.000863183
internal_weight=0 1292 416 841 227 451 252 155 111 199 189 691 182 87 126 199 677 664 81 629 606 592 156 135 67 119 98 150 102 70 97 66 63 49 48
internal_count=1708 1292 416 841 227 451 252 155 111 199 189 691 182 87 126 199 677 664 81 629 606 592 156 135 67 119 98 150 102 70 97 66 63 49 48
is_linear=0
shrinkage=0.046


Tree=15
num_leaves=40
num_cat=0
split_feature=49 45 0 45 9 29 65 0 31 13 8 44 15 1 152 141 92 3 23 32 13 75 143 49 127 34 130 52 127 25 182 13 74 0 171 7 147 90 178
split_gain=30.8973 9.82358 9.61645 4.64673 4.39217 1.76525 2.08327 1.70018 1.34433 1.5126 1.37059 0.782178 0.7046 0.554725 1.62196 1.70863 1.19054 1.17309 0.533032 0.331032 0.31308 1.01342 1.49691 0.567729 0.437745 0.254048 0.22094 0.167134 0.300073 0.138823 0.207239 0.122854 0.120405 0.118671 0.107022 0.024023 0.0084613 0.000180683 0.0401701
threshold=1.0000000180025095e-35 -0.44016612417698792 -0.26120158890365985 0.13534947472604528 0.73377178863197801 2.0736719598456226 1.4921209573745731 0.57814785014840342 -0.159387529930686 -0.91143350992787742 -1.6173174862840434 -1.5242263243164185 -0.83761004893282687 1.0000000180025095e-35 0.8611452877521516 1.2427104175090793 1.5873441636562349 -0.55671007776875092 1.5474148650579433 0.038059860855750895 -0.14906009132105771 0.85148450136184695 0.66090065538883225 0.41266612567970601 1.094125992059708 -0.3445755314046941 0.89202722907066356 0.16315495444522479 1.118272161483765 0.16639494533005231 1.0036909878253939 -0.31847640656701764 0.89553872942924506 1.9770635819018421 0.90818704068660749 0.42994216194276064 1.3569582700729372 0.84154161214828505 1.888868433237076
decision_type=2 2 2 2 2 2 2 2 2 2 2 2 2 2 2 2 2 2 2 2 2 2 2 2 2 2 2 2 2 2 2 2 2 2 2 2 2 2 2
left_child=3 20 37 4 7 6 8 11 -4 -10 -11 -1 -13 14 15 -5 32 -17 19 26 27 22 -22 -24 34 -12 -14 28 -2 30 -16 -6 -15 -27 -23 36 -26 -3 -39
right_child=1 2 5 13 31 -7 -8 -9 9 10 25 12 18 16 29 17 -18 -19 -20 -21 21 24 23 -25 35 33 -28 -29 -30 -31 -32 -33 -34 -35 -36 -37 -38 38 -40
leaf_value=0 -0.0063071631232192293 0 0 0 0 0 0 0 0 0 0 0 -0.010859122135486983 0 0 0 0 0.014787035607609036 0 0 0 0 0 0.01265974894976273 0.0015952637772876127 0.019888291383938887 0 0 0 0 -0.0040689085184587581 0.0020813304639780367 -0.0083566426190652115 0 -0.0055808935941505742 0 0 -0.0016082769179120277 0
leaf_weight=12.999999999999998 40 27 12.999999999999998 43 26 30 12.999999999999998 42 13.999999999999998 15.999999999999998 12.999999999999998 15.999999999999998 492 12.999999999999998 14.999999999999998 27 36 44 12.999999999999998 12.999999999999998 19 12.999999999999998 12.999999999999998 41 27 239 13.999999999999998 12.999999999999998 12.999999999999998 17 45 60 55 23 37 15.999999999999998 18 33 53
leaf_count=13 40 27 13 43 26 30 13 42 14 16 13 16 492 13 15 27 36 44 13 13 19 13 13 41 27 239 14 13 13 17 45 60 55 23 37 16 18 33 53
internal_value=0 0.00700491 0.0108996 -0.00550794 -0.00758925 0.0145723 0.0155847 -0.00901241 0.0163301 0.0169519 0.0176689 -0.00968076 -0.00994788 0 0.000745683 0.0055607 -0.00320379 0.010028 -0.0102342 -0.0104659 0 0.000568538 0.00549417 0.00997249 0 0.0184634 -0.0106646 -0.00302241 -0.00424814 -0.000409595 -0.0022606 0 -0.00726214 0.0189701 -0.00430368 0 0.00106272 0 -6.66717e-05
internal_weight=0 724 474 984 689 361 331 603 318 305 291 561 548 295 191 114 104 71 532 519 250 184 73 54 111 275 506 66 53 77 60 86 68 262 50 61 45 113 86
internal_count=1708 724 474 984 689 361 331 603 318 305 291 561 548 295 191 114 104 71 532 519 250 184 73 54 111 275 506 66 53 77 60 86 68 262 50 61 45 113 86
is_linear=0
shrinkage=0.046


Tree=16
num_leaves=37
num_cat=0
split_feature=49 4 46 46 13 1 84 67 46 3 39 50 13 79 7 59 3 133 17 169 12 34 65 20 2 4 67 8 129 61 61 47 5 23 134 148
split_gain=29.5291 8.80105 4.24211 4.07113 3.78074 4.16985 4.25611 3.44174 2.76384 3.29627 3.06347 1.89312 1.4137 1.18 1.02725 0.939283 0.811103 0.784072 0.691307 0.717561 0.618646 0.470301 0.281946 0.878774 0.270822 0.329694 0.240936 0.528293 0.743523 0.227419 0.25438 0.223378 0.153413 0.368912 0.0195165 0.0709354
threshold=0.86395669265916941 -0.4478688315409825 1.3443209753081933 -0.85372132987649285 -0.48789272181297755 1.0000000180025095e-35 0.082855836988892415 1.2063353657722475 0.13160797934422833 0.34772398277647903 -1.0000000180025095e-35 0.84812484420182521 -0.31847640656701764 0.9910275816917421 1.8260850560181701 0.28043012142784018 -0.96401951812127862 1.3986326932907107 0.23613018576337638 1.334796342253685 -1.3043266609806379 0.047313679418718654 1.3422620058059695 -1.0000000180025095e-35 -0.75903581338761295 -0.25382475849837849 0.82727116346359264 -0.81221714996599081 0.8686216175556184 0.23937720658640607 0.11944885798339608 -0.51208804577715583 0.90798374274462856 -1.0976813064063895 0.893037533760071 0.67838746160268792
decision_type=2 2 2 2 2 2 2 2 2 2 2 2 2 2 2 2 2 2 2 2 2 2 2 2 2 2 2 2 2 2 2 2 2 2 2 2
left_child=1 2 11 -2 -5 6 -6 -8 13 22 -11 14 -12 26 17 16 -15 20 19 -7 -1 24 23 -10 -18 -26 29 -28 -29 30 -3 -25 33 -27 35 -4
right_child=3 8 34 4 5 18 7 -9 9 10 12 -13 -14 15 -16 -17 21 -19 -20 -21 -22 -23 -24 31 25 32 27 28 -30 -31 -32 -33 -34 -35 -36 -37
leaf_value=0 0 0 0 0 0 0.0088086391220139476 0.024314380753930522 0 0 0 0 0 0.020750103252552249 0 0 0 0 0 0 0 -0.010856037641902478 0 -0.002516541359063196 0 0 0 0 0 0.0082295218837233307 0 -0.0045530439209780721 0.0081230610525018284 0 -0.0089064983517847113 0 0.0031730403717037002
leaf_weight=14.999999999999998 67 19 14.999999999999998 24 12.999999999999998 49 145 15.999999999999998 51 18 13.999999999999998 41 46 13.999999999999998 19 45 15.999999999999998 17 28 43 462 13.999999999999998 56 33 37 17 13.999999999999998 18 47 15.999999999999998 50 39 17 152 27 19
leaf_count=15 67 19 15 24 13 49 145 16 51 18 14 41 46 14 19 45 16 17 28 43 462 14 56 33 37 17 14 18 47 16 50 39 17 152 27 19
internal_value=0 -0.00362386 -0.00768538 0.0107899 0.012963 0.0144556 0.0199764 0.0220728 0 0.00361668 0.0115111 -0.00904272 0.0167413 -0.00228553 -0.0098038 -0.00399649 -0.00510953 -0.0102084 0.00261654 0.00498278 -0.0105548 -0.00585965 0 0.00140229 -0.00636477 -0.00678133 0 0.0024969 0.0049772 -0.00045022 -0.00268754 0.00540201 -0.00767361 -0.00816871 0 0.00110193
internal_weight=0 1348 615 385 318 294 174 161 733 257 78 554 60 476 513 312 267 494 120 92 477 253 179 123 239 223 164 79 65 85 69 72 186 169 61 34
internal_count=1733 1348 615 385 318 294 174 161 733 257 78 554 60 476 513 312 267 494 120 92 477 253 179 123 239 223 164 79 65 85 69 72 186 169 61 34
is_linear=0
shrinkage=0.046


Tree=17
num_leaves=32
num_cat=0
split_feature=0 45 45 50 17 154 1 109 48 84 4 43 155 23 19 64 23 7 48 58 19 48 28 28 58 12 4 26 53 35 48
split_gain=27.4216 6.75794 6.16242 4.57634 4.1061 4.23185 3.6716 5.29478 1.97373 2.27112 1.9527 1.94941 1.9211 1.598 1.501 1.32832 1.26496 0.940911 0.673462 0.535896 0.470097 0.350968 0.300422 0.287584 0.216038 0.0503385 0.0297334 0.421383 0.037412 0.00517451 0.115693
threshold=0.29836470379771557 -0.82384319011234342 1.2863806725321119 0.84812484420182521 -0.67918029829615223 0.50572552829980866 1.0000000180025095e-35 1.2806506752967837 -0.26180628601064831 0.10561506673693659 -0.4478688315409825 0.11330366356423192 1.0053509652614594 -1.0000000180025095e-35 -1.0000000180025095e-35 0.83963775038719179 -1.2438192164320434 1.8260850560181701 0.21518877190760052 0.29700945642389259 1.2073184053119383 0.57095437342224853 0.033473380617327138 0.0039438937524205447 0.04777329963555408 -1.1913053812235335 -0.073163035320781875 1.0000000180025095e-35 1.0405370480764919 -0.17022153797376693 0.38868090780665926
decision_type=2 2 2 2 2 2 2 2 2 2 2 2 2 2 2 2 2 2 2 2 2 2 2 2 2 2 2 2 2 2 2
left_child=2 29 3 10 -3 -6 7 16 -4 -10 17 13 -11 -8 15 -12 -7 20 -18 24 22 -15 25 -17 -5 -1 28 -28 -16 -2 -31
right_child=1 4 8 19 5 6 11 -9 9 12 14 -13 -14 21 26 23 18 -19 -20 -21 -22 -23 -24 -25 -26 -27 27 -29 -30 30 -32
leaf_value=0 0 0 0 0 0 0 0 0 0 0.016258803531982748 0 0 0 0 0.0010558532310395051 -0.0089066932344623387 0 0 0.023474316668790001 0.0051346813612443247 0 0.011777117610090409 0 0 -0.0031183741275134735 -0.010511307711249165 0 -0.0046572145447896793 0 0 -0.0018716352155087432
leaf_weight=15.999999999999998 18 40 45 38 33 14.999999999999998 23 21 17 54 13.999999999999998 30 13.999999999999998 32 71 120 12.999999999999998 19 160 43 21 79 17 14.999999999999998 47 440 135 44 12.999999999999998 12.999999999999998 73
leaf_count=16 18 40 45 38 33 15 23 21 17 54 14 30 14 32 71 120 13 19 160 43 21 79 17 15 47 440 135 44 13 13 73
internal_value=0 0.00807512 -0.00433075 -0.00568205 0.0106054 0.0120397 0.0134828 0.0186716 0.00307622 0.00797503 -0.00687182 0.00406472 0.012254 0.00714154 -0.00266442 -0.00639874 0.0211462 -0.00935408 0.022392 0 -0.00974137 0.00959315 -0.0100603 -0.00812454 0 -0.0103139 0 -0.000592846 0 0 -0.000356794
internal_weight=0 550 1183 1053 446 406 373 209 130 85 925 164 68 134 412 149 188 513 173 128 494 111 473 135 85 456 263 179 84 104 86
internal_count=1733 550 1183 1053 446 406 373 209 130 85 925 164 68 134 412 149 188 513 173 128 494 111 473 135 85 456 263 179 84 104 86
is_linear=0
shrinkage=0.046


Tree=18
num_leaves=39
num_cat=0
split_feature=49 45 3 53 25 41 1 45 13 130 167 50 28 9 44 152 133 23 2 28 8 130 2 32 16 61 44 34 9 21 19 39 61 61 54 84 130 44
split_gain=24.9692 6.9756 4.33464 4.10222 3.67602 3.07515 3.03871 2.79565 2.64791 3.30434 2.28301 1.87529 1.64054 1.49379 1.32625 1.3107 0.918001 0.864412 1.29828 0.777567 0.727562 1.26375 1.38724 0.587223 0.648842 0.513846 0.456706 0.805991 0.397665 0.370428 0.294933 0.140181 0.215148 0.171916 0.0995164 0.0938003 0.0870195 0.0828065
threshold=0.86395669265916941 0.13534947472604528 0.34772398277647903 0.68545442402034185 -1.0048711057405597 -0.099486686485810452 1.0000000180025095e-35 -1.015681723080021 -0.40318456418999765 0.59906397163867964 1.3395010948181154 0.84812484420182521 -0.020599155290127211 1.1441283280594841 1.3850172813780053 0.86228674352169044 1.3795204758644106 -0.052795249722965433 -1.0000000180025095e-35 0.033473380617327138 -1.0000000180025095e-35 0.59906397163867964 0.27063447583493272 -0.0068117417061924401 -1.0000000180025095e-35 0.29257916267894107 -1.0000000180025095e-35 -0.30251062063046102 0.20617052365375585 -0.90269001389930748 1.3426627475554873 0.019396000411984693 0.19571608946074753 0.14132289704315479 0.93437861649199883 0.21324166096746924 0.75819114446640024 -0.89899414589963456
decision_type=2 2 2 2 2 2 2 2 2 2 2 2 2 2 2 2 2 2 2 2 2 2 2 2 2 2 2 2 2 2 2 2 2 2 2 2 2 2
left_child=1 5 15 -4 -2 11 7 -6 -9 -10 -11 19 31 14 23 20 28 -8 34 25 26 -22 -23 -14 -25 29 -3 -28 -17 -1 37 32 33 -7 -19 36 -34 -26
right_child=4 2 3 -5 6 12 17 8 9 10 -12 -13 13 -15 -16 16 -18 18 -20 -21 21 22 -24 24 30 -27 27 -29 -30 -31 -32 -33 35 -35 -36 -37 -38 -39
leaf_value=0 0 0 0.017373065404256833 0 0 0 0 0 0 0.024100259795805743 0 0 0 0 0 -0.0081992875567717689 0 0 0 0 0 0.010088925177481256 0 0 0 0 0 -0.0068752614620839732 0 -0.01223465065752222 0 0.0031976313672777454 0.0030924065832315878 -0.0038585870472046921 0.012697918453981428 0 0 -0.0080617787698973545
leaf_weight=13.999999999999998 28 20 59 34 25 22 26 12.999999999999998 31 129 12.999999999999998 17 17 37 20 85 12.999999999999998 15.999999999999998 71 17 42 70 12.999999999999998 18 30 20 14.999999999999998 57 35 268 13.999999999999998 29 40 55 33 23 12.999999999999998 251
leaf_count=14 28 20 59 34 25 22 26 13 31 129 13 17 17 37 20 85 13 16 71 17 42 70 13 18 30 20 15 57 35 268 14 29 40 55 33 23 13 251
internal_value=0 -0.00332931 0.000511483 0.00990781 0.00992397 -0.00571766 0.0113136 0.0156363 0.0175828 0.019099 0.0222179 -0.0098549 -0.00246603 -0.00423213 -0.00536983 -0.00067122 -0.00469435 0.00191527 0.00443894 -0.0107114 0 0.00348304 0.0071052 -0.00625191 -0.00672153 -0.0112534 -0.000499442 -0.00370661 -0.00637261 -0.01181 -0.00725186 0 0 -0.00243138 0.0102129 0 0.001935 -0.00757828
internal_weight=0 1348 443 93 385 905 357 211 186 173 142 336 569 387 350 350 133 146 120 319 217 125 83 330 313 302 92 72 120 282 295 182 153 77 49 76 53 281
internal_count=1733 1348 443 93 385 905 357 211 186 173 142 336 569 387 350 350 133 146 120 319 217 125 83 330 313 302 92 72 120 282 295 182 153 77 49 76 53 281
is_linear=0
shrinkage=0.046


Tree=19
num_leaves=39
num_cat=0
split_feature=0 49 45 13 13 65 8 9 71 1 84 27 57 2 45 17 9 15 0 134 25 15 44 2 44 61 109 134 84 50 11 58 17 175 129 164 35 113
split_gain=23.1045 7.75678 5.90137 4.59081 4.20113 3.13996 3.54149 2.68989 2.57066 2.87917 2.45122 1.88325 2.14263 2.118 1.79798 1.47105 1.49603 1.4328 1.95097 1.40534 1.13675 1.11369 1.05182 1.025 0.930559 1.01683 0.687573 0.624999 0.555248 0.896962 1.01395 0.588512 0.358808 0.32998 0.0139938 0.250291 0.00420247 0.0555266
threshold=0.29836470379771557 -0.28162705428869922 -0.82384319011234342 -0.48789272181297755 -0.40318456418999765 1.4921209573745731 -1.2513627879576559 1.1441283280594841 0.52218344807624828 1.0000000180025095e-35 0.21808323934674265 -1.0000000180025095e-35 0.47429453968023244 0.44970756961276676 2.3414926038543395 -0.98428379298266178 -1.5525003596069842 -0.24660170513637766 1.9770635819018421 0.98599700331687934 0.83568983165611654 0.66761432667375498 1.6529739292709127 0.5392441165016838 -1.3073090379269217 0.29257916267894107 1.2353215157985689 1.1166690587997439 0.27148883491754539 0.11153546658372858 -0.90047513180300998 0.04777329963555408 0.23613018576337638 0.56704875826835643 1.1942352116107944 1.6967399358749391 -0.17022153797376693 0.96199864149093639
decision_type=2 2 2 2 2 2 2 2 2 2 2 2 2 2 2 2 2 2 2 2 2 2 2 2 2 2 2 2 2 2 2 2 2 2 2 2 2 2
left_child=1 7 36 -4 28 6 -5 14 -8 17 11 -6 13 19 15 -1 -17 -10 26 20 -13 23 24 32 -18 27 -19 33 29 -3 -31 -32 -11 -26 -12 -36 -2 -38
right_child=2 4 3 5 10 -7 8 -9 9 21 34 12 -14 -15 -16 16 22 18 -20 -21 -22 -23 -24 -25 25 -27 -28 -29 -30 30 31 -33 -34 -35 35 -37 37 -39
leaf_value=0 0 0 0 0 0 0 0 0 0 0.0095759600632069498 0 0.01918299649190847 0 0 0 0 0 0.028159168277725782 0 0 0 0 0 0 0 0 0 0 0 0 0 -0.011428570489856345 0 -0.010518322932747145 -0.0036058630933736096 0 0 -0.0013157075038594329
leaf_weight=12.999999999999998 18 14.999999999999998 31 45 56 33 12.999999999999998 47 41 87 20 77 12.999999999999998 22 20 22 28 106 23 15.999999999999998 26 13.999999999999998 18 18 14.999999999999998 25 18 15.999999999999998 12.999999999999998 15.999999999999998 26 81 17 535 43 20 12.999999999999998 73
leaf_count=13 18 15 31 45 56 33 13 47 41 87 20 77 13 22 20 22 28 106 23 16 26 14 18 18 15 25 18 16 13 16 26 81 17 535 43 20 13 73
internal_value=0 -0.00396899 0.00741825 0.00979082 0 0.011244 0.0124395 -0.00688674 0.0140585 0.0149117 0.00403577 0.00688639 0.00951527 0.0114473 -0.0076729 -0.00814168 -0.00850399 0.020032 0.0231045 0.0138896 0.0158668 0.00445058 -0.00893224 0.00643389 -0.00925746 -0.00964844 0.0258091 -0.0100502 -0.00522154 -0.00619241 -0.00764534 -0.00934026 0.00833136 -0.0103125 0 -0.000685521 0 -0.00032154
internal_weight=0 1183 550 446 444 415 382 739 337 324 293 210 154 141 692 672 659 188 147 119 103 136 637 122 619 591 124 566 151 138 123 107 104 550 83 63 104 86
internal_count=1733 1183 550 446 444 415 382 739 337 324 293 210 154 141 692 672 659 188 147 119 103 136 637 122 619 591 124 566 151 138 123 107 104 550 83 63 104 86
is_linear=0
shrinkage=0.046


Tree=20
num_leaves=38
num_cat=0
split_feature=0 49 45 65 8 45 43 130 13 38 6 2 8 21 126 48 160 23 172 84 152 65 53 19 36 23 15 75 2 148 54 45 101 119 8 5 13
split_gain=24.5273 7.37023 5.54348 4.15827 4.76765 2.92872 2.33257 2.31703 1.72593 1.72383 1.86114 1.61887 1.3184 2.18725 1.1077 1.06409 1.38488 0.880422 0.839974 0.76364 2.78853 2.70006 1.78735 0.533291 0.451479 0.428456 0.278701 0.153379 0.962513 0.102961 0.0918619 0.249139 1.1639 0.22876 0.20679 0.0358689 0.00674433
threshold=0.29836470379771557 0.2043781716891844 -0.44016612417698792 1.4921209573745731 1.3103201003270575 1.0000000180025095e-35 0.4138052236522024 0.80312119722366349 -1.0000000180025095e-35 -0.057731657206692009 0.21952756017100714 0.36017102272384977 0.79798352267011463 0.10356424933077603 0.8692727625370027 -0.23262033146680805 1.3112838566303255 -1.2438192164320434 0.84835793375968949 0.20193672105669977 0.65641519576311125 1.3275566101074221 1.0784682101280796 0.53059669409419163 0.068113792578883378 1.7373941480912933 -0.81914103818918793 0.85148450136184695 0.046793108612640119 1.0005642950534823 0.90702485460306581 -0.44016612417698792 1.2486589282751086 0.93820135593414322 0.8711744623353922 -0.36665074383149437 0.27448069679384218
decision_type=2 2 2 2 2 2 2 2 2 2 2 2 2 2 2 2 2 2 2 2 2 2 2 2 2 2 2 2 2 2 2 2 2 2 2 2 2
left_child=1 5 23 4 6 7 9 14 30 -4 -11 12 13 18 17 16 -7 -1 -10 20 -17 22 -22 27 -25 26 -19 -2 -29 -21 31 -3 -33 -32 -35 -18 -8
right_child=2 8 3 -5 -6 15 36 -9 11 10 -12 -13 -14 -15 -16 19 35 25 -20 29 21 -23 -24 24 -26 -27 -28 28 -30 -31 33 32 -34 34 -36 -37 -38
leaf_value=0 0 0 0 0 0 0 0.00097507251839809301 0 0.019093178382728827 0.020322158008782912 0 0 0 0 0 0 -0.0079126184149279979 0 0 -0.0023048837238391763 0.019029530278040333 0 0 0.0080683087174201976 0 0 -0.0099356319883214562 0 -0.0078817005903587256 0 0 0 0.01115936856004706 -0.0044637481834479383 0 0 0
leaf_weight=15.999999999999998 47 26 21 28 30 40 14.999999999999998 75 48 198 27 33 22 17 29 28 84 12.999999999999998 12.999999999999998 41 47 23 18 32 12.999999999999998 12.999999999999998 450 50 38 12.999999999999998 12.999999999999998 12.999999999999998 24 56 12.999999999999998 20 31
leaf_count=16 47 26 21 28 30 40 15 75 48 198 27 33 22 17 29 28 84 13 13 41 47 23 18 32 13 13 450 50 38 13 13 13 24 56 13 20 31
internal_value=0 -0.00334184 0.00853811 0.0119959 0.0135551 -0.00551059 0.0154002 -0.00753258 0.00210263 0.0173659 0.0185992 0.00605787 0.00911365 0.0119266 -0.00862078 -0.000207613 -0.0039558 -0.00913576 0.0160542 0.000261644 0.00374553 0.00924858 0.0142717 0 0.00500709 -0.00949638 -0.00972992 0 -0.00192032 0 0 0 0.00377415 -0.00153954 -0.00313544 -0.00705979 0
internal_weight=0 1188 530 350 322 910 292 596 278 246 225 133 100 78 521 314 144 492 61 170 116 88 65 180 45 476 463 135 88 54 145 63 37 82 69 104 46
internal_count=1718 1188 530 350 322 910 292 596 278 246 225 133 100 78 521 314 144 492 61 170 116 88 65 180 45 476 463 135 88 54 145 63 37 82 69 104 46
is_linear=0
shrinkage=0.046


Tree=21
num_leaves=40
num_cat=0
split_feature=0 49 45 65 45 9 6 15 4 80 35 13 2 2 5 44 44 74 134 15 84 19 67 94 152 73 48 36 39 44 75 2 54 119 45 53 53 44 13
split_gain=22.5903 6.75428 4.93745 3.88857 2.538 2.6851 2.31447 2.0426 2.13391 2.24844 1.6291 1.57314 1.51035 1.44058 0.995557 0.984102 0.63674 0.596296 0.79148 0.511616 0.588765 0.478565 0.464443 1.28706 0.560723 0.845744 1.26357 0.417717 0.334235 0.223315 0.129391 0.886225 0.0758916 0.211559 0.207129 0.435958 0.185958 0.00674017 0.000862733
threshold=0.29836470379771557 0.2043781716891844 -0.44016612417698792 1.4921209573745731 0.23126874120988414 0.73377178863197801 0.39924836337418362 1.8542482669525635 1.9308438569640438 0.56100616157054917 -0.16827891352882604 -1.0000000180025095e-35 0.5392441165016838 0.6287806633906009 -0.6404278694693234 1.4232968025055635 -1.5242263243164185 0.93662174940109266 0.98894063830375678 -0.81914103818918793 0.28153055012226108 0.53059669409419163 1.0352339744567873 1.5185949921607973 0.65641519576311125 1.2609938621520997 -0.23262033146680805 0.068113792578883378 -0.058512229975338996 -0.36308085011381958 0.85148450136184695 0.046793108612640119 0.90702485460306581 0.93820135593414322 -0.44016612417698792 0.77218359223812938 1.1989983671781146 0.37698989168563907 -0.14906009132105771
decision_type=2 2 2 2 2 2 2 2 2 2 2 2 2 2 2 2 2 2 2 2 2 2 2 2 2 2 2 2 2 2 2 2 2 2 2 2 2 2 2
left_child=1 4 21 6 5 15 7 8 9 -4 -11 32 14 -12 -13 16 -1 -16 28 -18 -21 30 24 29 -6 26 -26 -23 -19 -24 -2 -32 34 -34 -3 -36 -35 -31 -7
right_child=2 11 3 -5 22 38 -8 -9 -10 10 13 12 -14 -15 17 -17 19 18 -20 20 -22 27 23 -25 25 -27 -28 -29 -30 37 31 -33 33 36 35 -37 -38 -39 -40
leaf_value=0 0 0 0 0 0 0 0 0 0 0 0.02047338756124063 0 0 0 0 0 0 0 0 -0.0092336135922063533 0 0.0076972820774833329 0 0 0 0 0.01308926148997477 0 0.017813083961857868 -0.0091502574676753188 0 -0.0075192376575291837 0 -0.0043066423676716269 0 0.0084606106707072765 0 0 0.0002191527835070162
leaf_weight=12.999999999999998 47 26 20 28 41 32 31 18 13.999999999999998 26 189 19 23 24 14.999999999999998 31 15.999999999999998 13.999999999999998 20 496 31 32 12.999999999999998 40 43 17 33 12.999999999999998 42 50 50 38 12.999999999999998 54 18 19 14.999999999999998 15.999999999999998 38
leaf_count=13 47 26 20 28 41 32 31 18 14 26 189 19 23 24 15 31 16 14 20 496 31 32 13 40 43 17 33 13 42 50 50 38 13 54 18 19 15 16 38
internal_value=0 -0.00321013 0.0081912 0.0114652 -0.00529141 -0.00685236 0.0129782 0.014255 0.0152458 0.0161997 0.0174441 0.00194803 0.00574091 0.0189109 0.00830058 -0.0078888 -0.00833356 0.0103165 0.0120014 -0.00857858 -0.00882499 0 0 -0.00286518 0.000207574 0.00358032 0.00626337 0.00474323 0.0150122 -0.00684358 0 -0.00176378 0 -0.00139933 0 0.00344127 -0.00296881 -0.00795089 0
internal_weight=0 1188 530 350 910 657 322 291 273 259 239 278 133 213 110 587 556 91 76 543 527 180 253 119 134 93 76 45 56 79 135 88 145 82 63 37 69 66 70
internal_count=1718 1188 530 350 910 657 322 291 273 259 239 278 133 213 110 587 556 91 76 543 527 180 253 119 134 93 76 45 56 79 135 88 145 82 63 37 69 66 70
is_linear=0
shrinkage=0.046


Tree=22
num_leaves=33
num_cat=0
split_feature=49 0 45 29 6 9 84 25 182 45 38 2 67 45 131 58 5 134 31 12 21 84 12 3 54 72 59 48 35 140 35 147
split_gain=20.9285 6.06798 6.05761 3.19826 3.74693 3.74476 2.45454 2.08824 2.1493 2.43199 2.69621 2.0023 2.3185 1.7484 1.27513 1.04476 0.934021 1.07205 0.951698 0.914395 0.827594 0.846085 0.77943 0.625308 0.587357 0.484069 0.740287 1.08686 1.60118 0.713132 0.656359 0.14018
threshold=0.13494885369234391 -0.26120158890365985 -0.44016612417698792 -0.79832233015608278 1.0000000180025095e-35 -0.67316491797661426 0.094317261129617705 0.33371866691156832 1.0443999230861667 -0.82384319011234342 -0.082400055466675157 0.44970756961276676 0.81363390386104595 1.8618962714351452 1.1946665465831758 0.10249845227522296 -0.67745510367443973 1.080194163322449 -0.159387529930686 -1.2478160211020857 -1.0047737797342433 0.27885977923870092 1.5212053329469741 -0.980548454810654 1.0344887026601872 1.3590558290481569 0.36556311197834107 0.035280819708227058 0.59823867699512878 1.9659046530723574 -0.049214682360286047 1.4860863089561465
decision_type=2 2 2 2 2 2 2 2 2 2 2 2 2 2 2 2 2 2 2 2 2 2 2 2 2 2 2 2 2 2 2 2
left_child=1 13 25 -4 5 -5 -7 8 9 -3 -11 12 -12 19 -14 -9 -8 18 -18 -1 -21 22 23 -22 -17 26 27 -2 -29 30 -27 -25
right_child=2 7 3 4 -6 6 16 15 -10 10 11 -13 14 -15 -16 24 17 -19 -20 20 21 -23 -24 31 -26 29 -28 28 -30 -31 -32 -33
leaf_value=0 0 0 0 0 0 0 0 0 0 0 0 0 0.021723345171737584 0 0 -0.008687013235940802 0 0 0.01857218228943697 0 0 0 0 -0.0090384855997892189 0 0 0 0.011090341828218319 0 0 -0.0078190904403419356 0
leaf_weight=30 27 41 26 45 51 29 13.999999999999998 33 83 13.999999999999998 18 18 64 34 12.999999999999998 65 12.999999999999998 17 223 29 52 41 14.999999999999998 484 18 27 18 66 13.999999999999998 33 50 12.999999999999998
leaf_count=30 27 41 26 45 51 29 14 33 83 14 18 18 64 34 13 65 13 17 223 29 52 41 15 484 18 27 18 66 14 33 50 13
internal_value=0 -0.00365865 0.00678156 0.0101246 0.0112504 0.0129904 0.0148719 0 0.00343768 0.00668769 0.00998399 0.012748 0.0154239 -0.00623046 0.0188999 -0.00353826 0.016268 0.0169441 0.0178156 -0.00681013 -0.007185 -0.00754938 -0.00801938 -0.00831094 -0.0066429 0 0.00262989 0.00476634 0.0076895 -0.00120478 -0.00465491 -0.00888598
internal_weight=0 1065 653 418 392 341 296 367 251 168 127 113 95 698 77 116 267 253 236 664 634 605 564 549 83 235 125 107 80 110 77 497
internal_count=1718 1065 653 418 392 341 296 367 251 168 127 113 95 698 77 116 267 253 236 664 634 605 564 549 83 235 125 107 80 110 77 497
is_linear=0
shrinkage=0.046


Tree=23
num_leaves=35
num_cat=0
split_feature=0 49 45 65 8 45 43 130 38 23 13 2 8 5 36 170 48 171 172 23 84 112 65 19 23 36 169 75 2 54 12 45 101 81
split_gain=19.0989 5.61284 4.04549 3.47614 4.24832 2.26866 2.16441 1.98418 1.5364 1.41812 1.37019 1.37527 1.20373 1.11888 0.887009 1.25626 0.748868 1.4004 0.677563 0.724365 0.619819 2.52542 2.55234 0.395852 0.383234 0.352548 0.112315 0.107449 0.79846 0.0728963 0.37603 0.148958 1.00389 0.0803171
threshold=0.29836470379771557 0.2043781716891844 -0.44016612417698792 1.4921209573745731 1.3103201003270575 1.0000000180025095e-35 0.4138052236522024 0.79548561275005347 -0.0525555240655282 -1.3680364399538492 -1.0000000180025095e-35 0.36017102272384977 0.79798352267011463 -0.6404278694693234 0.023638280523441274 1.4974208712577821 -0.23262033146680805 0.8265618383884431 0.82957518100738536 -1.2438192164320434 0.20193672105669977 0.91552313864231116 1.3275566101074221 0.53059669409419163 1.7373941480912933 0.068113792578883378 1.663729250431061 0.85148450136184695 0.046793108612640119 0.90702485460306581 0.051928696104615597 -0.44016612417698792 1.2486589282751086 1.6787645220756533
decision_type=2 2 2 2 2 2 2 2 2 2 2 2 2 2 2 2 2 2 2 2 2 2 2 2 2 2 2 2 2 2 2 2 2 2
left_child=1 5 23 4 6 7 8 18 -4 -10 29 12 13 -12 15 -15 17 -7 19 -1 21 -18 -23 27 -21 -25 -22 -2 -29 31 33 -3 -33 -31
right_child=2 10 3 -5 -6 16 -8 -9 9 -11 11 -13 -14 14 -16 -17 20 -19 -20 24 26 22 -24 25 -26 -27 -28 28 -30 30 -32 32 -34 -35
leaf_value=0 0 0 0 0 0 0 0 0 0 0.017661038530781895 0 0 0 0.020520824032044985 0 0 0 -0.0064287898426933204 0 -0.0086652423413405653 -0.0024372034730150891 0.015847444586134581 0 0.0070336673132928599 0 0 0 0 -0.0071015196955539596 0 0 0 0.010079709972654069 -0.0048296956240299026
leaf_weight=15.999999999999998 47 26 22 28 30 34 46 90 12.999999999999998 211 12.999999999999998 33 22 38 13.999999999999998 12.999999999999998 46 110 21 456 40 48 22 32 12.999999999999998 12.999999999999998 13.999999999999998 50 38 12.999999999999998 21 12.999999999999998 24 48
leaf_count=16 47 26 22 28 30 34 46 90 13 211 13 33 22 38 14 13 46 110 21 456 40 48 22 32 13 13 14 50 38 13 21 13 24 48
internal_value=0 -0.00294933 0.00753347 0.010507 0.0119515 -0.00485658 0.0137222 -0.00663828 0.0155603 0.0167456 0.00163914 0.0052358 0.00809673 0.0108026 0.0132834 0.0161763 -9.71407e-06 -0.00331588 -0.00775899 -0.00810954 8.51133e-05 0.00336393 0.0097509 0 -0.00844252 0.0043139 0 0 -0.00160729 0 -0.00137144 0 0.0029183 -0.00394589
internal_weight=0 1188 530 350 322 910 292 596 246 224 278 133 100 78 65 51 314 144 506 485 170 116 70 180 469 45 54 135 88 145 82 63 37 61
internal_count=1718 1188 530 350 322 910 292 596 246 224 278 133 100 78 65 51 314 144 506 485 170 116 70 180 469 45 54 135 88 145 82 63 37 61
is_linear=0
shrinkage=0.046


Tree=24
num_leaves=37
num_cat=0
split_feature=49 45 47 45 60 152 154 0 130 2 19 5 50 13 2 8 5 9 44 61 61 148 44 44 46 5 40 9 75 2 133 44 44 9 28 122
split_gain=16.1792 8.74278 3.99274 2.94356 3.22544 2.80771 2.64051 2.6824 2.53476 2.17832 2.08901 2.41286 1.78475 1.57428 1.26086 1.08323 0.991279 1.40431 1.16594 0.960569 0.871489 1.22309 0.623847 0.503844 0.573199 0.473388 0.396202 0.239773 0.178661 0.740376 0.153854 0.130207 0.170634 0.0920243 0.0885624 0.0532118
threshold=0.86395669265916941 0.23126874120988414 -0.51208804577715583 -0.82384319011234342 0.20668526122491371 0.86228674352169044 0.7086945861577989 -1.1005510279557229 0.77444238066673299 0.67354893683505934 -0.55215804385420275 -0.33074554702653297 0.90121955112582752 -0.064351933698077762 0.44970756961276676 1.3835110399923349 -0.55066487745692039 1.0000000180025095e-35 -0.83519494402037064 0.29257916267894107 0.23072740187092855 0.88075422048568741 -1.3392086388665534 -0.66931701913428521 1.0000000180025095e-35 -0.35767444463025394 -0.28149772407171286 0.088925798103039841 0.94121129512786872 -0.17704825860965243 1.3443645119667056 -0.59275797687916876 0.22387180717540608 1.7889743185884222 -0.0045831569209688295 0.91020373702049262
decision_type=2 2 2 2 2 2 2 2 2 2 2 2 2 2 2 2 2 2 2 2 2 2 2 2 2 2 2 2 2 2 2 2 2 2 2 2
left_child=1 2 8 -2 9 6 35 -8 19 10 -5 -12 14 15 20 23 -15 18 -18 22 21 -9 -1 -4 26 30 -25 31 -27 -30 -7 -10 -33 -24 -29 -3
right_child=3 5 13 4 -6 25 7 12 27 -11 11 -13 -14 16 -16 -17 17 -19 -20 -21 -22 -23 33 24 -26 28 -28 34 29 -31 -32 32 -34 -35 -36 -37
leaf_value=0 0 0 0 0 0 -0.0042931798319405367 0 0.021402073256956988 0 0 0 0.017357864787102412 0 0 0 0 0 0 0.01060170617171133 0 0 0 -0.010279210519387632 0 0 0 -0.0089910338428338867 0 0.0091931869549072079 0 0 -0.0047826998449759205 0 0 0.0026841844471084844 -0.0014574137403703684
leaf_weight=12.999999999999998 57 21 15.999999999999998 44 56 72 26 66 12.999999999999998 13.999999999999998 13.999999999999998 173 14.999999999999998 46 18 13.999999999999998 12.999999999999998 64 70 20 21 17 407 13.999999999999998 15.999999999999998 18 104 14.999999999999998 23 33 14.999999999999998 50 27 14.999999999999998 26 53
leaf_count=13 57 21 16 44 56 72 26 66 13 14 14 173 15 46 18 14 13 64 70 20 21 17 407 14 16 18 104 15 23 33 15 50 27 15 26 53
internal_value=0 -0.0026336 -0.00521497 0.00834614 0.0101755 0.00232678 0.00584452 0.00916193 -0.00762765 0.0124524 0.0135799 0.0158568 0.0118869 0 0.0137703 -0.00427582 0.00131281 0.00406581 0.00806679 -0.00931233 0.0157508 0.0182501 -0.00976621 -0.00593874 -0.00688732 0 -0.00800901 0 0 0.00259801 -0.00339299 -0.00237418 -0.00318841 -0.010072 0 0
internal_weight=0 1341 943 358 301 398 237 163 586 245 231 187 137 357 122 164 193 147 83 455 104 83 435 150 134 161 118 131 74 56 87 90 77 422 41 74
internal_count=1699 1341 943 358 301 398 237 163 586 245 231 187 137 357 122 164 193 147 83 455 104 83 435 150 134 161 118 131 74 56 87 90 77 422 41 74
is_linear=0
shrinkage=0.046


Tree=25
num_leaves=37
num_cat=0
split_feature=49 45 45 60 2 13 8 152 47 67 67 48 176 19 3 8 44 44 23 75 172 15 157 3 61 50 44 45 126 56 2 133 173 9 152 9
split_gain=14.7447 8.04348 2.70948 2.93501 2.03335 1.97495 2.44178 1.93931 1.89018 2.06936 1.86963 2.13357 1.82255 1.80091 1.17092 0.969666 0.896287 0.739588 0.631483 0.478145 0.805606 0.457021 0.436409 1.07329 1.34887 0.338202 0.544752 0.409876 0.337279 0.2868 0.273306 0.210846 0.126904 0.119123 0.0955795 0.0387609
threshold=0.86395669265916941 1.0000000180025095e-35 -0.82384319011234342 0.20668526122491371 0.67354893683505934 -0.064351933698077762 1.3103201003270575 0.86228674352169044 -0.51208804577715583 1.0887387037277223 0.95369291901588449 -0.36115964492474328 1.199830010533333 -0.55215804385420275 -0.24671989483515291 0.8711744623353922 -0.66931701913428521 0.83060221704720405 1.445118328039986 0.94121129512786872 0.84835793375968949 -0.80990653281736835 1.2756634831428528 -0.70732668270693744 0.15318848359528484 0.41755671812763473 -1.0000000180025095e-35 -0.24832759120931022 0.82795834541320812 0.016635147476314557 -0.042743438276276899 1.3795204758644106 1.3324362605810167 1.0268836025087682 0.88639466464519512 1.0000000180025095e-35
decision_type=2 2 2 2 2 2 2 2 2 2 2 2 2 2 2 2 2 2 2 2 2 2 2 2 2 2 2 2 2 2 2 2 2 2 2 2
left_child=1 5 -2 4 13 6 16 10 9 15 22 -12 -13 -4 29 33 -1 -14 21 -16 30 -18 23 -3 -25 26 -10 -28 -15 31 -21 34 -24 -7 -9 -11
right_child=2 7 3 -5 -6 8 -8 14 25 35 11 12 17 28 19 -17 18 -19 -20 20 -22 -23 32 24 -26 -27 27 -29 -30 -31 -32 -33 -34 -35 -36 -37
leaf_value=0 0 0 0 0 0 -0.0090944672391476428 0 0 0 0 0 0 0.018124673891458724 0.015848633449966697 0 0 0 0 0 0.012258877556031398 0 -0.011147674906720499 -0.0040809317529489821 0.011480724692371753 0 0 0.0068087251557372146 0 0 0 0 0 0 0 -0.0070973500244972771 0.001509188081250857
leaf_weight=34 57 33 44 56 13.999999999999998 147 41 13.999999999999998 25 62 32 12.999999999999998 58 173 23 24 13.999999999999998 13.999999999999998 13.999999999999998 22 18 294 31 44 52 68 59 20 13.999999999999998 12.999999999999998 22 13.999999999999998 12.999999999999998 12.999999999999998 74 36
leaf_count=34 57 33 44 56 14 147 41 14 25 62 32 13 58 173 23 24 14 14 14 22 18 294 31 44 52 68 59 20 14 13 22 14 13 13 74 36
internal_value=0 -0.00252012 0.0079603 0.0097166 0.0118886 -0.00536207 -0.00827267 0.00147684 -0.00180358 -0.00440674 0.00421986 0.00882867 0.0126646 0.0129819 -0.000200666 -0.00731834 -0.00953057 0.0155854 -0.0103108 0.000389987 0.00406503 -0.0107463 0 0.00228829 0.00553992 0 0.00262306 0.00486279 0.0151182 -0.00463688 0.00787506 -0.00549453 -0.00237341 -0.00862637 -0.00632942 0
internal_weight=0 1341 358 301 245 851 397 490 454 282 290 117 85 231 200 184 356 72 322 85 62 308 173 129 96 172 104 79 187 115 44 102 44 160 88 98
internal_count=1699 1341 358 301 245 851 397 490 454 282 290 117 85 231 200 184 356 72 322 85 62 308 173 129 96 172 104 79 187 115 44 102 44 160 88 98
is_linear=0
shrinkage=0.046


Tree=26
num_leaves=37
num_cat=0
split_feature=49 45 47 45 60 152 130 80 0 2 50 5 2 13 8 5 9 44 25 6 3 44 75 44 46 148 28 40 34 9 45 44 44 9 28 139
split_gain=13.4968 7.35277 3.41503 2.50409 2.6818 2.39539 2.18345 2.00979 2.19771 1.90488 1.80901 1.67514 1.2734 1.14787 0.929118 0.856461 1.26245 1.06598 0.739147 1.30056 0.655192 0.49711 0.442056 0.417862 0.482603 0.413673 0.365113 0.362343 0.285588 0.185972 0.163996 0.112307 0.151679 0.0983915 0.0815793 0.00176291
threshold=0.86395669265916941 0.23126874120988414 -0.51208804577715583 -0.82384319011234342 0.20668526122491371 0.86228674352169044 0.77444238066673299 1.0364258468151095 -1.1005510279557229 0.67354893683505934 0.90121955112582752 -0.33074554702653297 0.5392441165016838 -0.064351933698077762 1.3835110399923349 -0.55066487745692039 1.0000000180025095e-35 -0.83519494402037064 -1.0048711057405597 0.21952756017100714 -0.24671989483515291 -1.3392086388665534 0.96354545950889603 -0.66931701913428521 1.0000000180025095e-35 0.88075422048568741 -0.049816206541413423 -0.28149772407171286 -0.31447736248864805 0.088925798103039841 0.61494580714523972 -0.59275797687916876 0.22387180717540608 1.1441283280594841 -0.0045831569209688295 0.60835161805152904
decision_type=2 2 2 2 2 2 2 2 2 2 2 2 2 2 2 2 2 2 2 2 2 2 2 2 2 2 2 2 2 2 2 2 2 2 2 2
left_child=1 2 6 -2 9 7 21 35 -9 11 12 -5 25 14 23 -15 17 -17 -13 -20 28 -1 -22 -4 27 -10 -23 -25 -7 31 -24 -8 -33 -28 -31 -3
right_child=3 5 13 4 -6 20 29 8 10 -11 -12 18 -14 15 -16 16 -18 -19 19 -21 22 26 30 24 -26 -27 33 -29 -30 34 -32 32 -34 -35 -36 -37
leaf_value=0 0 0 0 0 0 0 0 0 0.016471917716537138 0 0 0 0 0 0 0 0 0.0099576383407154918 0.015964942180239153 0 0 0 0 0 0 0 -0.0094788140805663872 -0.0081239049709275323 -0.0052947104312956895 0 0.0066487347299437893 -0.004363302849836527 0 0 0.002576189140135029 -0.00025142618710510692
leaf_weight=12.999999999999998 57 21 15.999999999999998 13.999999999999998 56 23 12.999999999999998 25 85 13.999999999999998 13.999999999999998 13.999999999999998 15.999999999999998 46 13.999999999999998 12.999999999999998 64 70 171 32 25 12.999999999999998 12.999999999999998 13.999999999999998 15.999999999999998 17 396 104 71 14.999999999999998 29 50 27 33 26 59
leaf_count=13 57 21 16 14 56 23 13 25 85 14 14 14 16 46 14 13 64 70 171 32 25 13 13 14 16 17 396 104 71 15 29 50 27 33 26 59
internal_value=0 -0.00241777 -0.0047972 0.00760801 0.0092976 0.00206417 -0.00702596 0.00534237 0.00837668 0.0113739 0.0108942 0.0124359 0.0128531 0 -0.00368433 0.00102449 0.0037021 0.00751355 0.0134523 0.0141826 0 -0.00858663 0 -0.00528649 -0.00615481 0.0147488 -0.00884752 -0.00718827 -0.00384021 0 0.00471868 -0.00209091 -0.00286283 -0.00908028 0 0
internal_weight=0 1341 943 358 301 398 586 237 157 245 132 231 118 357 164 193 147 83 217 203 161 455 67 150 134 102 442 118 94 131 42 90 77 429 41 80
internal_count=1699 1341 943 358 301 398 586 237 157 245 132 231 118 357 164 193 147 83 217 203 161 455 67 150 134 102 442 118 94 131 42 90 77 429 41 80
is_linear=0
shrinkage=0.046


Tree=27
num_leaves=38
num_cat=0
split_feature=49 45 54 25 2 130 0 152 75 50 29 9 45 3 44 23 172 54 16 61 45 50 148 152 75 172 43 50 4 45 9 2 44 25 45 121 154
split_gain=12.3212 6.75502 2.39706 2.27693 2.09905 1.69683 1.85345 1.61792 1.77753 1.59436 1.39787 1.06102 0.74735 0.735722 0.725314 0.634889 0.749789 0.661485 0.490198 0.411537 0.821165 0.737451 0.647243 1.05514 0.405389 0.743922 0.396498 0.335822 0.473156 0.391044 0.268188 0.223171 0.205987 0.307954 0.0857723 0.112996 0.00943141
threshold=0.86395669265916941 1.0000000180025095e-35 1.1222424927145636 -1.0048711057405597 0.67354893683505934 0.83257080912590042 0.29836470379771557 0.85812472701072706 0.87345152795314795 1.1360571131563304 2.4213727536819998 1.7889743185884222 -1.015681723080021 -0.24671989483515291 -1.2690295167993633 1.445118328039986 0.8317835032939912 1.2797873349005597 -1.0000000180025095e-35 0.21333926359218805 0.51902654066140086 0.90737539039808135 0.7824406236410143 0.65319633185863502 0.94121129512786872 0.84835793375968949 -0.32271820793596023 1.0430454811782373 1.2202410791321623 -0.63200465714466558 0.67514942585662008 -0.042743438276276899 -0.65655717875843245 0.33371866691156832 1.9578155379189839 0.57682153433561334 1.0424068689346315
decision_type=2 2 2 2 2 2 2 2 2 2 2 2 2 2 2 2 2 2 2 2 2 2 2 2 2 2 2 2 2 2 2 2 2 2 2 2 2
left_child=1 5 3 -2 9 6 11 8 19 26 12 14 -11 30 -1 16 17 18 -16 20 -3 22 23 -22 -15 31 -5 28 29 -28 32 -26 -9 -34 35 -21 -7
right_child=2 7 -4 4 -6 36 -8 13 -10 10 -12 -13 -14 24 15 -17 -18 -19 -20 34 21 -23 -24 -25 25 -27 27 -29 -30 -31 -32 -33 33 -35 -36 -37 -38
leaf_value=0 0 0 0 0 0 0.00082941589243286276 0 0 0.012765169141852498 0 0 0 0.016225442868417372 0 0 0 0 0 -0.0084206039045515765 0 0 0 0 0.013936963326013021 0.01148685653283955 0 0 0 0 0.0083369799830858241 0 0 -0.0069235133588394105 0 0 -0.0031641327914128103 0
leaf_weight=28 28 62 23 14.999999999999998 15.999999999999998 29 101 13.999999999999998 49 12.999999999999998 14.999999999999998 20 156 28 17 23 38 12.999999999999998 527 14.999999999999998 26 14.999999999999998 21 40 22 18 12.999999999999991 13.999999999999998 15.999999999999998 49.000000000000007 20 22 67 14.999999999999998 13.999999999999998 42 55
leaf_count=28 28 62 23 15 16 29 101 14 49 13 15 20 156 28 17 23 38 13 527 15 26 15 21 40 22 18 13 14 16 49 20 22 67 15 14 42 55
internal_value=0 -0.00231999 0.00725724 0.00845126 0.00967631 -0.00493304 -0.0056286 0.00127945 0.00385712 0.010679 0.0140903 -0.00650955 0.0152859 -4.13385e-05 -0.00686742 -0.00719594 -0.00748605 -0.00791912 -0.00817215 4.18641e-05 0.00230478 0.00505708 0.00692221 0.00916018 0 0.00371932 0.000513481 0.00307004 0.0044973 0.00644904 -0.00366367 0.00743363 -0.00470417 -0.00558764 0 -0.00178425 0
internal_weight=0 1341 358 335 307 851 767 490 284 291 184 666 169 206 646 618 595 557 544 235 164 102 87 66 90 62 107 92 78 62 116 44 96 82 71 57 84
internal_count=1699 1341 358 335 307 851 767 490 284 291 184 666 169 206 646 618 595 557 544 235 164 102 87 66 90 62 107 92 78 62 116 44 96 82 71 57 84
is_linear=0
shrinkage=0.046


Tree=28
num_leaves=34
num_cat=0
split_feature=49 19 4 2 154 9 45 0 148 13 47 39 6 148 11 1 55 0 60 5 25 7 21 50 8 4 21 0 105 2 2 79 139
split_gain=17.3014 8.76192 8.13091 3.87228 3.37897 2.81735 1.93102 1.79351 2.46956 1.74611 1.54899 1.27625 1.13745 1.08334 1.1117 0.969287 1.26798 1.52417 0.802808 0.761949 0.634595 0.604994 0.556294 0.444109 0.60314 0.401796 0.281319 0.261819 0.1845 0.161472 0.0996355 0.463724 0.00858066
threshold=1.0000000180025095e-35 -0.41681370161065345 -0.27523651828238999 0.67354893683505934 1.0785663127899172 0.20617052365375585 0.23126874120988414 1.9770635819018421 0.25727215409278875 -1.0000000180025095e-35 1.3148804914942753 -0.060627675616684314 -1.0000000180025095e-35 1.0113673210144045 -1.0000000180025095e-35 1.0000000180025095e-35 0.017974912036454536 -0.82076788160503522 -0.0074294566062142143 0.87656669554028743 -1.0048711057405597 -0.5253135024246246 1.0000000180025095e-35 -0.012936175994206886 1.3103201003270575 -1.4113980218214996 -0.90269001389930748 1.1377141428497788 1.3526750206947329 -0.042743438276276899 -0.17704825860965243 1.2048784196376803 0.91526026427745821
decision_type=2 2 2 2 2 2 2 2 2 2 2 2 2 2 2 2 2 2 2 2 2 2 2 2 2 2 2 2 2 2 2 2 2
left_child=5 10 29 4 7 6 19 8 -4 21 11 -2 -10 14 -13 16 17 -11 -12 23 -14 -7 28 24 26 -23 -1 -16 -19 -3 32 -32 -8
right_child=1 2 3 -5 -6 9 30 -9 12 15 18 13 20 -15 27 -17 -18 22 -20 -21 -22 25 -24 -25 -26 -27 -28 -29 -30 -31 31 -33 -34
leaf_value=0 0 -0.0029981756353027037 0 0 0 0 0 0 0 0 0 0 0 0 -0.012343618626535491 0 0 0.016596087001448625 0.0095858456039790325 0 0.017830313994082886 0 0 0 0 -0.00635390370812301 -0.0076440463196882592 0 0 0 -0.003865519026712803 0 0.00070277062272493132
leaf_weight=27 49 38 14.999999999999998 28 28 14.999999999999998 15.999999999999998 40 18 13.999999999999998 13.999999999999998 21 21 12.999999999999998 67 46 18 44 29 12.999999999999998 287 14.999999999999998 14.999999999999998 50 29 80 414 17 12.999999999999998 46 79 35 60
leaf_count=27 49 38 15 28 28 15 16 40 18 14 14 21 21 13 67 46 18 44 29 13 287 15 15 50 29 80 414 17 13 46 79 35 60
internal_value=0 0.00612084 0.00938885 0.0120193 0.0132056 -0.00314454 -0.00465719 0.0143516 0.0155324 0 0 -0.00371966 0.0163825 -0.0065165 -0.00833976 0.00415916 0.00668345 0.00923099 0.0047415 -0.0060899 0.0170846 -0.00316185 0.0121064 -0.00641206 -0.00689113 -0.00500497 -0.00731466 -0.0107209 0.0143449 0 0 -0.00132231 0.000388654
internal_weight=0 731 521 437 409 983 723 381 341 260 210 167 326 118 105 150 104 86 43 533 308 110 72 520 470 95 441 84 57 84 190 114 76
internal_count=1714 731 521 437 409 983 723 381 341 260 210 167 326 118 105 150 104 86 43 533 308 110 72 520 470 95 441 84 57 84 190 114 76
is_linear=0
shrinkage=0.046


Tree=29
num_leaves=35
num_cat=0
split_feature=49 19 4 2 154 9 45 13 0 148 47 12 39 6 17 1 55 0 60 5 148 7 21 0 61 50 4 21 2 105 2 74 85 139
split_gain=15.7437 7.9258 7.51102 3.61245 3.12869 2.56737 1.78972 1.55008 1.53885 2.28396 1.36383 1.52505 1.11126 0.985921 0.969226 0.890715 1.18817 1.43409 0.745124 0.718092 0.624599 0.564631 0.487173 0.468053 0.457838 0.496934 0.372494 0.286496 0.146962 0.115789 0.0822076 0.308542 0.0201893 0.00801102
threshold=1.0000000180025095e-35 -0.41681370161065345 -0.27523651828238999 0.67354893683505934 1.0785663127899172 0.20617052365375585 0.23126874120988414 -1.0000000180025095e-35 1.9770635819018421 0.25727215409278875 1.3148804914942753 0.22146061574027234 -0.060627675616684314 -1.0000000180025095e-35 1.4027023713294426 1.0000000180025095e-35 0.017974912036454536 -0.82076788160503522 -0.0074294566062142143 0.87656669554028743 0.99074175357818617 -0.5253135024246246 1.0000000180025095e-35 1.1377141428497788 0.28498452822458259 0.016363162795896755 -1.4113980218214996 -1.0047737797342433 -0.042743438276276899 1.3526750206947329 -0.17704825860965243 1.2745934128761294 1.5611502528190615 0.91526026427745821
decision_type=2 2 2 2 2 2 2 2 2 2 2 2 2 2 2 2 2 2 2 2 2 2 2 2 2 2 2 2 2 2 2 2 2 2
left_child=5 10 28 4 8 6 19 21 9 -4 11 12 -2 -11 -15 16 17 -9 -12 24 23 -7 29 -14 25 27 -23 -1 -3 -19 33 32 -32 -8
right_child=1 2 3 -5 -6 7 30 15 -10 13 18 -13 20 14 -16 -17 -18 22 -20 -21 -22 26 -24 -25 -26 -27 -28 -29 -30 -31 31 -33 -34 -35
leaf_value=0 0 -0.0028602958603678049 0 0 0 0 0 0 0 0 0 0 -0.011660436011272727 0.016940777498003989 0 0 0 0.015832840199769559 0.0091450487774267387 0 0 0 0 0 0 0 -0.0060616607174934735 -0.0072326329832709492 0 0 -0.0035038776331766212 0 0 0.00067044848157473151
leaf_weight=20 41 38 14.999999999999998 28 28 14.999999999999998 15.999999999999998 13.999999999999998 40 18 13.999999999999998 24 73 293 14.999999999999998 46 18 44 29 12.999999999999998 12.999999999999998 14.999999999999998 14.999999999999998 15.999999999999998 35 41 80 424 46 12.999999999999998 70 31 12.999999999999998 60
leaf_count=20 41 38 15 28 28 15 16 14 40 18 14 24 73 293 15 46 18 44 29 13 13 15 15 16 35 41 80 424 46 13 70 31 13 60
internal_value=0 0.00584055 0.0089471 0.0114807 0.01263 -0.00299452 -0.0044391 0 0.0137338 0.0148422 0 -0.00349187 -0.00606666 0.0156604 0.0163204 0.00393523 0.0063605 0.00884045 0.00444418 -0.00581678 -0.00863989 -0.0029493 0.0116399 -0.0100199 -0.00613212 -0.00650491 -0.00475886 -0.00697061 0 0.0137557 0 -0.0011991 -0.00313685 0.000363135
internal_weight=0 731 521 437 409 983 723 260 381 341 210 167 143 326 308 150 104 86 43 533 102 110 72 89 520 485 95 444 84 57 190 114 83 76
internal_count=1714 731 521 437 409 983 723 260 381 341 210 167 143 326 308 150 104 86 43 533 102 110 72 89 520 485 95 444 84 57 190 114 83 76
is_linear=0
shrinkage=0.046


Tree=30
num_leaves=35
num_cat=0
split_feature=49 19 4 2 154 9 45 20 38 45 135 3 47 12 39 148 5 60 5 28 45 23 61 50 8 6 12 61 148 2 2 74 85 139
split_gain=14.3214 7.14155 6.9331 3.36827 2.89492 2.3396 1.64844 1.41713 1.39611 1.31227 1.27001 1.23316 1.18932 1.43049 1.01806 0.740334 1.20288 0.691709 0.676489 0.5949 0.443854 0.612358 0.409438 0.436632 0.372762 0.356326 0.230133 0.234447 0.218082 0.133756 0.0693343 0.288075 0.0164099 0.00747921
threshold=1.0000000180025095e-35 -0.41681370161065345 -0.27523651828238999 0.67354893683505934 1.0785663127899172 0.20617052365375585 0.23126874120988414 -1.0000000180025095e-35 -0.13111472059948234 -0.82384319011234342 1.7780730187892917 -0.55879518753557222 1.3148804914942753 0.22146061574027234 -0.060627675616684314 0.25727215409278875 -0.47885448384699819 -0.0074294566062142143 0.87656669554028743 -0.038095009480645127 0.61494580714523972 -0.929622709876888 0.28498452822458259 0.016363162795896755 1.3103201003270575 -1.0000000180025095e-35 -1.0000000180025095e-35 0.24654961778010684 0.97852312922477735 -0.042743438276276899 -0.17704825860965243 1.2745934128761294 1.5611502528190615 0.91526026427745821
