tree
version=v3
num_class=1
num_tree_per_iteration=1
label_index=0
max_feature_idx=190
objective=regression
feature_names=feature_0 feature_1 feature_2 feature_3 feature_4 feature_5 feature_6 feature_7 feature_8 feature_9 feature_10 feature_11 feature_12 feature_13 feature_14 feature_15 feature_16 feature_17 feature_18 feature_19 feature_20 feature_21 feature_22 feature_23 feature_24 feature_25 feature_26 feature_27 feature_28 feature_29 feature_30 feature_31 feature_32 feature_33 feature_34 feature_35 feature_36 feature_37 feature_38 feature_39 feature_40 feature_41 feature_42 feature_43 feature_44 feature_45 feature_46 feature_47 feature_48 feature_49 feature_50 feature_51 feature_52 feature_53 feature_54 feature_55 feature_56 feature_57 feature_58 feature_59 feature_60 feature_61 feature_62 embedding_0 embedding_1 embedding_2 embedding_3 embedding_4 embedding_5 embedding_6 embedding_7 embedding_8 embedding_9 embedding_10 embedding_11 embedding_12 embedding_13 embedding_14 embedding_15 embedding_16 embedding_17 embedding_18 embedding_19 embedding_20 embedding_21 embedding_22 embedding_23 embedding_24 embedding_25 embedding_26 embedding_27 embedding_28 embedding_29 embedding_30 embedding_31 embedding_32 embedding_33 embedding_34 embedding_35 embedding_36 embedding_37 embedding_38 embedding_39 embedding_40 embedding_41 embedding_42 embedding_43 embedding_44 embedding_45 embedding_46 embedding_47 embedding_48 embedding_49 embedding_50 embedding_51 embedding_52 embedding_53 embedding_54 embedding_55 embedding_56 embedding_57 embedding_58 embedding_59 embedding_60 embedding_61 embedding_62 embedding_63 embedding_64 embedding_65 embedding_66 embedding_67 embedding_68 embedding_69 embedding_70 embedding_71 embedding_72 embedding_73 embedding_74 embedding_75 embedding_76 embedding_77 embedding_78 embedding_79 embedding_80 embedding_81 embedding_82 embedding_83 embedding_84 embedding_85 embedding_86 embedding_87 embedding_88 embedding_89 embedding_90 embedding_91 embedding_92 embedding_93 embedding_94 embedding_95 embedding_96 embedding_97 embedding_98 embedding_99 embedding_100 embedding_101 embedding_102 embedding_103 embedding_104 embedding_105 embedding_106 embedding_107 embedding_108 embedding_109 embedding_110 embedding_111 embedding_112 embedding_113 embedding_114 embedding_115 embedding_116 embedding_117 embedding_118 embedding_119 embedding_120 embedding_121 embedding_122 embedding_123 embedding_124 embedding_125 embedding_126 embedding_127
feature_infos=[-1.5202257474817547:3.2360877404799364] [-0.77084557373751905:1.2972766972655805] [-1.811090239332388:1.3226889017797077] [-3.7808714042531846:5.2357761483160541] [-2.6693389091321746:3.0181597834958769] [-1.9980931236569193:5.0707424973198183] [-1.4878200702591688:4.0835248290393] [-4.309595557418497:5.6103671110120423] [-3.5568773874138979:4.1281712774402415] [-3.985328414784342:5.0425154526207914] [-2.4788551255004547:11.432691146663414] [-2.3122369909856952:3.9622601609373498] [-1.5586245404341232:1.7755032124004588] [-0.95378758873936753:8.7876505379033301] [-0.95374180518751672:1.0485018005511337] [-2.0704165160707331:9.3803701449854735] [-1.3548443886994797:1.9115454882559055] [-2.1104746336637485:5.858110756972148] [-1.4770637962077213:1.7906132388990585] [-0.75517455721952675:6.1473868972014865] [-0.70220840705790522:1.4240786495134317] [-2.5360302672582842:3.7931632145077496] [-1.2743008249987884:0.78474405759013044] [-2.5736741976654929:3.5641180234119654] [-1.2775956246193096:0.78272027606385575] [-3.0964176255095106:3.9311786809141633] [-1.9139658581391805:0.52247535960345315] [-1.6064368938563474:2.2845799621874336] [-0.15675188676687771:44.387465901923768] [-3.8280934198893424:5.7481205267946596] [-0.22630388964428938:43.760144249139707] [-0.34957922434516336:43.259333127076069] [-0.25988321142874971:43.853479713514808] [-0.22630393576306168:43.760146428288735] [-1.2373756337465613:35.009272439787075] [-31.236125617983351:3.7632947634913845] [-43.958685225855739:0.56376594269932045] [-1.095361955937455:1.8438100848596786] [-0.26975758898701419:43.100135913816558] [-0.21919692235586755:43.991967219069629] [-0.40193540153727692:42.477612641608296] [-0.27379631038661828:42.524359491708296] [-0.25832764130411923:43.585472786953204] [-1.7898728836595796:2.7824645796397331] [-2.5641533149484164:2.8077394832855851] [-2.3105918206118461:5.2670302316114253] [-1.4979751089823492:3.2012877503780137] [-0.96883018009501365:1.771622625812133] [-1.1816824381413:5.4982834853610667] [-0.73291762126816262:3.64112941253279] [-0.67798424332021456:5.2136620920015559] [-62.920580343123831:0.016876291327274098] [-42.015549624459666:8.8169352136997166] [-0.94103029143611239:3.6028265694709418] [-0.99990878970033059:1.8786369218483863] [-62.911551020579502:0.040534648066835918] [-62.911445524637529:0.042129836892502749] [-0.37456046681191002:57.896000384782567] [-0.40655329118830269:56.712537332223988] [-0.26310157852356136:59.035541251370752] [-33.274990687495524:30.11216171235354] [-0.23595853645922737:61.015565326757084] [-0.99316933799423457:1.8038727914148875] [0.59948039054870605:3.2605407238006592] [0.29629689455032349:2.4190876483917236] [0.43454447388648987:2.0876038074493408] [0.24901275336742401:2.1799848079681396] [0.32822135090827942:1.5466490983963013] [0.38691163063049316:2.0973875522613525] [0.33379611372947693:2.2261953353881836] [0.29891616106033325:2.0779626369476318] [0.36345919966697693:2.6122400760650635] [0.30242517590522766:2.244016170501709] [0.29758727550506592:2.0508682727813721] [0.37371781468391418:2.0816733837127686] [0.21770395338535309:1.6116434335708618] [0.54219818115234375:3.8528540134429932] [0.37727585434913635:2.1526679992675781] [0.49633121490478516:3.489945650100708] [0.37261134386062622:2.0325648784637451] [0.25983709096908569:2.1113324165344238] [0.60050970315933228:3.2508246898651123] [0.44199174642562866:2.4965050220489502] [0.44609636068344116:2.5683705806732178] [0:0.74849218130111694] [0.45988532900810242:2.8514955043792725] [0.44726857542991638:3.2012250423431396] [0.26841521263122559:2.3738307952880859] [0.5069395899772644:2.9742825031280518] [0.44495859742164612:2.6137397289276123] [0.27592864632606506:1.5892696380615234] [0.41088303923606873:1.9770228862762451] [0.41896885633468628:2.5431132316589355] [0.42616388201713562:2.3460354804992676] [0.33673125505447388:2.6668953895568848] [0.30643221735954285:2.4085342884063721] [0.24794277548789978:2.2148914337158203] [0.33290991187095642:2.186378002166748] [0.58469218015670776:2.9641323089599609] [0.38409164547920227:2.5553510189056396] [0.39569985866546631:1.84131920337677] [0.41798016428947449:2.3516461849212646] [0.40892747044563293:2.7857258319854736] [0.36520266532897949:1.9490917921066284] [0.20517361164093018:1.5206971168518066] [0.38956755399703979:1.8118797540664673] [0.47542276978492737:2.5876379013061523] [0.4262029230594635:2.4128947257995605] [0.40548026561737061:2.1528186798095703] [0.32783040404319763:1.6372660398483276] [0.31498351693153381:2.2759606838226318] [0.32639008760452271:2.9906582832336426] [0.29096180200576782:2.1382870674133301] [0.33031472563743591:2.2523415088653564] [0.48103028535842896:3.7240757942199707] [0.46573671698570251:3.0912830829620361] [0.1103513166308403:1.3849444389343262] [0.15907104313373566:1.7040861845016479] [0.66352719068527222:3.3897304534912109] [0.2890017032623291:2.2855560779571533] [0.75502389669418335:3.7193944454193115] [0.15746356546878815:1.445675253868103] [0.36227881908416748:2.9104342460632324] [0.34173634648323059:2.2113032341003418] [0.28245577216148376:1.9785186052322388] [0.23764011263847351:2.0570304393768311] [0.11648058891296387:1.5325198173522949] [0.26445573568344116:1.7411652803421021] [0.61738848686218262:3.5727288722991943] [0.24456167221069336:2.1955926418304443] [0.29636639356613159:1.2858306169509888] [0.37914025783538818:1.8631285429000854] [0.29489615559577942:2.2572598457336426] [0.33674493432044983:2.1577498912811279] [0.32156005501747131:1.3796547651290894] [0.35885545611381531:2.6467931270599365] [0.3410777747631073:2.8660244941711426] [0.4876217246055603:3.0962445735931396] [0.53879910707473755:3.2968435287475586] [0.27519193291664124:2.1703393459320068] [0.47774079442024231:2.7378571033477783] [0.4281536340713501:2.4086654186248779] [0.37847989797592163:2.3128175735473633] [0.20620132982730865:1.9723232984542847] [0.38211581110954285:2.5491664409637451] [0.47491049766540527:3.0367329120635986] [0.35836848616600037:2.2343413829803467] [0.24269099533557892:2.0379595756530762] [0.15889467298984528:1.5591155290603638] [0.36190685629844666:2.5619449615478516] [0.34501105546951294:2.8275933265686035] [0.43648931384086609:2.8390247821807861] [0.1893119215965271:1.4674931764602661] [0.28152790665626526:2.4772751331329346] [0.1781071275472641:1.5708043575286865] [0.21529553830623627:1.7722935676574707] [0.52048975229263306:3.1459531784057617] [0.29561862349510193:2.4103028774261475] [0.41331729292869568:3.2327401638031006] [0.45475888252258301:2.5956270694732666] [0.33994176983833313:2.7805733680725098] [0.49986559152603149:3.4858927726745605] [0.34191972017288208:1.9167402982711792] [0.2863878607749939:1.7374628782272339] [0.48093792796134949:2.3503496646881104] [0.42955929040908813:1.6069480180740356] [0.37313443422317505:1.8819692134857178] [0.19195075333118439:1.9315242767333984] [0.35146191716194153:2.4953699111938477] [0.30832353234291077:2.4375209808349609] [0.33495190739631653:2.3152589797973633] [0.21460485458374023:1.6864564418792725] [0.20462527871131897:1.2591255903244019] [0.36632022261619568:2.3047220706939697] [0.22618664801120758:2.4574086666107178] [0.41709232330322266:2.5705497264862061] [0.39087548851966858:2.4389488697052002] [0.70257550477981567:3.4886536598205566] [0.56701397895812988:3.0372543334960938] [0.42564591765403748:3.0716824531555176] [0.22557260096073151:2.7270388603210449] [0.52813833951950073:2.0775322914123535] [0.33226147294044495:1.5808669328689575] [0.22919405996799469:1.4344807863235474] [0.58570891618728638:3.3151211738586426] [0.49509647488594055:2.5394043922424316] [0.69513881206512451:3.2940301895141602] [0.37161320447921753:3.1177375316619873] [0.35555237531661987:2.7183256149291992] [0.67651993036270142:4.0476388931274414] [0.62749379873275757:3.8566999435424805]
tree_sizes=2753 2530 2403 2476 2555 2563 2873 2808 2681 2713 2731 2872 2558 2656 2818 2428 3049 2596 2551 2727 2996 3092 3060 2721 2896 3071 3103 2823 2889 3315 2791 3344 2743 3120 3264 3259 2137 2147 2601 2650 3012 3329 2796 2579 2878 2922 3128 3681 2501 2716 3188 2376 2636 3638 2888 3051 3310 2939 3468 3403 3075 3137 2923 3402 2769 3176 3192 2930 2848 3143 3269 3450 3223 3191 3553 3007 2912 3180 3015 3351 2993 3029 3031 2679 3796 3143 3699 3339 2689 3003 2968 3267 3686 3473 3629 2862 3035 3003 3095 3150 3366 2358 3232 3268 2616 3386 3175 2929 2894 2490 2402 2642 1986 3370 3335 2426 2759 3300 3399 3295 2586 3021 2843 2898 3369 2286 2588 2996 3370 3000 3197 2999 2973 2823 2482 2798 2985 3136 3514 3110 2557 2259 2813 2102 2828 2652 2815 3309 2672 2458 3041 2897 3102 3166 2277 3200 2889 2589 2783 2262 2527 3171 2315 3252 3376 2801 2663 2653 2252 2542 2609 2617 2598 2529 2353 2425 2546 2771 2600 3228 2656 2188 2487 1998 2163 2330 2903 2411 2805 2960 2572 2384 3053 2080 2481 1846 2547 2382 2014 2814 2839 3043 3253 3277 2164 2171 2378 2634 2167 2262 2311 1912 2252 1817 1852 1580 2166 1994 2282 2545 2291 2477 2219 2295 2442 2606 2536 2442 2640 2023 1685 1658 2796 2991 2517 2979 2055 2066 2303 2654 2432 2410 2480 2178 1971 2057 1971 2317 1839 1549 1394 1856 1835 2208 2866 2117 2351 2043 1644 2254 2496 2548 2524 2427 2343 1720 2462 1824 2225 1957 2130 2145 2395 2294 1989 2242 2458 2036 2261 2330 1585 1775 1742 1648 2342 2333 2252 2686 1482 933 1366 1209 2337 1976 2119 2498 2291 2043 2298 1789

Tree=0
num_leaves=31
num_cat=0
split_feature=0 49 45 45 45 6 9 47 67 53 175 23 12 4 31 45 25 108 34 3 108 46 96 143 56 15 9 152 154 91
split_gain=106.219 31.296 15.2605 10.1318 8.60083 6.13763 6.69849 5.93143 5.18132 4.64723 4.09275 3.14691 1.94798 1.73766 1.67598 1.41214 2.0294 1.89545 1.25917 0.910487 0.773494 0.643212 0.480684 1.4182 0.359415 0.232402 0.566195 0.142574 0.0458643 0.0175235
threshold=-0.26120158890365985 1.0028153286528505 0.13534947472604528 -0.63200465714466558 0.61494580714523972 0.21952756017100714 -0.67316491797661426 1.3148804914942753 1.1082404971122743 0.77218512244218551 1.6755383014678957 1.445118328039986 -1.5303692204948469 0.28816041103441242 0.052621925032195531 -0.91976245659618228 0.66836611007460045 1.4303299695253375 -0.11724197215067983 -0.89858642046169257 1.0620569586753847 1.0000000180025095e-35 1.1998837381601335 1.1996295392513276 0.016691138450559612 -1.0000000180025095e-35 0.85101651418269408 0.70976814627647411 0.73791133910417572 1.4517877578735354
decision_type=2 2 2 2 2 2 2 2 2 2 2 2 2 2 2 2 2 2 2 2 2 2 2 2 2 2 2 2 2 2
left_child=4 2 13 25 7 6 -5 11 9 10 -4 12 -1 14 19 24 17 18 -17 -2 -21 -22 28 -24 -15 -3 -27 -20 -6 -25
right_child=1 3 8 5 22 -7 -8 -9 -10 -11 -12 -13 -14 15 -16 16 -18 -19 27 20 21 -23 23 29 -26 26 -28 -29 -30 -31
leaf_value=0.5810872544540886 0.5810872544540886 0.5810872544540886 0.60718634017986683 0.5810872544540886 0.5810872544540886 0.5810872544540886 0.61469951983957849 0.5810872544540886 0.5810872544540886 0.5810872544540886 0.5810872544540886 0.5810872544540886 0.56459671818085888 0.5810872544540886 0.5810872544540886 0.5810872544540886 0.5810872544540886 0.5810872544540886 0.5810872544540886 0.5810872544540886 0.57075813968470024 0.5810872544540886 0.57118892415123268 0.58235668939375862 0.5759213559279156 0.58885446725568791 0.5810872544540886 0.59928324193493554 0.58266452911469924 0.5810872544540886
leaf_weight=12.999999999999998 13.999999999999998 22 101 18 37 32 186 19 43 39 13.999999999999998 23 602 17 21 18 36 28 15.999999999999998 18 115 24 41 23 32 28 18 43 39 21
leaf_count=13 14 22 101 18 37 32 186 19 43 39 14 23 602 17 21 18 36 28 16 18 115 24 41 23 32 28 18 43 39 21
internal_value=0.581087 0.591866 0.584627 0.604139 0.568866 0.608932 0.612081 0.56647 0.595219 0.599161 0.603955 0.565605 0.564979 0.580368 0.576639 0.581715 0.585676 0.589404 0.593187 0.574533 0.573402 0.572228 0.581087 0.577628 0.579704 0.581087 0.584357 0.596456 0.581087 0.581087
internal_weight=0 883 579 304 818 236 204 657 197 154 115 638 615 382 192 190 141 105 77 171 157 139 161 85 49 68 46 59 76 44
internal_count=1701 883 579 304 818 236 204 657 197 154 115 638 615 382 192 190 141 105 77 171 157 139 161 85 49 68 46 59 76 44
is_linear=0
shrinkage=1


Tree=1
num_leaves=33
num_cat=0
split_feature=0 49 45 45 45 50 6 9 39 67 175 31 23 4 31 45 25 108 121 44 1 126 152 9 96 143 45 51 15 9 154 91
split_gain=96.9881 28.5563 13.9695 9.07492 7.75593 6.47173 5.30767 6.00532 4.83392 4.96775 2.67583 2.54515 2.1656 1.51743 1.56814 1.26584 1.90406 1.76889 1.32765 1.258 0.800499 0.650062 0.819536 0.585203 0.42571 1.30253 0.408294 0.239663 0.202517 0.524325 0.0417429 0.0159491
threshold=-0.26120158890365985 1.0028153286528505 0.13534947472604528 -0.63200465714466558 0.61494580714523972 1.1939639387722789 0.21952756017100714 -0.67316491797661426 -0.057173872278339706 1.1147144198417667 1.6755383014678957 -0.075618473710489645 1.445118328039986 0.28816041103441242 0.052621925032195531 -0.91976245659618228 0.66836611007460045 1.4303299695253375 0.57150962948799144 1.2063795161160669 1.0000000180025095e-35 0.94121664762496959 0.61895610690116898 2.0820861324652125 1.1998837381601335 1.1996295392513276 -0.056489058241632487 0.016015763027258694 -1.0000000180025095e-35 0.85101651418269408 0.73791133910417572 1.4517877578735354
decision_type=2 2 2 2 2 2 2 2 2 2 2 2 2 2 2 2 2 2 2 2 2 2 2 2 2 2 2 2 2 2 2 2
left_child=4 2 13 28 5 12 7 -5 -4 10 11 -10 23 14 19 27 17 18 -17 21 -20 22 -2 -1 30 -26 -24 -15 -3 -30 -6 -27
right_child=1 3 8 6 24 -7 -8 -9 9 -11 -12 -13 -14 15 -16 16 -18 -19 20 -21 -22 -23 26 -25 25 31 -28 -29 29 -31 -32 -33
leaf_value=-0.015776907655457775 0 0 0 0 0 0 0 0.032066184433229082 0 0 0 0.026995570462771016 0 0 0 0 0 0 0.01981449693762858 0 0 0 -0.011950376321264344 0 -0.0094431191355796654 0.001211065647136849 0 -0.0041952817648044328 0.0074100484532230622 0 0.0015047384023483032 0
leaf_weight=590 17 22 34 18 37 28 32 186 20 32 18 93 21 15.999999999999998 21 21 36 28 38 28 18 12.999999999999998 93 18 41 23 20 33 28 18 39 21
leaf_count=590 17 22 34 18 37 28 32 186 20 32 18 93 21 16 21 21 36 28 38 28 18 13 93 18 41 23 20 33 28 18 39 21
internal_value=0 0.0103338 0.00337528 0.0220732 -0.0116453 -0.0139221 0.0266265 0.0295843 0.0135167 0.0168392 0.02081 0.0234975 -0.0149741 -0.000650799 -0.00416396 0.000478449 0.00433357 0.00797407 0.0116322 -0.00623467 0.0153687 -0.00806817 -0.00906557 -0.015476 0 -0.00325522 -0.010483 -0.00122764 0 0.00305184 0 0
internal_weight=0 883 579 304 818 657 236 204 197 163 131 113 629 382 192 190 141 105 77 171 56 143 130 608 161 85 113 49 68 46 76 44
internal_count=1701 883 579 304 818 657 236 204 197 163 131 113 629 382 192 190 141 105 77 171 56 143 130 608 161 85 113 49 68 46 76 44
is_linear=0
shrinkage=0.046


Tree=2
num_leaves=31
num_cat=0
split_feature=0 49 45 45 45 50 6 9 39 67 175 36 23 25 47 182 41 45 49 54 9 96 143 48 15 9 91 154 91 9
split_gain=88.634 26.0718 12.8012 8.11872 7.00571 6.05184 4.56432 5.37859 4.47793 4.54375 2.39013 2.25794 1.96725 1.37867 1.62721 1.28178 2.28768 3.17022 0.886025 0.77121 0.467752 0.376375 1.19656 0.294664 0.175922 0.485611 0.0518696 0.0379918 0.0145162 0.00263767
threshold=-0.26120158890365985 1.0028153286528505 0.13534947472604528 -0.63200465714466558 0.61494580714523972 1.1939639387722789 0.21952756017100714 -0.67316491797661426 -0.057173872278339706 1.1147144198417667 1.6755383014678957 -0.016339234325777826 1.445118328039986 0.66836611007460045 -0.51208804577715583 1.0374326169490817 -0.052946481622059886 -0.91976245659618228 0.69038339766706813 0.96403909254955289 2.0820861324652125 1.1998837381601335 1.1996295392513276 1.0000000180025095e-35 -1.0000000180025095e-35 0.85101651418269408 1.376629275083542 0.73791133910417572 1.4517877578735354 -1.7869898107084163
decision_type=2 2 2 2 2 2 2 2 2 2 2 2 2 2 2 2 2 2 2 2 2 2 2 2 2 2 2 2 2 2
left_child=4 2 13 24 5 12 7 -5 -4 10 11 -10 20 15 26 16 -2 -18 23 -17 29 27 -23 -19 -3 -26 -15 -6 -24 -1
right_child=1 3 8 6 21 -7 -8 -9 9 -11 -12 -13 -14 14 -16 19 17 18 -20 -21 -22 22 28 -25 25 -27 -28 -29 -30 -31
leaf_value=0 0 0 0 0 0 0 0 0.03059121872185315 0 0 0 0.024996720063133727 0 -0.012112579099921698 0 -0.0069489023478549374 0 0 0 0 0 -0.0090088420933381839 0.0011553812109869699 0.014403494272645673 0.007069307872117821 0 0 0.001435537865087944 0 -0.015220107967003476
leaf_weight=12.999999999999998 32 22 34 18 37 28 32 186 13.999999999999998 32 18 99 21 45 43 50 37 23 18 44 18 41 23 77 28 18 12.999999999999998 39 21 577
leaf_count=13 32 22 34 18 37 28 32 186 14 32 18 99 21 45 43 50 37 23 18 44 18 41 23 77 28 18 13 39 21 577
internal_value=0 0.00990733 0.0032153 0.0211394 -0.011105 -0.0132704 0.0254641 0.0282395 0.0129305 0.0161307 0.0199284 0.0224756 -0.0142934 -0.000590967 -0.00549562 0 0.00321192 0.00660868 0.010687 -0.00288592 -0.0147717 0 -0.00306079 0.0123901 0 0.00284441 -0.0105804 0 0 -0.0150512
internal_weight=0 883 579 304 818 657 236 204 197 163 131 113 629 382 101 281 187 155 118 94 608 161 85 100 68 46 58 76 44 590
internal_count=1701 883 579 304 818 657 236 204 197 163 131 113 629 382 101 281 187 155 118 94 608 161 85 100 68 46 58 76 44 590
is_linear=0
shrinkage=0.046


Tree=3
num_leaves=31
num_cat=0
split_feature=4 45 49 13 50 45 4 121 152 111 172 1 44 31 50 28 17 27 3 65 41 48 52 50 5 117 13 2 48 101
split_gain=80.0576 23.5257 16.5189 9.21184 5.24495 4.79955 3.34581 3.22286 3.1017 2.54707 2.20037 2.02907 1.9203 1.77221 1.61026 1.23561 1.13695 1.13681 1.4718 1.1341 1.04745 0.869212 1.17255 1.31458 1.15239 2.66683 0.226754 0.141117 0.054879 0.0173089
threshold=0.082741340606552138 -0.53608539066082672 -0.14276841829501816 -0.31847640656701764 -0.005110005913229341 1.4782192054997896 -0.58637615264380683 0.81014829277992262 0.69879058897495283 0.69136503338813793 0.44199942052364355 1.0000000180025095e-35 1.2318991968677724 0.051369956230016042 1.3326638312603729 0.0036318362593560807 -0.90352110321270329 -1.0000000180025095e-35 -0.70745041810594189 1.5260815501213076 -0.018867377189897432 0.82453035801793939 0.14754035993931963 0.86711217919756856 1.5497891356333102 0.93994608372449884 -0.5726008794359575 0.4049392961683082 -0.027788717066906599 1.1353022098541261
decision_type=2 2 2 2 2 2 2 2 2 2 2 2 2 2 2 2 2 2 2 2 2 2 2 2 2 2 2 2 2 2
left_child=2 21 5 -3 7 9 14 8 -5 -1 -6 17 13 16 15 -4 -11 -8 -19 -12 -10 22 23 29 25 -23 -20 -22 -13 -2
right_child=1 3 6 4 10 -7 11 -9 20 12 19 28 -14 -15 -16 -17 -18 18 26 -21 27 24 -24 -25 -26 -27 -28 -29 -30 -31
leaf_value=0 0 0 -0.01026381777156191 0 0 0 0 0 0 0 0.026775850253323595 0 0 0 0 0 -0.015180711126465079 0 0 0 0.024293105435094393 0.015589017785321051 0 0 0 0 0.013634089213612177 0 -0.002000722645562667 -0.011454398195556012
leaf_weight=19 12.999999999999998 55 95 32 23 48 29 36 13.999999999999998 12.999999999999998 253 41 45 12.999999999999998 17 12.999999999999998 565 22 12.999999999999998 13.999999999999998 37 34 12.999999999999998 27 25 24 72 13.999999999999998 29 53
leaf_count=19 13 55 95 32 23 48 29 36 14 13 253 41 45 13 17 13 565 22 13 14 37 34 13 27 25 24 72 14 29 53
internal_value=0 0.0122389 -0.00819784 0.0176962 0.0199988 -0.0121888 0 0.00668486 0.0114703 -0.0132272 0.0245183 0.00387457 -0.0137354 -0.0144879 -0.00564747 -0.00827406 -0.0148697 0.00736928 0.0095657 0.0258915 0.017242 0 -0.00395201 -0.00666912 0.00148699 0.00672305 0.0123214 0.0205507 0 -0.0102376
internal_weight=0 667 1034 478 423 703 331 133 97 655 290 206 636 591 125 108 578 136 107 267 65 189 106 93 83 58 85 51 70 66
internal_count=1701 667 1034 478 423 703 331 133 97 655 290 206 636 591 125 108 578 136 107 267 65 189 106 93 83 58 85 51 70 66
is_linear=0
shrinkage=0.046


Tree=4
num_leaves=32
num_cat=0
split_feature=0 45 49 45 45 46 13 149 1 4 5 135 50 27 5 87 53 17 111 7 59 9 53 50 162 50 155 170 182 172 172
split_gain=77.8621 24.8571 16.5139 8.30422 5.57687 4.54118 4.78802 4.27907 4.77506 3.89912 2.08214 2.07947 2.02255 1.69839 2.29063 1.65352 1.87156 1.62312 1.30024 1.40827 1.21034 1.40736 0.404515 0.382251 0.31969 0.232729 0.0900454 0.0776142 1.06077 0.173124 0.212654
threshold=0.29836470379771557 0.13534947472604528 -0.55934432627606123 1.4782192054997896 -0.63200465714466558 0.35899166608747174 -0.064351933698077762 1.6450096130371097 1.0000000180025095e-35 0.11084427532306686 1.9357700012866432 1.0555429488420489 1.4518214266952156 -1.0000000180025095e-35 -0.47885448384699819 1.5899341225624086 0.68545442402034185 1.2366901756911945 0.69136503338813793 1.1647542114561342 0.11490601163811105 0.67514942585662008 0.71362051465262388 0.20857864645168747 0.88791580200195319 0.10474641354446759 0.95230035781860367 1.5205986738204957 0.95020308494567873 0.72773706614971168 0.81401453018188485
decision_type=2 2 2 2 2 2 2 2 2 2 2 2 2 2 2 2 2 2 2 2 2 2 2 2 2 2 2 2 2 2 2
left_child=2 4 3 9 27 6 12 8 10 18 11 -6 24 -7 -15 16 17 -3 -1 -20 23 22 -22 -8 -4 -16 -5 28 -2 -30 -31
right_child=1 15 5 26 7 13 20 -9 -10 -11 -12 -13 -14 14 25 -17 -18 -19 19 -21 21 -23 -24 -25 -26 -27 -28 -29 29 30 -32
leaf_value=0 0 0.033230054451581448 0 0.002439752305831361 0 0 0 0 0 0 0 0.023596176250960475 0 0 0 0 0 0 -0.015605780294036722 0 0 0 0.014135753648499332 -0.0043878897176813838 -0.012261321183403959 0.019641969197096154 0 0 0 -0.009597910705276028 0
leaf_weight=23 59 146 12.999999999999998 32 13.999999999999998 38 43 36 77 73 12.999999999999998 89 22 42 12.999999999999998 21 13.999999999999998 17 508 37 12.999999999999998 12.999999999999998 32 42 121 40 19 22 12.999999999999998 35 12.999999999999998
leaf_count=23 59 146 13 32 14 38 43 36 77 73 13 89 22 42 13 21 14 17 508 37 13 13 32 42 121 40 19 22 13 35 13
internal_value=0 0.013747 -0.00713517 -0.0115407 0.00513786 0 -0.00322311 0.00971054 0.0126014 -0.0130842 0.0187427 0.0209378 -0.00921107 0.00699216 0.0103087 0.0275542 0.0294801 0.0311128 -0.0144127 -0.0148842 9.28346e-05 0.00664606 0.0110946 0 -0.0114328 0.01679 0 0 -0.00116982 -0.00628349 -0.00760285
internal_weight=0 569 1124 692 371 432 299 229 193 641 116 103 156 133 95 198 177 163 568 545 143 58 45 85 134 53 51 142 120 61 48
internal_count=1693 569 1124 692 371 432 299 229 193 641 116 103 156 133 95 198 177 163 568 545 143 58 45 85 134 53 51 142 120 61 48
is_linear=0
shrinkage=0.046


Tree=5
num_leaves=32
num_cat=0
split_feature=0 45 49 155 45 46 13 15 4 0 6 50 2 27 5 111 7 59 9 3 61 148 127 58 162 92 130 155 50 44 140
split_gain=71.4773 22.936 15.1717 9.101 7.74202 4.14157 4.37279 3.98709 3.45384 3.14408 2.42951 1.88155 1.7838 1.58696 2.08012 1.14238 1.16795 1.08373 1.32088 0.495731 0.429268 0.723067 0.436973 0.270981 0.268008 0.179595 0.0844673 0.0819542 0.0565098 0.00453779 0.00171114
threshold=0.29836470379771557 -0.53608539066082672 -0.55934432627606123 1.1307762265205386 1.4782192054997896 0.35899166608747174 -0.064351933698077762 1.9281243099271197 0.11084427532306686 1.9770635819018421 -1.0000000180025095e-35 1.4518214266952156 -1.0724137274988224 -1.0000000180025095e-35 -0.54617672785630045 0.69136503338813793 1.1647542114561342 0.11490601163811105 0.67514942585662008 -0.28675434852857168 0.19120254249325033 0.81185369193553936 1.1200309455394748 0.49412722402862169 0.88791580200195319 1.2285137116909028 0.74996640682220461 0.95230035781860367 0.10474641354446759 -0.9627933477788978 1.4250722289085391
decision_type=2 2 2 2 2 2 2 2 2 2 2 2 2 2 2 2 2 2 2 2 2 2 2 2 2 2 2 2 2 2 2
left_child=2 20 4 7 8 6 11 9 15 10 -3 24 -12 -7 -15 -1 29 19 -19 -8 21 -2 -23 -14 -4 -22 -27 30 -16 -17 -6
right_child=1 3 5 -5 27 13 17 -9 -10 -11 12 -13 23 14 28 16 -18 18 -20 -21 25 22 -24 -25 -26 26 -28 -29 -30 -31 -32
leaf_value=0 0 0 0 0 0 0 -0.0053237959553312205 0 0 0 0 0 0.026595885432042311 0 0 0 0 0.010632288159330377 0 0 0 -0.0092716565456818136 0 0 -0.011697347526086891 0.005140706306268214 0 0 0.017763125905934263 -0.015316650901162914 0.0030516838914529071
leaf_weight=23 43 21 12.999999999999998 31 12.999999999999998 38 37 13.999999999999998 73 38 12.999999999999998 22 271 38 12.999999999999998 28 37 45 12.999999999999998 48 13.999999999999998 37 31 12.999999999999998 121 28 14.999999999999998 19 44 480 19
leaf_count=23 43 21 13 31 13 38 37 14 73 38 13 22 271 38 13 28 37 45 13 48 14 37 31 13 121 28 15 19 44 480 19
internal_value=0 0.0132122 -0.00679633 0.0192021 -0.0110189 0 -0.00303611 0.0212523 -0.0125153 0.0222063 0.0239366 -0.00877362 0.0251154 0.00672044 0.00992833 -0.0137706 -0.0142151 6.61387e-06 0.00628736 0 0 -0.00255886 -0.0057606 0.0259412 -0.0109235 0.00178409 0.00361313 0 0.0155397 -0.0148879 0.00232756
internal_weight=0 569 1124 401 692 432 299 370 641 356 318 156 297 133 95 568 545 143 58 85 168 111 68 284 134 57 43 51 57 508 32
internal_count=1693 569 1124 401 692 432 299 370 641 356 318 156 297 133 95 568 545 143 58 85 168 111 68 284 134 57 43 51 57 508 32
is_linear=0
shrinkage=0.046


Tree=6
num_leaves=36
num_cat=0
split_feature=0 45 49 45 66 8 46 13 152 4 54 1 39 8 87 50 27 5 111 7 59 9 3 53 133 50 2 15 160 162 144 17 59 155 50
split_gain=65.3303 21.5431 13.9616 7.24336 4.51681 4.44706 3.77241 3.9911 3.16691 3.06342 1.99807 2.92785 1.85501 2.12913 2.53542 1.75136 1.47978 1.91724 1.00433 0.960095 0.956892 1.23164 0.451185 0.366766 0.252259 0.571904 0.613182 0.52169 0.488529 0.221993 0.127063 0.463066 0.935495 0.0761915 0.0609213
threshold=0.29836470379771557 0.13534947472604528 -0.55934432627606123 1.4782192054997896 1.2109104961156849 -1.3245537276229336 0.35899166608747174 -0.064351933698077762 0.74053658843040482 0.11084427532306686 1.042219093824067 1.0000000180025095e-35 -0.018217620270898734 1.0907472813312249 1.5899341225624086 1.4518214266952156 -1.0000000180025095e-35 -0.47885448384699819 0.69136503338813793 1.1647542114561342 0.11490601163811105 0.67514942585662008 -0.28675434852857168 0.71362051465262388 1.1620587468147281 -0.060278721365380157 0.6287806633906009 -1.0000000180025095e-35 1.4368316352367403 0.88791580200195319 1.1855803787708286 0.72519314048145789 0.4265684548719843 0.95230035781860367 0.10474641354446759
decision_type=2 2 2 2 2 2 2 2 2 2 2 2 2 2 2 2 2 2 2 2 2 2 2 2 2 2 2 2 2 2 2 2 2 2 2
left_child=2 4 3 9 8 -3 7 15 30 18 11 -10 -7 14 -14 29 -8 -18 -1 -20 22 23 -9 -22 28 -26 27 -27 -6 -4 31 32 -2 -5 -19
right_child=1 5 6 33 24 12 16 20 10 -11 -12 -13 13 -15 -16 -17 17 34 19 -21 21 -23 -24 -25 25 26 -28 -29 -30 -31 -32 -33 -34 -35 -36
leaf_value=0 0.0084689018488512974 0 0 0.0022442349528044845 0 0 0 -0.0050789671825480056 0.02701642757792393 0 0 0 0.034476016608404658 0 0 0 0 0 -0.014222210698356679 0 0 0 0 0.012996779885451447 0 0 0 0.0093885755130530164 -0.0068837299794003801 -0.011159314029365125 0 0 0 0 0.017921764763913373
leaf_weight=23 45 23 12.999999999999998 32 14.999999999999998 17 38 37 47 73 15.999999999999998 27 128 14.999999999999998 14.999999999999998 22 42 12.999999999999998 508 37 12.999999999999998 12.999999999999998 48 32 48 27 13.999999999999998 41 33 121 28 14.999999999999998 14.999999999999998 19 40
leaf_count=23 45 23 13 32 15 17 38 37 47 73 16 27 128 15 15 22 42 13 508 37 13 13 48 32 48 27 14 41 33 121 28 15 15 19 40
internal_value=0 0.0126456 -0.00648341 -0.0105341 0.00453492 0.0255189 0 -0.00286166 0.00943664 -0.0119877 0.0162911 0.0194911 0.028117 0.0300077 0.0320377 -0.00835629 0.00645014 0.00954992 -0.0131752 -0.0135945 0 0.00590796 0 0.0101433 0 0.000159395 0.00384661 0.0060762 -0.00332405 -0.0104377 0 0.00189325 0.00456163 0 0.0154916
internal_weight=0 569 1124 692 371 198 432 299 193 641 90 74 175 158 143 156 133 95 568 545 143 58 85 45 178 130 82 68 48 134 103 75 60 51 53
internal_count=1693 569 1124 692 371 198 432 299 193 641 90 74 175 158 143 156 133 95 568 545 143 58 85 45 178 130 82 68 48 134 103 75 60 51 53
is_linear=0
shrinkage=0.046


Tree=7
num_leaves=34
num_cat=0
split_feature=0 45 46 94 49 1 130 58 50 17 0 53 9 27 5 13 23 45 4 31 23 2 121 61 148 172 73 23 92 13 1 152 140
split_gain=59.8978 19.9664 13.061 7.23816 6.25906 3.94013 2.79909 2.4965 2.45809 2.06931 1.90982 1.82227 1.75055 1.68515 1.77107 1.53272 1.21784 0.985178 1.05946 0.851474 0.750051 1.33501 0.468551 0.394548 0.674835 0.512904 0.196304 0.182518 0.154157 0.150267 0.155794 0.0881532 0.441249
threshold=0.29836470379771557 -0.53608539066082672 0.35899166608747174 1.6760814785957339 0.69038339766706813 1.0000000180025095e-35 0.80237248539924633 0.54104056468169259 -0.007804068899897783 0.72519314048145789 1.9770635819018421 0.61810549262682979 1.9062190441391385 -1.0000000180025095e-35 -0.47885448384699819 -0.48789272181297755 1.7373941480912933 1.4782192054997896 0.11084427532306686 0.052621925032195531 -0.49851587530120939 0.4049392961683082 0.62821584641933448 0.19120254249325033 0.81185369193553936 0.85088226795196542 1.5068049669265748 -1.2438192164320434 1.2285137116909028 -0.064351933698077762 -1.0000000180025095e-35 0.84906011819839489 1.4189825475215914
decision_type=2 2 2 2 2 2 2 2 2 2 2 2 2 2 2 2 2 2 2 2 2 2 2 2 2 2 2 2 2 2 2 2 2
left_child=2 23 4 5 6 7 12 10 17 11 15 20 16 -10 -15 -3 19 18 22 27 -7 -22 -4 24 -2 -26 -24 -1 -25 -6 -31 32 -19
right_child=1 3 8 -5 29 9 -8 -9 13 -11 -12 -13 -14 14 -16 -17 -18 31 -20 -21 21 -23 26 28 25 -27 -28 -29 -30 30 -32 -33 -34
leaf_value=0 0 0 0 0 0 0 0 0 0 0 0 0 0 0 0.016245410122540663 0.029625940449829979 0 0 0 0 0.016909340904342023 0 -0.0089579130713930716 0 -0.0078873851601377488 0 0 -0.012849952969204763 0.0031938403366721249 0.0047248432427511181 0 0 0.0071341275139756221
leaf_weight=14.999999999999998 43 12.999999999999998 21 31 15.999999999999998 12.999999999999998 87 12.999999999999998 35 13.999999999999998 19 13.999999999999998 22 34 48 173 13.999999999999998 12.999999999999998 14.999999999999998 41 81 30 72 13.999999999999998 52 15.999999999999998 12.999999999999998 593 43 28.999999999999996 14.000000000000002 20 22
leaf_count=15 43 13 21 31 16 13 87 13 35 14 19 14 22 34 48 173 14 13 15 41 81 30 72 14 52 16 13 593 43 29 14 20 22
internal_value=0 0.0121427 -0.00617408 0.0177362 -0.00919646 0.019553 -0.0104016 0.0252762 0.000828042 0.00831755 0.0265549 0.0103888 -0.0114272 0.00676634 0.0104308 0.0282652 -0.0118533 -0.000506246 -0.00419521 -0.0121451 0.0122965 0.0135355 -0.00642162 0 -0.00255086 -0.00562291 -0.00794272 -0.0126654 0.00140496 0 0.00271897 0 0.00230824
internal_weight=0 569 1124 401 831 370 772 218 293 152 205 138 685 117 82 186 663 176 121 649 124 111 106 168 111 68 85 608 57 59 43 55 35
internal_count=1693 569 1124 401 831 370 772 218 293 152 205 138 685 117 82 186 663 176 121 649 124 111 106 168 111 68 85 608 57 59 43 55 35
is_linear=0
shrinkage=0.046


Tree=8
num_leaves=34
num_cat=0
split_feature=49 0 45 45 39 45 155 15 3 155 17 9 49 0 39 44 50 92 3 111 19 152 2 7 130 50 121 67 13 172 34 122 92
split_gain=64.8855 17.2826 11.092 6.20654 5.18052 5.04453 4.37057 3.17035 4.60848 2.74539 2.96698 2.57966 1.89008 1.87367 1.62933 2.69262 1.25296 1.25102 1.09992 1.05121 1.03226 0.981275 0.884183 0.621021 0.549413 0.449827 0.447103 1.13809 0.331137 0.0437296 0.619953 0.000840974 0.000593625
threshold=0.69038339766706813 -0.26120158890365985 -0.63200465714466558 0.13534947472604528 -0.057173872278339706 1.2863806725321119 1.1854288578033449 -0.37588478034185097 -0.34291026500386901 0.5562488034367562 1.380268290837787 1.4958625047116323 -0.55934432627606123 1.9770635819018421 0.020436628722424265 1.2318991968677724 0.11385388928866914 1.1104972302913667 -0.89858642046169257 0.69136503338813793 1.0719740630683889 0.95058644413948068 -0.49042617272086192 0.72386698174811004 0.83656704425811779 1.1939639387722789 0.5905383214354516 1.0010536909103396 -0.65730903705893751 0.7011142522096635 -0.1605070107158853 1.5444071263074879 1.177334088087082
decision_type=2 2 2 2 2 2 2 2 2 2 2 2 2 2 2 2 2 2 2 2 2 2 2 2 2 2 2 2 2 2 2 2 2
left_child=1 5 31 14 -4 12 9 -5 -9 -6 13 -10 19 -11 15 18 -14 -18 -3 -1 -21 25 -20 24 28 -19 -16 -28 -24 30 -7 32 -2
right_child=2 3 4 7 6 29 -8 8 11 10 -12 -13 16 -15 26 -17 17 21 22 20 -22 -23 23 -25 -26 -27 27 -29 -30 -31 -32 -33 -34
leaf_value=0 0 0 0 0 0 0.0076478948324037455 0 0 0.023730125574407377 0.027331749442723503 0 0 0 0 0 0 0 -0.010756603103792797 0 -0.013784490655119148 0 0 0 0 0 0 0.012741879957849101 0 -0.012009902038390712 0 0 0 0.00036321577690104611
leaf_weight=15.999999999999998 22 15.999999999999998 18 49 28 24 14.999999999999998 33 62 220 18 13.999999999999998 79 24 19 31 17 98 13.999999999999998 446 24 24 12.999999999999998 30 12.999999999999998 12.999999999999998 21 27 119 31 18 49 23
leaf_count=16 22 16 18 49 28 24 15 33 62 220 18 14 79 24 19 31 17 98 14 446 24 24 13 30 13 13 21 27 119 31 18 49 23
internal_value=0 -0.00511087 0.0158392 0.00111097 0.0199136 -0.00932384 0.0213517 0.00907061 0.0134462 0.0226134 0.0242525 0.0196872 -0.0105201 0.0256379 -0.00152166 -0.00416415 -0.00361181 -0.0061046 -0.00691042 -0.012857 -0.0132538 -0.00784638 -0.00800689 -0.00894031 -0.0102726 -0.0096737 0.000920816 0.00457047 -0.0111681 0 0.00148412 0 0.000198836
internal_weight=0 1251 417 461 323 790 305 158 109 290 262 76 717 244 303 236 231 152 205 486 470 135 189 175 145 111 67 48 132 73 42 94 45
internal_count=1668 1251 417 461 323 790 305 158 109 290 262 76 717 244 303 236 231 152 205 486 470 135 189 175 145 111 67 48 132 73 42 94 45
is_linear=0
shrinkage=0.046


Tree=9
num_leaves=34
num_cat=0
split_feature=49 5 45 47 30 4 155 45 45 28 155 17 44 10 51 28 5 101 3 48 23 5 8 4 50 31 35 21 49 50 76 71 76
split_gain=59.3709 11.8314 10.0576 6.63461 4.6182 4.34275 4.06907 3.42116 3.07934 3.04159 2.43687 2.82029 1.90719 2.42607 2.44498 2.77034 1.16606 1.30762 1.08748 1.01445 0.952898 0.89955 0.656256 0.455301 0.368228 0.890385 0.486812 0.295263 0.570311 0.0516363 0.0335845 0.197357 0.0251895
threshold=0.69038339766706813 -0.68082121587490485 -0.63200465714466558 -0.51208804577715583 0.078466154468699298 -0.043052748124515546 1.1854288578033449 1.5741384719836284 -0.056489058241632487 -0.022228962920513403 0.6058908611536028 1.380268290837787 1.2318991968677724 -1.0000000180025095e-35 0.01627198945144586 0.00091925340853068853 -0.52822412945381969 1.2151364654302599 -0.87795784291652512 -0.28385578284214413 1.2989804180143321 0.9034955931440084 -1.3245537276229336 -0.26854534334988633 0.17011886710644722 0.035313015507978662 -0.2559393498529246 1.0000000180025095e-35 -0.14276841829501816 -0.090787304845653741 2.0756515622138982 1.2006396174430849 2.4349500894546514
decision_type=2 2 2 2 2 2 2 2 2 2 2 2 2 2 2 2 2 2 2 2 2 2 2 2 2 2 2 2 2 2 2 2 2
left_child=1 7 30 4 12 -4 10 20 24 -10 -7 22 13 -3 15 18 -11 -18 -15 -19 23 -20 -12 -1 27 26 -26 28 -5 -30 31 -2 -32
right_child=2 3 5 8 -6 6 -8 -9 9 16 11 -13 -14 14 -16 -17 17 19 21 -21 -22 -23 -24 -25 25 -27 -28 -29 29 -31 32 -33 -34
leaf_value=-0.013924812745013166 0 0 0 0 0.0047655156073708373 0 0 0 0 0 0 0 0 0 0 0 0 0 -0.012132414635627024 0.021412465269017328 0 0 0.026512947069492279 0 0 0 -0.0074129885229632453 0 0 0.008500659838732591 -0.0013110429846214041 0.0043344964251432081 0
leaf_weight=329 13.999999999999998 39 22 25 39 38 14.999999999999998 25 72 12.999999999999998 20 18 41 12.999999999999998 17 23 19 14.999999999999998 308 51 22 12.999999999999998 210 33 15.999999999999998 13.999999999999998 67 17 12.999999999999998 27 31 26 23
leaf_count=329 14 39 22 25 39 38 15 25 72 13 20 18 41 13 17 23 19 15 308 51 22 13 210 33 16 14 67 17 13 27 31 26 23
internal_value=0 -0.00486419 0.015175 -0.00112112 -0.00494224 0.0190573 0.0205001 -0.0114451 0.00295861 0.00750307 0.0217347 0.0237817 -0.00678945 -0.00777457 -0.00897064 -0.00993961 0.0127796 0.0147417 -0.0110973 0.0179384 -0.0125845 -0.0116321 0.0252146 -0.0131744 0 -0.00281405 -0.00565254 0.000365542 0.00312715 0.00678611 0 0.00133273 0
internal_weight=0 1251 417 842 493 323 301 409 349 170 286 248 454 413 374 357 98 85 334 66 384 321 230 362 179 97 83 82 65 40 94 40 54
internal_count=1668 1251 417 842 493 323 301 409 349 170 286 248 454 413 374 357 98 85 334 66 384 321 230 362 179 97 83 82 65 40 94 40 54
is_linear=0
shrinkage=0.046


Tree=10
num_leaves=34
num_cat=0
split_feature=0 46 39 45 47 1 159 41 45 50 8 130 23 46 84 15 3 15 44 8 155 130 176 19 32 31 151 23 2 23 48 172 34
split_gain=53.3871 21.7997 7.49067 4.93046 4.62115 4.52713 5.5768 4.83204 3.96225 3.06058 2.79466 2.5327 1.6736 1.56923 1.17051 0.704587 0.986976 0.644418 0.657457 0.883986 0.697917 0.593578 0.539769 0.409442 0.387348 1.50788 0.305454 0.181062 0.13269 0.101918 0.0898954 0.0263647 0.580068
threshold=-0.26120158890365985 0.13160797934422833 -0.051128826097162024 -0.82384319011234342 -0.51208804577715583 1.0000000180025095e-35 1.7176982879638674 -0.022803495008394035 1.2863806725321119 1.1939639387722789 -1.3245537276229336 0.60745446979999562 1.7373941480912933 -0.62633764313324958 0.13324297145009042 -0.37588478034185097 -0.25202160572041798 0.095074993620944556 1.1936196757402142 0.72479258300483707 1.0484879612922671 0.36074380576610571 1.4228959441185001 1.0719740630683889 0.036958122565114597 -0.012901890066660973 1.3364008307456972 1.2989804180143321 -1.0000000180025095e-35 -1.3680364399538492 0.3053912292122048 0.7011142522096635 -0.1605070107158853
decision_type=2 2 2 2 2 2 2 2 2 2 2 2 2 2 2 2 2 2 2 2 2 2 2 2 2 2 2 2 2 2 2 2 2
left_child=8 3 -3 14 15 6 7 -5 9 12 -6 -9 21 -13 -2 -4 -17 18 19 20 -16 -1 -15 27 26 -26 -7 29 -28 -23 -31 32 -10
right_child=1 2 4 5 10 24 -8 11 31 -11 -12 13 -14 22 17 16 -18 -19 -20 -21 -22 23 -24 -25 25 -27 28 -29 -30 30 -32 -33 -34
leaf_value=0 0 0 0 0 0 0 0 0 0.0073106013924218571 0 0.027939919087351942 0 0 0.025461861734434356 -0.012577088493918706 0 0.010644103822129464 0 0 0 0 0 0 0 0.011163898810933342 0 0 0 -0.0059430895131519753 -0.011271080978290968 0 0 0
leaf_weight=13.999999999999998 36 39 18 41 20 15.999999999999998 63 38 24 29 170 13.999999999999998 14.999999999999998 80 66 19 36 17 12.999999999999998 14.999999999999998 14.999999999999998 14.999999999999998 12.999999999999998 25 26 34 22 14.999999999999998 48 605 12.999999999999998 34 20
leaf_count=14 36 39 18 41 20 16 63 38 24 29 170 14 15 80 66 19 36 17 13 15 15 15 13 25 26 34 22 15 48 605 13 34 20
internal_value=0 0.00817593 0.0183483 0.0018345 0.0211387 0.00514212 0.00896742 0.0130802 -0.00828607 -0.00935169 0.0258331 0.0170286 -0.0100146 0.0210482 -0.00339087 0.00261819 0.00601667 -0.00586843 -0.00723312 -0.00859604 -0.0105197 -0.0103748 0.0233541 -0.0105708 0 0.000921997 -0.00298937 -0.0108347 -0.00449564 -0.0109899 -0.0111381 0 0.00112588
internal_weight=0 859 302 557 263 395 249 186 809 731 190 145 702 107 162 73 55 126 109 96 81 687 93 673 146 60 86 648 70 633 618 78 44
internal_count=1668 859 302 557 263 395 249 186 809 731 190 145 702 107 162 73 55 126 109 96 81 687 93 673 146 60 86 648 70 633 618 78 44
is_linear=0
shrinkage=0.046


Tree=11
num_leaves=36
num_cat=0
split_feature=0 46 39 45 47 1 159 41 45 158 15 3 47 46 8 171 9 84 19 111 48 15 44 8 155 31 148 28 32 31 151 67 2 172 34
split_gain=48.8396 19.9066 6.88086 4.4604 4.20145 4.19558 5.21821 4.48866 3.59215 2.44333 1.93079 1.89369 1.69985 1.65309 1.57339 1.89251 1.45669 1.08231 1.00531 1.08962 1.26463 0.596018 0.609124 0.815889 0.625597 0.387311 0.548711 0.838775 0.340986 1.38047 0.286988 0.168904 0.11527 0.0184755 0.533471
threshold=-0.26120158890365985 0.13160797934422833 -0.051128826097162024 -0.82384319011234342 -1.0000000180025095e-35 1.0000000180025095e-35 1.7176982879638674 -0.022803495008394035 1.2863806725321119 0.95921728014945995 -0.37588478034185097 -0.4172617499147826 1.3148804914942753 1.0000000180025095e-35 -1.3245537276229336 0.62354339957237259 1.4958625047116323 0.13324297145009042 1.0719740630683889 0.69136503338813793 0.3053912292122048 0.095074993620944556 1.1936196757402142 0.72479258300483707 1.0484879612922671 0.055321592970416389 1.0881410837173464 0.00068552088776040404 0.036958122565114597 -0.012901890066660973 1.3364008307456972 0.80490417778491985 -1.0000000180025095e-35 0.7011142522096635 -0.1605070107158853
decision_type=2 2 2 2 2 2 2 2 2 2 2 2 2 2 2 2 2 2 2 2 2 2 2 2 2 2 2 2 2 2 2 2 2 2 2
left_child=8 3 -3 17 10 6 7 -5 12 -9 -4 -12 18 31 -6 -16 -13 -2 19 -1 25 22 23 24 -19 26 27 -21 30 -30 -7 -11 -32 34 -10
right_child=1 2 4 5 14 28 -8 9 33 13 11 16 -14 -15 15 -17 -18 21 -20 20 -22 -23 -24 -25 -26 -27 -28 -29 29 -31 32 -33 -34 -35 -36
leaf_value=0 0 0 0 0 0 0 0 0 0.0069744543525786353 0 0 0.017675947944561593 0 0 0 0.030798774306078427 0 -0.011998630109979714 0 -0.011556890145993553 0 0 0 0 0 0 0 0 0.010650556792620738 0 0 0.021367400292044262 -0.0056697643000591397 0 0
leaf_weight=23 36 39 25 41 14.999999999999998 15.999999999999998 63 12.999999999999998 24 13.999999999999998 20 50 23 12.999999999999998 13.999999999999998 126 12.999999999999998 66 30 544 20 17 12.999999999999998 14.999999999999998 14.999999999999998 18 15.999999999999998 57 26 34 22 105 48 34 20
leaf_count=23 36 39 25 41 15 16 63 13 24 14 20 50 23 13 14 126 13 66 30 544 20 17 13 15 15 18 16 57 26 34 22 105 48 34 20
internal_value=0 0.00783617 0.0175665 0.00173442 0.020241 0.00490433 0.00859113 0.0125764 -0.00790832 0.0163825 0.0064188 0.0101404 -0.0089226 0.0182751 0.0269034 0.0287248 0.0141088 -0.00315518 -0.00934234 -0.00970972 -0.0100553 -0.00556541 -0.00688284 -0.00819833 -0.0100483 -0.0104167 -0.0106302 -0.0108601 0 0.000699501 -0.00283681 0.0199963 -0.0043082 0 0.000942496
internal_weight=0 859 302 557 263 395 249 186 809 145 108 83 731 132 155 140 63 162 708 678 655 126 109 96 81 635 617 601 146 60 86 119 70 78 44
internal_count=1668 859 302 557 263 395 249 186 809 145 108 83 731 132 155 140 63 162 708 678 655 126 109 96 81 635 617 601 146 60 86 119 70 78 44
is_linear=0
shrinkage=0.046


Tree=12
num_leaves=32
num_cat=0
split_feature=49 0 1 46 99 3 46 37 13 23 39 13 77 46 57 7 15 9 48 46 9 19 48 3 84 44 31 162 17 19 84
split_gain=39.255 9.63859 6.46786 4.45721 4.66864 4.08742 3.61866 3.95419 3.5027 2.57052 2.53661 2.16814 2.40163 2.15065 1.91694 1.73258 1.51214 1.41275 1.35243 1.01616 0.993381 1.29847 0.873373 0.632497 0.460056 0.652841 0.551501 0.436579 0.425185 0.387747 0.0493944
threshold=0.69038339766706813 -0.54098473525434754 1.0000000180025095e-35 -0.85372132987649285 1.6035312414169314 -0.75334763990223119 -0.85372132987649285 1.1090170746603953 -0.5726008794359575 1.7373941480912933 -0.057173872278339706 -0.74201719468191751 0.54700660705566417 1.9127801921663017 0.37903601414511023 -1.1131631420353232 1.8542482669525635 1.4372401419362741 1.0335827165670486 0.9274508829455802 1.3199954163855583 -0.68750238609775194 -0.27789751955304859 -0.77871121504200358 0.28281381577253345 1.1043007931092452 0.044730994905782466 1.3994832038879397 -0.83173204563940695 0.80128537858129023 0.15912171229720121
decision_type=2 2 2 2 2 2 2 2 2 2 2 2 2 2 2 2 2 2 2 2 2 2 2 2 2 2 2 2 2 2 2
left_child=1 9 3 23 5 -5 -2 10 -7 13 -8 -12 -13 17 20 -14 -17 24 19 22 21 -10 -4 -3 25 26 29 -25 -24 -1 -6
right_child=6 2 18 4 30 8 7 -9 14 -11 11 12 15 -15 -16 16 -18 -19 -20 -21 -22 -23 28 27 -26 -27 -28 -29 -30 -31 -32
leaf_value=-0.011173700828938326 0 0 0 0 0 0 0 0 0 0 0 0 0 0 0 0.0213042056645973 0 0 0 0 0 0.020571652979895494 0 -0.0063592911155633406 0 0 0 0 -0.011020561473720989 0 -0.0012132126585629064
leaf_weight=475 73 14.999999999999998 26 42 20 27 21 59 18 13.999999999999998 13.999999999999998 13.999999999999998 15.999999999999998 28 14.999999999999998 219 12.999999999999998 22 31 33 17 113 19 72 28 12.999999999999998 12.999999999999998 12.999999999999998 142 13.999999999999998 71
leaf_count=475 73 15 26 42 20 27 21 59 18 14 14 14 16 28 15 219 13 22 31 33 17 113 19 72 28 13 13 13 142 14 71
internal_value=0 -0.00410523 0 0.00315032 0.00633905 0.00992592 0.0119706 0.013935 0.0128771 -0.00831657 0.0161533 0.0173271 0.0182697 -0.00894262 0.0154517 0.0193162 0.0203629 -0.00959103 -0.00614805 -0.00749212 0.0170398 0.0185493 -0.00880538 -0.00254931 -0.0100608 -0.0104218 -0.0106854 -0.00483625 -0.0100764 -0.0109361 0
internal_weight=0 1281 674 423 323 232 429 356 190 607 297 276 262 593 163 248 232 565 251 220 148 131 187 100 543 515 502 85 161 489 91
internal_count=1710 1281 674 423 323 232 429 356 190 607 297 276 262 593 163 248 232 565 251 220 148 131 187 100 543 515 502 85 161 489 91
is_linear=0
shrinkage=0.046


Tree=13
num_leaves=33
num_cat=0
split_feature=49 0 1 45 45 37 67 12 23 39 45 13 77 7 15 9 48 45 48 13 3 170 130 41 44 84 111 31 12 19 4 41
split_gain=35.9889 8.65445 5.82291 4.19479 3.23057 3.51634 3.22147 2.58731 2.42715 2.30407 2.00337 1.98116 2.19404 1.5263 1.32676 1.30637 1.26236 0.928771 0.789011 0.697603 1.06047 1.42486 2.72186 0.467063 0.395616 0.577388 0.575614 0.584157 0.388091 0.30265 0.0483245 0.0100423
threshold=0.69038339766706813 -0.54098473525434754 1.0000000180025095e-35 0.13534947472604528 -0.82384319011234342 1.1090170746603953 1.1087531089782716 -0.17411386340959334 1.7373941480912933 -0.057173872278339706 1.8618962714351452 -0.74201719468191751 0.54700660705566417 -1.1131631420353232 1.8542482669525635 1.4372401419362741 1.0335827165670486 0.9027036065967563 -0.27789751955304859 -1.0000000180025095e-35 0.11213611509220416 1.4470919609069826 0.67040508687496192 0.01431680340265523 1.1043007931092452 0.28281381577253345 0.69136503338813793 0.042750768194729609 0.95609893416145153 0.66594103633774082 1.5628292356763465 -0.074599592342406165
decision_type=2 2 2 2 2 2 2 2 2 2 2 2 2 2 2 2 2 2 2 2 2 2 2 2 2 2 2 2 2 2 2 2
left_child=1 8 3 19 -2 9 7 -5 10 -6 15 -11 -13 -14 -15 24 17 18 -4 23 21 22 -21 -3 25 26 -1 29 -20 -28 -22 -24
right_child=4 2 16 6 5 -7 -8 -9 -10 11 -12 12 13 14 -16 -17 -18 -19 28 20 30 -23 31 -25 -26 -27 27 -29 -30 -31 -32 -33
leaf_value=0 0 -0.0056585863584574531 0 0 0 0 0 0.01671396903982458 0 0 0 0 0 0.020324256904020108 0 0 0 0 -0.010421925263810625 0 -0.0015242835962617975 0 0 0 0 0 -0.011001564812048273 0 0 0 0 0.016204946818836233
leaf_weight=17 73 69 26 18 21 59 37 89 13.999999999999998 13.999999999999998 28 13.999999999999998 15.999999999999998 219 12.999999999999998 22 31 33 145 37 44 46 12.999999999999998 13.999999999999998 13.999999999999998 27 457 12.999999999999998 15.999999999999998 14.999999999999998 12.999999999999998 43
leaf_count=17 73 69 26 18 21 59 37 89 14 14 28 14 16 219 13 22 31 33 145 37 44 46 13 14 14 27 457 13 16 15 13 43
internal_value=0 -0.00392239 0 0.0029567 0.0114703 0.0133322 0.00934422 0.0134613 -0.00791436 0.0154307 -0.00853091 0.0165496 0.0174506 0.0184508 0.0194378 -0.00915892 -0.00586127 -0.00716492 -0.00842044 0 0.00114005 0.0042397 0.00769942 -0.00383582 -0.00961119 -0.00981846 -0.0101991 -0.0104966 -0.00962926 -0.0107625 0 0.014187
internal_weight=0 1281 674 423 429 356 144 107 607 297 593 276 262 248 232 565 251 220 187 279 196 139 93 83 543 529 502 485 161 472 57 56
internal_count=1710 1281 674 423 429 356 144 107 607 297 593 276 262 248 232 565 251 220 187 279 196 139 93 83 543 529 502 485 161 472 57 56
is_linear=0
shrinkage=0.046


Tree=14
num_leaves=35
num_cat=0
split_feature=49 5 1 45 124 28 48 6 51 31 99 6 9 45 48 45 148 19 19 29 2 15 3 104 28 130 13 15 65 30 21 111 47 84
split_gain=33.0127 9.3349 5.4206 4.36554 5.21692 3.11048 3.07353 2.96314 2.61396 2.58467 1.84621 1.50763 1.48058 1.37176 1.37256 1.25747 1.1795 1.13479 1.0687 0.948793 1.64638 0.926793 0.707277 2.07248 0.696638 0.595173 0.526417 1.57493 0.440283 0.375746 0.341603 1.15116 0.226889 0.150855
threshold=0.69038339766706813 -0.68082121587490485 1.0000000180025095e-35 -0.63200465714466558 1.1682399928569795 -0.021158395592307647 -0.044186037493016438 -1.0000000180025095e-35 0.016478045590283003 -0.10771824846383564 1.8485450148582461 0.57896916657736008 0.79239415140733604 1.5741384719836284 1.0335827165670486 1.8618962714351452 0.92421618103981029 1.8840401165296845 1.0719740630683889 -0.46356099140462931 -0.6247309930542374 -0.53287137166278276 0.080937713867446373 0.86158905625343329 0.031184562875224395 0.76958432197570814 -0.74201719468191751 -0.78220301670190973 1.3443379163742069 -0.19180655944858424 -0.45789646276137203 1.2028392285108569 -0.51208804577715583 0.25690652728080754
decision_type=2 2 2 2 2 2 2 2 2 2 2 2 2 2 2 2 2 2 2 2 2 2 2 2 2 2 2 2 2 2 2 2 2 2
left_child=1 12 3 16 5 22 -7 -2 9 -9 11 26 15 14 19 24 18 28 21 -4 -21 -3 23 -5 29 -23 -11 -28 -8 -1 -22 -32 33 -6
right_child=7 2 13 4 32 6 17 8 -10 10 -12 -13 -14 -15 -16 -17 -18 -19 -20 20 30 25 -24 -25 -26 -27 27 -29 -30 -31 31 -33 -34 -35
leaf_value=0 0 0 0 0 -0.0042042592910975602 0 0.021087374101468895 0 0 0 0 0 0 0 0 0 0 0 0 0 0 -0.010759311309134783 0 0.012124861043502438 0 0 0 0.017478893837476989 0 -0.011457329907125037 0 -0.013297361318571656 0 0
leaf_weight=13.999999999999998 27 18 59 57 50 49 82 24 49 15.999999999999998 13.999999999999998 19 31 21 29 14.999999999999998 30 13.999999999999998 15.999999999999998 13.999999999999998 19 83 44 40 15.999999999999998 20 15.999999999999998 264 12.999999999999998 348 12.999999999999998 139 33 13.999999999999998
leaf_count=14 27 18 59 57 50 49 82 24 49 16 14 19 31 21 29 15 30 14 16 14 19 83 44 40 16 20 16 264 13 348 13 139 33 14
internal_value=0 -0.00374959 -0.000407619 0.00162665 0.00479246 0.00818864 0.0129824 0.0109931 0.0120233 0.0134274 0.0144938 0.0152252 -0.00941943 -0.00586768 -0.00690724 -0.0101831 -0.00312579 0.0174346 -0.00548875 -0.00807977 -0.00984648 -0.00726617 0 0.00392775 -0.0107168 -0.00900338 0.0160457 0.0166179 0.0193398 -0.0111354 -0.011192 -0.0120695 -0.000934178 -0.00297034
internal_weight=0 1281 857 563 396 299 158 429 402 353 329 315 424 294 273 393 167 109 137 244 185 121 141 97 378 103 296 280 95 362 171 152 97 64
internal_count=1710 1281 857 563 396 299 158 429 402 353 329 315 424 294 273 393 167 109 137 244 185 121 141 97 378 103 296 280 95 362 171 152 97 64
is_linear=0
shrinkage=0.046


Tree=15
num_leaves=30
num_cat=0
split_feature=49 0 1 45 45 75 13 57 37 23 49 7 45 43 163 44 45 8 48 31 160 31 111 48 9 12 3 52 72
split_gain=30.1869 7.32723 4.77542 4.15013 3.15673 2.87862 2.85787 3.73062 2.82754 2.13259 1.81851 1.7544 1.69151 1.51314 1.25608 1.09967 1.04451 1.03183 0.946339 0.84231 0.838944 0.811969 0.716065 0.491961 0.297498 0.292049 0.279405 0.262426 0.0223659
threshold=0.86395669265916941 -0.54098473525434754 1.0000000180025095e-35 -0.82384319011234342 -0.82384319011234342 0.98793278038501753 -0.48789272181297755 0.4012749551977472 1.1090170746603953 1.7373941480912933 0.69038339766706813 -1.1866443469866603 1.8618962714351452 0.4138052236522024 0.66960029304027568 1.1298204738609507 0.9027036065967563 0.50521976400900448 1.0335827165670486 0.046663611535625767 1.6342043161392215 -0.10771824846383564 0.82735213637352001 -0.27789751955304859 1.6131072302623484 1.1256308537971085 1.7655295700562259 0.19820389752778669 1.2002644181251527
decision_type=2 2 2 2 2 2 2 2 2 2 2 2 2 2 2 2 2 2 2 2 2 2 2 2 2 2 2 2 2
left_child=1 9 4 -2 17 6 -6 10 11 12 14 -5 15 21 -8 19 18 27 23 22 -16 -13 -1 -4 -24 -25 -23 -3 -10
right_child=3 2 16 8 5 -7 7 -9 28 -11 -12 13 -14 -15 20 -17 -18 -19 -20 -21 -22 26 24 25 -26 -27 -28 -29 -30
leaf_value=0 0 -0.0066030709528954578 0 0 0 0 0 0 0.0012998525355169494 0 0 0 0 0 0.017251422200763741 0 0 0 0 0 0 0.019681067528432451 -0.0093965775416589483 -0.0090031249386692234 0 0 0 0 0
leaf_weight=21 63 68 27 14.999999999999998 46 94 12.999999999999998 34 28 13.999999999999998 15.999999999999998 12.999999999999998 28 31 128 12.999999999999998 41 24 29 13.999999999999998 14.999999999999998 189 504 156 18 12.999999999999998 14.999999999999998 12.999999999999998 27
leaf_count=21 63 68 27 15 46 94 13 34 28 14 16 13 28 31 128 13 41 24 29 14 15 189 504 156 18 13 15 13 27
internal_value=0 -0.00332032 0 0.0113663 0.00271757 0.00531753 0.00793684 0.0103157 0.0135056 -0.00701954 0.0131659 0.0155979 -0.00761403 0.016522 0.0146895 -0.00819149 -0.0050463 -0.00146905 -0.00631885 -0.00853487 0.0159368 0.0180755 -0.00883201 -0.00748674 -0.00916761 -0.00843594 0.0188671 -0.00545428 0
internal_weight=0 1329 717 381 451 346 252 206 318 612 172 263 598 248 156 570 266 105 225 557 143 217 543 196 522 169 204 81 55
internal_count=1710 1329 717 381 451 346 252 206 318 612 172 263 598 248 156 570 266 105 225 557 143 217 543 196 522 169 204 81 55
is_linear=0
shrinkage=0.046


Tree=16
num_leaves=38
num_cat=0
split_feature=49 4 47 46 46 54 13 1 37 4 27 46 3 130 2 13 17 8 7 48 48 23 58 10 7 46 8 54 116 21 154 158 170 139 97 143 50
split_gain=33.4235 10.6763 3.97424 3.39101 3.34897 3.29797 3.33871 2.92717 2.73748 2.26244 2.14047 2.06031 2.63417 1.77707 1.72994 1.42514 1.07335 1.00428 0.968918 0.894982 0.894556 0.855321 0.725713 0.674713 0.666252 0.45844 0.964259 0.300731 0.268976 0.140667 0.285726 0.132162 0.0761317 0.0419738 0.0457084 0.0514827 0.0173854
threshold=0.86395669265916941 -0.58637615264380683 -0.51208804577715583 0.35899166608747174 0.35899166608747174 1.0767435130417338 -0.14906009132105771 1.0000000180025095e-35 1.1090170746603953 1.0476087658735698 -1.0000000180025095e-35 -1.1568995788674841 -0.71802727276154499 0.80237248539924633 -0.26658480549856939 -0.82672535230489741 1.1783615664128915 0.8711744623353922 1.0912730065047969 -0.21567650432312874 1.2020563282451207 1.2989804180143321 0.63234755751142535 -1.0000000180025095e-35 2.2669722857261942 -0.62633764313324958 -0.81221714996599081 1.118230974184119 0.90766882896423351 0.10356424933077603 0.98808167576789863 1.5325852632522585 1.450646507740021 1.3429849803447726 1.2154322266578677 1.1656232714653016 0.98181191532774548
decision_type=2 2 2 2 2 2 2 2 2 2 2 2 2 2 2 2 2 2 2 2 2 2 2 2 2 2 2 2 2 2 2 2 2 2 2 2 2
left_child=1 3 9 21 5 6 -2 10 16 13 -4 -12 -13 14 -3 -14 -8 -6 19 -17 22 24 23 -16 36 -11 -27 -25 -15 32 -31 -9 -5 34 -33 -36 -1
right_child=4 2 7 29 17 -7 8 31 -10 25 11 12 15 28 20 18 -18 -19 -20 -21 -22 -23 -24 27 -26 26 -28 -29 -30 30 -32 33 -34 -35 35 -37 -38
leaf_value=-0.01148882208872967 0 0 0 -0.0028366826726896389 0.023265747479012881 0 0.014883285916298214 -0.0025207794483237257 0 0 0 0 0 0.0042166910099633147 0 0 0 0 0 0.019442016033777633 0 0 0 -0.0094936132437682275 0 0 0.0099681940973617572 0 0 0.0039882655929057605 0 0 0 0 0.0027833883298506584 0 0
leaf_weight=330 29 53 45 57 106 35 155 44 27 14.999999999999998 15.999999999999998 29 17 32 12.999999999999998 33 22 12.999999999999998 13.999999999999998 88 12.999999999999998 19 18 224 12.999999999999998 12.999999999999998 33 12.999999999999998 45 38 17 12.999999999999998 14.999999999999998 19 38 17 12.999999999999998
leaf_count=330 29 53 45 57 106 35 155 44 27 15 16 29 17 32 13 33 22 13 14 88 13 19 18 224 13 13 33 13 45 38 17 13 15 19 38 17 13
internal_value=0 -0.00279677 0 -0.00812337 0.0124928 0.0067551 0.00907937 0.00389221 0.0113482 -0.00241754 0.00699594 0.00911659 0.0107025 -0.00420757 -0.00574829 0.0131554 0.0134592 0.0215479 0.0147374 0.0161016 -0.00723197 -0.0103668 -0.00786772 -0.00851468 -0.0108761 0.00210214 0.0051907 -0.00908296 0 0 0 0 -0.00203309 0 0.00114277 0.00183651 -0.0112642
internal_weight=0 1347 845 502 387 268 233 373 204 472 242 197 181 411 334 152 177 119 135 121 281 375 268 250 356 61 46 237 77 127 55 131 72 87 68 55 343
internal_count=1734 1347 845 502 387 268 233 373 204 472 242 197 181 411 334 152 177 119 135 121 281 375 268 250 356 61 46 237 77 127 55 131 72 87 68 55 343
is_linear=0
shrinkage=0.046


Tree=17
num_leaves=33
num_cat=0
split_feature=0 45 45 53 8 50 1 189 65 35 31 126 23 50 59 84 53 7 2 48 160 0 2 124 25 2 67 67 3 5 182 21
split_gain=26.5161 9.37199 4.08944 3.87301 3.25345 2.42798 2.55691 4.48873 2.3101 2.73151 2.24947 1.79935 1.68646 1.66858 2.03198 1.18454 1.08265 0.951217 0.889637 0.713139 0.631197 0.461239 0.342261 0.106395 0.219282 0.0641296 0.0514061 0.300642 0.268371 0.832709 0.501276 0.230871
threshold=-0.26120158890365985 0.13534947472604528 0.32718800769372303 0.802640946333678 -1.1049809086271007 -0.095187763631780831 1.0000000180025095e-35 2.6159855782985693 0.86459455490112314 -0.17401709095975107 0.33377179792952544 0.89030853807926191 -1.0976813064063895 1.401101184977229 0.18902818759935255 0.27540017776191239 0.35638542688593672 2.4874159005802063 -0.26658480549856939 -0.95987028835919941 1.6101339936256409 0.8579309964990911 -0.22181653205411092 1.1847194194793704 0.50104238849308447 0.44970756961276676 1.014663448929787 1.1295663058757783 0.092535132782178939 -0.73467901108234657 0.9388776034116747 1.0000000180025095e-35
decision_type=2 2 2 2 2 2 2 2 2 2 2 2 2 2 2 2 2 2 2 2 2 2 2 2 2 2 2 2 2 2 2 2
left_child=2 5 13 4 -3 16 7 10 -6 -10 12 15 -7 14 17 -11 23 19 -18 -1 22 -20 -8 24 -2 -24 28 31 29 -4 -31 -28
right_child=1 3 26 -5 8 6 20 -9 9 11 -12 -13 -14 -15 -16 -17 18 -19 21 -21 -22 -23 25 -25 -26 -27 27 -29 -30 30 -32 -33
leaf_value=0 0.0029721897109290479 0 0 0 0 0 0 0 0 0.02176846226672113 0 0 0.016510166489657495 0 0 0 0 0 -0.0089084184543596328 -0.0096660110387115448 0.0040533182784233341 0 -0.0054820359484582916 0 0 0 -0.0050008770046843518 0 0 0.0095593371114678152 0 0
leaf_weight=57 78 35 40 46 19 30 17 68 20 176 20 12.999999999999998 109 15.999999999999998 71 13.999999999999998 20 13.999999999999998 66 464 33 21 55 24 14.999999999999998 19 46 36 13.999999999999998 38 18 22
leaf_count=57 78 35 40 46 19 30 17 68 20 176 20 13 109 16 71 14 20 14 66 464 33 21 55 24 15 19 46 36 14 38 18 22
internal_value=0 0.00605664 -0.00528467 0.0126077 0.0146606 0.00157652 0.00429582 0.00723655 0.016567 0.017882 0.0115972 0.0194869 0.0137145 -0.00717272 -0.00765718 0.020634 -0.000631033 -0.00862844 -0.00471612 -0.00896179 0 -0.00699924 -0.00295235 0 0.0015558 -0.00452814 0 -0.000499712 0.000867574 0.0026033 0.00656323 -0.00312022
internal_weight=0 898 836 323 277 575 351 227 242 223 159 203 139 622 606 190 224 535 107 521 124 87 91 117 93 74 214 104 110 96 56 68
internal_count=1734 898 836 323 277 575 351 227 242 223 159 203 139 622 606 190 224 535 107 521 124 87 91 117 93 74 214 104 110 96 56 68
is_linear=0
shrinkage=0.046


Tree=18
num_leaves=33
num_cat=0
split_feature=49 47 9 45 13 23 9 2 167 48 45 9 57 21 8 53 11 50 84 44 2 130 32 46 23 114 3 32 34 126 58 67
split_gain=29.0474 8.20758 4.24934 3.11916 2.62036 2.53891 2.67237 1.95055 1.96889 1.87591 2.20475 3.21695 2.46862 1.56796 1.4312 1.32077 1.24858 1.5957 1.12821 0.793331 0.793254 0.572813 0.457627 0.268781 0.452814 0.478969 0.292597 0.249732 0.212484 0.145621 0.107684 0.000465933
threshold=1.0028153286528505 -0.51208804577715583 0.20617052365375585 0.13534947472604528 -0.40318456418999765 -1.0976813064063895 -0.43867546687518216 0.6287806633906009 1.322854781150818 -0.13127757291954437 -1.1116009895638599 1.1441283280594841 0.39982914303439682 -1.4422756333125408 -1.0317899689618233 0.68545149043301645 -1.0000000180025095e-35 0.11385388928866914 0.28281381577253345 1.7550526522777348 0.5392441165016838 0.75901376605033888 -0.15532101194359824 0.43478622833521952 0.50983570387580157 2.392030620574952 -0.83477033971803094 0.02638034279330545 -0.07893285698128881 0.56377743482589737 0.50115338237150209 1.0390397757291796
decision_type=2 2 2 2 2 2 2 2 2 2 2 2 2 2 2 2 2 2 2 2 2 2 2 2 2 2 2 2 2 2 2 2
left_child=1 2 3 18 16 -2 -7 8 14 -6 -11 12 13 -12 -8 28 -3 -18 19 27 29 -19 -17 31 25 26 -25 -1 -4 -15 -24 -5
right_child=5 4 15 23 9 6 7 -9 -10 10 11 -13 -14 20 -16 22 17 21 -20 -21 -22 -23 30 24 -26 -27 -28 -29 -30 -31 -32 -33
leaf_value=-0.011323392124025262 0 0 0 0.00017549990769737551 0 0 0 0 0 0 0 0 0 0 0.021075561422045138 0 0 -0.0096697713535700454 0 0 0 0 -0.006570703050141252 0 0 0 -0.0075106660245657176 0 0.0045623831474169672 0.016124026254268925 0 0
leaf_weight=346 39 45 14.999999999999998 32 152 43 28 30 21 29 12.999999999999998 26 33 25 172 24 32 86 22 14.999999999999998 22 19 58 19 29 33 56 24 93 121 13.999999999999998 18
leaf_count=346 39 45 15 32 152 43 28 30 21 29 13 26 33 25 172 24 32 86 22 15 22 19 58 19 29 33 56 24 93 121 14 18
internal_value=0 -0.00232444 -0.00550446 -0.00747273 0.00112113 0.0127405 0.014217 0.0161021 0.017696 0.00361139 0.00593018 0.00767164 0.00988997 0.0120209 0.0191535 0 -0.00211186 -0.00502076 -0.00988506 -0.0104642 0.013245 -0.00806497 -0.00369149 0 -0.00203742 -0.00375987 -0.00581957 -0.0108846 0.0037097 0.0146068 -0.00562282 0
internal_weight=0 1401 798 594 603 333 294 251 221 421 269 240 214 181 200 204 182 137 407 385 168 105 96 187 137 108 75 370 108 146 72 50
internal_count=1734 1401 798 594 603 333 294 251 221 421 269 240 214 181 200 204 182 137 407 385 168 105 96 187 137 108 75 370 108 146 72 50
is_linear=0
shrinkage=0.046


Tree=19
num_leaves=34
num_cat=0
split_feature=49 0 1 49 45 45 13 3 23 9 154 31 45 8 27 57 170 64 34 44 23 3 84 8 2 121 12 9 28 19 74 11 75
split_gain=26.7715 8.07079 3.42977 3.1515 3.05349 2.7501 3.28985 2.9745 2.31143 2.38293 2.16653 1.92782 1.69816 2.26719 1.63937 1.73622 1.17515 1.08147 1.20001 1.04355 1.08429 0.515463 0.525402 0.755887 0.374476 0.321009 0.328116 0.218 0.111093 0.077159 0.0161247 0.000809904 9.70665e-05
threshold=1.0028153286528505 -0.54098473525434754 1.0000000180025095e-35 0.2043781716891844 1.4782192054997896 -0.82384319011234342 -0.40318456418999765 -0.75671479582832091 -1.0976813064063895 -0.43867546687518216 1.1159390807151797 0.30265949152719424 -0.53608539066082672 1.2371291606617798 -1.1200597868508746 0.37660231306930686 0.82259085774421703 1.272820156812668 0.028854159871241219 0.88738350671974831 1.445118328039986 -0.79745852636330294 0.24295956641435626 0.72479258300483707 0.6287806633906009 0.85253438353538524 1.1821414936756607 0.90963887695805201 -0.034019139974122842 -0.14612501712355488 1.4123562574386599 -1.0000000180025095e-35 0.87695560455322275
decision_type=2 2 2 2 2 2 2 2 2 2 2 2 2 2 2 2 2 2 2 2 2 2 2 2 2 2 2 2 2 2 2 2 2
left_child=1 3 5 4 19 21 31 -8 -2 -10 14 12 29 24 -9 16 -16 18 27 20 25 -3 23 28 -14 26 -1 -4 -23 -11 -18 -7 -19
right_child=8 2 17 -5 -6 6 7 10 9 11 -12 -13 13 -15 15 -17 30 32 -20 -21 -22 22 -24 -25 -26 -27 -28 -29 -30 -31 -32 -33 -34
leaf_value=-0.010678700466161839 0 0 -0.0081821080167266396 0 0 0 0 0 0 0 0 0 0.023440676237144287 0 0 0 0.015385195098596146 8.8863303367104352e-05 0 0 0 0 0 0 0 0 0 0 -0.0082019568264355292 0.0019952905240567015 0 -0.00017980244773173194 0
leaf_weight=376 39 12.999999999999998 114 97 40 23 48 12.999999999999998 43 14.999999999999998 19 32 133 13.999999999999998 14.999999999999998 24 162 26 26 15.999999999999998 19 13.999999999999998 12.999999999999998 12.999999999999998 15.999999999999998 55 23 12.999999999999998 60 41 21 53 105
leaf_count=376 39 13 114 97 40 23 48 13 43 15 19 32 133 14 15 24 162 26 26 16 19 14 13 13 16 55 23 13 60 41 21 53 105
internal_value=0 -0.00222035 0.000380718 -0.00617528 -0.00759817 0.00319938 0.00535633 0.00767855 0.0122398 0.0136499 0.00974066 0.0154378 0.0170814 0.0203483 0.011048 0.0120346 0.0134514 -0.00287268 -0.00550211 -0.0086987 -0.00910468 0 -0.00330244 -0.00503119 0.0220261 -0.00956127 -0.0102821 -0.00751417 -0.00716732 0 0.0144692 0 0
internal_weight=0 1401 775 626 529 491 378 302 333 294 254 251 219 163 235 222 198 284 153 489 473 113 100 87 149 454 399 127 74 56 183 76 131
internal_count=1734 1401 775 626 529 491 378 302 333 294 254 251 219 163 235 222 198 284 153 489 473 113 100 87 149 454 399 127 74 56 183 76 131
is_linear=0
shrinkage=0.046


Tree=20
num_leaves=39
num_cat=0
split_feature=49 4 45 45 29 39 155 8 9 48 45 29 7 8 13 19 84 54 48 19 2 31 34 28 48 13 0 28 3 44 2 21 2 39 13 86 5 5
split_gain=21.2526 5.46388 4.45522 3.13192 2.63064 2.10155 2.11842 1.59671 1.50557 1.60308 1.44669 2.50747 3.93588 1.9195 1.36272 1.32865 1.02086 0.704016 0.603963 0.582491 0.811012 1.1394 1.0403 0.971326 0.45661 0.982676 1.23868 0.845002 1.38131 0.526289 0.816268 0.249683 0.418774 0.313895 0.075814 0.0364648 0.00231594 0.133428
threshold=0.69038339766706813 0.35038833790669582 -0.63200465714466558 1.0000000180025095e-35 2.0293845446621552 -0.057173872278339706 1.1712759137153628 -0.95859902929654595 1.9062190441391385 -0.95987028835919941 -0.34424685769314906 -0.41648951276108287 0.57690457184543542 -1.1781718482923784 -0.31847640656701764 -0.68750238609775194 0.28180949091911323 1.2697941517930593 -0.027788717066906599 0.66594103633774082 -0.89334063372098849 0.055321592970416389 -0.40090383146444292 0.035234990270056644 -0.36083744309417448 -0.65730903705893751 -0.54098473525434754 -0.021158395592307647 -0.70745041810594189 0.052251954120186704 0.6287806633906009 -0.67664738955052062 -0.71426753994315451 -0.082863359802380701 -1.0000000180025095e-35 1.9127756357192995 0.18987980664540438 1.0426282307632333
decision_type=2 2 2 2 2 2 2 2 2 2 2 2 2 2 2 2 2 2 2 2 2 2 2 2 2 2 2 2 2 2 2 2 2 2 2 2 2 2
left_child=1 3 -2 8 5 -4 7 -7 9 -1 36 -12 13 -13 -9 -16 17 19 -17 20 -11 22 -22 -24 25 -5 -27 31 -29 30 -30 -26 -33 -34 -35 -15 -3 -38
right_child=2 10 4 24 -6 6 -8 14 -10 16 11 12 -14 35 15 18 -18 -19 -20 -21 21 -23 23 -25 27 26 -28 28 29 -31 -32 32 33 34 -36 -37 37 -39
leaf_value=0 0 0 0 0 0 0 0 0 0 0 0 0 0 0.020492637436713979 0 0 0 0 0.021573531301188997 0 0 0 -0.010961236251065572 0 0 -0.0084687553218853132 0 0 0.012402758956369005 0 0 0 0 -0.0075018519581749694 0 0 -0.0023729576521283433 0
leaf_weight=73 101 20 19 20 27 51 14.999999999999998 25 20 29 19 12.999999999999998 40 53 22 25 39 12.999999999999998 149 49 20 19 387 12.999999999999998 23 79 14.999999999999998 24 49 21 17 12.999999999999998 62 40 29 13.999999999999998 51 19
leaf_count=73 101 20 19 20 27 51 15 25 20 29 19 13 40 53 22 25 39 13 149 49 20 19 387 13 23 79 15 24 49 21 17 13 62 40 29 14 51 19
internal_value=0 -0.00277688 0.00899005 -0.00435906 0.0115604 0.0127916 0.0137823 0.0147277 -0.00634535 -0.00681762 0.0024965 0.00568235 0.00903396 0.0150501 0.0168001 0.018247 -0.00764228 -0.00817176 0.0197789 -0.00844619 -0.00902445 -0.00952521 -0.0100287 -0.0105407 0 -0.00291111 -0.00569173 0 0.00399918 0.00734827 0.00938328 -0.000274601 -0.00193808 -0.00330041 -0.00550487 0.018195 0 -0.00026457
internal_weight=0 1283 434 1054 333 306 287 272 662 642 229 139 120 80 221 196 569 530 174 517 468 439 420 400 392 114 94 278 111 87 66 167 144 131 69 67 90 70
internal_count=1717 1283 434 1054 333 306 287 272 662 642 229 139 120 80 221 196 569 530 174 517 468 439 420 400 392 114 94 278 111 87 66 167 144 131 69 67 90 70
is_linear=0
shrinkage=0.046


Tree=21
num_leaves=39
num_cat=0
split_feature=49 4 45 155 45 47 17 90 7 67 7 84 45 9 13 102 15 12 154 21 34 2 3 13 61 25 2 29 131 67 58 50 70 21 172 84 124 145
split_gain=19.7 5.59669 3.98547 3.45271 2.91453 2.67846 2.29282 1.96698 2.51813 2.03519 1.33412 1.09483 0.938382 0.893908 0.814312 0.804513 1.01165 0.733556 0.661968 0.834759 0.604613 0.463503 0.499993 0.345559 0.304844 0.218818 0.723519 0.463252 0.336543 1.19005 0.207202 0.175462 0.129151 0.0916075 0.0411573 0.0764756 0.0191815 0.00324385
threshold=1.0028153286528505 0.043932525998030943 -0.63200465714466558 1.1651214599609376 0.32718800769372303 -0.51208804577715583 1.3039924171661601 0.86449452340602895 0.57690457184543542 1.1061957478523257 1.0912730065047969 0.28281381577253345 2.2455733373705007 -1.5525003596069842 -0.23376824894403769 1.1040086150169375 -0.57904389852188032 0.4475031752544813 0.84679387807846085 0.32960687367956309 1.0000000180025095e-35 0.091561382057098642 -0.90259112553942111 -1.0000000180025095e-35 0.25139211813379952 0.50104238849308447 -0.31135307894302794 -0.48374297456541732 1.115020924806595 0.93777773082256333 0.061400466224748033 0.79375828960133799 1.3356381416320804 -0.45789646276137203 0.79914817214012157 0.17271888665854934 1.138029831647873 2.2183143615722662
decision_type=2 2 2 2 2 2 2 2 2 2 2 2 2 2 2 2 2 2 2 2 2 2 2 2 2 2 2 2 2 2 2 2 2 2 2 2 2 2
left_child=1 5 -2 6 25 10 15 -6 9 -9 11 12 13 -1 17 -4 -17 21 19 23 33 22 -7 -16 -24 28 -27 -28 29 -3 -29 -31 36 -15 35 -30 -20 -34
right_child=2 4 3 -5 7 14 -8 8 -10 -11 -12 -13 -14 20 18 16 -18 -19 32 -21 -22 -23 24 -25 -26 26 27 30 34 31 -32 -33 37 -35 -36 -37 -38 -39
leaf_value=0 0 0 0 0 0 0 0 0.024451656097073827 0 0 0 0 0 0 0 0 0.018459059832009708 0 -0.002087752745145229 0 0 0 -0.0082360298438204273 0.0098207459247052695 0 0 0 0 0 0.0097340960113414497 -0.0074184976228589576 0 0.00043065387859308405 -0.0093306043546468112 0 -0.0028331615451227189 0 0
leaf_weight=19 69 51 25 13.999999999999998 42 15.999999999999998 24 35 19 23 50 27 15.999999999999998 66 14.999999999999998 14.999999999999998 175 29 72 12.999999999999998 20 32 87 41 19 12.999999999999998 18 19 12.999999999999998 38 62 12.999999999999998 37 385 46 31 13.999999999999998 13.999999999999998
leaf_count=19 69 51 25 14 42 16 24 35 19 23 50 27 16 66 15 15 175 29 72 13 20 32 87 41 19 13 18 19 13 38 62 13 37 385 46 31 14 14
internal_value=0 -0.00215636 0.0104551 0.0131321 0.00151258 -0.00422627 0.0145986 0.00774289 0.0121118 0.0169291 -0.00628493 -0.00696434 -0.00746112 -0.00784463 0 0.0161082 0.0173946 -0.00301723 0.000526085 0.00459604 -0.00824842 -0.00457127 -0.00586648 0.00758701 -0.00704201 0 -0.00203316 -0.00448768 0 0.00264215 -0.00605923 0.00795778 0 -0.00859594 0 -0.00140671 -0.00178251 0
internal_weight=0 1395 322 253 423 972 239 119 77 58 583 533 506 490 389 215 190 183 206 69 471 154 122 56 106 304 112 99 192 102 81 51 137 451 90 44 86 51
internal_count=1717 1395 322 253 423 972 239 119 77 58 583 533 506 490 389 215 190 183 206 69 471 154 122 56 106 304 112 99 192 102 81 51 137 451 90 44 86 51
is_linear=0
shrinkage=0.046


Tree=22
num_leaves=38
num_cat=0
split_feature=49 4 45 155 45 47 17 61 172 7 7 84 23 9 13 12 5 3 154 21 2 3 84 17 13 134 61 20 8 51 67 2 75 61 129 13 145
split_gain=17.9569 5.13469 3.61833 3.24915 2.67607 2.44464 2.08568 1.89813 1.48093 1.2724 1.23008 1.01853 1.10696 0.852705 0.717333 0.68567 0.654019 0.754601 0.589643 0.782942 0.424026 0.464006 0.396132 0.400456 0.307513 0.271439 0.268703 0.26589 2.04972 1.00012 0.465391 0.901572 1.42587 0.445731 0.243491 0.0894634 0.0600837
threshold=1.0028153286528505 0.043932525998030943 -0.63200465714466558 1.1651214599609376 0.32718800769372303 -0.51208804577715583 1.3039924171661601 0.20887580864669644 0.8034491539001466 0.57690457184543542 1.0912730065047969 0.28281381577253345 1.2989804180143321 -1.5525003596069842 -0.23376824894403769 0.4475031752544813 -0.25893515341661072 2.0279620698866037 0.84679387807846085 0.32960687367956309 0.091561382057098642 -0.90259112553942111 0.049348015338182456 -0.85416612613106213 -1.0000000180025095e-35 0.76843403279781353 0.25139211813379952 -1.0000000180025095e-35 0.50521976400900448 0.016398122866950939 0.96368276178836831 0.83023789389066416 0.9374764621257784 0.22836715895851864 1.3385510593652727 0.95214595777768196 2.2183143615722662
decision_type=2 2 2 2 2 2 2 2 2 2 2 2 2 2 2 2 2 2 2 2 2 2 2 2 2 2 2 2 2 2 2 2 2 2 2 2 2
left_child=1 5 -2 6 27 10 16 8 9 25 11 12 13 -1 15 20 -4 -18 19 24 21 -7 -15 -24 -16 -6 -23 28 29 33 35 32 -32 -3 -20 -29 -36
right_child=2 4 3 -5 7 14 -8 -9 -10 -11 -12 -13 -14 22 18 -17 17 -19 34 -21 -22 26 23 -25 -26 -27 -28 30 -30 -31 31 -33 -34 -35 36 -37 -38
leaf_value=0 0 -0.010100916833346386 0 0 0 0 0 0 0 0 0 0 0 0 0 0 0.017430837021558551 0 -0.0025217898994768831 0 0 -0.0078572159244498768 0 -0.0085020327079225466 0.0093691017038137325 0.020089767614441156 0 -0.0020284037568262933 0 0 0.01230814154332676 0 0 0 0.0017399861780809977 0 0
leaf_weight=19 69 78 12.999999999999998 13.999999999999998 15.999999999999998 15.999999999999998 24 27 14.999999999999998 19 50 27 22 14.999999999999998 14.999999999999998 29 178 24 81 12.999999999999998 32 87 12.999999999999998 437 41 42 19 46 21 12.999999999999998 39 18 61 12.999999999999998 42 14.999999999999998 13.999999999999998
leaf_count=19 69 78 13 14 16 16 24 27 15 19 50 27 22 15 15 29 178 24 81 13 32 87 13 437 41 42 19 46 21 13 39 18 61 13 42 15 14
internal_value=0 -0.00204548 0.00999363 0.0125448 0.00143886 -0.00403506 0.0139769 0.00741211 0.0107104 0.0133322 -0.00600149 -0.00665432 -0.00713455 -0.00761938 0 -0.00283713 0.0154171 0.0161193 0.000466184 0.00432765 -0.00435725 -0.00559633 -0.00801918 -0.00826519 0.00725632 0.0168041 -0.00673109 0 -0.00212147 -0.00686362 0 0.00288873 0.00537792 -0.00878017 0 0 2.99551e-05
internal_weight=0 1395 322 253 423 972 239 119 92 77 583 533 506 484 389 183 215 202 206 69 154 122 465 450 56 58 106 304 125 104 179 118 100 91 137 61 56
internal_count=1717 1395 322 253 423 972 239 119 92 77 583 533 506 484 389 183 215 202 206 69 154 122 465 450 56 58 106 304 125 104 179 118 100 91 137 61 56
is_linear=0
shrinkage=0.046


Tree=23
num_leaves=34
num_cat=0
split_feature=0 45 39 45 75 112 8 50 9 49 1 9 13 25 50 2 130 31 9 3 0 48 28 98 127 3 28 48 134 50 5 3 25
split_gain=16.4147 7.52431 3.44133 2.72234 2.60722 2.33631 2.8427 2.02852 1.55231 1.19004 1.68664 2.72268 2.21277 1.53628 0.867818 0.777237 1.01203 0.677458 0.63861 1.19887 0.502447 0.560403 0.337471 0.267881 0.781114 0.108078 0.876871 1.38408 0.219871 0.150626 0.143858 0.123622 0.000763198
threshold=1.0000000180025095e-35 0.13534947472604528 -0.055401029112915987 0.32718800769372303 1.107376003265381 0.6941589117050172 -1.1049809086271007 1.4365926254710659 0.85101651418269408 0.065519535695503367 1.0000000180025095e-35 0.67514942585662008 -0.31847640656701764 -0.50289994099601176 0.075122987379907316 -0.89334063372098849 0.80119411349296576 0.088392966047707286 -0.67316491797661426 -0.33528590688539256 0.57814785014840342 0.052161711705156801 0.035234990270056644 1.9478520870208742 0.82829721570014969 -0.69945371846873505 -0.019382309324009285 -0.36083744309417448 1.0134939849376681 0.52087756757881365 -0.41602038943831593 -1.060506534849025 0.83568983165611654
decision_type=2 2 2 2 2 2 2 2 2 2 2 2 2 2 2 2 2 2 2 2 2 2 2 2 2 2 2 2 2 2 2 2 2
left_child=3 9 -3 7 5 -4 -7 8 15 20 11 12 -11 -14 -15 -1 17 22 -8 -20 21 -2 -17 24 -12 29 30 -28 -29 31 -27 -5 -22
right_child=1 2 4 25 -6 6 18 -9 -10 10 23 -13 13 14 -16 16 -18 -19 19 -21 32 -23 -24 -25 -26 26 27 28 -30 -31 -32 -33 -34
leaf_value=0 0 0 0 0 0 0 0 0 0 0 0 0 0 0 0.016048687687469608 -0.0079550299402670124 0 0 0 0.022974709169568914 0.00018941833526127817 -0.0058381548949650352 0 0.0014530466857916194 -0.0060998187207746421 0 0 0.010117627862244254 0 0 -0.0023740346578840104 -0.0031924001373911728 0
leaf_weight=38 18 12.999999999999998 25 14.999999999999998 14.999999999999998 22 14.999999999999998 27 67 17 26 56 20 13.999999999999998 86 499 78 15.999999999999998 22 124 45 66 15.999999999999998 29 58 40 23 53 13.999999999999998 22 54 62 22
leaf_count=38 18 13 25 15 15 22 15 27 67 17 26 56 20 14 86 499 78 16 22 124 45 66 16 29 58 40 23 53 14 22 54 62 22
internal_value=0 0.00568863 0.0126575 -0.00346682 0.0142198 0.0155983 0.0174229 -0.00493789 -0.00559611 0.00108311 0.00315879 0.00585752 0.00950703 0.0119249 0.0142529 -0.00629572 -0.006694 -0.00744477 0.0195549 0.0207589 -7.70156e-05 -0.00355894 -0.00774144 0 -0.00245319 0 0.000980858 0.00475192 0.00860445 -0.000722342 0 -0.00219308 0
internal_weight=0 693 236 1024 223 208 183 741 714 457 306 193 137 120 100 647 609 531 161 146 151 84 515 113 84 283 184 90 67 99 94 77 67
internal_count=1717 693 236 1024 223 208 183 741 714 457 306 193 137 120 100 647 609 531 161 146 151 84 515 113 84 283 184 90 67 99 94 77 67
is_linear=0
shrinkage=0.046


Tree=24
num_leaves=37
num_cat=0
split_feature=49 5 41 1 99 4 45 45 1 31 72 8 45 12 48 8 59 28 153 19 39 2 50 45 9 8 78 13 8 157 34 19 32 32 115 29
split_gain=19.538 5.82835 3.29322 4.66088 3.21513 2.57874 2.79222 1.73857 1.88179 1.67474 2.42576 1.65746 1.33968 1.09184 0.939121 1.08035 0.842069 0.810243 0.79104 0.731014 0.51738 1.00083 0.987987 0.420674 0.324736 0.35019 0.306876 0.283913 0.20784 0.0792378 0.0790169 0.0656879 0.0183888 0.133391 0.0507092 0.0262365
threshold=0.86395669265916941 -0.47885448384699819 0.32035160012092323 1.0000000180025095e-35 1.7634172439575198 1.8906968073690227 -1.015681723080021 -0.63200465714466558 1.0000000180025095e-35 -1.0000000180025095e-35 1.658322870731354 -1.1049809086271007 1.4782192054997896 0.89958829428289933 -0.26924454299325218 0.94436540200066965 0.20993078618885411 0.031184562875224395 1.1238194257020953 -0.14612501712355488 0.012332406329418521 -0.6247309930542374 0.74790203811401923 -1.0000000180025095e-35 -1.6111227223823421 1.3103201003270575 1.8804658651351931 -0.14906009132105771 1.0175563416659474 1.3384059190750124 -0.41882804221306946 1.0000000180025095e-35 -0.081319694718114136 -0.017377234433868096 2.1147282600402835 1.0000000180025095e-35
decision_type=2 2 2 2 2 2 2 2 2 2 2 2 2 2 2 2 2 2 2 2 2 2 2 2 2 2 2 2 2 2 2 2 2 2 2 2
left_child=1 12 3 4 5 6 -2 19 9 32 11 -11 13 16 -13 -16 17 24 23 -3 21 -10 28 -5 -1 30 29 -8 -23 -20 -26 -21 35 34 -34 -9
right_child=2 7 -4 18 -6 -7 27 8 20 10 -12 14 -14 -15 15 -17 -18 -19 26 31 -22 22 -24 -25 25 -27 -28 -29 -30 -31 -32 -33 33 -35 -36 -37
leaf_value=0 0 -0.007854292956366471 0 0 0 0 0 0.001383365447748862 0 0 0 0 0 0 0.015369581392646143 0 0 0 0 0 0 -0.0080805205652189575 0 0.0094012721843140419 0 0 0 0.023505297108489847 0 -0.0046984624340566583 -0.009411359416859123 -0.0016507181588913081 -0.0030853455921420253 0 0 0
leaf_weight=19 19 73 28 15.999999999999998 18 26 25 29 21 24 33 33 44 58 89 24 29 14.999999999999998 25 77 26 90 26 29 13.999999999999998 44 35 116 13.999999999999998 37 401 51 45 14.999999999999998 12.999999999999998 18
leaf_count=19 19 73 28 16 18 26 25 29 21 24 33 33 44 58 89 24 29 15 25 77 26 90 26 29 14 44 35 116 14 37 401 51 45 15 13 18
internal_value=0 -0.00312619 0.00872866 0.010124 0.0149056 0.0167407 0.0189708 0 0.00120137 0.00376109 0.00632167 0.00882681 -0.00636519 -0.00696252 0.0107116 0.0128774 -0.00763471 -0.00808279 1.47277e-05 -0.00383556 -0.000870985 -0.00285288 -0.00507373 0.00609827 -0.00842427 -0.00868349 0 0.0212199 -0.00723033 -0.003236 -0.00922946 0 0 -0.000730034 -0.00235295 0
internal_weight=0 1325 374 346 204 186 160 701 500 323 203 170 624 580 146 113 522 493 142 201 177 151 130 45 478 459 97 141 104 62 415 128 120 73 58 47
internal_count=1699 1325 374 346 204 186 160 701 500 323 203 170 624 580 146 113 522 493 142 201 177 151 130 45 478 459 97 141 104 62 415 128 120 73 58 47
is_linear=0
shrinkage=0.046


Tree=25
num_leaves=38
num_cat=0
split_feature=49 48 41 51 47 6 48 6 28 13 45 41 2 149 9 79 8 126 44 9 9 34 48 45 168 91 12 74 48 74 8 34 54 107 36 40 4
split_gain=17.9805 5.07463 3.12354 2.77168 2.15037 2.11882 1.72514 1.81146 1.8697 1.32558 1.27286 1.47132 1.65837 2.1696 2.24976 1.59992 2.03479 0.775903 0.95449 0.636319 0.609432 0.752369 0.781394 0.566027 0.640887 1.06025 0.570872 0.472965 0.448629 0.371806 0.347358 0.322793 0.301541 0.235189 0.215006 0.143459 0.108337
threshold=0.86395669265916941 0.045208327692780305 0.32035160012092323 0.016528960901950721 -0.51208804577715583 -1.0000000180025095e-35 -0.12738840892476191 0.21952756017100714 -0.059955239161839285 -0.14906009132105771 -0.63200465714466558 -0.024910493223858316 0.22586620239047417 1.1602079242467882 1.6717295930377063 1.2853182435035708 0.79798352267011463 0.44843773394823078 -0.98831302853060332 -1.5525003596069842 1.8475966813637803 -0.17597052779237388 1.2187452481090257 0.71086507362907858 1.6945170640945437 1.176946419477463 0.50401381513303367 0.86573342382907881 0.12201890832248687 0.83827698826789865 1.2371291606617798 -0.40491001344294147 1.0777266139275106 1.6706325531005861 -0.017387788690956127 -0.11289141662949055 -0.67871436671235652
decision_type=2 2 2 2 2 2 2 2 2 2 2 2 2 2 2 2 2 2 2 2 2 2 2 2 2 2 2 2 2 2 2 2 2 2 2 2 2
left_child=1 4 3 5 17 -2 -7 8 -8 -10 20 28 13 -13 15 16 -15 -1 -19 -20 21 -3 29 24 25 -6 32 -21 -12 -23 31 -29 -27 36 -30 -36 -25
right_child=2 10 -4 -5 23 6 7 -9 9 -11 11 12 -14 14 -16 -17 -18 18 19 27 -22 22 -24 33 -26 26 -28 30 34 -31 -32 -33 -34 -35 35 -37 -38
leaf_value=0 0 0 0 0 0 0 0 0 0 0.017211739019759049 0.002393569200684809 0 0 0.020263640759923551 0 0 0 0 0 0 0 0 0 0 0 -0.0076534448161625808 0 0 0 -0.0088710412422685191 0 -0.0097403116871153227 0 0 0 -0.0044089708549397569 0.0048415802806010353
leaf_weight=44 23 13.999999999999998 28 25 71 24 12.999999999999998 39 28 194 30 40 50 62 15.999999999999998 19 13.999999999999998 34 15.999999999999998 13.999999999999998 12.999999999999998 12.999999999999998 12.999999999999998 18.999999999999996 22 114 27 14.999999999999998 13.999999999999998 79 55 364 17 12.999999999999998 12.999999999999998 79 31.000000000000004
leaf_count=44 23 14 28 25 71 24 13 39 28 194 30 40 50 62 16 19 14 34 16 14 13 13 13 19 22 114 27 15 14 79 55 364 17 13 13 79 31
internal_value=0 -0.00299116 0.00838116 0.00974833 -0.00513743 0.0109864 0.0120441 0.0130801 0.0146898 0.0156923 0 0.0023094 0.00494269 0.00746704 0.010826 0.0136765 0.0166835 -0.00707207 -0.00759801 -0.00814325 -0.00260523 -0.00428536 -0.00599777 -0.00033297 -0.00221591 -0.00336209 -0.00553003 -0.00846677 0 -0.00768284 -0.00873525 -0.00945075 -0.00679 0 -0.00270794 -0.00365969 0.00315456
internal_weight=0 1325 374 346 856 321 298 274 235 222 469 337 201 151 111 95 76 542 498 464 132 119 105 314 251 229 158 448 136 92 434 379 131 63 106 92 50
internal_count=1699 1325 374 346 856 321 298 274 235 222 469 337 201 151 111 95 76 542 498 464 132 119 105 314 251 229 158 448 136 92 434 379 131 63 106 92 50
is_linear=0
shrinkage=0.046


Tree=26
num_leaves=39
num_cat=0
split_feature=49 5 45 172 184 45 1 108 41 8 8 45 48 45 60 12 103 59 28 19 51 59 2 5 12 9 180 28 13 138 1 105 138 57 41 40 34 19
split_gain=16.2927 5.02999 3.10923 2.14037 1.63418 1.42243 1.63282 1.51779 1.92919 1.51693 1.92802 2.38373 1.78151 1.18439 1.03511 0.963236 0.883599 0.757286 0.743667 0.665414 0.550374 0.440868 0.607674 0.404262 0.313764 0.296126 0.263252 0.172808 0.413362 0.30796 0.270808 0.643686 0.14614 0.0599768 0.248553 0.123721 0.0453167 0.0432853
threshold=0.86395669265916941 -0.47885448384699819 0.13534947472604528 0.83089626431465158 2.39214016199112 -0.63200465714466558 1.0000000180025095e-35 1.5281168103218079 -0.024910493223858316 -1.1049809086271007 0.94436540200066965 1.3822999390159507 -0.26924454299325218 1.4782192054997896 0.18708478165852296 0.89958829428289933 1.5604056119918825 0.20993078618885411 0.031184562875224395 -0.14612501712355488 0.016498243490160755 0.1820818286038656 -0.66949926649869596 -0.35767444463025394 -1.3043266609806379 -1.6111227223823421 1.9951892852783206 -0.0089781061594509243 0.52860516966278215 2.024583756923676 1.0000000180025095e-35 0.99800182878971111 2.0685770511627202 0.32624283070247989 -0.096085499871974248 -0.11289141662949055 -0.41882804221306946 1.0000000180025095e-35
decision_type=2 2 2 2 2 2 2 2 2 2 2 2 2 2 2 2 2 2 2 2 2 2 2 2 2 2 2 2 2 2 2 2 2 2 2 2 2 2
left_child=1 13 3 27 14 19 7 8 33 -10 11 12 -11 15 20 17 -5 18 24 -3 -4 22 -8 -24 -1 -26 36 28 32 30 31 -29 -2 35 -35 -7 -27 -21
right_child=2 5 4 16 -6 6 21 -9 9 10 -12 -13 -14 -15 -16 -17 -18 -19 -20 37 -22 -23 23 -25 25 26 -28 29 -30 -31 -32 -33 -34 34 -36 -37 -38 -39
leaf_value=0 -0.005206266270395039 -0.0071914493457991167 0.020208412387294348 0.013458641074904656 0 0 0 0 0 0 0 0 0.020228957974611422 0 0 0 0 0 0 0 0 0 0 -0.0060139611316314991 0 0 0 0 0 0 0 0.009915104048557364 0 0.0048807404607104088 0 -0.0024824793883289321 -0.0088050597883965864 -0.0013399856110643672
leaf_weight=23 51 73 88 42 12.999999999999998 15.999999999999998 15.999999999999998 62 26 23 23 15.999999999999998 67 44 20 58 12.999999999999998 29 14.999999999999998 77 13.999999999999998 61 12.999999999999998 87 19 13.999999999999998 21 18 32 17 20 28 18 27 19 44 401 51
leaf_count=23 51 73 88 42 13 16 16 62 26 23 23 16 67 44 20 58 13 29 15 77 14 61 13 87 19 14 21 18 32 17 20 28 18 27 19 44 401 51
internal_value=0 -0.00285268 0.00797048 0.00225073 0.0146885 0 0.00113315 0.00352967 0.00526523 0.00854489 0.0106118 0.0132486 0.01621 -0.0058597 0.0163426 -0.00642353 0.0102147 -0.00705343 -0.00747848 -0.00343216 0.0184639 -0.000641395 -0.00294433 -0.00478676 -0.00780862 -0.00809419 -0.00835512 0 -0.00140265 0.00141809 0.00352147 0.00549961 -0.0039439 0 0.00159795 -0.000396361 -0.00864191 0
internal_weight=0 1325 374 239 135 701 500 323 261 155 129 106 90 624 122 580 55 522 493 201 102 177 116 100 478 455 436 184 101 83 66 46 69 106 46 60 415 128
internal_count=1699 1325 374 239 135 701 500 323 261 155 129 106 90 624 122 580 55 522 493 201 102 177 116 100 478 455 436 184 101 83 66 46 69 106 46 60 415 128
is_linear=0
shrinkage=0.046


Tree=27
num_leaves=36
num_cat=0
split_feature=49 4 41 54 13 4 45 68 9 48 48 28 2 8 62 6 172 47 3 62 45 8 93 44 12 78 2 3 56 150 44 2 49 171 44
split_gain=15.1012 4.30968 2.83182 2.47361 1.88576 1.55851 1.49006 1.52837 1.37283 1.29586 1.1038 1.14383 1.40488 1.26687 1.08143 1.04781 0.96602 0.719239 0.68381 0.675691 0.570646 0.55483 0.515188 0.511007 0.357179 0.322538 0.23978 0.103679 0.461329 0.298685 0.096988 0.33038 0.421236 0.0946608 0.0717758
threshold=0.86395669265916941 -0.58637615264380683 0.32035160012092323 1.0900264090503973 -0.14906009132105771 1.8906968073690227 -0.63200465714466558 1.0285898596048357 0.3234152492044719 0.015200746944010858 0.052161711705156801 -0.012040450524486532 0.22586620239047417 0.72479258300483707 1.3378726486551165 -1.0000000180025095e-35 0.8034491539001466 -0.51208804577715583 1.4417558461004305 1.0870442302623118 2.2455733373705007 0.50521976400900448 1.6620299160480501 -0.98831302853060332 1.3516734133113173 2.2671726942062382 -1.0000000180025095e-35 0.10260100172167462 0.018619747254639742 1.3505212098360062 -0.2099627656035867 1.0000000180025095e-35 0.41266612567970601 1.1951385021209719 0.74128333441623451
decision_type=2 2 2 2 2 2 2 2 2 2 2 2 2 2 2 2 2 2 2 2 2 2 2 2 2 2 2 2 2 2 2 2 2 2 2
left_child=1 8 3 4 -2 9 7 26 14 -6 17 27 13 16 20 -11 -13 19 21 23 24 22 -9 -8 -1 -17 -3 29 -29 -12 -19 32 -32 -31 -25
right_child=2 6 -4 -5 5 -7 10 18 -10 15 11 12 -14 -15 -16 25 -18 30 -20 -21 -22 -23 -24 34 -26 -27 -28 28 -30 33 31 -33 -34 -35 -36
leaf_value=-0.0088308507871217683 0 0 0 0 0 0 0 -0.0088306486769566626 0 0 0 0.014953580515256653 0 0 0 0.015515110556942867 0 0 0 0 0 0 0 -0.0072378622567325496 0 0 0.0045040936147818702 -0.0047701646323922925 0 0.0045764325988144321 0.0060529656110795459 0 0 0 0
leaf_weight=336 44 20 28 32 27 22 19 128 86 12.999999999999998 28 56 31 23 44 192 17 30 12.999999999999998 44 12.999999999999998 32 18 81 12.999999999999998 15.999999999999998 25 44 50 49 49 26 14.999999999999998 14.999999999999998 20
leaf_count=336 44 20 28 32 27 22 19 128 86 13 28 56 31 23 44 192 17 30 13 44 13 32 18 81 13 16 25 44 50 49 49 26 15 15 20
internal_value=0 -0.00273917 0.00768075 0.00900476 0.0102965 0.0117504 -0.000129866 -0.0035873 -0.00622193 0.0127913 0.000466421 0.00277278 0.00616472 0.00901317 -0.00735303 0.0140004 0.0119811 -0.000455795 -0.00572989 -0.00310469 -0.00818289 -0.00658466 -0.0078039 -0.00500868 -0.00853895 0.014796 0 0 -0.000518273 0.00145255 0 0.00150998 0.00375868 0.00359257 -0.00636479
internal_weight=0 1325 374 346 314 270 833 236 492 248 597 313 127 96 406 221 73 284 191 164 362 178 146 120 349 208 45 186 94 92 120 90 64 64 101
internal_count=1699 1325 374 346 314 270 833 236 492 248 597 313 127 96 406 221 73 284 191 164 362 178 146 120 349 208 45 186 94 92 120 90 64 64 101
is_linear=0
shrinkage=0.046


Tree=28
num_leaves=36
num_cat=0
split_feature=49 4 45 48 13 1 174 4 31 2 152 65 15 8 17 130 148 28 103 75 62 91 9 0 152 19 84 3 86 104 51 19 60 17 0
split_gain=14.088 6.89182 3.48622 3.30364 2.31866 2.7234 3.93953 3.43519 2.43512 1.77027 1.71068 1.96995 1.42735 1.24181 1.22554 1.15228 1.03084 0.734099 0.725753 1.51122 0.546308 0.527795 0.525104 0.741185 0.395655 0.635752 0.428367 0.356835 0.236965 0.294055 0.171996 0.23298 0.1656 0.0276055 0.00077531
threshold=-0.55934432627606123 -0.29798651305290197 -1.015681723080021 0.82453035801793939 -0.48789272181297755 1.0000000180025095e-35 1.7802130579948428 1.8672776951052594 -0.069668976895625359 -0.31135307894302794 0.80691519379615795 0.83958241343498241 -0.78220301670190973 -1.397744667288211 0.061144357928466529 0.84298101365566269 0.32524934411048895 -0.049880216949805559 1.4689720034599307 0.81044908761978163 1.1525241162526834 1.6161862373352054 1.7889743185884222 0.57814785014840342 0.95058644413948068 0.39525235185064228 0.10914795212447645 1.7280018597774127 1.7276730298995975 0.83210568130016338 0.01590843251195195 -1.0000000180025095e-35 0.19059791117065386 -0.8766002066227172 -0.54098473525434754
decision_type=2 2 2 2 2 2 2 2 2 2 2 2 2 2 2 2 2 2 2 2 2 2 2 2 2 2 2 2 2 2 2 2 2 2 2
left_child=3 20 32 9 -4 6 7 8 -6 34 11 -7 -10 -14 -13 16 -11 -18 19 -5 24 22 23 33 25 26 -2 -21 29 -12 -22 -32 -3 -19 -1
right_child=1 2 4 18 5 10 -8 -9 12 15 28 14 13 -15 -16 -17 17 21 -20 27 30 -23 -24 -25 -26 -27 -28 -29 -30 -31 31 -33 -34 -35 -36
leaf_value=-0.00013140470225514141 0 -0.0026209576203294464 0 0 0 0 0 0 0 0 0 0.014464902458580692 0 0.019584337568437402 0 0 0 0 0 0.013636094714481574 0 0 0 0 0 0 -0.0067517776336685981 0 0 -0.0058343217141364279 0.0055311576037354142 0 0 -0.0083217008490257625 0
leaf_weight=95 13.999999999999998 51 64 23 31 12.999999999999998 14.999999999999998 38 12.999999999999998 23 15.999999999999998 53 14.999999999999998 199 17 38 15.999999999999998 12.999999999999998 12.999999999999998 31 32 12.999999999999998 22 29 21 21 95 12.999999999999998 65 33 28 18 15.999999999999998 466 55
leaf_count=95 14 51 64 23 31 13 15 38 13 23 16 53 15 199 17 38 16 13 13 31 32 13 22 29 21 21 95 13 65 33 28 18 16 466 55
internal_value=0 0.00456534 0.00714128 -0.00372355 0.00835869 0.00939827 0.0126697 0.0140292 0.0159367 -0.00490135 0.0018984 0.00722218 0.0176454 0.0185576 0.0110175 -0.00598973 -0.00651219 -0.0069322 0.0018627 0.00520194 -0.000613888 -0.00723409 -0.00746477 -0.0077668 -0.0028682 -0.00399936 -0.00560507 0.0106706 0 -0.00319858 0 0.00281249 0 -0.00820057 0
internal_weight=0 868 639 850 572 508 311 296 258 770 197 83 227 214 70 620 582 559 80 67 229 543 530 508 151 130 109 44 114 49 78 46 67 479 150
internal_count=1718 868 639 850 572 508 311 296 258 770 197 83 227 214 70 620 582 559 80 67 229 543 530 508 151 130 109 44 114 49 78 46 67 479 150
is_linear=0
shrinkage=0.046


Tree=29
num_leaves=41
num_cat=0
split_feature=49 4 45 48 13 4 1 155 31 2 12 130 130 152 65 17 28 103 75 52 45 12 84 17 44 63 3 51 123 38 0 64 39 52 28 60 184 104 104 0
split_gain=12.7966 6.30983 3.22754 3.00949 2.35914 1.72289 3.05561 2.95398 2.12786 1.59402 1.3355 1.06577 0.966555 0.959966 1.61971 1.05358 0.674845 0.664814 1.4121 0.552272 0.784418 0.545966 0.534235 0.483154 0.407783 0.32938 0.304034 0.284315 0.75538 0.300348 0.278364 0.151747 0.139487 0.0414127 0.0406832 0.0323818 0.0162171 0.227334 0.205133 0.000705631
threshold=-0.55934432627606123 -0.29798651305290197 -0.91976245659618228 0.82453035801793939 -0.48789272181297755 1.8906968073690227 1.0000000180025095e-35 1.1601675033569339 -0.069668976895625359 -0.31135307894302794 -0.6261989824380112 0.84298101365566269 0.32753640413284307 0.80691519379615795 0.83958241343498241 0.061144357928466529 -0.049880216949805559 1.4689720034599307 0.81044908761978163 0.084509356743272743 0.61494580714523972 -1.1913053812235335 0.082855836988892415 -0.90352110321270329 1.5126156851365324 2.5169290304183964 1.7280018597774127 0.01590843251195195 1.4547596454620362 -0.16547859214877794 0.57814785014840342 1.2011363893747331 -0.16037022533485654 0.061731797581804922 -0.031330378718319334 0.10810597202700846 2.2262010335922247 0.83574514389038101 0.94631063342094435 -0.54098473525434754
decision_type=2 2 2 2 2 2 2 2 2 2 2 2 2 2 2 2 2 2 2 2 2 2 2 2 2 2 2 2 2 2 2 2 2 2 2 2 2 2 2 2
left_child=3 19 33 9 -4 6 7 8 -6 39 -10 12 -11 14 -8 31 -14 18 -5 20 -2 -18 -12 -23 25 30 -20 34 29 -29 32 -16 -25 35 -21 -3 37 -15 -39 -1
right_child=1 2 4 17 5 -7 13 -9 10 11 22 -13 16 36 15 -17 21 -19 26 27 -22 23 -24 24 -26 -27 -28 28 -30 -31 -32 -33 -34 -35 -36 -37 -38 38 -40 -41
leaf_value=-0.00012536083707156 -0.0064707027045112992 -0.0017496143455856853 0 0 0 0 0 0 0 0 0 0 0 0 0.015071499418067156 0 0 0 0.013009036512206308 -0.0014314926229639015 0 0 0.018727895420866971 0 0 0 0 0 0 0.0084184662710574537 0 0 -0.0084427243929867859 0 0 0 0 -0.0049333309972937125 0 0
leaf_weight=95 69 51 63 23 31 38 12.999999999999998 13.999999999999998 17 12.999999999999998 13.999999999999998 38 15.999999999999998 21 39 15.999999999999998 33 12.999999999999998 31 42 30 12.999999999999998 187 12.999999999999998 23 14.999999999999998 12.999999999999998 12.999999999999998 22 40 28 12.999999999999998 428 23 12.999999999999998 12.999999999999998 33 39 13.999999999999998 55
leaf_count=95 69 51 63 23 31 38 13 14 17 13 14 38 16 21 39 16 33 13 31 42 30 13 187 13 23 15 13 13 22 40 28 13 428 23 13 13 33 39 14 55
internal_value=0 0.00436125 0.00682902 -0.00353589 0.00814602 0.00922577 0.0100185 0.0139089 0.0151471 -0.00466894 0.0168141 -0.00570202 -0.00620569 0.00212885 0.00596594 0.00963276 -0.00655628 0.00161967 0.00491175 -0.000516158 -0.00352408 -0.00684183 0.0179076 -0.0072113 -0.00743994 -0.00773083 0.0102287 0 0.00283203 0.00644217 -0.00794753 0.012814 -0.00827703 0 0 -0.00117004 0 -0.000680926 -0.00311799 0
internal_weight=0 868 639 850 552 489 451 263 249 770 218 620 582 188 81 68 569 80 67 229 99 553 201 520 507 484 44 130 75 53 469 52 441 87 55 64 107 74 53 150
internal_count=1718 868 639 850 552 489 451 263 249 770 218 620 582 188 81 68 569 80 67 229 99 553 201 520 507 484 44 130 75 53 469 52 441 87 55 64 107 74 53 150
is_linear=0
shrinkage=0.046


Tree=30
num_leaves=35
num_cat=0
split_feature=49 4 45 45 9 139 152 65 65 6 8 155 54 109 2 44 13 3 23 3 7 77 109 4 130 50 53 152 12 3 35 4 60 49
split_gain=11.6578 5.79916 2.99808 2.89862 2.44421 1.93858 3.00167 2.19694 2.08026 1.85032 1.87667 1.4343 1.84366 1.61502 1.32607 1.33888 1.32599 1.34188 1.16573 0.518401 0.985821 0.853232 0.995087 0.783733 0.32423 0.528066 0.807519 0.403243 0.425149 0.178093 0.124056 0.258555 0.115608 0.0896285
threshold=-0.14276841829501816 -0.26854534334988633 -1.015681723080021 0.13534947472604528 0.79239415140733604 1.1462886393070224 0.85374784022569672 1.3471050739288333 0.83958241343498241 -1.0000000180025095e-35 -1.397744667288211 1.1651214599609376 1.068159410267649 1.170161557197571 -0.44565789927640348 1.3977771217538579 -0.74201719468191751 -0.68186809355849165 1.7373941480912933 -0.75334763990223119 -0.084426272716600678 1.1884009391069414 1.2014756441116334 -0.80250110296367305 0.53805765807628647 0.20857864645168747 1.4748613205610035 0.97928654551506045 0.33448189549737689 -1.0340251078643665 -0.060307075808960303 0.66955738218711691 0.19059791117065386 -0.28162705428869922
decision_type=2 2 2 2 2 2 2 2 2 2 2 2 2 2 2 2 2 2 2 2 2 2 2 2 2 2 2 2 2 2 2 2 2 2
left_child=3 24 32 4 14 6 8 30 -4 -10 -11 12 13 -9 -1 18 -12 -18 33 29 21 -21 23 -23 -2 -26 27 28 -27 -5 -7 -32 -3 -16
right_child=1 2 5 19 -6 7 -8 11 9 10 16 -13 -14 -15 15 -17 17 -19 -20 20 -22 22 -24 -25 25 26 -28 -29 -30 -31 31 -33 -34 -35
leaf_value=0 0 -0.0022116825082878475 0 0 0 0 0 0 0 0 0 0 0 0.017875824827411086 -0.0083411262067285465 0 0 0.01920489604652445 0 0 0 0 0 0.014063437140802349 0 -0.007966761971316523 0 0 0 -0.0041339055544831957 0 -0.0043899572093037097 0 0
leaf_weight=87 13.999999999999998 50 43 14.999999999999998 76 27 32 26 15.999999999999998 23 15.999999999999998 25 12.999999999999998 50 406 23 15.999999999999998 168 13.999999999999998 33 126 12.999999999999998 17 42 19 85 29 14.999999999999998 12.999999999999998 48 60 42 15.999999999999998 20
leaf_count=87 14 50 43 15 76 27 32 26 16 23 16 25 13 50 406 23 16 168 14 33 126 13 17 42 19 85 29 15 13 48 60 42 16 20
internal_value=0 0.00448799 0.00672954 -0.00306577 -0.00485909 0.00787667 0.0109546 0.00200629 0.0124957 0.0142355 0.0153214 0.00702527 0.00986476 0.0128562 -0.00602301 -0.00701095 0.0167808 0.0179256 -0.00762636 0 0.00168171 0.00510748 0.00794437 0.0109952 -0.000863459 -0.00225198 -0.0036903 -0.00567741 -0.00677288 -0.00265335 0 -0.00160415 0 -0.00811559
internal_weight=0 798 623 920 626 557 314 243 282 239 223 114 89 76 550 463 200 184 440 294 231 105 72 55 175 161 142 113 98 63 129 102 66 426
internal_count=1718 798 623 920 626 557 314 243 282 239 223 114 89 76 550 463 200 184 440 294 231 105 72 55 175 161 142 113 98 63 129 102 66 426
is_linear=0
shrinkage=0.046


Tree=31
num_leaves=43
num_cat=0
split_feature=49 31 96 45 48 61 1 4 9 45 7 45 28 2 130 148 45 50 4 28 103 75 25 12 17 2 44 157 0 3 51 49 188 65 39 51 32 8 3 62 70 0
split_gain=10.6808 5.88133 3.65403 2.90562 2.62551 2.17554 1.78175 2.03276 2.20442 1.90373 1.75759 1.69482 2.08771 1.30009 0.961152 0.900379 0.69985 0.907819 0.79183 0.629586 0.604516 1.30224 0.519528 0.501651 0.450799 0.414122 0.34088 0.330288 0.646524 0.250908 0.174297 0.3813 0.136088 0.665814 0.0698218 0.0657309 0.252361 0.732608 0.133565 0.0480852 0.0187253 0.000507538
threshold=-0.55934432627606123 0.035313015507978662 1.4532865524291994 -0.15240832472547133 0.82453035801793939 0.092193700829078726 1.0000000180025095e-35 -0.32274386030316554 0.557904700305904 -0.91976245659618228 0.65038577679677279 0.9027036065967563 -0.031330378718319334 -0.31135307894302794 0.84298101365566269 0.32524934411048895 -1.0000000180025095e-35 0.081735193361847439 1.0997999303470978 -0.049880216949805559 1.4689720034599307 0.81044908761978163 -0.67022366257752786 -1.1913053812235335 -0.90352110321270329 -0.6247309930542374 1.5126156851365324 1.6835133075714113 0.57814785014840342 1.7280018597774127 0.016307793954936596 0.62095407967022764 1.3923872470855716 1.3955886840820315 -0.15923201586183641 0.01590843251195195 -0.11850370333387041 0.65160164333955961 -0.56098731579806793 1.3421964321747761 0.97498805522918708 -0.54098473525434754
decision_type=2 2 2 2 2 2 2 2 2 2 2 2 2 2 2 2 2 2 2 2 2 2 2 2 2 2 2 2 2 2 2 2 2 2 2 2 2 2 2 2 2 2
left_child=4 6 3 30 13 -5 7 35 9 -9 -7 12 -11 41 15 -15 17 -8 22 -17 21 -6 -19 -21 -25 -14 27 28 34 -23 31 -3 40 -34 -26 38 37 -37 39 -2 -18 -1
right_child=1 2 -4 5 20 10 16 8 -10 11 -12 -13 25 14 -16 19 32 18 -20 23 -22 29 -24 24 26 -27 -28 -29 -30 -31 -32 -33 33 -35 -36 36 -38 -39 -40 -41 -42 -43
