tree
version=v3
num_class=1
num_tree_per_iteration=1
label_index=0
max_feature_idx=190
objective=regression
feature_names=feature_0 feature_1 feature_2 feature_3 feature_4 feature_5 feature_6 feature_7 feature_8 feature_9 feature_10 feature_11 feature_12 feature_13 feature_14 feature_15 feature_16 feature_17 feature_18 feature_19 feature_20 feature_21 feature_22 feature_23 feature_24 feature_25 feature_26 feature_27 feature_28 feature_29 feature_30 feature_31 feature_32 feature_33 feature_34 feature_35 feature_36 feature_37 feature_38 feature_39 feature_40 feature_41 feature_42 feature_43 feature_44 feature_45 feature_46 feature_47 feature_48 feature_49 feature_50 feature_51 feature_52 feature_53 feature_54 feature_55 feature_56 feature_57 feature_58 feature_59 feature_60 feature_61 feature_62 embedding_0 embedding_1 embedding_2 embedding_3 embedding_4 embedding_5 embedding_6 embedding_7 embedding_8 embedding_9 embedding_10 embedding_11 embedding_12 embedding_13 embedding_14 embedding_15 embedding_16 embedding_17 embedding_18 embedding_19 embedding_20 embedding_21 embedding_22 embedding_23 embedding_24 embedding_25 embedding_26 embedding_27 embedding_28 embedding_29 embedding_30 embedding_31 embedding_32 embedding_33 embedding_34 embedding_35 embedding_36 embedding_37 embedding_38 embedding_39 embedding_40 embedding_41 embedding_42 embedding_43 embedding_44 embedding_45 embedding_46 embedding_47 embedding_48 embedding_49 embedding_50 embedding_51 embedding_52 embedding_53 embedding_54 embedding_55 embedding_56 embedding_57 embedding_58 embedding_59 embedding_60 embedding_61 embedding_62 embedding_63 embedding_64 embedding_65 embedding_66 embedding_67 embedding_68 embedding_69 embedding_70 embedding_71 embedding_72 embedding_73 embedding_74 embedding_75 embedding_76 embedding_77 embedding_78 embedding_79 embedding_80 embedding_81 embedding_82 embedding_83 embedding_84 embedding_85 embedding_86 embedding_87 embedding_88 embedding_89 embedding_90 embedding_91 embedding_92 embedding_93 embedding_94 embedding_95 embedding_96 embedding_97 embedding_98 embedding_99 embedding_100 embedding_101 embedding_102 embedding_103 embedding_104 embedding_105 embedding_106 embedding_107 embedding_108 embedding_109 embedding_110 embedding_111 embedding_112 embedding_113 embedding_114 embedding_115 embedding_116 embedding_117 embedding_118 embedding_119 embedding_120 embedding_121 embedding_122 embedding_123 embedding_124 embedding_125 embedding_126 embedding_127
feature_infos=[-1.5202257474817547:3.2360877404799364] [-0.77084557373751905:1.2972766972655805] [-1.811090239332388:1.3226889017797077] [-3.7808714042531846:5.2357761483160541] [-2.6693389091321746:3.0181597834958769] [-1.9980931236569193:4.8777520644931514] [-1.4878200702591688:4.0835248290393] [-3.5013023029537864:5.6103671110120423] [-3.5568773874138979:4.1281712774402415] [-3.985328414784342:4.7494036387440017] [-1.9820141872088881:11.432691146663414] [-2.3122369909856952:3.9622601609373498] [-1.5586245404341232:1.7755032124004588] [-0.95378758873936753:8.7876505379033301] [-0.95374180518751672:1.0485018005511337] [-2.0704165160707331:9.3803701449854735] [-1.3548443886994797:1.9115454882559055] [-2.1104746336637485:8.998882025803864] [-1.4770637962077213:1.7906132388990585] [-0.75517455721952675:6.1473868972014865] [-0.70220840705790522:1.4240786495134317] [-2.5360302672582842:3.7931632145077496] [-1.2743008249987884:0.78474405759013044] [-2.5736741976654929:3.5641180234119654] [-1.2775956246193096:0.78272027606385575] [-3.0964176255095106:3.9311786809141633] [-1.9139658581391805:0.52247535960345315] [-1.6064368938563474:2.2845799621874336] [-0.15675188676687771:44.387465901923768] [-3.8280934198893424:5.2988063705149626] [-0.21971383969857866:43.760144249139707] [-0.34957922434516336:43.259333127076069] [-0.25529755003541849:43.853479713514808] [-0.2197136265089201:43.760146428288735] [-1.2373756337465613:35.009272439787075] [-31.236125617983351:3.275506407523157] [-43.958685225855739:0.54763124969255772] [-1.095361955937455:1.8438100848596786] [-0.2724647492802808:43.100135913816558] [-0.20730227722717717:43.991967219069629] [-0.40193540153727692:42.477612641608296] [-0.26883852751984377:42.524359491708296] [-0.25037821254864367:43.585472786953204] [-1.4009885117810301:2.7588958298289112] [-2.5641533149484164:2.8077394832855851] [-2.3105918206118461:5.2670302316114253] [-1.4979751089823492:3.2012877503780137] [-0.96883018009501365:1.771622625812133] [-1.1816824381413:5.4982834853610667] [-0.73291762126816262:3.64112941253279] [-0.67798424332021456:5.2136620920015559] [-62.920580343123831:0.016876291327274098] [-27.338028135979911:8.8169352136997166] [-0.94103029143611239:3.0171885751200898] [-0.99990878970033059:1.973482582325037] [-62.911551020579502:0.039326269363655214] [-62.911445524637529:0.036356209447557845] [-0.37456046681191002:57.896000384782567] [-0.40655329118830269:56.712537332223988] [-0.26310157852356136:59.035541251370752] [-18.32846995333902:6.9785826693069177] [-0.23595853645922737:61.015565326757084] [-0.99316933799423457:1.7755119170302369] [0.91439657211303715:2.5996346473693848] [0.53947456479072575:1.8472097873687745] [0.62660902142524721:1.5261059761047364] [0.48090782165527346:1.7564640998840333] [0.48927214741706848:1.2791374444961547] [0.62256461977958677:1.7155212879180908] [0.58188611865043638:1.7069213151931764] [0.46664022207260131:1.6093775749206543] [0.59600558876991272:2.0542908191680906] [0.54893172383308408:1.8586394309997558] [0.50808400511741636:1.6719871520996095] [0.59127583503723147:1.6335105895996094] [0.36241040825843812:1.1992533087730408] [0.95133794546127315:3.0542266368865967] [0.59506158232688899:1.764963698387146] [0.82052745819091799:2.5146632194519043] [0.55957715511322026:1.4955414533615112] [0.52652979493141172:1.7477882146835326] [0.88096807003021238:2.5765228748321531] [0.70879456400871277:1.9503937959671021] [0.74544794559478755:2.0974690914154053] [0.04040742181241512:0.4118160754442215] [0.70636553168296812:2.1240143775939941] [0.74892681241035464:2.3056291580200194] [0.52740042805671694:1.847605037689209] [0.82652763128280637:2.4041469097137451] [0.70876035094261169:2.1155356407165526] [0.43518890142440797:1.2844853401184082] [0.60826662778854368:1.6849487781524659] [0.63148049712181087:2.006168508529663] [0.6870270907878876:1.9231010913848876] [0.59016897678375246:1.8258063793182373] [0.56365790367126467:1.9522186040878295] [0.4750982880592346:1.6669682264328003] [0.55973989367485044:1.7385820865631103] [0.85801738500595093:2.414456844329834] [0.63350561857223509:1.9860072612762452] [0.58266622424125669:1.4885762453079223] [0.66807577013969421:1.884872817993164] [0.73785430788993833:2.3063524723052979] [0.54242857098579411:1.5371456861495971] [0.37595008015632631:1.1697896599769593] [0.58695113658905029:1.5332811832427979] [0.7332778692245483:2.0035410881042481] [0.67728449702262883:1.9607724666595459] [0.6398556590080261:1.725800061225891] [0.53953047394752507:1.3746649980545045] [0.54427294731140141:1.7321555614471436] [0.65312843918800356:2.4457779407501219] [0.46390194296836851:1.4588724970817566] [0.52933840751647954:1.7639910221099853] [0.8385409832000732:2.9689795494079592] [0.78202940225601192:2.4682472705841065] [0.29048729538917539:1.0611306071281432] [0.33616789281368253:1.3102129936218261] [0.96642459630966182:2.659510040283203] [0.49902095794677737:1.6066602230072022] [1.1181802868843078:2.9835953235626222] [0.30583603382110597:1.0166308879852295] [0.66067957282066347:2.3567313671112062] [0.5893836557865143:1.751196837425232] [0.47543244957923891:1.3933445692062378] [0.4784696102142334:1.6186636924743651] [0.25668435096740722:1.0676392674446107] [0.43484134674072267:1.4075284719467163] [0.98848164081573486:2.8622932910919188] [0.4451820909976959:1.6847606420516967] [0.38785166740417482:0.91042382717132564] [0.55605347156524654:1.4566625356674194] [0.55254601836204531:1.7801475048065185] [0.54096539616584782:1.4795278549194335] [0.46663107275962828:1.1229902863502503] [0.60127779841423035:2.0455170631408692] [0.65259446501731877:2.2210808515548708] [0.76338915824890141:2.4561591625213621] [0.90996479988098145:2.6069777011871338] [0.47992056012153628:1.6507770299911499] [0.78492851257324214:2.2214525699615479] [0.69463115334510805:1.9575284004211426] [0.61586454510688782:1.8511723041534425] [0.35202735066413882:1.5018100976943969] [0.64712795615196228:1.9776360273361206] [0.77636537551879881:2.4277049064636231] [0.56912533044815061:1.7524445056915283] [0.48351744413375852:1.5558340549468994] [0.31715878844261169:1.1234323024749755] [0.60584626793861385:1.8561158418655395] [0.63368558883666992:2.243642234802246] [0.72619681954383852:2.2843700885772704] [0.34024149179458618:1.1576842188835144] [0.51544493436813354:1.9221445798873902] [0.33832994401454924:1.1946461200714111] [0.38721835613250732:1.2193514347076415] [0.83144196271896365:2.3385223865509035] [0.59301490783691402:1.932568359375] [0.7142243027687073:2.5174816608428956] [0.69893584251403806:2.0720975637435912] [0.62325511574745174:2.0922580480575563] [0.8604333877563477:2.7058618545532225] [0.52217281460762022:1.5814751148223878] [0.47471980452537538:1.3543981552124023] [0.74171281456947324:1.9320106267929078] [0.61630445122718813:1.3758466243743896] [0.5964857876300812:1.6126110553741455] [0.41232830286026001:1.4593265533447266] [0.62067176103591915:1.9546677350997925] [0.58051853179931645:1.9363427639007569] [0.57105669975280759:1.7673088312149048] [0.41686285734176637:1.3804466724395752] [0.32021214663982389:0.93799867630004885] [0.59348579049110417:1.8232223272323609] [0.45000577569007871:1.8397086381912231] [0.65199162960052492:2.0716693639755248] [0.60760142207145695:1.8309539556503296] [1.0438584566116333:2.7989644527435305] [0.88712307214736941:2.4568210601806642] [0.75848516821861267:2.3764284610748292] [0.55557332634925838:2.1398144960403442] [0.71961541175842281:1.7130329132080078] [0.50653598904609676:1.2443948268890381] [0.38076611757278445:0.98793574571609499] [0.94346212148666386:2.7001925468444825] [0.75809589624404905:1.9754759073257446] [1.0328133583068848:2.6995932579040529] [0.67253115177154543:2.461629295349121] [0.61783839464187618:2.1298981428146364] [1.1025040030479432:3.291816806793213] [0.99047845602035522:2.9072934627532958]
tree_sizes=2026 1977 1878 2261 2557 2581 2653 2652 1880 1978 2138 2219 2265 2242 2248 2015 2254 2028 2107 2800 2536 2234 2856 2421 2027 2247 2241 2052 2234 2350 2713 2567 2377 2411 2664 2153 2451 2071 2297 1971 2402 2192 2562 2405 2409 2445 3025 2210 2624 2561 2969 2578 2306 1941 3058 2514 2394 3104 2819 2593 2379 2123 2865 2313 2368 2290 2943 3062 2553 2865 2621 2957 2631 2504 2823 2734 2770 2639 2536 2890 2700 2553 2399 2741 2337 2774 2347 2705 3032 2684 2583 3013 2250 1964 1823 2338 2553 2596 2463 2706 2757 3243 2668 2313 1704 2222 2453 1985 1860 2360 2200 1950 2882 2371 2564 2690 2661 2945 2785 2073 2698 2350 2418 2135 2923 2657 2139 2490 1822 1968 2355 2089 2458 2736 1938 2133 2369 1798 1820 2520 2317 2264 1962 1825 2148 2462 2495 2461 2281 2266 2314 1857 2217 1946 2880 2237 2247 2508 2539 2694 1937 1735 1728 2074 2450 2245 1877 2380 1765 1665 1950 1660 2178 2225 1895 2138 2089 1773 2041 1852 2650 1890 2523 1805 2505 2487 2112 2356 2535 2935 2550 2496 1947 1881 1981 1936 2548 2353 2336 2401 2306 2613 2051 1620 1631 1704 1283 1421 1962 1770 2159 2252 2088 2058 2039 1902 1594 2062 1390 1895 1890 2004 2672 1909 1347 1355 877 856 2171 1808 2014 1948 2271 2312 1935 2641 2031 1638 1455 1509 2315 2638 2119 2012 1602 2510 1948 1904 1475 1585 1806 1685 1238 1292 1320 1441 2267 2478 2309 1728 2313 2170 1867 2058 2273 1896 2422 1953 1560 2333 1801 2100 1934 1920 1961 1907 2181 1924 1291 1319 1545 1432 1333 881 1396 1719 1739 2055 1596 2156 1818 1774 1458 1784 1945 1566 826 984 457 460

Tree=0
num_leaves=22
num_cat=0
split_feature=0 45 47 45 13 38 19 49 45 0 49 35 12 11 63 50 2 2 15 67 84
split_gain=96.6753 24.2055 14.9691 9.52585 9.1165 4.2473 2.77861 2.96653 3.15788 2.70915 2.34071 1.6172 1.23046 1.20338 0.852723 0.233661 0.289267 0.181819 0.10209 0.420297 0.00570737
threshold=-0.26120158890365985 -0.24832759120931022 -0.51208804577715583 1.4782192054997896 -0.40318456418999765 -0.097610279123590812 -1.0000000180025095e-35 0.065519535695503367 -0.63200465714466558 1.9770635819018421 0.2043781716891844 0.49396718871412776 -1.4738585806162947 1.0000000180025095e-35 2.3747282743453986 0.56876103967550995 -0.4232737625541742 0.18109792894601565 -0.38511928571367043 1.1112656205892566 0.19208656214177611
decision_type=2 2 2 2 2 2 2 2 2 2 2 2 2 2 2 2 2 2 2 2 2
left_child=3 6 18 10 -4 -6 11 20 -9 -7 12 13 -1 -2 -14 -12 -17 -5 -3 -20 -8
right_child=1 2 4 17 5 9 7 8 -10 -11 15 -13 14 -15 -16 16 -18 -19 19 -21 -22
leaf_value=0.5850574712643678 0.57492997896884634 0.5850574712643678 0.5850574712643678 0.5883724513585098 0.5850574712643678 0.61500191084863809 0.58462974006772839 0.5850574712643678 0.60325671171632611 0.5850574712643678 0.5850574712643678 0.5850574712643678 0.56802247558331076 0.5850574712643678 0.5850574712643678 0.5850574712643678 0.58032424336732413 0.5850574712643678 0.58971254165780995 0.5850574712643678 0.5850574712643678
leaf_weight=12.999999999999998 74 34 35 35 12.999999999999998 233 66 54 52 19 22 18 489 13.999999999999998 17 17 56 15.999999999999998 51 12.999999999999998 31
leaf_count=13 74 34 35 35 13 233 66 54 52 19 22 18 489 14 17 17 56 16 51 13 31
internal_value=0.585057 0.596467 0.604029 0.572049 0.609204 0.612129 0.585239 0.589642 0.595031 0.613453 0.570357 0.581145 0.568781 0.577487 0.568418 0.583808 0.58209 0.585057 0.585057 0.586895 0.585057
internal_weight=0 707 398 665 300 265 309 203 106 252 614 106 519 88 506 95 73 51 98 64 97
internal_count=1372 707 398 665 300 265 309 203 106 252 614 106 519 88 506 95 73 51 98 64 97
is_linear=0
shrinkage=1


Tree=1
num_leaves=24
num_cat=0
split_feature=0 45 39 45 0 47 19 0 45 12 172 70 87 34 8 19 8 8 63 4 84 122 23
split_gain=88.4056 22.2955 10.3923 8.84013 6.30351 5.90656 4.60321 3.34142 2.33507 2.12291 1.94338 1.96137 1.63572 1.39715 1.64443 1.22904 0.99349 0.883108 0.846916 0.597759 0.184643 0.193712 0.193893
threshold=-0.26120158890365985 -1.0000000180025095e-35 -0.056442369694615246 1.4782192054997896 0.57814785014840342 -0.51208804577715583 -1.0000000180025095e-35 1.9770635819018421 -0.82384319011234342 -1.5303692204948469 0.75295232534408585 1.3894085884094241 1.0068096220493319 0.81402265759250281 -1.397744667288211 -0.14612501712355488 1.0907472813312249 -0.59264433097015823 2.3747282743453986 1.6866159719276623 0.27881864234805115 1.1191288620233537 1.445118328039986
decision_type=2 2 2 2 2 2 2 2 2 2 2 2 2 2 2 2 2 2 2 2 2 2 2
left_child=3 4 -3 9 10 17 -6 13 -8 -1 12 15 -2 14 -7 -12 -14 -4 20 -10 21 -11 -23
right_child=1 2 5 -5 6 7 8 -9 19 18 11 -13 16 -15 -16 -17 -18 -19 -20 -21 -22 22 -24
leaf_value=0 0 0 0 0 0 0 0 0 0.021958310099712084 0 0 0 -0.0094802082648052632 0 0.031497558669853216 0.013558641073672202 0 0.0067937224962827825 0 0 0 -0.015575357287354964 0
leaf_weight=12.999999999999998 24 27 21 51 43 13.999999999999998 34 20 63 13.999999999999998 14.999999999999998 27 111 12.999999999999998 179 37 12.999999999999998 53 18 12.999999999999998 13.999999999999998 531 24
leaf_count=13 24 27 21 51 43 14 34 20 63 14 15 27 111 13 179 37 13 53 18 13 14 531 24
internal_value=0 0.0109293 0.0199521 -0.0124222 0.00195414 0.0225214 0.00971293 0.0269448 0.0148242 -0.0140568 -0.0012492 0.000818331 -0.00546069 0.0288241 0.0300351 0.00898969 -0.00796873 0.0027946 -0.0144686 0.019572 -0.0147945 -0.0149983 -0.0152106
internal_weight=0 707 327 665 380 300 153 226 110 614 227 79 148 206 193 52 124 74 601 76 583 569 555
internal_count=1372 707 327 665 380 300 153 226 110 614 227 79 148 206 193 52 124 74 601 76 583 569 555
is_linear=0
shrinkage=0.046


Tree=2
num_leaves=22
num_cat=0
split_feature=0 45 47 13 39 45 0 13 12 50 31 48 3 67 80 2 45 5 8 39 2
split_gain=80.8635 20.4131 19.7825 10.8188 9.45469 8.2609 3.09766 2.14635 1.97723 1.31853 0.976097 0.6316 1.04766 0.921005 1.16835 0.558182 0.489326 0.343479 0.76981 0.170136 0.165481
threshold=-0.26120158890365985 -0.63200465714466558 -0.51208804577715583 -0.40318456418999765 -0.056935973677595834 1.4782192054997896 1.9770635819018421 2.900433583106222 -1.5303692204948469 1.4760226216069137 0.051369956230016042 0.83791988048844412 -0.79937400772204226 1.1139883488416673 0.97953205108642594 -0.93810890716544704 -1.2075202560476987 0.67011181391176056 1.0000000180025095e-35 0.089828231657368848 0.18109792894601565
decision_type=2 2 2 2 2 2 2 2 2 2 2 2 2 2 2 2 2 2 2 2 2
left_child=5 11 17 -4 -5 8 7 -6 -1 10 15 12 -2 14 -14 -10 -16 18 -3 -13 -7
right_child=1 2 3 4 6 20 -8 -9 9 -11 -12 19 13 -15 16 -17 -18 -19 -20 -21 -22
leaf_value=0 0 -0.0050283862314834784 0 0 0.027721325147532814 0.0031625349414038748 0 0 0 0 0 0.0032067151452363882 0 0 0 -0.014797115464104539 -0.011379343220173095 0.0043464469861997871 0 0 0
leaf_weight=12.999999999999998 15.999999999999998 67 40 22 282 35 26 13.999999999999998 12.999999999999998 13.999999999999998 21 35 15.999999999999998 12.999999999999998 14.999999999999998 553 70 35 40 15.999999999999998 15.999999999999998
leaf_count=13 16 67 40 22 282 35 26 14 13 14 21 35 16 13 15 553 70 35 40 16 16
internal_value=0 0.0104849 0.0151582 0.020585 0.0232284 -0.0118501 0.0252696 0.0267728 -0.0134371 -0.0138356 -0.0141683 -0.000554943 -0.00327238 -0.00562633 -0.00741777 -0.0145547 -0.00971911 0 -0.000781807 0 0
internal_weight=0 707 526 384 344 665 322 296 614 601 587 181 130 114 101 566 85 142 107 51 51
internal_count=1372 707 526 384 344 665 322 296 614 601 587 181 130 114 101 566 85 142 107 51 51
is_linear=0
shrinkage=0.046


Tree=3
num_leaves=28
num_cat=0
split_feature=0 45 39 45 19 49 45 47 0 49 48 13 35 2 23 23 152 2 8 7 50 12 8 2 172 0 165
split_gain=73.7034 19.2713 9.19084 7.6503 5.43607 7.2598 5.6232 4.25735 2.52558 2.47188 1.57321 1.2496 1.21692 1.30066 1.85169 1.04905 1.03296 1.41745 0.822691 0.799788 0.721204 0.503321 0.415701 0.150611 0.108984 0.358976 0.223929
threshold=-0.26120158890365985 -1.0000000180025095e-35 -0.056442369694615246 1.4782192054997896 -1.0000000180025095e-35 0.065519535695503367 -0.63200465714466558 -0.51208804577715583 1.9770635819018421 -0.55934432627606123 1.3115913471746106 -0.40318456418999765 0.49396718871412776 -0.26658480549856939 -1.0976813064063895 0.67058740490402069 0.94457827508449566 -0.53519444616532041 -0.59264433097015823 2.4874159005802063 -0.091991907228951578 -0.6261989824380112 -1.397744667288211 0.18109792894601565 0.81163238883018496 0.57814785014840342 1.1789328336715701
decision_type=2 2 2 2 2 2 2 2 2 2 2 2 2 2 2 2 2 2 2 2 2 2 2 2 2 2 2
left_child=3 4 -3 9 12 24 -7 18 11 19 -8 -9 13 -2 -15 16 17 -11 -4 -1 -19 -16 -13 -5 25 26 -6
right_child=1 2 7 23 5 6 10 8 -10 15 -12 22 -14 14 21 -17 -18 20 -20 -21 -22 -23 -24 -25 -26 -27 -28
leaf_value=-0.015995618556073652 0 0 0 0.0030171006790265737 -0.0055221730161522653 0 0.024398303190844069 0 0 0 0 0 0 0 0 0 0 0 0.0064956935581857809 0 -0.011155660631446063 -0.014316455685403065 0.029312492546927939 0 0 0 0
leaf_weight=407 15.999999999999998 27 21 35 48 54 69 21 20 18 12.999999999999998 12.999999999999998 25 23 13.999999999999998 35 22 17 53 12.999999999999998 102 60 172 15.999999999999998 22 23 12.999999999999998
leaf_count=407 16 27 21 35 48 54 69 21 20 18 13 13 25 23 14 35 22 17 53 13 102 60 172 16 22 23 13
internal_value=0 0.0100328 0.0184211 -0.0112917 0.00160368 0.00658394 0.0137869 0.0208495 0.024793 -0.0128241 0.0214552 0.0264634 -0.00379659 -0.00635519 -0.00868448 -0.00440472 -0.00613451 -0.00772192 0.0025885 -0.0156177 -0.00968756 -0.0123207 0.0281797 0 0 -0.00165681 -0.00402867
internal_weight=0 707 327 665 380 242 136 300 226 614 82 206 138 113 97 194 159 137 74 420 119 74 185 51 106 84 61
internal_count=1372 707 327 665 380 242 136 300 226 614 82 206 138 113 97 194 159 137 74 420 119 74 185 51 106 84 61
is_linear=0
shrinkage=0.046


Tree=4
num_leaves=31
num_cat=0
split_feature=0 45 45 49 48 1 17 8 17 39 8 148 13 0 21 0 9 130 46 50 44 44 116 8 5 8 9 3 118 5
split_gain=71.9048 17.7888 16.5525 9.38699 5.09127 4.25445 3.55045 3.2425 3.0467 2.40121 3.95015 2.19662 2.12674 1.75527 2.14727 3.30153 1.52 1.35564 1.20628 2.37688 1.04699 1.08532 0.818908 0.310454 0.499268 0.640721 0.196155 0.0877309 0.118047 0.0961008
threshold=0.29836470379771557 0.13534947472604528 1.2863806725321119 -0.35105637228553971 -0.3603570019867513 1.0000000180025095e-35 -0.28434048164302234 1.0907472813312249 -0.85865294222939315 -0.018324460959855574 -1.1049809086271007 0.72119056284427652 -1.0000000180025095e-35 1.9770635819018421 0.22023141028498874 0.57814785014840342 1.7889743185884222 0.83111901283264167 0.055813417096480508 1.4715757431598877 -1.5625058454439762 1.5317554457003115 0.81819210052490254 0.066074126017339307 -0.64940416867056372 -0.81221714996599081 -1.5525003596069842 0.47321117145684244 1.7828652143478396 1.118926773973776
decision_type=2 2 2 2 2 2 2 2 2 2 2 2 2 2 2 2 2 2 2 2 2 2 2 2 2 2 2 2 2 2
left_child=2 5 3 8 -4 6 -2 9 -1 -3 -11 -6 18 14 15 -8 17 20 19 22 -10 26 -5 24 -14 -26 -22 28 -7 -29
right_child=1 7 4 12 11 27 13 -9 16 10 -12 -13 23 -15 -16 -17 -18 -19 -20 -21 21 -23 -24 -25 25 -27 -28 29 -30 -31
leaf_value=0 0 0 0 -0.013143789153796635 0 0 0 0 0 0 0.037059184921484745 0.019472968290641667 0 0 0 0.025949247184102214 0 0 0 0 0 0 0 0 0 0.0076094322835605259 -0.016219142672827574 0.0028514419160619443 -0.0029806742447294819 0
leaf_weight=15.999999999999998 41 12.999999999999998 30 84 13.999999999999998 14.999999999999998 19 12.999999999999998 13.999999999999998 22 111 58 25 14.999999999999998 20 61 17 14.999999999999998 55 15.999999999999998 15.999999999999998 13.999999999999998 12.999999999999998 54 12.999999999999998 53 431 25 49 15.999999999999998
leaf_count=16 41 13 30 84 14 15 19 13 14 22 111 58 25 15 20 61 17 15 55 16 16 14 13 54 13 53 431 25 49 16
internal_value=0 0.0157236 -0.00717654 -0.00958206 0.00802897 0.0059765 0.010838 0.0288294 -0.0135427 0.0308565 0.0329148 0.0155218 -0.00149425 0.0149886 0.0171899 0.0206433 -0.0142095 -0.0146792 -0.00556264 -0.00828183 -0.0151103 -0.0154939 -0.0114781 4.73415e-05 0.00268732 0.00509521 -0.0158971 0 -0.00170298 0
internal_weight=0 420 938 836 102 261 156 159 523 146 133 72 313 115 100 80 507 490 168 113 475 461 97 145 91 66 447 105 64 41
internal_count=1358 420 938 836 102 261 156 159 523 146 133 72 313 115 100 80 507 490 168 113 475 461 97 145 91 66 447 105 64 41
is_linear=0
shrinkage=0.046


Tree=5
num_leaves=32
num_cat=0
split_feature=0 45 45 47 48 1 15 8 15 13 39 8 0 113 13 148 48 9 50 46 44 44 126 28 3 5 5 0 5 154 183
split_gain=66.1353 16.1239 15.0387 6.30922 4.72854 3.90779 4.08123 2.88942 2.53283 2.3696 2.04441 3.23414 2.0189 2.60287 2.5477 2.00688 1.58251 1.36888 1.36384 1.23357 1.09071 0.971252 0.206052 0.251891 0.07725 0.0874663 0.0693322 0.241592 0.45657 0.00239005 0.0223806
threshold=0.29836470379771557 0.13534947472604528 1.2863806725321119 -0.51208804577715583 -0.3603570019867513 1.0000000180025095e-35 -0.7267959844709927 1.0907472813312249 -0.81914103818918793 -1.0000000180025095e-35 -0.018324460959855574 -1.1049809086271007 0.57814785014840342 0.97067080736160294 1.9262897704419519 0.72119056284427652 2.0927216244438589 1.7889743185884222 0.93554143443607074 0.055813417096480508 -1.5625058454439762 1.5508952062640906 0.88124394416809093 -0.049034739386806594 0.47321117145684244 1.118926773973776 -0.18263661020606817 -0.54098473525434754 0.27066649945656712 1.0112573415040973 0.80060499310493483
decision_type=2 2 2 2 2 2 2 2 2 2 2 2 2 2 2 2 2 2 2 2 2 2 2 2 2 2 2 2 2 2 2
left_child=2 5 3 8 -4 6 -2 10 -1 18 -3 -12 -8 -14 16 -6 -15 20 19 -5 -10 22 23 -22 -7 -26 29 -28 -29 30 -11
right_child=1 7 4 9 15 24 12 -9 17 26 11 -13 13 14 -16 -17 -18 -19 -20 -21 21 -23 -24 -25 25 -27 27 28 -30 -31 -32
leaf_value=0 0 0 0 -0.011712369901324167 0 -0.0015980237499845528 0 0 0 -0.0010791265959211043 0 0.035354615460536615 0 0.026406193572251577 0 0.018577366462145934 0 0 0 0 0 0 0 -0.01550164256588202 0.0027203279702675814 0 0 0.0065365175594313783 0 0 0
leaf_weight=12.999999999999998 18 12.999999999999998 30 94 13.999999999999998 64 29 12.999999999999998 12.999999999999998 45 22 111 17 63 15.999999999999998 58 12.999999999999998 17 51 39 12.999999999999998 13.999999999999998 23 394 25 15.999999999999998 22 38 26 21 12.999999999999998
leaf_count=13 18 13 30 94 14 64 29 13 13 45 22 111 17 63 16 58 13 17 51 39 13 14 23 394 25 16 22 38 26 21 13
internal_value=0 0.015108 -0.00685475 -0.00915887 0.00751967 0.00571071 0.0103713 0.0276394 -0.0129039 -0.00261471 0.0295606 0.0314921 0.0135708 0.016503 0.0195584 0.0148003 0.0231079 -0.013505 -0.00634161 -0.0087939 -0.0139824 -0.0143677 -0.0147624 -0.0152091 0 0 0 0.00130602 0.00320598 0 -0.000295263
internal_weight=0 420 938 836 102 261 156 159 487 349 146 133 138 109 92 72 76 474 184 133 457 444 430 407 105 41 165 86 64 79 58
internal_count=1358 420 938 836 102 261 156 159 487 349 146 133 138 109 92 72 76 474 184 133 457 444 430 407 105 41 165 86 64 79 58
is_linear=0
shrinkage=0.046


Tree=6
num_leaves=32
num_cat=0
split_feature=0 45 45 47 48 17 8 15 13 103 148 39 8 48 13 28 9 0 5 44 47 130 44 12 9 45 23 154 72 154 182
split_gain=60.8304 14.685 13.6958 5.59128 4.3922 3.2739 2.57025 2.37532 2.17274 2.07315 1.83382 1.72515 2.59805 1.54016 1.44657 1.25443 1.24504 1.22806 1.06158 0.990794 0.983482 0.901935 0.930817 0.874554 0.173962 0.155146 0.0587813 0.0573473 0.816912 0.0556542 0.109444
threshold=0.29836470379771557 0.13534947472604528 1.2863806725321119 -0.51208804577715583 -0.3603570019867513 -0.10486783770978143 1.0907472813312249 -0.81914103818918793 -1.0000000180025095e-35 0.92854260504245767 0.72119056284427652 -0.018324460959855574 -1.1049809086271007 2.3600131451093831 1.9262897704419519 0.027491621457387237 1.7889743185884222 0.57814785014840342 0.6544032903095901 -1.5625058454439762 1.3148804914942753 0.83111901283264167 1.5508952062640906 0.84307765440434712 -1.5525003596069842 0.99862287308059516 -1.2438192164320434 0.81043699234724054 1.4199020296335223 1.0779855072498323 1.0231081247329714
decision_type=2 2 2 2 2 2 2 2 2 2 2 2 2 2 2 2 2 2 2 2 2 2 2 2 2 2 2 2 2 2 2
left_child=2 5 3 7 -4 -2 11 -1 15 -7 -6 -3 -13 14 17 20 19 -11 -19 -9 23 22 24 26 -21 -26 -5 -10 -29 30 -30
right_child=1 6 4 8 10 9 -8 16 27 13 -12 12 -14 -15 -16 -17 -18 18 -20 21 -22 -23 -24 -25 25 -27 -28 28 29 -31 -32
leaf_value=0 0 0 0 0 0 0 0 0 0.001835705081279726 0 0.017722954818491812 0 0.033728449706096557 0 0 0 0 0 0.021057458964012558 0 0 0 0 0 -0.015127570235337938 0 -0.01034371019469283 -0.004795337301909037 0 0 0.0036891621357008396
leaf_weight=12.999999999999998 76 12.999999999999998 30 12.999999999999998 13.999999999999998 20 12.999999999999998 12.999999999999998 36 23 58 22 111 13.999999999999998 22 13.999999999999998 17 38 68 15.999999999999998 12.999999999999998 13.999999999999998 13.999999999999998 18 386 13.999999999999998 126 72 12.999999999999998 12.999999999999998 31
leaf_count=13 76 13 30 13 14 20 13 13 36 23 58 22 111 14 22 14 17 38 68 16 13 14 14 18 386 14 126 72 13 13 31
internal_value=0 0.0144997 -0.00656388 -0.00877322 0.00703379 0.00542356 0.0265041 -0.012327 -0.00249593 0.00888497 0.014112 0.0283242 0.030135 0.0107283 0.0121387 -0.00606638 -0.0129123 0.0140072 0.0162259 -0.0133676 -0.00744611 -0.0137349 -0.0141148 -0.00856092 -0.0145144 -0.0148328 -0.00980264 0 0 0.00112923 0.00208031
internal_weight=0 420 938 836 102 261 159 487 349 185 72 146 133 165 151 184 474 129 106 457 170 444 430 157 416 400 139 165 129 57 44
internal_count=1358 420 938 836 102 261 159 487 349 185 72 146 133 165 151 184 474 129 106 457 170 444 430 157 416 400 139 165 129 57 44
is_linear=0
shrinkage=0.046


Tree=7
num_leaves=33
num_cat=0
split_feature=0 45 49 45 1 15 15 45 8 0 21 0 39 8 3 23 44 126 61 2 131 67 9 44 50 48 8 45 31 45 3 118
split_gain=55.8813 13.3282 12.5244 5.93438 3.52462 3.7322 3.04771 2.56692 2.28183 1.70657 2.31021 3.19462 1.43978 2.034 1.37351 1.29618 1.26665 1.37953 1.24659 1.22578 1.07896 1.02453 0.6337 0.558788 0.480124 0.254538 0.19644 1.06179 0.701934 0.119885 0.0760015 0.109418
threshold=0.29836470379771557 0.13534947472604528 -0.35105637228553971 1.4782192054997896 1.0000000180025095e-35 -0.7267959844709927 -0.81914103818918793 0.71086507362907858 1.0907472813312249 0.57814785014840342 0.22023141028498874 1.9770635819018421 -0.018324460959855574 -1.1049809086271007 -0.61328815497056233 -0.929622709876888 1.5317554457003115 0.88124394416809093 0.29273705894975244 0.27063447583493272 0.97630700767040268 1.1173025965690615 1.9648414069144964 -1.4795668830009336 0.64061576872619785 -0.40274243786431113 1.0000000180025095e-35 -0.82384319011234342 -1.0000000180025095e-35 0.23126874120988414 0.47321117145684244 1.7828652143478396
decision_type=2 2 2 2 2 2 2 2 2 2 2 2 2 2 2 2 2 2 2 2 2 2 2 2 2 2 2 2 2 2 2 2
left_child=2 4 3 6 5 -2 -1 14 12 -7 11 15 -3 -14 24 -11 17 18 22 20 -9 -22 23 -8 -4 -5 27 -16 -28 -29 31 -6
right_child=1 8 7 25 30 9 16 19 -10 10 -12 -13 13 -15 26 -17 -18 -19 -20 -21 21 -23 -24 -25 -26 -27 28 29 -30 -31 -32 -33
leaf_value=0 0 0 -0.0093494834249354657 0 0 0 0 0 0 0 0 0 0 0.032177080707328401 0 0.027328512249136828 0 0 0 0 0.015223484072916939 0 0 -0.014704583432407662 0 0.0043088412580716941 -0.0058063616492323488 0.006413686379323021 0 0 0 -0.0028293898788624167
leaf_weight=13.999999999999998 18 12.999999999999998 55 12.999999999999998 14.999999999999998 29 12.999999999999998 12.999999999999998 12.999999999999998 19 22 13.999999999999998 22 111 32 54 15.999999999999998 27 17 12.999999999999998 50 13.999999999999998 12.999999999999998 430 19 29 50 66 30 24 41 49
leaf_count=14 18 13 55 13 15 29 13 13 13 19 22 14 22 111 32 54 16 27 17 13 50 14 13 430 19 29 50 66 30 24 41 49
internal_value=0 0.0139328 -0.00625594 -0.0105123 0.0051712 0.00962 -0.0119565 0 0.025421 0.0127215 0.0154278 0.018825 0.0271447 0.0288402 -0.00179196 0.0226919 -0.0126228 -0.0130305 -0.0136256 0.00710617 0.00962823 0.0121325 -0.0140841 -0.0143948 -0.00715856 0 0 0.00132725 -0.00158395 0.00522961 0 -0.00158506
internal_weight=0 420 938 572 261 156 530 366 159 138 109 87 146 133 276 73 516 500 473 90 77 64 456 443 74 42 202 122 80 90 105 64
internal_count=1358 420 938 572 261 156 530 366 159 138 109 87 146 133 276 73 516 500 473 90 77 64 456 443 74 42 202 122 80 90 105 64
is_linear=0
shrinkage=0.046


Tree=8
num_leaves=23
num_cat=0
split_feature=0 45 45 4 38 35 0 15 2 17 49 8 23 8 19 84 130 38 130 130 40 9
split_gain=48.5242 13.1688 10.9242 5.97041 4.71326 3.5496 2.73363 2.04935 2.52905 2.23064 1.80469 2.25762 1.11549 0.958484 0.707206 0.547916 0.23949 0.416581 0.27266 0.189007 0.130676 0.0220995
threshold=0.29836470379771557 1.2863806725321119 -0.63200465714466558 -0.43114089420972351 -0.057297053994805149 -0.30892523806501626 -1.1005510279557229 -0.58827840389369979 0.44970756961276676 1.7167794982126139 -0.35105637228553971 1.0000000180025095e-35 -1.0976813064063895 1.7494657383187227 1.2073184053119383 0.27148883491754539 0.68515817224979403 -0.092528354449625427 0.75527204573154461 0.80978417396545421 0.47687962439687182 -0.55592019242589819
decision_type=2 2 2 2 2 2 2 2 2 2 2 2 2 2 2 2 2 2 2 2 2 2
left_child=1 3 -2 13 -4 -3 -7 -6 9 20 11 12 -5 14 15 -1 17 -12 21 -14 -9 -18
right_child=2 5 4 10 7 6 -8 8 -10 -11 16 -13 19 -15 -16 -17 18 -19 -20 -21 -22 -23
leaf_value=-0.01397824050837939 0 0 0 0 0 0 0.018001814851799004 0.023646526022177781 0 0 0 0 -0.010627667465862196 0 0 0 0 0.0045595031160057531 0 0 0 -0.0035515335980796565
leaf_weight=354 95 19 26 12.999999999999998 29 12.999999999999998 60 209 30 18 20 85 131 21 15.999999999999998 13.999999999999998 14.999999999999998 64 30 14.999999999999998 17 54
leaf_count=354 95 19 26 13 29 13 60 209 30 18 20 85 131 21 16 14 15 64 30 15 17 54
internal_value=0 -0.00602847 0.0127655 -0.00815221 0.0167413 0.00817683 0.0136798 0.0183639 0.0197168 0.0214121 -0.00283875 -0.00545454 -0.00870052 -0.0126183 -0.0131609 -0.0135944 0 0.00231241 -0.000762322 -0.00993 0.0227129 -0.00303218
internal_weight=0 924 424 832 329 92 73 303 274 244 427 244 159 405 384 368 183 84 99 146 226 69
internal_count=1348 924 424 832 329 92 73 303 274 244 427 244 159 405 384 368 183 84 99 146 226 69
is_linear=0
shrinkage=0.046


Tree=9
num_leaves=25
num_cat=0
split_feature=0 46 46 4 38 35 0 17 15 1 0 2 49 2 46 44 28 19 44 9 84 7 84 48
split_gain=44.515 11.9561 10.0866 5.32564 4.37097 3.29448 2.53412 1.78228 2.156 4.74014 1.76705 1.64916 2.08045 1.48696 1.15499 1.16175 0.532424 0.604133 0.441429 0.460582 0.264155 0.20659 0.473251 0.133276
threshold=0.29836470379771557 1.3443209753081933 -0.62633764313324958 -0.43114089420972351 -0.057297053994805149 -0.30892523806501626 -1.1005510279557229 1.4027023713294426 -0.58827840389369979 1.0000000180025095e-35 1.9770635819018421 -0.35612135238748638 -0.073339100298177667 0.4049392961683082 0.6621699150784629 1.2318991968677724 0.031409004433763925 1.2073184053119383 -1.6007853665715344 0.85101651418269408 0.18937187418341639 1.2382354164074714 0.26401415169239045 -0.043679435581133207
decision_type=2 2 2 2 2 2 2 2 2 2 2 2 2 2 2 2 2 2 2 2 2 2 2 2
left_child=1 3 -2 16 -4 -3 -7 8 -6 10 -10 20 14 -11 15 18 17 21 -13 -20 23 22 -1 -5
right_child=2 5 4 11 7 6 -8 -9 9 13 -12 12 -14 -15 -16 -17 -18 -19 19 -21 -22 -23 -24 -25
leaf_value=-0.013827283937703334 0 0 0 0 0 0 0.017173869321593007 0 0.029421680069741777 0.0088869651756964194 0 0 0 0 0 0 0 0 -0.010422043404298021 0 0 0 0 0.0061812849193202089
leaf_weight=328 95 19 26 19 29 12.999999999999998 60 20 130 85 19 12.999999999999998 133 20 22 18 20 15.999999999999998 164 17 19 27 13.999999999999998 22
leaf_count=328 95 19 26 19 29 13 60 20 130 85 19 13 133 20 22 18 20 16 164 17 19 27 14 22
internal_value=0 -0.00577157 0.0122294 -0.00780718 0.0160503 0.00763684 0.0129992 0.0176137 0.0185874 0.0200723 0.0270216 -0.00269954 -0.00424113 0.00582866 -0.00685729 -0.00796426 -0.0120563 -0.0124832 -0.00905457 -0.00964539 0 -0.0128861 -0.0134328 0.00369184
internal_weight=0 924 424 832 329 92 73 303 283 254 149 427 367 105 234 212 405 385 194 181 60 369 342 41
internal_count=1348 924 424 832 329 92 73 303 283 254 149 427 367 105 234 212 405 385 194 181 60 369 342 41
is_linear=0
shrinkage=0.046


Tree=10
num_leaves=26
num_cat=0
split_feature=0 45 45 4 38 1 35 0 13 17 66 2 2 6 6 21 28 19 49 9 44 48 44 3 9
split_gain=40.8827 10.8433 9.33995 4.84887 4.06511 3.13151 3.05724 2.35024 1.68854 2.71751 1.76509 1.33275 1.31659 1.58469 1.57494 0.78941 0.450875 0.527005 0.321804 0.617648 0.541009 0.389812 0.387183 0.231173 0.0651467
threshold=0.29836470379771557 1.2863806725321119 -0.63200465714466558 -0.43114089420972351 -0.057297053994805149 1.0000000180025095e-35 -0.30892523806501626 -1.1005510279557229 3.1545580559751616 1.4027023713294426 1.5175644338130951 -0.6247309930542374 0.44970756961276676 -0.13991404623534567 1.4775731825932421 -0.60373041395413773 0.031409004433763925 1.2073184053119383 -0.35105637228553971 0.088925798103039841 0.019714361161762412 -0.043679435581133207 0.70874574145781022 0.50354708021379102 1.7303519558130642
decision_type=2 2 2 2 2 2 2 2 2 2 2 2 2 2 2 2 2 2 2 2 2 2 2 2 2
left_child=1 3 -2 16 -4 18 -3 -8 9 10 12 -7 13 -6 -15 -13 17 24 21 20 -20 22 -5 -9 -1
right_child=2 6 4 5 8 11 7 23 -10 -11 -12 15 -14 14 -16 -17 -18 -19 19 -21 -22 -23 -24 -25 -26
leaf_value=-0.012559117173677095 0 0 0 -0.0051652948244995849 0 0 0 0.018993346784664637 0 0 0 0 0 0.023490268308991983 0 -0.01020434611130994 0 0 0.0078787637046346184 0 0 0 0 0 0
leaf_weight=356 95 19 26 65 14.999999999999998 13.999999999999998 12.999999999999998 46 13.999999999999998 18 13.999999999999998 12.999999999999998 30 198 13.999999999999998 133 20 15.999999999999998 49 36 30 70 17 13.999999999999998 12.999999999999998
leaf_count=356 95 19 26 65 15 14 13 46 14 18 14 13 30 198 14 133 20 16 49 36 30 70 17 14 13
internal_value=0 -0.00551877 0.0117325 -0.00746945 0.0154099 -0.00253007 0.00712168 0.01235 0.0169183 0.0176765 0.0188263 -0.00764816 0.0197045 0.0212568 0.0223525 -0.00913331 -0.0115412 -0.0119414 0 0.00226605 0.00490063 -0.000771009 -0.00334061 0.016384 -0.0123208
internal_weight=0 924 424 832 329 427 92 73 303 289 271 160 257 227 212 146 405 385 267 115 79 152 82 60 369
internal_count=1348 924 424 832 329 427 92 73 303 289 271 160 257 227 212 146 405 385 267 115 79 152 82 60 369
is_linear=0
shrinkage=0.046


Tree=11
num_leaves=27
num_cat=0
split_feature=4 45 49 48 45 45 54 13 1 177 94 8 39 13 84 46 4 31 17 45 50 12 50 28 3 15
split_gain=36.923 13.0934 9.22989 4.12915 3.31039 3.12581 4.35327 2.32661 2.58833 2.33021 2.89639 2.31929 1.97806 1.60166 1.76158 1.42213 1.04762 1.90108 0.943927 0.935749 0.80821 0.409529 0.291152 0.697288 0.15299 0.00561805
threshold=0.082741340606552138 0.32718800769372303 -0.55934432627606123 0.024441685206493421 1.4782192054997896 -0.91976245659618228 1.0425340132155558 -0.31847640656701764 1.0000000180025095e-35 1.872993987798691 1.3959687709808353 -1.1049809086271007 -0.017286681734454846 -0.23376824894403769 0.20500180646777155 0.055813417096480508 -0.8560305024237016 -0.12783438944308034 -0.8766002066227172 -1.2075202560476987 1.1000532975299617 -1.4738585806162947 1.0940970333645026 -0.026394446998784689 0.17335611893270653 0.12277850973640318
decision_type=2 2 2 2 2 2 2 2 2 2 2 2 2 2 2 2 2 2 2 2 2 2 2 2 2 2
left_child=2 5 4 -3 18 22 7 -7 9 -9 -11 -5 -13 15 16 20 -15 -18 -1 -20 -4 -21 23 -2 -19 -8
right_child=1 3 13 11 -6 6 25 8 -10 10 -12 12 -14 14 -16 -17 17 24 19 21 -22 -23 -24 -25 -26 -27
leaf_value=0 0 0 -0.009328068770068575 0 0 0 -0.00053195443586972861 0 0 0.026918054799739004 0 0 0.02897542019321812 0 0 0 0 0.012626830985777823 0 0 0 -0.011724843654037127 0 -0.0076003768709310346 0 0
leaf_weight=12.999999999999998 13.999999999999998 12.999999999999998 74 20 27 20 42 35 77 56 26 13.999999999999998 108 13.999999999999998 69 55 13.999999999999998 75 30 12.999999999999998 12.999999999999998 443 12.999999999999998 39 12.999999999999998 18
leaf_count=13 14 13 74 20 27 20 42 35 77 56 26 14 108 14 69 55 14 75 30 13 13 443 13 39 13 18
internal_value=0 0.00990927 -0.00588298 0.0216791 -0.00965683 0.00319024 0.00601471 0.00945314 0.0111333 0.0158847 0.0204971 0.0239694 0.0266258 0 0.00300323 -0.00348064 0.00682018 0.00863884 -0.0105989 -0.0109294 -0.00737276 -0.011474 -0.00156611 -0.00383094 0.0114982 0
internal_weight=0 495 853 155 526 340 274 214 194 117 82 142 122 327 185 142 116 102 499 486 87 456 66 53 88 60
internal_count=1348 495 853 155 526 340 274 214 194 117 82 142 122 327 185 142 116 102 499 486 87 456 66 53 88 60
is_linear=0
shrinkage=0.046


Tree=12
num_leaves=28
num_cat=0
split_feature=49 5 45 47 13 13 2 46 15 4 45 54 44 7 59 15 45 34 44 5 1 50 19 49 34 8 49
split_gain=35.6067 8.4325 8.32187 5.80871 4.3016 2.2683 1.91467 1.8054 1.72805 1.39974 1.21824 1.19421 0.955265 0.939489 1.40695 0.885834 0.811424 1.28683 0.691308 0.672402 0.973129 0.569925 0.590121 0.560241 0.401282 0.338978 0.0999139
threshold=0.86395669265916941 0.63869476670741954 -0.82384319011234342 -0.51208804577715583 -0.48789272181297755 -0.23376824894403769 -1.0724137274988224 0.055813417096480508 1.9835313421580369 0.28816041103441242 -0.91976245659618228 1.1166404156319267 1.4105369621297108 1.1647542114561342 0.4703256550766447 -0.38511928571367043 2.053734804402823 1.0000000180025095e-35 -1.6135452069473872 -0.63593971986870323 1.0000000180025095e-35 0.83403715740562545 -0.14612501712355488 2.9121215735659649 -0.39517948092189042 1.0175563416659474 1.0028153286528505
decision_type=2 2 2 2 2 2 2 2 2 2 2 2 2 2 2 2 2 2 2 2 2 2 2 2 2 2 2
left_child=1 3 -2 6 -4 7 -1 25 11 12 -3 23 16 14 15 -12 17 18 -8 -7 21 22 -21 26 -20 -5 -6
right_child=2 10 4 5 8 19 9 -9 -10 -11 13 -13 -14 -15 -16 -17 -18 -19 24 20 -22 -23 -24 -25 -26 -27 -28
leaf_value=0 0 0 0 -0.010236880746279714 0 0 0 0 0 0 0 0 0 0 0 0.015612723415731364 0 0 0 0 0 0 0.0092782375914905822 0 -0.01199390707071526 0 0.024748076337106704
leaf_weight=18 41 20 23 86 30 60 12.999999999999998 62 12.999999999999998 56 12.999999999999998 17 24 12.999999999999998 13.999999999999998 55 13.999999999999998 21 12.999999999999998 15.999999999999998 71 24 73 14.999999999999998 419 13.999999999999998 149
leaf_count=18 41 20 23 86 30 60 13 62 13 56 13 17 24 13 14 55 14 21 13 16 71 24 73 15 419 14 149
internal_value=0 -0.0040886 0.0140646 -0.00572247 0.0173763 -0.000246116 -0.00877329 -0.00525612 0.019328 -0.00931016 0.00589136 0.0203449 -0.0101087 0.00831542 0.0102151 0.0130231 -0.0105597 -0.0108877 -0.0114129 0.00119511 0.00310261 0.00582193 0.00752214 0.0215223 -0.0117286 -0.0091078 0.0225531
internal_weight=0 1099 288 984 247 406 578 162 224 560 115 211 504 95 82 68 480 466 445 244 184 113 89 194 432 100 179
internal_count=1387 1099 288 984 247 406 578 162 224 560 115 211 504 95 82 68 480 466 445 244 184 113 89 194 432 100 179
is_linear=0
shrinkage=0.046


Tree=13
num_leaves=27
num_cat=0
split_feature=49 45 5 47 13 13 2 46 15 28 45 44 7 31 44 34 45 5 1 19 50 3 49 6 34 8
split_gain=32.6396 7.79876 7.70529 5.20648 3.99435 2.04066 1.79877 1.66093 1.56875 1.17596 1.12909 0.88534 0.869796 0.714319 0.83714 0.965611 0.772547 0.616842 0.894616 0.523176 0.654232 0.494598 0.370156 0.360779 0.301849 0.297022
threshold=0.86395669265916941 -0.82384319011234342 0.63869476670741954 -0.51208804577715583 -0.48789272181297755 -0.23376824894403769 -1.0724137274988224 0.055813417096480508 1.9835313421580369 -0.05584998428640111 -0.91976245659618228 -1.6135452069473872 1.1647542114561342 0.16304381004808657 1.4105369621297108 1.0000000180025095e-35 1.9578155379189839 -0.63593971986870323 1.0000000180025095e-35 -0.28146935936710415 0.83403715740562545 0.29492887576908972 2.9121215735659649 0.75868996978053638 -0.39517948092189042 1.0175563416659474
decision_type=2 2 2 2 2 2 2 2 2 2 2 2 2 2 2 2 2 2 2 2 2 2 2 2 2 2
left_child=2 -2 3 6 -3 7 -1 25 9 -6 -4 -8 21 14 15 16 24 -7 19 -19 -21 -12 -11 -23 -13 -5
right_child=1 4 10 5 8 17 11 -9 -10 22 12 13 -14 -15 -16 -17 -18 18 -20 20 -22 23 -24 -25 -26 -27
leaf_value=0 0 0 0 -0.0097660388825674578 0 0 0 0 0 0.021404425078258672 0 0 0 0 0 0 0 0 0 0.0087463533357998724 0 0.013196287632606133 0 0 -0.010983461749045582 0
leaf_weight=18 41 23 20 86 12.999999999999998 60 15.999999999999998 62 12.999999999999998 183 13.999999999999998 12.999999999999998 12.999999999999998 14.999999999999998 26 30 13.999999999999998 15.999999999999998 71 78 19 55 14.999999999999998 12.999999999999998 446 13.999999999999998
leaf_count=18 41 23 20 86 13 60 16 62 13 183 14 13 13 15 26 30 14 16 71 78 19 55 15 13 446 14
internal_value=0 0.0134756 -0.00390569 -0.00547806 0.0166896 -0.00022311 -0.00837334 -0.00500615 0.0185707 0.019541 0.00554791 -0.00889737 0.00789967 -0.00921602 -0.0094974 -0.0099189 -0.0104376 0.00106742 0.00293329 0.00554623 0.00687355 0.00973341 0.0204814 0.0113855 -0.0107624 -0.00870287
internal_weight=0 288 1099 984 247 406 578 162 224 211 115 560 95 544 529 503 473 244 184 113 97 82 198 68 459 100
internal_count=1387 288 1099 984 247 406 578 162 224 211 115 560 95 544 529 503 473 244 184 113 97 82 198 68 459 100
is_linear=0
shrinkage=0.046


Tree=14
num_leaves=28
num_cat=0
split_feature=49 45 5 45 13 15 44 44 2 28 1 50 54 16 3 9 9 49 23 49 49 4 84 130 130 0 49
split_gain=29.6796 7.26025 7.0748 4.89503 3.68036 1.40773 1.37446 1.47241 1.18154 1.06548 1.05915 1.0335 1.03109 0.719175 0.631418 0.52815 0.434945 0.253408 0.248784 0.246378 0.219183 0.4245 0.476287 0.79938 0.127436 0.215287 0.0457519
threshold=0.86395669265916941 -0.82384319011234342 0.63869476670741954 0.61494580714523972 -0.48789272181297755 1.9835313421580369 -1.6135452069473872 1.3722574410021526 -1.0724137274988224 0.035934135177921177 1.0000000180025095e-35 1.1644504956220498 1.1166404156319267 -1.0000000180025095e-35 0.45366383480927946 0.44065997475518792 1.6717295930377063 2.9121215735659649 1.7373941480912933 0.69038339766706813 -0.35105637228553971 -0.78242757816616193 0.21952233985066416 0.61925899386405947 0.68055457472801228 1.0000000180025095e-35 1.0028153286528505
decision_type=2 2 2 2 2 2 2 2 2 2 2 2 2 2 2 2 2 2 2 2 2 2 2 2 2 2 2
left_child=2 -2 3 6 -3 12 -1 8 -8 11 13 14 17 -4 16 -15 18 26 19 -10 24 -22 23 -23 -5 -26 -6
right_child=1 4 10 20 5 -7 7 -9 9 -11 -12 -13 -14 15 -16 -17 -18 -19 -20 -21 21 22 -24 -25 25 -27 -28
leaf_value=0 0 0 0 0 0 0 0 0 -0.0093870156990287952 0 0 0 0 0.015172696525166628 0 0 0 0 0 0 0 0 0 0.0098323782181007693 -0.0039701137315239811 0 0.02265824210611218
leaf_weight=21 41 23 12.999999999999998 39 30 12.999999999999998 12.999999999999998 37 609 14.999999999999998 42 18 17 35 35 25 13.999999999999998 14.999999999999998 17 15.999999999999998 23 12.999999999999998 12.999999999999998 42 46 12.999999999999998 149
leaf_count=21 41 23 13 39 30 13 13 37 609 15 42 18 17 35 35 25 14 15 17 16 23 13 13 42 46 13 149
internal_value=0 0.01285 -0.00372444 -0.00524169 0.0159601 0.0177664 -0.00685826 -0.00721591 -0.00767533 -0.00796377 0.00525762 -0.00824277 0.0186871 0.00861632 -0.00853686 0.0107556 -0.0088771 0.019775 -0.00905289 -0.00922097 0 0.00225744 0.00447515 0.00656357 0 -0.00213767 0.0206595
internal_weight=0 288 1099 984 247 224 795 774 737 724 115 709 211 73 691 60 656 194 642 625 189 91 68 55 98 59 179
internal_count=1387 288 1099 984 247 224 795 774 737 724 115 709 211 73 691 60 656 194 642 625 189 91 68 55 98 59 179
is_linear=0
shrinkage=0.046


Tree=15
num_leaves=24
num_cat=0
split_feature=49 45 5 47 13 13 2 46 15 45 104 28 130 23 5 1 2 19 50 4 18 44 8
split_gain=27.0529 6.8103 6.51619 4.55664 3.41997 1.72073 1.65612 1.43309 1.27572 1.02275 1.44688 0.986926 0.695782 0.775548 0.597115 0.824235 0.500194 0.484829 0.608256 0.392213 0.988052 0.575004 0.265311
threshold=0.86395669265916941 -0.82384319011234342 0.63869476670741954 -0.51208804577715583 -0.48789272181297755 -0.23376824894403769 -0.4232737625541742 0.055813417096480508 1.9835313421580369 -0.91976245659618228 0.96280040144920365 -0.05584998428640111 0.83972543478012096 1.7373941480912933 -0.63593971986870323 1.0000000180025095e-35 0.5392441165016838 -0.28146935936710415 0.83403715740562545 0.72643236911339748 -1.0000000180025095e-35 -1.6135452069473872 1.0175563416659474
decision_type=2 2 2 2 2 2 2 2 2 2 2 2 2 2 2 2 2 2 2 2 2 2 2
left_child=2 -2 3 6 -3 7 -1 22 11 -4 16 -6 13 19 -7 17 -11 -16 -19 20 -8 -22 -5
right_child=1 4 9 5 8 14 12 -9 -10 10 -12 -13 -14 -15 15 -17 -18 18 -20 -21 21 -23 -24
leaf_value=0 0 0 0 -0.0089804880543651027 0 0 0 0 0 0.011903600209292183 0 0.018813439141847951 0 0 0 0 0 0.0084869158698142964 0 0 0 -0.010459053948220328 0
leaf_weight=94 41 23 20 86 12.999999999999998 60 12.999999999999998 62 12.999999999999998 65 15.999999999999998 198 13.999999999999998 12.999999999999998 15.999999999999998 71 13.999999999999998 78 19 21 12.999999999999998 410 13.999999999999998
leaf_count=94 41 23 20 86 13 60 13 62 13 65 16 198 14 13 16 71 14 78 19 21 13 410 14
internal_value=0 0.0123108 -0.00351703 -0.00498521 0.0153314 -1.50318e-05 -0.00768048 -0.0045424 0.0170731 0.00504522 0.00732055 0.0179511 -0.008814 -0.00911773 0.00110574 0.00291338 0.0101584 0.00540863 0.00668231 -0.00943868 -0.0097613 -0.0101565 -0.00798411
internal_weight=0 288 1099 984 247 406 578 162 224 115 95 211 484 470 244 184 79 113 97 457 436 423 100
internal_count=1387 288 1099 984 247 406 578 162 224 115 95 211 484 470 244 184 79 113 97 457 436 423 100
is_linear=0
shrinkage=0.046


Tree=16
num_leaves=28
num_cat=0
split_feature=49 4 4 45 45 45 13 58 13 5 7 43 157 19 115 34 19 44 67 48 105 84 63 0 36 5 31
split_gain=37.419 12.2418 4.49412 4.67068 3.65211 3.03792 2.64949 2.48884 6.11369 1.96018 1.83973 1.48914 1.16706 1.53395 0.804179 0.423777 0.613145 0.413606 0.368199 0.32651 0.313096 0.30681 0.230321 0.063368 0.508587 1.26567 0.0160765
threshold=1.1069593056481113 0.043932525998030943 1.8906968073690227 -1.015681723080021 -0.63200465714466558 1.2863806725321119 -0.23376824894403769 0.25988885764342351 -0.48789272181297755 -0.12429066539800619 1.0912730065047969 0.21347085026022225 1.6430935025215152 -0.41681370161065345 2.2268654704093938 -0.39517948092189042 1.0719740630683889 1.4105369621297108 0.94679916799068453 0.83791988048844412 1.1580573558807374 0.14822978638112547 1.6455082535743715 -1.1005510279557229 -0.037936669809825636 -0.13775511419986666 0.051369956230016042
decision_type=2 2 2 2 2 2 2 2 2 2 2 2 2 2 2 2 2 2 2 2 2 2 2 2 2 2 2
left_child=1 5 3 -2 19 9 -6 8 -5 14 11 12 13 -8 15 -1 17 26 -15 21 22 -3 -11 -7 -25 -26 -17
right_child=2 4 -4 7 6 23 10 -9 -10 20 -12 -13 -14 18 -16 16 -18 -19 -20 -21 -22 -23 -24 24 25 -27 -28
leaf_value=0 0 0 0 0 0 0 0 0 0.029215163907590429 0 0 0 0 0 0 -0.0096412448038647926 0 0 0.021347135944595436 0 -0.0026833619754374795 -0.0053968841952879622 0.0034901191780967022 0 0.0099838598038532334 0 0
leaf_weight=23 13.999999999999998 22 15.999999999999998 13.999999999999998 35 19 42 29 128 31 29 12.999999999999998 15.999999999999998 37 18 467 35 14.999999999999998 71 28 92 46 40 13.999999999999998 39 13.999999999999998 12.999999999999998
leaf_count=23 14 22 16 14 35 19 42 29 128 31 29 13 16 37 18 467 35 15 71 28 92 46 40 14 39 14 13
internal_value=0 -0.00256283 0.0188817 0.0209464 0.00402302 -0.00584651 0.00737421 0.0230752 0.0260439 -0.00685159 0.00951215 0.0112644 0.0124821 0.0137435 -0.00822245 -0.00853735 -0.0088171 -0.00926601 0.0170992 0 0 -0.00318728 0 0 0.00141457 0.00477815 -0.00950607
internal_weight=0 1159 201 185 339 820 243 171 142 734 208 179 166 150 571 553 530 495 108 96 163 68 71 86 67 53 480
internal_count=1360 1159 201 185 339 820 243 171 142 734 208 179 166 150 571 553 530 495 108 96 163 68 71 86 67 53 480
is_linear=0
shrinkage=0.046


Tree=17
num_leaves=25
num_cat=0
split_feature=49 0 4 45 45 39 132 13 58 45 84 32 49 34 129 12 23 39 0 148 22 28 7 8
split_gain=34.1059 11.3388 4.16445 4.33075 3.43141 3.54035 2.11808 2.04055 4.62898 1.93413 1.69287 1.10375 0.995485 1.77855 1.66091 0.91715 0.591075 0.431284 0.345372 1.15106 0.87158 0.47341 0.112307 0.00269495
threshold=1.1069593056481113 -0.26120158890365985 1.8906968073690227 -1.015681723080021 0.13534947472604528 -0.051771294773422454 1.4713061392307283 -0.31847640656701764 0.2418830308602071 2.053734804402823 0.22948294878005984 0.16563692270734279 0.2043781716891844 1.0000000180025095e-35 1.4633284449577333 -1.2478160211020857 -0.929622709876888 -0.16930531215231662 0.57814785014840342 0.81854850351810471 1.0000000180025095e-35 -0.030879821067349857 0.28297975204008602 0.13926506568261685
decision_type=2 2 2 2 2 2 2 2 2 2 2 2 2 2 2 2 2 2 2 2 2 2 2 2
left_child=1 9 3 -2 18 -6 10 -5 -9 12 11 -7 13 14 15 -1 -17 -18 20 22 23 -22 -20 -3
right_child=2 4 -4 7 5 6 -8 8 -10 -11 -12 -13 -14 -15 -16 16 17 -19 19 -21 21 -23 -24 -25
leaf_value=0 0 0 0 0 0 0.016553247294096025 0 0.028025918359635488 0 0 0 0 0 0 0 0 0 -0.01053178843635812 0.0092861590205593862 0 0 -0.0072356277750998416 0 0.00035594135383795804
leaf_weight=17 13.999999999999998 94 15.999999999999998 21 32 100 12.999999999999998 124 26 23 14.999999999999998 13.999999999999998 107 25 33 26 12.999999999999998 417 33 47 24 65 15.999999999999998 45
leaf_count=17 14 94 16 21 32 100 13 124 26 23 15 14 107 25 33 26 13 417 33 47 24 65 16 45
internal_value=0 -0.00244563 0.018026 0.0200167 0.0021265 0.00739381 0.0109426 0.0220693 0.0241665 -0.00658618 0.0129053 0.0148283 -0.00716633 -0.0081038 -0.00873805 -0.00943984 -0.00983302 -0.0102685 0 0.00134332 -0.00156375 -0.00519458 0.00729603 0
internal_weight=0 1159 201 185 498 174 142 171 150 661 129 114 638 531 506 473 456 430 324 96 228 89 49 139
internal_count=1360 1159 201 185 498 174 142 171 150 661 129 114 638 531 506 473 456 430 324 96 228 89 49 139
is_linear=0
shrinkage=0.046


Tree=18
num_leaves=26
num_cat=0
split_feature=0 45 45 13 4 2 50 4 9 34 61 44 74 44 63 34 8 39 47 47 2 122 3 3 19
split_gain=31.3122 5.92005 5.28833 3.83849 2.56236 2.43004 2.09357 1.96367 1.44619 1.33838 1.26189 1.23215 1.11676 0.991812 0.795351 0.845871 0.585216 0.303694 0.270345 0.156855 0.11099 0.0856611 0.0348424 0.176163 0.0476089
threshold=0.29836470379771557 -0.53608539066082672 1.2863806725321119 -0.31847640656701764 1.8906968073690227 0.5392441165016838 1.4510449356962243 -0.53485410566352942 1.5544848674869902 -0.41373397461109945 0.24026905150233582 1.3850172813780053 1.0348924070596697 -1.6135452069473872 2.3747282743453986 0.027472717809690048 -1.4709356069534885 1.0000000180025095e-35 -0.51208804577715583 -0.51208804577715583 -0.93810890716544704 1.1333061039447785 0.080969651513703458 1.1651559648074363 -1.0000000180025095e-35
decision_type=2 2 2 2 2 2 2 2 2 2 2 2 2 2 2 2 2 2 2 2 2 2 2 2 2
left_child=2 22 6 -3 5 10 8 -4 9 -1 16 13 -9 -11 15 17 -5 20 -18 -14 -15 -22 -2 24 -24
right_child=1 3 7 4 -6 -7 -8 12 -10 11 -12 -13 19 14 -16 -17 18 -19 -20 -21 21 -23 23 -25 -26
leaf_value=0 0 0 0 0 0 0 0 0 0 0 0 0 0 0 0 0 0 0 0.022713159149416531 0.015485286660282512 0 -0.008655562961508741 0 0 0.004774065128915859
leaf_weight=14.999999999999998 56 23 44 12.999999999999998 13.999999999999998 30 40 13.999999999999998 30 13.999999999999998 15.999999999999998 37 20 12.999999999999998 24 38 33 12.999999999999998 168 33 12.999999999999998 601 14.999999999999998 19 24
leaf_count=15 56 23 44 13 14 30 40 14 30 14 16 37 20 13 24 38 33 13 168 33 13 601 15 19 24
internal_value=0 0.0111372 -0.00402083 0.0146227 0.0161683 0.0172146 -0.00551273 0.0030981 -0.00612085 -0.00655079 0.0189037 -0.00689409 0.00882657 -0.00732297 -0.00759506 -0.00788727 0.0199134 -0.0082885 0.0206966 0.0119608 -0.00843496 -0.00854619 0 0.00112735 0.00338312
internal_weight=0 411 949 297 274 260 838 111 798 768 230 753 67 716 702 678 214 640 201 53 627 614 114 58 39
internal_count=1360 411 949 297 274 260 838 111 798 768 230 753 67 716 702 678 214 640 201 53 627 614 114 58 39
is_linear=0
shrinkage=0.046


Tree=19
num_leaves=34
num_cat=0
split_feature=5 0 90 22 45 17 46 176 84 130 45 19 54 13 8 45 47 34 81 8 133 44 12 39 13 103 175 113 130 29 8 171 116
split_gain=29.1707 8.45955 4.78973 3.46326 3.43607 3.35286 2.15712 2.28834 2.45871 1.82937 1.76108 1.33438 1.24912 1.23771 1.47089 1.10048 0.690344 0.785957 0.832798 0.592002 0.569669 0.437884 0.43597 0.283215 0.204191 0.603438 1.38772 0.832159 0.201057 0.366234 0.165989 0.062557 0.0518701
threshold=0.67011181391176056 -0.54098473525434754 1.0089992463588717 1.0000000180025095e-35 -1.1116009895638599 1.7167794982126139 1.0000000180025095e-35 1.1800676524639131 0.19775937646627428 0.72105187773704538 2.053734804402823 1.2073184053119383 0.99104117357278065 -0.5726008794359575 -1.397744667288211 1.190461406048273 1.3148804914942753 0.027472717809690048 2.3779126405715947 1.3835110399923349 0.90965690314769754 0.83060221704720405 0.89958829428289933 -0.16930531215231662 -0.23376824894403769 1.2232383430004121 1.758735501766205 1.3063042610883715 0.54628348350524913 -1.0570618933588236 1.0907472813312249 0.84718052446842207 0.74226014018058784
decision_type=2 2 2 2 2 2 2 2 2 2 2 2 2 2 2 2 2 2 2 2 2 2 2 2 2 2 2 2 2 2 2 2 2
left_child=1 10 4 6 -2 13 24 -8 9 32 11 16 15 -6 -15 20 17 18 21 -16 -5 23 30 -1 -3 31 27 -27 -25 -30 -22 -26 -9
right_child=2 3 -4 12 5 -7 7 8 -10 -11 -12 -13 -14 14 19 -17 -18 -19 -20 -21 22 -23 -24 28 25 26 -28 -29 29 -31 -32 -33 -34
leaf_value=0 0 -0.0015845318787454468 0 0 0 0 0 0.02686126636207483 0 0 0 0 0 0 0.026419146207211443 0 0 0 0 0 -0.01035169945426973 0 0 0 0.00034654004172220582 0 0 0.01525809757028055 0 -0.010347690665622447 0 -0.0012930885101468388 0
leaf_weight=13.999999999999998 13.999999999999998 47 51 12.999999999999998 12.999999999999998 20 43 33 44 21 20 13.999999999999998 76 13.999999999999998 123 18 13.999999999999998 18 14.999999999999998 12.999999999999998 90 12.999999999999998 15.999999999999998 15.999999999999998 30 12.999999999999998 25 27 13.999999999999998 368 14.999999999999998 77 18
leaf_count=14 14 47 51 13 13 20 43 33 44 21 20 14 76 14 123 18 14 18 15 13 90 13 16 16 30 13 25 27 14 368 15 77 18
internal_value=0 -0.00258586 0.0148066 0.000393404 0.0180952 0.0198043 0.00371881 0.00784743 0.0112315 0.0165974 -0.00706293 -0.00772044 -0.00310224 0.0219967 0.0233076 -0.00564123 -0.00820701 -0.00852076 -0.00890803 0.0249409 -0.00731262 -0.00928978 -0.00831747 -0.00955363 0 0.00135118 0.0049469 0.0106374 -0.00979735 -0.0100559 -0.00940777 0 0.0215585
internal_weight=0 1112 248 606 197 183 378 159 116 72 506 486 228 163 150 152 472 458 440 136 134 425 121 412 219 172 65 40 398 382 105 107 51
internal_count=1360 1112 248 606 197 183 378 159 116 72 506 486 228 163 150 152 472 458 440 136 134 425 121 412 219 172 65 40 398 382 105 107 51
is_linear=0
shrinkage=0.046


Tree=20
num_leaves=31
num_cat=0
split_feature=49 45 0 25 110 13 2 45 67 8 25 23 6 11 3 9 139 39 51 30 164 15 32 84 5 32 121 3 30 54
split_gain=19.2641 5.9641 4.98364 2.96719 3.34908 3.17741 3.66232 2.615 3.14605 2.42541 2.00711 1.77275 1.59245 1.00349 0.910014 0.961604 0.860232 0.790515 0.745505 1.03696 0.687705 0.674183 0.531253 0.44343 0.338439 0.259867 0.150671 0.0900585 0.0771529 0.0481835
threshold=0.86395669265916941 -0.44016612417698792 -0.26120158890365985 0.33371866691156832 1.4890666723251345 -0.5726008794359575 0.5392441165016838 1.0000000180025095e-35 1.1103820443153383 -0.66583527063543591 -1.3395185489035919 1.445118328039986 0.21952756017100714 -0.58675027420685777 1.0443679186776584 0.90963887695805201 0.84066107571125037 -0.03569960606927567 0.015895392148136289 -0.076380787592238 1.5935803890228273 -0.92072059727920263 -0.097058715639552137 0.27490897439420231 -0.55964117665816071 -0.17225365094124853 0.82871167212724695 -0.11163403139206597 0.069384535704344316 1.0023488568694365
decision_type=2 2 2 2 2 2 2 2 2 2 2 2 2 2 2 2 2 2 2 2 2 2 2 2 2 2 2 2 2 2
left_child=2 -2 7 4 5 -4 9 8 11 -7 -3 13 17 -1 15 20 -15 -12 24 27 22 -11 -5 26 25 -9 -18 -20 -23 -6
right_child=1 10 3 14 29 6 -8 18 -10 21 12 -13 -14 16 -16 -17 23 -19 19 -21 -22 28 -24 -25 -26 -27 -28 -29 -30 -31
leaf_value=0 0 0 0 0 -0.001706519192608722 0 0 0 0 0 0 0 0 0 0 0 -0.011016448734842895 0.020823996902612715 0.0070629942280076938 0 0 0.018640767383391873 -0.0095830498868283154 0 0 -0.0049825981118628449 0 0 0 0
leaf_weight=34 86 12.999999999999998 22 14.999999999999998 35 38 35 12.999999999999998 49 12.999999999999998 13.999999999999998 22 44 18 15.999999999999998 13.999999999999998 283 138 60 23 13.999999999999998 100 78 12.999999999999998 40 90 13.999999999999998 12.999999999999998 18 12.999999999999998
leaf_count=34 86 13 22 15 35 38 35 13 49 13 14 22 44 18 16 14 283 138 60 23 14 100 78 13 40 90 14 13 18 13
internal_value=0 0.01134 -0.00179118 0.00140867 0.00485917 0.00774478 0.00997026 -0.00443274 -0.00657824 0.012878 0.0155528 -0.00813207 0.0167212 -0.00897282 -0.00213475 -0.00459047 -0.00976373 0.0195626 0 0.00251832 -0.00654552 0.0159098 -0.00805843 -0.0103314 -0.00260249 -0.00404414 -0.0107037 0.00619623 0.01712 0
internal_weight=0 295 1083 411 274 226 204 672 433 169 209 384 196 362 137 121 328 152 239 96 107 131 93 310 143 103 297 73 118 48
internal_count=1378 295 1083 411 274 226 204 672 433 169 209 384 196 362 137 121 328 152 239 96 107 131 93 310 143 103 297 73 118 48
is_linear=0
shrinkage=0.046


Tree=21
num_leaves=28
num_cat=0
split_feature=49 45 46 5 67 17 13 35 62 170 50 12 28 44 165 23 133 93 130 103 67 148 131 44 45 154 154
split_gain=17.7399 5.44926 4.51123 3.25873 2.55821 2.28745 1.91806 1.59556 2.15362 1.76489 1.41075 1.28788 1.28679 0.868896 0.785222 0.657855 0.565746 0.312452 1.25418 0.543109 0.223763 0.553743 0.0769567 0.0390886 0.255542 0.404369 0.378964
threshold=0.86395669265916941 -0.44016612417698792 0.055813417096480508 -0.15121956300172698 1.0900883674621584 1.2232297273962016 -0.82672535230489741 -0.32718150173288324 0.83102988624524465 1.0691996157169343 0.6935395230617124 -1.1913053812235335 0.031409004433763925 -0.069604521469206801 1.2087505996227266 1.445118328039986 1.2301042139530185 1.3795975089073182 0.76917461156845113 0.92854260504245767 0.82961656153202068 0.73266243040561696 1.0860497713088992 -0.77139574214110695 1.2863806725321119 0.90784173011779801 1.0199538171291354
decision_type=2 2 2 2 2 2 2 2 2 2 2 2 2 2 2 2 2 2 2 2 2 2 2 2 2 2 2
left_child=2 -2 3 4 11 6 -3 22 23 -10 16 -1 14 -8 15 -13 -11 19 -19 -5 -21 -22 -4 -9 25 -25 -27
right_child=1 5 7 17 -6 -7 13 8 9 10 -12 12 -14 -15 -16 -17 -18 18 -20 20 21 -23 -24 24 -26 26 -28
leaf_value=0 0 0 -0.0037570268972033413 0 0 0 0 0.0019385326712958002 0 0.015158029511694739 0 -0.010659755481572157 0 0.021753990616413577 0 0 0 -0.0057070070898751603 0 0 0.0092186261394222955 0 0 0 0 -0.0066299615489306676 0
leaf_weight=18 86 13.999999999999998 33 13.999999999999998 79 28 46 22 21 71 28 288 14.999999999999998 121 18 15.999999999999998 19 91 42 20 37 47 24 73 42 50 14.999999999999998
leaf_count=18 86 14 33 14 79 28 46 22 21 71 28 288 15 121 18 16 19 91 42 20 37 47 24 73 42 50 15
internal_value=0 0.0108919 -0.0017026 -0.00417086 -0.00658366 0.0149203 0.0168461 0.00138978 0.0033565 0.007773 0.0101399 -0.00826062 -0.00894253 0.0182176 -0.00959947 -0.0101524 0.0129601 0 -0.0015275 0.00172413 0.00379762 0.00484678 -0.00230579 0 0 -0.0019794 -0.00463458
internal_weight=0 295 1083 685 434 209 181 398 341 139 118 355 337 167 322 304 90 251 133 118 104 84 57 202 180 138 65
internal_count=1378 295 1083 685 434 209 181 398 341 139 118 355 337 167 322 304 90 251 133 118 104 84 57 202 180 138 65
is_linear=0
shrinkage=0.046


Tree=22
num_leaves=35
num_cat=0
split_feature=0 46 45 39 8 8 165 143 5 25 79 143 50 31 129 45 67 12 19 148 35 56 8 17 184 172 62 3 19 116 23 125 186 54
split_gain=16.5509 7.49565 3.25646 2.56421 2.1024 2.00713 1.79035 2.35459 1.63981 1.55986 1.33619 1.34367 1.23077 1.21979 1.1199 1.00247 1.00813 1.29353 0.814742 0.714582 0.675501 0.548456 0.555721 0.542716 0.538132 0.370953 0.293493 0.419984 0.367723 0.261445 0.116084 0.0593299 0.088772 0.0154662
threshold=1.0000000180025095e-35 0.13160797934422833 1.2863806725321119 -0.026299049983593687 -1.397744667288211 0.94436540200066965 1.1709694981575014 1.2665832936763766 -0.77395032008777287 0.50104238849308447 1.0604627609252932 0.9247310757637025 1.4715757431598877 0.19056067365091908 1.4633284449577333 1.0000000180025095e-35 1.0891300499439243 -1.1913053812235335 1.0719740630683889 0.72119056284427652 0.098731629863292411 0.018389364914783032 1.676274798653445 -0.34266909092132547 1.8905924439430237 0.81460527181625375 1.0763587943468316 -0.26876113627644838 -0.68750238609775194 0.81954473555088059 1.445118328039986 0.96632762551307694 1.5732168853282931 0.92044168847696584
decision_type=2 2 2 2 2 2 2 2 2 2 2 2 2 2 2 2 2 2 2 2 2 2 2 2 2 2 2 2 2 2 2 2 2 2
left_child=2 6 12 -3 -5 20 10 9 -4 -8 11 31 14 -12 15 16 17 -1 21 -10 -6 22 25 -13 -25 30 27 28 -17 -21 -19 32 -2 -28
right_child=1 3 8 4 5 -7 7 -9 19 -11 13 23 -14 -15 -16 26 -18 18 -20 29 -22 -23 -24 24 -26 -27 33 -29 -30 -31 -32 -33 -34 -35
leaf_value=0 0 0 0 0 0.0076739064362837516 0 0.017824335124784037 0 0 0 -0.0086930109520033487 0 0 0 0 0 0 -0.010039904888870375 0 0.013019599165727085 0.030317581695854637 0 0 0.013469463865633396 0 0 0.0012788710237919597 0 -0.0059784250741004193 0 0 -0.0016700911085073538 0.0016742717265669151 0
leaf_weight=17 15.999999999999998 30 26 12.999999999999998 90 14.999999999999998 40 23 14.999999999999998 15.999999999999998 65 12.999999999999998 26 12.999999999999998 43 12.999999999999998 63 309 20 36 58 12.999999999999998 24 31 12.999999999999998 12.999999999999998 20 65 64 13.999999999999998 15.999999999999998 45 67 33
leaf_count=17 16 30 26 13 90 15 40 23 15 16 65 13 26 13 43 13 63 309 20 36 58 13 24 31 13 13 20 65 64 14 16 45 67 33
internal_value=0 0.00712872 -0.0030596 0.0144591 0.016599 0.018022 0.00136804 0.00748662 0.00250026 0.0129622 0 0.00163694 -0.00436671 -0.00546707 -0.00483901 -0.00533438 -0.00667854 -0.00752333 -0.00812193 0.00788197 0.0196571 -0.00860703 -0.00894131 0.00765297 0.0100976 -0.00943941 0 -0.00209121 -0.00442766 0.0105354 -0.00975098 0 0 0
internal_weight=0 548 830 206 176 163 342 79 91 56 263 185 739 78 713 670 475 412 395 65 148 375 362 57 44 338 195 142 77 50 325 128 83 53
internal_count=1378 548 830 206 176 163 342 79 91 56 263 185 739 78 713 670 475 412 395 65 148 375 362 57 44 338 195 142 77 50 325 128 83 53
is_linear=0
shrinkage=0.046


Tree=23
num_leaves=30
num_cat=0
split_feature=49 45 0 23 25 110 13 8 8 45 54 38 67 39 23 45 148 3 28 67 7 32 12 130 12 4 5 54 5
split_gain=15.3273 4.91902 3.89938 2.8597 2.51919 3.0473 2.93678 2.78172 2.12898 1.93843 1.68715 1.4987 1.37243 1.33993 1.23535 1.19423 1.00359 0.788148 0.583198 0.504715 0.678025 0.486999 0.318591 0.253109 0.174162 0.134304 0.66809 0.0395333 0.0102726
threshold=0.86395669265916941 -0.82384319011234342 -0.26120158890365985 -1.0976813064063895 0.33371866691156832 1.4890666723251345 -0.5726008794359575 -0.66583527063543591 -1.397744667288211 0.99862287308059516 1.0968058776258183 -0.11431806190531096 1.1103820443153383 -0.03569960606927567 1.445118328039986 -1.1116009895638599 0.91258684396743783 1.0443679186776584 0.031409004433763925 1.0825147449970247 0.87082939165078466 -0.095711919079809013 1.2386521335542129 0.55505272448062903 0.61703509489013808 -1.0768392751963203 -0.20507735820916892 1.0023488568694365 -0.73019086148172641
decision_type=2 2 2 2 2 2 2 2 2 2 2 2 2 2 2 2 2 2 2 2 2 2 2 2 2 2 2 2 2
left_child=2 -2 9 -3 5 6 -4 -8 -5 12 13 -9 14 -10 16 -13 18 19 22 20 21 -6 23 -1 -25 -11 28 -7 -27
right_child=1 3 4 8 17 27 7 11 10 25 -12 15 -14 -15 -16 -17 -18 -19 -20 -21 -22 -23 -24 24 -26 26 -28 -29 -30
leaf_value=0 0 0 0 0 0 -0.0015457644590443458 0 0 0 0 0 0 0 0.018296860721874499 0 0.015119796201876702 0 0 0 0 0 -0.0085909575683476777 0 -0.0083931609934144204 0 0 0 0 0.0066393568802417717
leaf_weight=18 45 33 22 14.999999999999998 12.999999999999998 35 48 12.999999999999998 12.999999999999998 27 15.999999999999998 12.999999999999998 81 173 26 130 41 15.999999999999998 18 15.999999999999998 14.999999999999998 77 17 350 25 17 12.999999999999998 12.999999999999998 39
leaf_count=18 45 33 22 15 13 35 48 13 13 27 16 13 81 173 26 130 41 16 18 16 15 77 17 350 25 17 13 13 39
internal_value=0 0.0101761 -0.00151222 0.0127994 0.00123501 0.00446989 0.00726315 0.00942881 0.0147181 -0.00387696 0.015969 0.012409 -0.00496556 0.0172086 -0.00587861 0.0137897 -0.00648439 -0.00187719 -0.007144 -0.00421562 -0.00553619 -0.00719003 -0.00750247 -0.00777413 -0.00804775 0 0.0020293 0 0.00550578
internal_weight=0 295 1083 250 411 274 226 204 217 672 202 156 576 186 495 143 469 137 428 121 105 90 410 393 375 96 69 48 56
internal_count=1378 295 1083 250 411 274 226 204 217 672 202 156 576 186 495 143 469 137 428 121 105 90 410 393 375 96 69 48 56
is_linear=0
shrinkage=0.046


Tree=24
num_leaves=25
num_cat=0
split_feature=5 47 45 4 1 45 19 55 17 3 47 62 114 85 74 44 9 28 43 2 10 8 39 17
split_gain=18.8111 8.07074 4.11054 3.12276 2.78045 2.74368 1.63622 1.633 1.38939 1.25098 1.10203 1.37395 1.08685 1.15609 0.904398 0.814313 0.806196 0.863347 0.670292 0.630418 0.402023 0.0823316 0.131933 0.0601237
threshold=0.67011181391176056 -0.51208804577715583 0.13534947472604528 -0.32274386030316554 1.0000000180025095e-35 -1.1116009895638599 -0.55215804385420275 0.018022444079527512 -0.8766002066227172 -0.96716040472236953 -1.0000000180025095e-35 1.2959730337175068 1.7021591544151309 1.5356295585632327 0.87181178927421576 -1.6007853665715344 1.6717295930377063 -0.047209659497907668 0.14865678828046378 -0.6247309930542374 -1.0000000180025095e-35 1.676274798653445 -0.15500974306138829 -0.046539228431478112
decision_type=2 2 2 2 2 2 2 2 2 2 2 2 2 2 2 2 2 2 2 2 2 2 2 2
left_child=1 8 6 10 5 -5 -2 19 -1 -10 -3 20 -8 23 -11 -16 17 -17 -4 -7 -12 22 -19 -14
right_child=2 3 18 4 -6 7 12 -9 9 14 11 -13 13 -15 15 16 -18 21 -20 -21 -22 -23 -24 -25
leaf_value=0 0 0 0.021912173512611245 0 0 0 0 0 0 0 0 0 0 0 0 0 0 0 0 0.012667874013969498 -0.007920106116888358 0 -0.0095228420174910434 0.01374186297643604
leaf_weight=21 37 65 91 26 136 14.999999999999998 23 22 50 25 12.999999999999998 22 12.999999999999998 29 14.999999999999998 27 21 13.999999999999998 15.999999999999998 144 109 23 382 50
leaf_count=21 37 65 91 26 136 15 23 22 50 25 13 22 13 29 15 27 21 14 16 144 109 23 382 50
internal_value=0 -0.00212999 0.0115729 0.00118254 0.00439698 0.00777534 0.0027002 0.0100605 -0.00608931 -0.00661481 -0.00189194 -0.00462467 0.00630401 0.00864114 -0.00730012 -0.00774765 -0.00810208 -0.00851817 0.0198771 0.0117025 -0.00700516 -0.00903298 -0.00931524 0.0121597
internal_weight=0 1130 259 552 343 207 152 181 578 557 209 144 115 92 507 482 467 446 107 159 122 419 396 63
internal_count=1389 1130 259 552 343 207 152 181 578 557 209 144 115 92 507 482 467 446 107 159 122 419 396 63
is_linear=0
shrinkage=0.046


Tree=25
num_leaves=28
num_cat=0
split_feature=0 49 19 45 8 43 4 44 45 35 45 126 8 17 21 39 28 44 4 172 4 115 28 183 171 8 35
split_gain=16.7585 5.0955 3.81839 4.12798 3.12224 2.20236 1.48199 1.31648 1.18041 1.03999 0.912514 0.717528 0.762607 0.71544 0.686237 0.545882 0.436412 0.374807 0.35062 0.580437 0.281086 0.583742 0.784922 0.530622 0.484391 0.226061 0.0718301
threshold=0.29836470379771557 -0.55934432627606123 -0.68750238609775194 -0.82384319011234342 0.79798352267011463 0.14865678828046378 0.082741340606552138 -0.64379733838257969 0.71086507362907858 -0.32718150173288324 1.8618962714351452 0.88124394416809093 1.676274798653445 -0.60739124072285577 -1.2964416821197748 -0.15872110368724482 -0.046999046348269742 1.6083144879554279 -0.78242757816616193 0.77721844315528876 -0.29798651305290197 1.7442527532577516 -0.018585825381610892 0.76027637720108043 1.0801572501659396 -0.51945339130488077 0.42324432890936603
decision_type=2 2 2 2 2 2 2 2 2 2 2 2 2 2 2 2 2 2 2 2 2 2 2 2 2 2 2
left_child=1 7 -2 -4 5 6 -5 -1 20 -10 11 12 14 -8 -9 -16 -17 26 -11 -20 23 22 -22 25 -23 -3 -18
right_child=2 8 3 4 -6 -7 13 10 9 18 -12 -13 -14 -15 15 16 17 -19 19 -21 21 24 -24 -25 -26 -27 -28
leaf_value=0 0 0 0 0 0 0 0 0 0 0 0 0 0 0.019172966620253459 0 0 -0.0095654380143910343 0 0.011913066776102845 0 0 -0.0041327974897010225 0.0088459945681674257 0 0 -0.0058119008814696256 0
leaf_weight=74 66 12.999999999999998 63 32 35 52 17 13.999999999999998 15.999999999999998 13.999999999999998 20 29 33 163 13.999999999999998 23 343 13.999999999999998 47 12.999999999999998 23 60 37 67 29 65 12.999999999999998
leaf_count=74 66 13 63 32 35 52 17 14 16 14 20 29 33 163 14 23 343 14 47 13 23 60 37 67 29 65 13
internal_value=0 -0.00293556 0.00797062 0.00987079 0.0121315 0.0138459 0.0161465 -0.00574744 9.17242e-05 0.0052712 -0.00659019 -0.00701617 -0.00746426 0.0180132 -0.00799469 -0.00834753 -0.00866617 -0.0090701 0.00797035 0.00952418 0 0 0.00453687 -0.00202525 0 -0.00469227 -0.00936641
internal_weight=0 961 428 362 299 264 212 577 384 90 503 483 454 180 421 407 393 370 74 60 294 149 60 145 89 78 356
internal_count=1389 961 428 362 299 264 212 577 384 90 503 483 454 180 421 407 393 370 74 60 294 149 60 145 89 78 356
is_linear=0
shrinkage=0.046


Tree=26
num_leaves=28
num_cat=0
split_feature=5 47 45 13 5 45 1 8 19 17 3 3 84 25 45 84 114 74 179 44 9 28 43 62 148 3 8
split_gain=16.098 6.72848 3.64372 2.6046 2.06131 1.75166 1.73022 1.6123 1.39535 1.26011 1.1434 1.1275 1.24163 1.00687 0.982551 1.31266 0.908607 0.820076 0.779862 0.722573 0.719029 0.719115 0.411269 0.120362 0.0692604 0.133199 0.0126733
threshold=0.67011181391176056 -0.51208804577715583 0.13534947472604528 -0.23376824894403769 -0.68643140287568005 -1.1116009895638599 1.0000000180025095e-35 0.79798352267011463 -0.55215804385420275 -0.8766002066227172 -0.96716040472236953 0.47321117145684244 0.14660078119486572 -0.50289994099601176 1.0000000180025095e-35 0.24374283999204638 1.7021591544151309 0.87181178927421576 1.7938039988279344 -1.6007853665715344 1.6717295930377063 -0.047209659497907668 0.14865678828046378 1.3128271138537966 0.83750443160533916 0.041810425253410208 1.676274798653445
decision_type=2 2 2 2 2 2 2 2 2 2 2 2 2 2 2 2 2 2 2 2 2 2 2 2 2 2 2
left_child=1 9 8 14 -5 -6 7 11 -2 -1 -11 12 -7 -10 15 23 -15 -12 -18 -19 21 -21 -4 -3 25 -8 -23
right_child=2 3 22 4 5 6 24 -9 13 10 17 -13 -14 16 -16 -17 18 19 -20 20 -22 26 -24 -25 -26 -27 -28
leaf_value=0 0 -0.0080351865562734038 0.020341974078795174 0 0 0 0.0030851202665595806 0 0 0 0 0 0.016041578317723085 0 0 0 0.012725171896936801 0 0 0 0 -0.008607142625446618 0 0 0 0 0
leaf_weight=21 37 91 91 61 35 15.999999999999998 45 29 14.999999999999998 50 25 13.999999999999998 99 21 66 13.999999999999998 58 14.999999999999998 21 27 21 396 15.999999999999998 12.999999999999998 52 17 23
leaf_count=21 37 91 91 61 35 16 45 29 15 50 25 14 99 21 66 14 58 15 21 27 21 396 16 13 52 17 23
internal_value=0 -0.00194111 0.0107293 0.00102296 0.00380367 0.00561691 0.00701681 0.0103889 0.00220289 -0.00556765 -0.00607901 0.012595 0.0140957 0.00566446 -0.00203849 -0.0049089 0.00762901 -0.00673578 0.00989974 -0.00716408 -0.00749976 -0.00789342 0.0185417 -0.00735159 0 0.00153734 -0.00836375
internal_weight=0 1130 259 552 368 307 272 158 152 578 557 129 115 115 184 118 100 507 79 482 467 446 107 104 114 62 419
internal_count=1389 1130 259 552 368 307 272 158 152 578 557 129 115 115 184 118 100 507 79 482 467 446 107 104 114 62 419
is_linear=0
shrinkage=0.046


Tree=27
num_leaves=25
num_cat=0
split_feature=5 47 45 4 1 45 55 19 58 13 17 3 47 74 44 9 28 65 10 2 114 43 39 39
split_gain=14.7182 6.07947 3.29829 2.38823 2.34752 2.36846 1.40986 1.28542 1.24621 1.25959 1.18509 1.04813 0.948358 0.757794 0.673601 0.661864 0.651092 0.612879 0.760788 0.530084 0.284461 0.272003 0.216462 0.00405122
threshold=0.67011181391176056 -0.51208804577715583 0.13534947472604528 -0.32274386030316554 1.0000000180025095e-35 -1.1116009895638599 0.018022444079527512 -0.55215804385420275 -0.0046511882278176958 1.6298112187615221 -0.8766002066227172 -0.96716040472236953 -1.0000000180025095e-35 0.87181178927421576 -1.6007853665715344 1.6717295930377063 -0.047209659497907668 1.3650249123573306 -1.0000000180025095e-35 -0.6247309930542374 1.7250257253646852 0.14865678828046378 -0.056935973677595834 -0.15500974306138829
decision_type=2 2 2 2 2 2 2 2 2 2 2 2 2 2 2 2 2 2 2 2 2 2 2 2
left_child=1 10 7 12 5 -5 19 -2 -9 20 -1 -12 -3 -13 -15 16 -16 18 -14 -7 -10 -4 -21 -18
right_child=2 3 21 4 -6 6 -8 8 9 -11 11 13 17 14 15 -17 23 -19 -20 22 -22 -23 -24 -25
leaf_value=0 0 0 0.019406346103415725 0 0 0 0 0 0 0 0 0 0 0 0 0 0 0 -0.0069393587757471268 0 0.015180182532574707 0 0.0124572538270882 -0.0081378384818623813
leaf_weight=21 37 65 91 26 136 14.999999999999998 22 46 12.999999999999998 15.999999999999998 50 25 18 14.999999999999998 27 21 14.999999999999998 12.999999999999998 113 18 40 15.999999999999998 126 404
leaf_count=21 37 65 91 26 136 15 22 46 13 16 50 25 18 15 27 21 15 13 113 18 40 16 126 404
internal_value=0 -0.00184289 0.0102695 0.000939987 0.0038228 0.00694337 0.00910068 0.00197955 0.00536927 0.00928748 -0.00529639 -0.00579753 -0.00159024 -0.00642654 -0.0068388 -0.00716403 -0.00754188 -0.00419582 -0.00540839 0.0106322 0.0127503 0.0177459 0.0115155 -0.00798957
internal_weight=0 1130 259 552 343 207 181 152 115 69 578 557 209 507 482 467 446 144 131 159 53 107 144 419
internal_count=1389 1130 259 552 343 207 181 152 115 69 578 557 209 507 482 467 446 144 131 159 53 107 144 419
is_linear=0
shrinkage=0.046


Tree=28
num_leaves=28
num_cat=0
split_feature=49 49 45 48 46 48 45 17 35 60 17 17 3 0 19 50 40 28 86 12 9 45 21 9 12 3 171
split_gain=13.0647 3.46203 2.59368 2.30165 1.88272 2.80019 1.71728 1.64018 1.6363 1.88469 1.47466 1.49826 0.952855 0.82354 0.746326 0.902977 0.744374 0.490081 0.465946 0.43411 0.421069 0.414364 0.285934 0.255174 0.141975 0.0821593 0.0123899
threshold=1.1069593056481113 -0.55934432627606123 -0.82384319011234342 1.0715724892497189 1.0000000180025095e-35 -0.21935041416841902 1.8618962714351452 -0.8766002066227172 0.27502342133087276 0.25887066435693667 -0.49970765436291142 1.2232297273962016 -0.96716040472236953 1.1377141428497788 -1.0000000180025095e-35 1.2598845883722036 -0.28153544998489249 -0.044428258705907948 1.6778766036033632 -1.0000000180025095e-35 0.44065997475518792 -0.72792392362850444 -1.2964416821197748 1.6717295930377063 -0.6261989824380112 -0.53271860199840593 0.92557040154933945
decision_type=2 2 2 2 2 2 2 2 2 2 2 2 2 2 2 2 2 2 2 2 2 2 2 2 2 2 2
left_child=1 3 -2 6 14 26 7 -1 9 19 -4 -12 -9 17 15 16 -3 -14 -5 -7 21 -16 -19 -24 -18 -23 -6
right_child=2 4 10 18 5 8 -8 12 -10 -11 11 -13 13 -15 20 -17 24 22 -20 -21 -22 25 23 -25 -26 -27 -28
leaf_value=0 0 0 0 0.0060905258740494277 0 0 0 0 0 0 0.015689614734117532 0 0 0 0 0 0 0 0 0.015076457010576545 0 0 -0.0078396250205612743 0 -0.0084317328127014382 0.0059370860735437018 -0.00075486012635490635
leaf_weight=26 30 18 19 28 18 13.999999999999998 29 42 33 12.999999999999998 157 20 50 20 36 23 12.999999999999998 13.999999999999998 21 84 24 13.999999999999998 417 17 75 56 46
leaf_count=26 30 18 19 28 18 14 29 42 33 13 157 20 50 20 36 23 13 14 21 84 24 14 417 17 75 56 46
internal_value=0 -0.00105491 0.0109039 -0.00342008 0.00132299 0.00480436 -0.00452345 -0.00526071 0.00863042 0.0113056 0.0128488 0.0141577 -0.00592936 -0.00647303 0 -0.00346235 -0.00571074 -0.00686163 0.00104065 0.0136183 0.000501294 0.00295176 -0.00739265 -0.00760318 -0.0075617 0.00507119 0
internal_weight=0 1131 226 664 467 208 615 586 144 111 196 177 560 518 259 129 106 498 49 98 130 106 448 434 88 70 64
internal_count=1357 1131 226 664 467 208 615 586 144 111 196 177 560 518 259 129 106 498 49 98 130 106 448 434 88 70 64
is_linear=0
shrinkage=0.046


Tree=29
num_leaves=29
num_cat=0
split_feature=49 4 45 1 48 19 45 6 9 17 8 35 45 8 0 23 183 45 7 34 9 2 8 152 136 44 117 4
split_gain=11.8362 3.13183 2.38949 2.23252 2.18727 2.557 2.00606 1.65209 1.41098 1.3378 1.43802 0.905779 1.11502 0.830666 0.76131 0.628785 0.610714 0.535702 0.517676 0.469287 0.415797 0.402492 0.325394 0.157117 0.15335 0.148341 0.0596673 0.0438424
threshold=1.1069593056481113 -0.41909677933121708 -0.82384319011234342 1.0000000180025095e-35 -0.11488711684727279 -0.14612501712355488 1.4782192054997896 -1.0000000180025095e-35 1.2613730536102004 -0.49970765436291142 -0.95859902929654595 0.22693618836147125 1.190461406048273 1.3103201003270575 1.9770635819018421 1.7373941480912933 0.8831946313381196 -0.82384319011234342 -1.5540503717433471 -0.3836617077337075 -0.55592019242589819 -0.35612135238748638 1.0907472813312249 0.84652497619390499 1.1965559005737307 0.70874574145781022 0.91681825220584878 -1.0768392751963203
decision_type=2 2 2 2 2 2 2 2 2 2 2 2 2 2 2 2 2 2 2 2 2 2 2 2 2 2 2 2
left_child=1 6 -2 4 23 -6 13 -7 16 -4 -11 12 20 15 22 18 17 -9 -1 -20 -5 -22 -12 -3 -23 -25 -13 -8
right_child=2 3 9 11 5 7 27 8 -10 10 14 26 -14 -15 -16 -17 -18 -19 19 -21 21 24 -24 25 -26 -27 -28 -29
leaf_value=0 0 0 0 0 0 0 0 0 0 0 0.018944213625372488 0.0021620392401190489 0 0 0 0 0 0.014683119077528886 0 -0.0072267782441339384 0 0 0 -0.003281876425696619 -0.0078534517263124399 0 0 0.0017882618584414262
leaf_weight=13.999999999999998 30 45 19 36 106 20 12.999999999999998 25 19 39 105 27 26 45 20 13.999999999999998 12.999999999999998 106 13.999999999999998 325 15.999999999999998 12.999999999999998 12.999999999999998 60 118 13.999999999999998 33 29
leaf_count=14 30 45 19 36 106 20 13 25 19 39 105 27 26 45 20 14 13 106 14 325 16 13 13 60 118 14 33 29
internal_value=0 -0.000966784 0.0104025 0.000440624 0.00309526 0.00543504 -0.00407865 0.00873004 0.0103446 0.0122707 0.0135175 -0.00187572 -0.00370113 -0.00535107 0.0160127 -0.00607734 0.0119105 0.0128764 -0.00649368 -0.00686589 -0.00534196 -0.00644278 0.0177063 0 -0.00728559 -0.00211946 0 0
internal_weight=0 1131 226 677 408 289 454 183 163 196 177 269 209 412 138 367 144 131 353 339 183 147 118 119 131 74 60 42
internal_count=1357 1131 226 677 408 289 454 183 163 196 177 269 209 412 138 367 144 131 353 339 183 147 118 119 131 74 60 42
is_linear=0
shrinkage=0.046


Tree=30
num_leaves=34
num_cat=0
split_feature=49 49 45 4 46 48 45 60 6 9 17 17 2 21 0 19 50 0 43 60 3 130 8 45 1 4 9 112 45 137 7 62 79
split_gain=10.8857 2.94708 2.2306 2.11354 1.65254 2.49509 1.27996 1.2463 1.52788 1.87741 1.23214 1.28714 0.903113 0.655781 0.596114 0.587561 0.806365 0.540932 0.63129 0.528836 0.477805 0.447248 0.757786 0.559303 0.430866 0.638873 0.669633 0.277613 0.328481 0.226848 0.194113 0.144917 0.00188948
threshold=1.1069593056481113 -0.55934432627606123 -0.82384319011234342 0.32496187316318198 1.0000000180025095e-35 -0.21935041416841902 1.8618962714351452 0.25887066435693667 1.0000000180025095e-35 1.0855059652841261 -0.49970765436291142 1.2232297273962016 -0.93810890716544704 -0.42143797496318058 0.8579309964990911 -1.0000000180025095e-35 1.1644504956220498 1.9770635819018421 -1.0356728897133014 0.22536024854974546 0.45366383480927946 0.83111901283264167 1.3103201003270575 -1.2075202560476987 1.0000000180025095e-35 -0.29798651305290197 0.3234152492044719 1.0253562331199648 -0.91976245659618228 1.9963650047779085 -0.81923832222997384 1.2663045414899752 1.0826741933822635
decision_type=2 2 2 2 2 2 2 2 2 2 2 2 2 2 2 2 2 2 2 2 2 2 2 2 2 2 2 2 2 2 2 2 2
left_child=1 3 -2 6 15 32 12 8 9 -7 -4 17 -1 -14 20 16 19 18 -12 31 21 22 23 -15 25 -17 -27 28 -5 -29 -30 -3 -6
right_child=2 4 10 27 5 7 -8 -9 -10 -11 11 -13 13 14 -16 24 -18 -19 -20 -21 -22 -23 -24 -25 -26 26 -28 29 30 -31 -32 -33 -34
leaf_value=0 0 -0.0078891337909727088 0 0 0 0.014201865271830448 0 0 0 0 0 0 0 0 0 0 0 0 0.017036346474282382 0 0 0 0 -0.0086892674319095208 0 0.0080543748584834558 0 -0.0033802477155617659 0 0 0.0065054087382055755 0 -0.00030140664383609901
leaf_weight=12.999999999999998 30 70 19 13.999999999999998 20 96 25 13.999999999999998 19 14.999999999999998 13.999999999999998 20 91 21 12.999999999999998 23 25 22 121 21 15.999999999999998 18 38 303 36 57 13.999999999999998 42 12.999999999999998 17 40 12.999999999999998 44
leaf_count=13 30 70 19 14 20 96 25 14 19 15 14 20 91 21 13 23 25 22 121 21 16 18 38 303 36 57 14 42 13 17 40 13 44
internal_value=0 -0.000893344 0.00999766 -0.00310294 0.00126336 0.00451598 -0.00449397 0.00813135 0.00967074 0.0117751 0.0118039 0.0130006 -0.00514386 -0.005565 -0.00642278 0 -0.00308194 0.0144185 0.0158192 -0.00530907 -0.00676694 -0.00709789 -0.00744979 -0.00818274 0.000371017 0.00314458 0.00566822 0 0.00296079 0 0.00491868 -0.00698551 0
internal_weight=0 1131 226 664 467 208 538 144 130 111 196 177 513 500 409 259 129 157 135 104 396 380 362 324 130 94 71 126 67 59 53 83 64
internal_count=1357 1131 226 664 467 208 538 144 130 111 196 177 513 500 409 259 129 157 135 104 396 380 362 324 130 94 71 126 67 59 53 83 64
is_linear=0
shrinkage=0.046


Tree=31
num_leaves=32
num_cat=0
split_feature=49 45 4 48 45 78 17 8 43 0 23 9 50 71 132 155 19 110 39 2 44 71 108 87 44 84 61 61 9 86 172
split_gain=9.98082 2.70861 2.60709 2.13104 2.0716 1.30912 1.1272 1.2757 1.75172 1.00984 0.810506 0.576289 1.81198 1.642 1.36564 1.01393 1.08153 0.929177 0.37888 0.370786 0.220319 0.213141 0.0966445 0.156634 0.0657142 0.0515451 0.0498422 0.0893571 0.0254874 0.019984 6.9243e-05
threshold=1.1069593056481113 1.190461406048273 -0.41909677933121708 -0.2299252774691849 -0.82384319011234342 1.6684867680072786 -0.49970765436291142 -0.95859902929654595 -0.95907445282813242 1.9770635819018421 0.86056668793737068 -0.14556365299839216 -0.02204133889154097 1.6828585743904116 1.1913368701934817 1.0559702515602114 0.93662972082483942 1.1764088958501817 -0.14407196314299534 -0.75903581338761295 -0.64379733838257969 1.8485585689544679 1.0878084927797318 1.1603445976972584 1.5126156851365324 0.15116504263132816 0.16402604743877044 0.24104891464829961 0.90963887695805201 1.7742818474769593 0.69485757201910026
decision_type=2 2 2 2 2 2 2 2 2 2 2 2 2 2 2 2 2 2 2 2 2 2 2 2 2 2 2 2 2 2 2
left_child=1 2 10 30 -2 -5 -6 -8 -9 -10 18 12 26 20 17 16 19 22 -1 -16 -14 28 -13 -24 25 -21 -4 29 -20 -28 -3
right_child=4 3 11 5 6 -7 7 8 9 -11 -12 14 13 -15 15 -17 -18 -19 21 24 -22 -23 23 -25 -26 -27 27 -29 -30 -31 -32
leaf_value=0 0 0 0 0 0 0.013233803272835274 0 0 0.019080377061703735 0 0 0 0 0 0 0 0 0.0079626222716218525 -0.0070130418551481921 0 0.012635242397278699 0 -0.0034129582699311345 0 0 -0.0080540953465636726 -0.0025207382140351206 0 0 0 -6.5636034135922231e-05
leaf_weight=37 30 21 45 24 19 56 39 21 99 18 72 55 14.999999999999998 25 13.999999999999998 41 14.999999999999998 31 255 21 53 12.999999999999998 46 13.999999999999998 13.999999999999998 137 53 12.999999999999998 13.999999999999998 12.999999999999998 34
leaf_count=37 30 21 45 24 19 56 39 21 99 18 72 55 15 25 14 41 15 31 255 21 53 13 46 14 14 137 53 13 14 13 34
internal_value=0 -0.000842194 -0.00200496 0.00432875 0.0095781 0.00937966 0.0113201 0.0124649 0.0147933 0.0170233 -0.0049344 0 0.0017808 0.00697295 -0.00117009 -0.00375972 -0.00526234 0 -0.00593462 -0.00649835 0.0108436 -0.00653326 0 -0.00184601 -0.00708708 -0.00745365 0 -0.00115535 -0.00681342 -0.00211238 0
internal_weight=0 1131 996 135 226 80 196 177 138 117 391 605 217 93 388 242 201 146 319 186 68 282 115 60 172 158 124 79 269 66 55
internal_count=1357 1131 996 135 226 80 196 177 138 117 391 605 217 93 388 242 201 146 319 186 68 282 115 60 172 158 124 79 269 66 55
is_linear=0
shrinkage=0.046


Tree=32
num_leaves=30
num_cat=0
split_feature=45 48 19 4 1 7 172 46 8 72 17 23 153 23 35 152 182 126 8 5 8 113 50 130 144 172 167 150 152
split_gain=5.64302 4.27625 3.63427 2.07952 2.34768 2.71284 1.51291 1.44271 1.90305 1.29171 1.36296 0.694381 0.692029 0.725892 0.656319 1.28951 2.99778 0.613315 0.55437 0.509242 0.271488 0.08345 0.0646747 0.0492765 0.12522 0.0654279 0.0976712 0.142319 0.0169627
threshold=0.51902654066140086 0.76966447736110755 -1.0000000180025095e-35 0.082741340606552138 1.0000000180025095e-35 0.20949854708874868 0.82489699721336374 0.055813417096480508 1.7494657383187227 1.4852996170520785 -0.49970765436291142 -1.2438192164320434 0.92559843063354508 1.445118328039986 -0.32718150173288324 0.85958628207445154 0.82542521655559553 0.74257343411445631 -0.66583527063543591 -0.64940416867056372 1.0907472813312249 1.2959380388259889 0.52500910994082906 0.70505483448505413 1.7578886866569523 0.59216249585151681 1.0409657388925555 1.3604227066040042 0.8488300979137422
decision_type=2 2 2 2 2 2 2 2 2 2 2 2 2 2 2 2 2 2 2 2 2 2 2 2 2 2 2 2 2
left_child=2 14 6 19 5 9 7 8 11 10 -5 -1 -13 -14 21 16 -16 18 -18 20 22 -2 -4 25 28 -21 27 -27 -25
right_child=1 -3 3 4 -6 -7 -8 -9 -10 -11 -12 12 13 -15 15 -17 17 -19 -20 23 -22 -23 -24 24 -26 26 -28 -29 -30
leaf_value=0 -0.0023862729300148677 0.016343340286983605 -0.0051648976909865162 0 0 0 0 0 0 0 0.018496586738735145 0 -0.0097516152920258999 0 0 0 0 0 0.014445715620507012 0 0 0 0 0 0 0 0 0.0044367703901901203 -0.0024053276623583002
leaf_weight=29 31 65 100 17 82 61 27 78 23 12.999999999999998 58 15.999999999999998 274 18 22 69 14.999999999999998 12.999999999999998 62 19 20 18 13.999999999999998 23 27 22 31 34 66
leaf_count=29 31 65 100 17 82 61 27 78 23 13 58 16 274 18 22 69 15 13 62 19 20 18 14 23 27 22 31 34 66
internal_value=0 0.00531207 -0.00185398 0 0.00390421 0.00754778 -0.0049309 -0.00575511 -0.00698406 0.0127153 0.0150379 -0.00800342 -0.00865193 -0.00916363 0.000194043 0.00277852 0.00606929 0.0107849 0.0123612 -0.00157132 -0.00382101 0 -0.0047117 0 -0.000835845 0.000468014 0.00136309 0.00256443 -0.00197164
internal_weight=0 295 1052 587 231 149 465 438 360 88 75 337 308 292 230 181 112 90 77 356 134 49 114 222 116 106 87 56 89
internal_count=1347 295 1052 587 231 149 465 438 360 88 75 337 308 292 230 181 112 90 77 356 134 49 114 222 116 106 87 56 89
is_linear=0
shrinkage=0.046


Tree=33
num_leaves=30
num_cat=0
split_feature=45 5 19 4 1 7 172 46 8 17 131 31 23 35 3 148 29 5 84 9 8 90 130 144 113 167 150 152 9
split_gain=5.05304 3.98685 3.24368 1.86734 2.18047 2.47716 1.41811 1.30347 1.78598 0.82253 1.5285 0.729089 0.713799 0.514685 1.14777 1.56569 0.511998 0.460481 0.442324 0.35119 0.322015 0.0458497 0.0408696 0.117446 0.0292051 0.020763 0.0644549 0.014068 0.00782787
threshold=0.51902654066140086 0.63869476670741954 -1.0000000180025095e-35 0.082741340606552138 1.0000000180025095e-35 0.20949854708874868 0.82489699721336374 0.055813417096480508 1.7494657383187227 -0.16768326308641565 1.182144457101822 0.19056067365091908 1.445118328039986 -0.32718150173288324 -0.37732239335005996 0.77755472362041489 -0.97560079097885299 -0.64940416867056372 0.15776361525058749 0.20617052365375585 1.1639382209965023 0.66844264566898359 0.70505483448505413 1.7578886866569523 1.2959380388259889 1.0409657388925555 1.3604227066040042 0.8488300979137422 -0.38005310409982418
decision_type=2 2 2 2 2 2 2 2 2 2 2 2 2 2 2 2 2 2 2 2 2 2 2 2 2 2 2 2 2
left_child=2 13 6 17 5 9 7 8 11 -5 -11 12 16 24 15 -15 -1 19 -3 20 -4 -18 25 27 -2 26 -19 -24 -9
right_child=1 18 3 4 -6 -7 -8 28 -10 10 -12 -13 -14 14 -16 -17 21 22 -20 -21 -22 -23 23 -25 -26 -27 -28 -29 -30
leaf_value=0 -0.0014350068426179868 0 -0.0056317672996447346 0 0 0 0 0.00046052696257224495 0 0.019350405541764426 0 0 0 0.015904887707442628 0 0 0 0 0.018514314397388126 0 0 -0.0094429114371687457 0 0 0 0 0.0022794753493399597 -0.0022946993466661362 -0.00046092544663499114
leaf_weight=24 30 13.999999999999998 101 27 82 61 27 32 23 48 12.999999999999998 14.999999999999998 17 27 112 45 12.999999999999998 37 49 15.999999999999998 17 268 23 27 18 31 38 66 46
leaf_count=24 30 14 101 27 82 61 27 32 23 48 13 15 17 27 112 45 13 37 49 16 17 268 23 27 18 31 38 66 46
internal_value=0 0.0050183 -0.00176113 0 0.00369059 0.0072166 -0.00466658 -0.0054745 -0.00664265 0.0121546 0.0155448 -0.00763871 -0.00811536 8.90658e-05 0.00243486 0.00699116 -0.00863028 -0.00150356 0.0158671 -0.00364372 -0.00462319 -0.00920316 0 -0.000772898 0 0.000402557 0.000902629 -0.0018896 0
internal_weight=0 295 1052 587 231 149 465 438 360 88 61 337 322 232 184 72 305 356 63 134 118 281 222 116 48 106 75 89 78
internal_count=1347 295 1052 587 231 149 465 438 360 88 61 337 322 232 184 72 305 356 63 134 118 281 222 116 48 106 75 89 78
is_linear=0
shrinkage=0.046


Tree=34
num_leaves=33
num_cat=0
split_feature=0 1 17 17 48 45 2 181 188 45 103 2 28 70 94 39 39 17 115 91 63 17 31 28 101 170 107 190 109 67 54 12
split_gain=4.70534 5.32605 3.66384 3.5408 3.84242 3.17559 1.22539 1.15001 2.13494 0.996034 1.5401 0.628279 0.619115 0.604704 0.785969 0.251864 0.589624 0.523305 0.235208 0.183492 0.216997 0.15496 0.141261 0.0657076 0.0596732 0.641135 0.843232 0.075861 0.0375372 0.208721 0.0270381 0.00927718
threshold=-0.26120158890365985 1.0000000180025095e-35 -0.12281510210310546 1.4027023713294426 0.055618647953111305 -0.63200465714466558 -0.26658480549856939 1.2563892483711245 1.2513169974088671 0.23126874120988414 1.2163474202156068 -0.6247309930542374 0.01187778130804276 1.1621513783931734 1.4551147222518923 0.010664979310432206 -0.056546361298533215 -0.38305043580630477 1.8567059040069582 1.4008416295051578 2.3747282743453986 -1.056072850555958 -0.07805364119754582 -0.026982424463213753 1.356152403354645 1.0691996157169343 1.3979733645915988 2.3051993966102606 1.0678932368755343 1.0430989444255829 0.9722787495595534 1.2951627734327651
decision_type=2 2 2 2 2 2 2 2 2 2 2 2 2 2 2 2 2 2 2 2 2 2 2 2 2 2 2 2 2 2 2 2
left_child=9 2 15 4 -4 -6 30 8 -8 10 11 -1 23 -9 -15 16 -2 21 31 28 -21 -18 -10 -7 25 -11 -27 -26 -12 -30 -3 -13
right_child=1 6 3 -5 5 12 7 13 22 24 19 18 -14 14 -16 -17 17 -19 -20 20 -22 -23 -24 -25 27 26 -28 -29 29 -31 -32 -33
leaf_value=0 0 0.001650186638919187 0 0 0 0 0 0.0049487904693978849 0 0 0 -0.0078089228997180425 0 -0.0059053004676250017 0 -0.0025221900545982015 0 0 0 -0.0034772763399886428 0 0.0068807331402406845 -0.015193302412114921 0.02206681396682025 -0.001941772540832112 0.009673579685199404 0 0 0.0043169375935949118 0 0 0
leaf_weight=30 25 21 55 28 49 22 43 29 12.999999999999998 22 13.999999999999998 216 14.999999999999998 64 29 44 13.999999999999998 13.999999999999998 15.999999999999998 70 20 62 45 95 65 34 24 47 28 61 19 13.999999999999998
leaf_count=30 25 21 55 28 49 22 43 29 13 22 14 216 15 64 29 44 14 14 16 70 20 62 45 95 65 34 24 47 28 61 19 14
internal_value=0 0.00241398 0.00589907 0.00922615 0.0112679 0.0145073 -0.00144235 -0.0037524 -0.00742818 -0.00300248 -0.00414717 -0.00640566 0.0184251 0 -0.00247356 0 0.00148311 0.0040831 -0.00717218 0 -0.00207449 0.00585751 -0.0131891 0.0198545 0 0.000721684 0.00490965 -0.000869059 9.40179e-05 0.000950045 0 -0.0075619
internal_weight=0 686 423 264 236 181 263 223 101 661 469 276 132 122 93 159 115 90 246 193 90 76 58 117 192 80 58 112 103 89 40 230
internal_count=1347 686 423 264 236 181 263 223 101 661 469 276 132 122 93 159 115 90 246 193 90 76 58 117 192 80 58 112 103 89 40 230
is_linear=0
shrinkage=0.046


Tree=35
num_leaves=27
num_cat=0
split_feature=0 1 17 17 48 45 183 45 103 7 48 21 65 0 9 135 176 28 95 139 39 39 53 166 21 144
split_gain=4.3425 4.82576 3.44443 3.35668 3.56126 2.9581 1.05461 0.883654 0.67395 0.534181 1.11862 1.25288 1.6426 0.524952 0.348577 0.335228 0.30078 0.2892 0.265406 0.295087 0.214048 0.541839 0.0747269 0.0585183 0.105403 0.0400632
threshold=-0.26120158890365985 1.0000000180025095e-35 -0.12281510210310546 1.4027023713294426 -0.029186641452846891 -0.63200465714466558 0.83694604635238667 0.51902654066140086 1.214818984270096 0.42994216194276064 -0.23431555607252194 0.54106610290907342 1.2637607634067536 1.6972804355511544 -1.1421438201794782 1.6102989852428438 1.5756543755531311 -0.042683934564305435 1.4397685110569001 0.83496706783771524 0.010664979310432206 -0.056546361298533215 0.55487059704967467 1.2259059727191925 -1.0000000180025095e-35 1.5786387085914615
decision_type=2 2 2 2 2 2 2 2 2 2 2 2 2 2 2 2 2 2 2 2 2 2 2 2 2 2
left_child=7 2 20 4 -4 -6 13 8 14 10 -3 12 -12 -7 -1 23 17 -17 19 -16 21 -2 -23 -10 -25 -19
right_child=1 9 3 -5 5 6 -8 -9 15 -11 11 -13 -14 -15 18 16 -18 25 -20 -21 -22 22 -24 24 -26 -27
leaf_value=0 0 0 0 0 0 0.021311631844200381 0 0 0 0 -0.011987445154569861 0 0 0 0 0 0 0 0 -0.0068046682478564505 -0.0024061956889614195 0 0.0050041963231303339 0 0.00334444931536788 -0.0050525467290146436
leaf_weight=30 25 36 50 28 51 99 15.999999999999998 136 41 65 70 56 36 20 23 13.999999999999998 31 14.999999999999998 13.999999999999998 232 44 30 60 13.999999999999998 31 80
leaf_count=30 25 36 50 28 51 99 16 136 41 65 70 56 36 20 23 14 31 15 14 232 44 30 60 14 31 80
internal_value=0 0.00231149 0.00563678 0.00886089 0.0108593 0.013789 0.0175591 -0.00289067 -0.0037526 -0.00128783 -0.00281272 -0.00492743 -0.00788119 0.019197 -0.00543093 0 -0.00225086 -0.00351363 -0.00596038 -0.00629911 0 0.00131248 0.00386508 0 0.00165863 -0.00453934
internal_weight=0 686 423 264 236 186 135 661 525 263 198 162 106 119 299 226 140 109 269 255 159 115 90 86 45 95
internal_count=1347 686 423 264 236 186 135 661 525 263 198 162 106 119 299 226 140 109 269 255 159 115 90 86 45 95
is_linear=0
shrinkage=0.046


Tree=36
num_leaves=31
num_cat=0
split_feature=49 45 6 9 183 6 87 22 54 0 45 34 8 45 9 176 126 61 8 156 176 25 168 31 47 3 25 111 113 175
split_gain=6.60899 3.91833 3.01875 2.23498 3.79825 2.20122 1.9141 1.53408 1.42163 1.33602 1.3127 1.57569 0.747527 0.738241 1.28809 2.34119 2.14111 0.667412 0.424024 0.530789 0.529914 0.445618 0.39727 0.385255 0.322388 0.20688 0.115925 0.0465809 0.323183 0.0384999
threshold=0.13494885369234391 -0.63200465714466558 0.57896916657736008 1.1441283280594841 0.69691545516252529 -0.49935565264169846 1.5409384012222291 1.0000000180025095e-35 1.0997143281358941 -0.54098473525434754 1.4782192054997896 1.0000000180025095e-35 -0.59264433097015823 1.0000000180025095e-35 1.5544848674869902 1.1823873370885851 0.73706782460212728 0.24861582114669509 1.7494657383187227 1.2476947486400607 1.479803764820099 -1.5486732008804869 1.6780334889888766 0.051369956230016042 1.3148804914942753 -1.0108442733139704 0.83568983165611654 1.3609488040208819 0.83802776038646709 1.3332452237606052
decision_type=2 2 2 2 2 2 2 2 2 2 2 2 2 2 2 2 2 2 2 2 2 2 2 2 2 2 2 2 2 2
left_child=7 23 3 4 27 -6 8 9 -7 12 11 18 -1 -11 15 -15 -17 22 19 -9 21 -21 25 24 26 -14 -2 28 -3 -29
right_child=1 2 -4 -5 5 6 -8 10 -10 13 -12 -13 17 14 -16 16 -18 -19 -20 20 -22 -23 -24 -25 -26 -27 -28 29 -30 -31
leaf_value=0 -0.0055785343718728819 0 0 0 0 0.017242802256859348 0 0 0 0 0 0 0 0 0 0.018935465019115267 0 0 0 0 0 -0.0091293990285702623 0 0 0 -0.007057844707141641 0 -0.0018048077933445592 0.0043156244493870195 0
leaf_weight=29 56 13.999999999999998 37 37 15.999999999999998 162 13.999999999999998 14.999999999999998 19 161 28 46 13.999999999999998 20 17 40 25 25 18 18 23 221 25 27 13.999999999999998 131 15.999999999999998 25 42 22
leaf_count=29 56 14 37 37 16 162 14 15 19 161 28 46 14 20 17 40 25 25 18 18 23 221 25 27 14 131 16 25 42 22
internal_value=0 0.00423998 0.00667687 0.00821449 0.0095126 0.0131434 0.0145192 -0.00241144 0.0157952 0 -0.00472083 -0.00567993 -0.00317181 0.00147651 0.00457539 0.00756193 0.0122873 -0.00443483 -0.00697093 -0.00741556 -0.00790097 -0.00855125 -0.00555578 -5.67826e-05 -0.00307932 -0.00647959 -0.00456059 0 0.00132657 0
internal_weight=0 501 388 351 314 211 195 856 181 487 369 341 224 263 102 85 65 195 295 277 262 239 170 113 86 145 72 103 56 47
internal_count=1357 501 388 351 314 211 195 856 181 487 369 341 224 263 102 85 65 195 295 277 262 239 170 113 86 145 72 103 56 47
is_linear=0
shrinkage=0.046


Tree=37
num_leaves=25
num_cat=0
split_feature=49 46 4 41 2 13 45 101 48 45 1 44 101 61 19 9 8 44 21 23 5 48 126 44
split_gain=5.94872 3.87799 3.23314 1.5928 1.6911 1.35208 1.16526 1.07732 0.957687 1.46769 1.52075 0.731068 0.686482 0.694176 0.422518 0.674058 0.631978 0.291391 0.229063 0.226961 0.0837819 0.281676 0.30622 0.0673278
threshold=0.55152476167338704 0.35899166608747174 -0.17687624677458733 0.077385727958348069 -0.4232737625541742 0.95214595777768196 0.51902654066140086 1.2671661734580997 1.1409258431787817 -0.63200465714466558 1.0000000180025095e-35 1.4232968025055635 1.0903816998004916 0.2882607761698126 1.8840401165296845 -1.0000000180025095e-35 0.3588378846784494 -1.5369861646922709 -1.5881095845053064 1.445118328039986 -0.36665074383149437 0.43558986499997482 0.7518512547016144 -0.46515957312064132
decision_type=2 2 2 2 2 2 2 2 2 2 2 2 2 2 2 2 2 2 2 2 2 2 2 2
left_child=3 8 -3 4 20 -4 11 -5 9 -2 23 12 -6 17 15 -10 -17 -14 -19 -20 -1 22 -22 -11
right_child=1 2 5 7 6 -7 -8 -9 14 10 -12 -13 13 -15 -16 16 -18 18 19 -21 21 -23 -24 -25
leaf_value=0 0 0 0.017000946862039196 0 0 0 0 0.0084348550653681499 0 0 0 0 0 0 0 -0.0096429283444926413 0 0 -0.0062100851860436134 0 0.0064644992649467575 0 0 0.014726968264485097
leaf_weight=97 63 13.999999999999998 94 26 47 15.999999999999998 156 37 17 14.999999999999998 41 23 12.999999999999998 14.999999999999998 14.999999999999998 42 14.999999999999998 12.999999999999998 478 21 34 12.999999999999998 13.999999999999998 38
leaf_count=97 63 14 94 26 47 16 156 37 17 15 41 23 13 15 15 42 15 13 478 21 34 13 14 38
internal_value=0 0.00500365 0.011869 -0.00183506 -0.00261954 0.0148657 -0.00359844 0.00236873 0 0.00336489 0.00720731 -0.0045058 -0.00487166 -0.00533747 -0.00167162 -0.00392948 -0.00671295 -0.00566572 -0.0058412 -0.00599832 0 0.00170464 0.00401338 0.0123623
internal_weight=0 370 124 987 924 110 766 63 246 157 94 610 587 540 89 74 57 525 512 499 158 61 48 53
internal_count=1357 370 124 987 924 110 766 63 246 157 94 610 587 540 89 74 57 525 512 499 158 61 48 53
is_linear=0
shrinkage=0.046


Tree=38
num_leaves=29
num_cat=0
split_feature=49 46 39 48 22 45 34 0 176 8 19 4 1 45 163 41 35 45 35 183 67 101 169 39 148 8 25 3
split_gain=5.43852 3.37247 4.01744 1.63196 1.40162 1.19761 1.26023 1.1037 0.711534 0.670577 0.647939 1.15633 2.07106 1.17733 1.35336 1.54955 1.0076 0.615354 0.760287 0.821406 1.05316 0.512202 0.499452 0.367682 0.34973 0.437732 0.394958 0.189969
