tree
version=v3
num_class=1
num_tree_per_iteration=1
label_index=0
max_feature_idx=190
objective=regression
feature_names=feature_0 feature_1 feature_2 feature_3 feature_4 feature_5 feature_6 feature_7 feature_8 feature_9 feature_10 feature_11 feature_12 feature_13 feature_14 feature_15 feature_16 feature_17 feature_18 feature_19 feature_20 feature_21 feature_22 feature_23 feature_24 feature_25 feature_26 feature_27 feature_28 feature_29 feature_30 feature_31 feature_32 feature_33 feature_34 feature_35 feature_36 feature_37 feature_38 feature_39 feature_40 feature_41 feature_42 feature_43 feature_44 feature_45 feature_46 feature_47 feature_48 feature_49 feature_50 feature_51 feature_52 feature_53 feature_54 feature_55 feature_56 feature_57 feature_58 feature_59 feature_60 feature_61 feature_62 embedding_0 embedding_1 embedding_2 embedding_3 embedding_4 embedding_5 embedding_6 embedding_7 embedding_8 embedding_9 embedding_10 embedding_11 embedding_12 embedding_13 embedding_14 embedding_15 embedding_16 embedding_17 embedding_18 embedding_19 embedding_20 embedding_21 embedding_22 embedding_23 embedding_24 embedding_25 embedding_26 embedding_27 embedding_28 embedding_29 embedding_30 embedding_31 embedding_32 embedding_33 embedding_34 embedding_35 embedding_36 embedding_37 embedding_38 embedding_39 embedding_40 embedding_41 embedding_42 embedding_43 embedding_44 embedding_45 embedding_46 embedding_47 embedding_48 embedding_49 embedding_50 embedding_51 embedding_52 embedding_53 embedding_54 embedding_55 embedding_56 embedding_57 embedding_58 embedding_59 embedding_60 embedding_61 embedding_62 embedding_63 embedding_64 embedding_65 embedding_66 embedding_67 embedding_68 embedding_69 embedding_70 embedding_71 embedding_72 embedding_73 embedding_74 embedding_75 embedding_76 embedding_77 embedding_78 embedding_79 embedding_80 embedding_81 embedding_82 embedding_83 embedding_84 embedding_85 embedding_86 embedding_87 embedding_88 embedding_89 embedding_90 embedding_91 embedding_92 embedding_93 embedding_94 embedding_95 embedding_96 embedding_97 embedding_98 embedding_99 embedding_100 embedding_101 embedding_102 embedding_103 embedding_104 embedding_105 embedding_106 embedding_107 embedding_108 embedding_109 embedding_110 embedding_111 embedding_112 embedding_113 embedding_114 embedding_115 embedding_116 embedding_117 embedding_118 embedding_119 embedding_120 embedding_121 embedding_122 embedding_123 embedding_124 embedding_125 embedding_126 embedding_127
feature_infos=[-1.5202257474817547:2.9563045941292487] [-0.77084557373751905:1.2972766972655805] [-1.5424805986656369:1.3226889017797077] [-3.7808714042531846:5.079923624435045] [-2.2678684131819593:2.9512480341708414] [-1.9980931236569193:5.0707424973198183] [-1.4878200702591688:3.3646416162265944] [-4.309595557418497:8.0352468744061749] [-3.9960230254055631:4.1281712774402415] [-3.2232376987046876:5.0425154526207914] [-2.4788551255004547:10.43900927008028] [-2.3122369909856952:3.9622601609373498] [-1.5586245404341232:1.7755032124004588] [-0.95378758873936753:7.5170281735586304] [-0.95374180518751672:1.0485018005511337] [-2.0704165160707331:2.8885128685963499] [-1.3548443886994797:1.9115454882559055] [-1.4195049545207712:2.9865484540402929] [-1.4770637962077213:1.7906132388990585] [-0.75517455721952675:6.0120425549579375] [-0.70220840705790522:1.4240786495134317] [-2.5360302672582842:3.0056598780668144] [-1.2743008249987884:0.78474405759013044] [-2.5736741976654929:2.9795663833093502] [-1.2775956246193096:0.78272027606385575] [-3.0964176255095106:3.261883794588099] [-1.9139658581391805:0.52247535960345315] [-1.6064368938563474:2.2845799621874336] [-0.12516650442230459:0.10454573056317701] [-1.5651287055754255:5.7481205267946596] [-0.22630388964428938:1.4694389371894172] [-0.33623429491573459:2.0911004521132952] [-0.25988321142874971:1.2895888239098567] [-0.22630393576306168:1.4694398115265859] [-0.48213262468365187:11.648949034750638] [-11.127720215247697:3.7632947634913845] [-1.1758710382425277:0.56376594269932045] [-1.095361955937455:1.8438100848596786] [-0.26975758898701419:2.125282942378393] [-0.21919692235586755:1.1247946978534842] [-0.39892468963669381:2.6477712911102786] [-0.27379631038661828:2.6207646353917502] [-0.25832764130411923:1.6548611685080008] [-1.7898728836595796:2.7824645796397331] [-2.0792793806660126:2.5653025161443823] [-1.543237688741135:3.9241605008376808] [-1.4979751089823492:3.2012877503780137] [-0.96883018009501365:1.771622625812133] [-1.1816824381413:4.5103421882820598] [-0.73291762126816262:3.64112941253279] [-0.67798424332021456:4.8411943456658477] [0.011035494963297383:0.016804492941263505] [-42.015549624459666:8.4339820313965106] [-0.94103029143611239:3.6028265694709418] [-0.99990878970033059:2.1377384350340631] [-0.05110138824217185:0.040534648066835918] [-0.066329066670200956:0.042129836892502749] [-0.37456046681191002:2.5032586763545162] [-0.40655329118830269:3.5427824856435457] [-0.26310157852356136:3.2268404100728629] [-33.274990687495524:30.11216171235354] [-0.23595853645922737:2.6777270653266063] [-0.99316933799423457:1.8038727914148875] [0.59948039054870605:3.2605407238006592] [0.29629689455032349:2.4190876483917236] [0.43441474437713623:2.1452291011810303] [0.24901275336742401:2.1799848079681396] [0.32822135090827942:1.7536193132400513] [0.38581815361976624:2.0973875522613525] [0.33379611372947693:2.2261953353881836] [0.29735171794891357:2.1550421714782715] [0.36345919966697693:2.7469987869262695] [0.30242517590522766:2.244016170501709] [0.29758727550506592:2.1463606357574463] [0.37371781468391418:2.0816733837127686] [0.21770395338535309:1.6116434335708618] [0.54219818115234375:3.8528540134429932] [0.37727585434913635:2.2334461212158203] [0.49633121490478516:3.489945650100708] [0.37261134386062622:2.0325648784637451] [0.25983709096908569:2.1113324165344238] [0.60050970315933228:3.2508246898651123] [0.44199174642562866:2.4965050220489502] [0.44609636068344116:2.6976540088653564] [0:0.82059562206268311] [0.45988532900810242:2.8514955043792725] [0.44726857542991638:3.2012250423431396] [0.26841521263122559:2.3738307952880859] [0.5069395899772644:3.0357658863067627] [0.44493624567985535:2.7121412754058838] [0.27592864632606506:1.5892696380615234] [0.41088303923606873:1.9770228862762451] [0.41896885633468628:2.5431132316589355] [0.42616388201713562:2.3460354804992676] [0.33673125505447388:2.6668953895568848] [0.30643221735954285:2.4085342884063721] [0.24794277548789978:2.2148914337158203] [0.33290991187095642:2.186378002166748] [0.58469218015670776:2.9641323089599609] [0.38409164547920227:2.5668675899505615] [0.3949749767780304:1.8664337396621704] [0.41798016428947449:2.3516461849212646] [0.40892747044563293:2.7857258319854736] [0.36520266532897949:1.9490917921066284] [0.20411473512649536:1.5206971168518066] [0.38956755399703979:1.8118797540664673] [0.47542276978492737:2.5876379013061523] [0.4262029230594635:2.4128947257995605] [0.4051767885684967:2.1528186798095703] [0.32783040404319763:1.7518606185913086] [0.31484881043434143:2.2759606838226318] [0.32432031631469727:2.9906582832336426] [0.29096180200576782:2.1382870674133301] [0.33031472563743591:2.2523415088653564] [0.48103028535842896:3.7240757942199707] [0.46573671698570251:3.0912830829620361] [0.1103513166308403:1.3849444389343262] [0.15907104313373566:1.7040861845016479] [0.66352719068527222:3.3903615474700928] [0.2875213623046875:2.2855560779571533] [0.75502389669418335:3.7193944454193115] [0.1573471873998642:1.445675253868103] [0.36227881908416748:2.9104342460632324] [0.34119114279747009:2.2113032341003418] [0.28245577216148376:1.9785186052322388] [0.23764011263847351:2.0570304393768311] [0.11566301435232162:1.5325198173522949] [0.26445573568344116:1.7411652803421021] [0.61738848686218262:3.5727288722991943] [0.24456167221069336:2.1955926418304443] [0.29519882798194885:1.2858306169509888] [0.37914025783538818:1.8913578987121582] [0.29423367977142334:2.2572598457336426] [0.33674493432044983:2.1577498912811279] [0.3207014799118042:1.4185433387756348] [0.35885545611381531:2.6467931270599365] [0.34092885255813599:2.8660244941711426] [0.4876217246055603:3.0962445735931396] [0.53879910707473755:3.2968435287475586] [0.27519193291664124:2.1703393459320068] [0.47774079442024231:2.7378571033477783] [0.4281536340713501:2.4086654186248779] [0.37847989797592163:2.3128175735473633] [0.20512630045413971:1.9723232984542847] [0.38211581110954285:2.5491664409637451] [0.47491049766540527:3.2103283405303955] [0.35836848616600037:2.2343413829803467] [0.24269099533557892:2.0379595756530762] [0.15889467298984528:1.5591155290603638] [0.36190685629844666:2.5619449615478516] [0.34501105546951294:2.8275933265686035] [0.43648931384086609:2.8390247821807861] [0.1893119215965271:1.4674931764602661] [0.28152790665626526:2.4772751331329346] [0.1781071275472641:1.5708043575286865] [0.21529553830623627:1.7722935676574707] [0.52048975229263306:3.1459531784057617] [0.29561862349510193:2.5886926651000977] [0.41331729292869568:3.2327401638031006] [0.45351934432983398:2.5956270694732666] [0.33994176983833313:2.7805733680725098] [0.49986559152603149:3.4858927726745605] [0.34191972017288208:2.0456550121307373] [0.2863878607749939:1.8319958448410034] [0.48001065850257874:2.3503496646881104] [0.42815178632736206:1.6747506856918335] [0.37313443422317505:1.8819692134857178] [0.19068107008934021:1.9315242767333984] [0.35146191716194153:2.4953699111938477] [0.30832353234291077:2.4375209808349609] [0.33495190739631653:2.3152589797973633] [0.2130056768655777:1.6864564418792725] [0.20462527871131897:1.2591255903244019] [0.36632022261619568:2.3047220706939697] [0.22618664801120758:2.4574086666107178] [0.41709232330322266:2.5705497264862061] [0.39087548851966858:2.4389488697052002] [0.70257550477981567:3.4886536598205566] [0.56701397895812988:3.0372543334960938] [0.42564591765403748:3.0716824531555176] [0.22557260096073151:2.7270388603210449] [0.52791708707809448:2.0775322914123535] [0.33226147294044495:1.5808669328689575] [0.22919405996799469:1.4344807863235474] [0.58570891618728638:3.3151211738586426] [0.49308112263679504:2.5394043922424316] [0.69513881206512451:3.2940301895141602] [0.37161320447921753:3.1177375316619873] [0.35555237531661987:2.7183256149291992] [0.67651993036270142:4.0607404708862305] [0.62749379873275757:3.8566999435424805]
tree_sizes=1580 1767 1437 1492 1511 1897 1656 1481 1247 1258 1394 1175 1358 1497 1714 1550 1695 1544 1496 1486 1606 1687 1596 1704 1734 1658 1587 1648 1625 1663 1420 1317 1543 1547 1466 1642 1404 1787 1831 1262 1558 1498 1393 1547 1501 1621 1568 1373 1389 1354 1280 1352 1498 1260 1265 1166 1368 1193 1377 1527 1606 1573 1522 1840 1800 1678 1629 1585 1263 1163 1252 1104 1724 1539 1466 1307 1311 1483 1098 1043 1492 1405 1586 1421 1271 1474 1642 1357 1747 1516 1452 1573 1310 1466 1313 1212 1648 1513 1571 1439 1055 1713 1295 1300 1758 1470 1290 1669 959 1261 1283 1080 1934 1513 1050 1368 1365 1474 1434 1247 1500 1592 1449 1510 1318 1497 1616 1447 1555 1461 1523 1048 1707 1521 1563 1273 951 1172 860 1199 1198 1058 1381 1047 1237 1118 1039 1240 1246 1194 1120 1499 1171 1358 1184 1156 1055 821 1033 673 990 1029 978 878 1454 1317 1452 1591 1142 1213 1296 989 1032 975 864 1134 1055 1237 1321 1321 1039 1198 1377 1325 1324 969 886 456 957 958 963 995 1346 1363 1394 1060 1042 1251 1258 1025 1323 1018 1106 872 1186 1009 1110 1085 986 1194 1077 1176 1094 1310 1060 1127 1407 1441 1087 1273 1203 1190 1197 1101 940 1012 608 608 1149 938 1338 1420 914 812 947 845 1179 1247 1374 1253 1024 1192 1072 1042 1121 1170 1073 984 1375 1101 1457 957 953 953 656

Tree=0
num_leaves=17
num_cat=0
split_feature=49 4 45 9 45 51 49 45 28 45 130 108 50 50 126 61
split_gain=38.9199 11.2766 4.6613 5.60377 3.31952 3.23857 2.57961 2.2721 2.17862 2.72288 2.03877 2.79228 0.832305 0.645604 0.0446166 0.0138892
threshold=0.69038339766706813 -0.58637615264380683 -0.63200465714466558 -0.61454255520125611 0.32718800769372303 0.016502959398388393 -0.14276841829501816 0.32718800769372303 -0.021486766286498211 1.3822999390159507 0.81032520532608043 0.92892616987228405 0.94053041573353047 0.45295417576207037 0.60025686025619518 0.17335987625671626
decision_type=2 2 2 2 2 2 2 2 2 2 2 2 2 2 2 2
left_child=1 7 -2 -4 6 -5 10 12 -6 -10 11 -3 -1 -8 -9 -15
right_child=2 4 3 5 8 -7 13 14 9 -11 -12 -13 -14 15 -16 -17
leaf_value=0.55400110114502987 0.57228915662650603 0.57228915662650603 0.57228915662650603 0.60047976402575387 0.57228915662650603 0.57228915662650603 0.57758775172870536 0.57228915662650603 0.59349012184479422 0.57228915662650603 0.57228915662650603 0.5571981677657919 0.57228915662650603 0.57088110821361582 0.57073348451962502 0.57228915662650603
leaf_weight=166 52 30 20 108 54 15.999999999999998 48 20 30 17 40 86 12.999999999999998 24 39 19
leaf_count=166 52 30 20 108 54 16 48 20 30 17 40 86 13 24 39 19
internal_value=0.572289 0.565746 0.589381 0.593879 0.572289 0.597526 0.568312 0.557948 0.577844 0.58511 0.564541 0.56143 0.554959 0.572289 0.572289 0.571638
internal_weight=0 586 196 144 348 124 247 238 101 47 156 116 179 91 59 43
internal_count=782 586 196 144 348 124 247 238 101 47 156 116 179 91 59 43
is_linear=0
shrinkage=1


Tree=1
num_leaves=21
num_cat=0
split_feature=48 45 48 165 4 172 47 84 96 19 21 4 63 138 93 47 8 8 84 130
split_gain=29.1049 10.2495 5.63228 5.31737 4.63868 3.8181 2.18194 0.78862 1.61521 1.00542 0.655275 1.0834 0.651289 0.629717 0.850999 0.555951 0.587948 0.293776 0.202087 0.0108458
threshold=0.034389032042995892 -1.0000000180025095e-35 0.2819892300969587 1.2953389883041384 -0.67871436671235652 0.50779360532760631 -0.51208804577715583 0.18937492370605472 1.6253252029418948 -0.41681370161065345 0.30773178100064819 -1.0000000180025095e-35 0.77170068025589 1.4793779850006106 1.8174629807472231 1.0000000180025095e-35 0.65160164333955961 -0.81221714996599081 0.062090529128909118 0.81468731164932262
decision_type=2 2 2 2 2 2 2 2 2 2 2 2 2 2 2 2 2 2 2 2
left_child=4 7 -3 5 12 18 13 15 9 -9 11 -8 -1 -6 19 16 -2 -11 -4 -15
right_child=1 2 3 -5 6 -7 10 8 -10 17 -12 -13 -14 14 -16 -17 -18 -19 -20 -21
leaf_value=0 -0.0070859855774500118 0 0.0037748022343229749 0 0 0.030247346477892213 0.0094741467585420652 0 0 0 0 0 -0.016145940569474864 -0.013047107636383356 0 0 0 0.015267810419594581 0 0
leaf_weight=12.999999999999998 51 37 30 23 14.999999999999998 85 41 14.999999999999998 31 15.999999999999998 24 12.999999999999998 183 47 12.999999999999998 61 19 33 13.999999999999998 18
leaf_count=13 51 37 30 23 15 85 41 15 31 16 24 13 183 47 13 61 19 33 14 18
internal_value=0 0.00773642 0.0156896 0.0196082 -0.0100062 0.0232431 -0.00116288 0 0.00401022 0.00879004 0.000160406 0.00507045 -0.0153743 -0.00721834 -0.00889967 -0.00103662 -0.00433752 0.0120134 0 -0.0110789
internal_weight=0 415 189 152 367 129 171 226 95 64 78 54 196 93 78 131 70 49 44 65
internal_count=782 415 189 152 367 129 171 226 95 64 78 54 196 93 78 131 70 49 44 65
is_linear=0
shrinkage=0.046


Tree=2
num_leaves=17
num_cat=0
split_feature=50 4 45 45 9 51 31 9 130 3 91 12 3 96 2 45
split_gain=28.2382 13.6898 8.45616 7.12705 3.80441 3.58758 2.40942 1.97714 1.55808 0.553558 0.543698 0.560577 0.386257 1.13652 0.736537 0.0645663
threshold=-0.096571555737718348 -0.52147175579852212 -0.53608539066082672 0.42310727417756194 -0.67316491797661426 0.016502959398388393 -0.098979153557354496 0.73377178863197801 0.89202722907066356 0.3945829804847551 1.0601546168327334 1.0000000180025095e-35 0.859594700253693 1.4526374340057375 0.27063447583493272 0.71086507362907858
decision_type=2 2 2 2 2 2 2 2 2 2 2 2 2 2 2 2
left_child=3 10 12 7 -4 6 -6 8 -1 15 -2 -12 13 14 -3 -5
right_child=1 2 4 9 5 -7 -8 -9 -10 -11 11 -13 -14 -15 -16 -17
leaf_value=-0.015884948807776512 0 0.011069903475172976 0 0 0 0 0.02593655808428948 0 0 0.0069740114486103299 -0.0084285450479725053 0 -0.00010492571419113579 0 0 -0.0015545010073516642
leaf_weight=225 21 39 28 12.999999999999998 19 19 136 46 19 24 56 12.999999999999998 28 25 12.999999999999998 58
leaf_count=225 21 39 28 13 19 19 136 46 19 24 56 13 28 25 13 58
internal_value=0 0.00802007 0.0131218 -0.00942708 0.0187151 0.0212809 0.0236085 -0.0130377 -0.0148045 0 -0.00427154 -0.00636155 0 0.00325717 0.00787066 -0.000223821
internal_weight=0 397 307 385 202 174 155 290 244 95 90 69 105 77 52 71
internal_count=782 397 307 385 202 174 155 290 244 95 90 69 105 77 52 71
is_linear=0
shrinkage=0.046


Tree=3
num_leaves=18
num_cat=0
split_feature=49 45 103 51 41 5 80 139 5 44 44 4 45 103 91 49 44
split_gain=31.3394 9.30796 4.05827 4.32135 3.63716 2.0983 2.492 1.80299 2.20867 1.69767 1.65017 1.16638 1.0744 0.149535 0.464977 0.0449613 0.0179825
threshold=0.69038339766706813 0.32718800769372303 1.512300491333008 0.016489588985016582 0.0041989277585560711 -0.0031106261812621685 1.1003239154815676 0.37665274739265447 -0.33074554702653297 -1.0259545576393689 0.61942685882684101 0.19113837451311014 -1.015681723080021 0.99502480030059826 1.6494537591934206 -0.073339100298177667 0.91226519545266138
decision_type=2 2 2 2 2 2 2 2 2 2 2 2 2 2 2 2 2
left_child=1 4 3 7 9 13 -7 -2 -9 -1 11 -11 -10 -3 15 -15 -12
right_child=2 5 -4 -5 -6 6 -8 8 12 10 16 -13 -14 14 -16 -17 -18
leaf_value=0 0 0 0 0 0 0 0.017936661629014073 0 0 -0.01524893024941716 0 0 0.02716074488314292 -0.0050365791377577429 0 0 -0.0010279470187231953
leaf_weight=27 13.999999999999998 26 33 20 57 21 31 12.999999999999998 14.999999999999998 245 17 44 101 55 13.999999999999998 12.999999999999998 36
leaf_count=27 14 26 33 20 57 21 31 13 15 245 17 44 101 55 14 13 36
internal_value=0 -0.00588447 0.015323 0.0183032 -0.00965641 0.00128347 0.00950979 0.0211139 0.0228855 -0.0113361 -0.0122129 -0.0137328 0.0249544 0 -0.00196424 -0.00437257 0
internal_weight=0 586 196 163 426 160 52 143 129 369 342 289 116 108 82 68 53
internal_count=782 586 196 163 426 160 52 143 129 369 342 289 116 108 82 68 53
is_linear=0
shrinkage=0.046


Tree=4
num_leaves=18
num_cat=0
split_feature=49 5 9 45 31 50 130 9 28 65 50 62 44 9 103 57 45
split_gain=32.2143 11.163 5.21913 6.86159 2.25747 1.88901 2.13404 2.03544 1.90397 1.69864 1.51692 1.47743 1.01114 0.929971 0.853188 0.732014 0.435985
threshold=0.69038339766706813 -0.68082121587490485 -0.55592019242589819 -0.63200465714466558 -0.094248122154188832 -0.096571555737718348 0.81032520532608043 0.79239415140733604 -0.025821702391036285 1.5023176074028017 1.0160416370469887 1.1560598303903309 -0.17742517264516214 -0.67316491797661426 1.5586971044540407 0.44060839545000835 0.42310727417756194
decision_type=2 2 2 2 2 2 2 2 2 2 2 2 2 2 2 2 2
left_child=1 12 -2 -4 11 6 7 16 -8 10 13 15 -1 -7 -5 -3 -6
right_child=2 4 3 14 5 9 8 -9 -10 -11 -12 -13 -14 -15 -16 -17 -18
leaf_value=0 0 -0.010876594491403994 0 0.026644894243626347 -0.01083572029236717 0 0 0 0.012757510903460761 0 0 0 -0.015317625465696046 0.015436100099321375 0 0 0
leaf_weight=22 39 73 44 113 66 12.999999999999998 12.999999999999998 28 37 12.999999999999998 17 25 175 57 12.999999999999998 13.999999999999998 23
leaf_count=22 39 73 44 113 66 13 13 28 37 13 17 25 175 57 13 14 23
internal_value=0 -0.00515419 0.0159035 0.0193882 0 0.00174696 0 -0.00464157 0.0063156 0.00693653 0.00982922 -0.00594737 -0.0140559 0.012881 0.0249476 -0.00902573 -0.00875837
internal_weight=0 576 209 170 379 267 167 117 50 100 87 112 197 70 126 87 89
internal_count=785 576 209 170 379 267 167 117 50 100 87 112 197 70 126 87 89
is_linear=0
shrinkage=0.046


Tree=5
num_leaves=23
num_cat=0
split_feature=48 45 50 50 9 8 9 12 3 47 9 25 65 39 92 0 22 84 4 36 5 9
split_gain=27.3498 9.4282 5.67882 4.30444 4.12731 1.71152 1.08808 1.06661 0.398771 1.93263 1.06736 0.919183 0.369432 0.364995 0.595145 0.334981 0.266225 0.215289 0.193359 0.083848 0.773759 2.60403e-05
threshold=0.034389032042995892 -0.15240832472547133 0.068703308061867793 -0.49646578309173578 -0.55592019242589819 1.3103201003270575 0.85101651418269408 1.1821414936756607 0.60805053122782904 -0.51208804577715583 -0.55592019242589819 0.16639494533005231 1.346483647823334 -0.088476057328913074 1.2509752511978152 -0.26120158890365985 1.0000000180025095e-35 0.020961877889931205 -0.073163035320781875 0.019123476345336222 -0.0031106261812621685 1.0000000180025095e-35
decision_type=2 2 2 2 2 2 2 2 2 2 2 2 2 2 2 2 2 2 2 2 2 2
left_child=3 8 19 6 -4 -6 7 15 9 21 -11 -12 -10 14 -5 17 18 -1 -15 20 -3 -2
right_child=1 2 4 13 5 -7 -8 -9 12 10 11 -13 -14 16 -16 -17 -18 -19 -20 -21 -22 -23
leaf_value=0 -4.2849677834896911e-05 0 0 0 0.026497596739575652 0 0 0 -0.0050594244445217396 0 0.015362923048383718 0 0 0.0057000870209699944 -0.0073063545997316542 0 0 -0.015425261918555878 0 0 0.0092937061952330386 0
leaf_weight=12.999999999999998 30 14.999999999999998 30 12.999999999999998 106 14.999999999999998 23 13.999999999999998 37 17 38 22 26 30 38 17 27 179 13.999999999999998 37 21 23
leaf_count=13 30 15 30 13 106 15 23 14 37 17 38 22 26 30 38 17 27 179 14 37 21 23
internal_value=0 0.00849741 0.0149491 -0.00868544 0.0202751 0.0241901 -0.0122422 -0.0132534 0 0.00228387 0.0078682 0.0108205 -0.00162143 0 -0.00388462 -0.0140789 0.000190431 -0.0148141 0.00358589 0 0.00221969 0
internal_weight=0 417 224 368 151 121 246 223 193 130 77 60 63 122 51 209 71 192 44 73 36 53
internal_count=785 417 224 368 151 121 246 223 193 130 77 60 63 122 51 209 71 192 44 73 36 53
is_linear=0
shrinkage=0.046


Tree=6
num_leaves=20
num_cat=0
split_feature=5 45 50 38 2 84 131 13 134 21 53 44 93 54 57 8 44 127 67
split_gain=25.2521 11.5358 6.49828 3.88831 3.87252 3.22703 3.97668 1.23385 1.19853 2.20789 1.94454 0.984385 0.875969 0.388836 0.263894 0.501232 0.141306 0.0752054 0.0611351
threshold=-0.11531436619676592 -0.53608539066082672 -0.49646578309173578 -0.01934526185985053 0.67354893683505934 0.092822741717100157 1.2976353764533999 0.35918885441682219 0.92906326055526745 0.30773178100064819 1.167915556597948 0.88738350671974831 1.7940940260887148 1.0021747980215336 0.26757102378775494 0.8711744623353922 -0.59275797687916876 0.32040292024612432 0.44289328157901769
decision_type=2 2 2 2 2 2 2 2 2 2 2 2 2 2 2 2 2 2 2
left_child=2 14 7 -3 5 18 -7 11 9 10 -4 12 17 -10 15 16 -2 -1 -5
right_child=1 3 8 4 -6 6 -8 -9 13 -11 -12 -13 -14 -15 -16 -17 -18 -19 -20
leaf_value=0 0 0 0.014642785212202952 0.0021490511171564971 0 0.029591690595835853 0 0 -0.006930645615021813 0 0 0 0 0 0 0 -0.0055615316810309554 -0.014858225233063998 0
leaf_weight=12.999999999999998 13.999999999999998 54 47 28 13.999999999999998 100 34 19 43 25 15.999999999999998 15.999999999999998 29 24 19 15.999999999999998 62 192 20
leaf_count=13 14 54 47 28 14 100 34 19 43 25 16 16 29 24 19 16 62 192 20
internal_value=0 0.00934119 -0.00719212 0.0149544 0.0180892 0.0199351 0.0243045 -0.0115172 0 0.00383286 0.00972958 -0.0123761 -0.0131356 -0.00430718 0 -0.00246351 -0.00461518 -0.0143524 0
internal_weight=0 361 424 250 196 182 134 269 155 88 63 250 234 67 111 92 76 205 48
internal_count=785 361 424 250 196 182 134 269 155 88 63 250 234 67 111 92 76 205 48
is_linear=0
shrinkage=0.046


Tree=7
num_leaves=17
num_cat=0
split_feature=49 38 9 45 45 45 48 129 1 124 9 3 75 103 113 44
split_gain=26.0232 8.64795 4.32733 5.31764 2.04566 1.71531 1.42734 2.33997 3.26055 2.12778 1.58238 0.724084 0.617791 0.578739 0.195295 0.00562958
threshold=0.69038339766706813 -0.12468810337012877 -0.55592019242589819 -0.63200465714466558 1.190461406048273 -0.72792392362850444 -0.3288094193307019 1.5017057061195376 1.0000000180025095e-35 0.64240634441375744 -0.38005310409982418 -0.85782685800714831 0.4074197262525559 1.5586971044540407 1.8048434853553774 0.26215132830296434
decision_type=2 2 2 2 2 2 2 2 2 2 2 2 2 2 2 2
left_child=1 4 -2 -4 -1 11 -7 8 9 -8 15 -3 -13 -5 -9 -11
right_child=2 5 3 13 -6 6 7 14 -10 10 -12 12 -14 -15 -16 -17
leaf_value=-0.01435482105460772 0 0 0 0.023852053117186668 0 -0.0031191249275104448 0 -0.0034356382209142595 0 0.00060072132256203657 0.017858683962231704 0 -0.0092026928796651933 0 0 0
leaf_weight=170 39 13.999999999999998 44 113 13.999999999999998 37 29 35 55 33 71 14.999999999999998 73 12.999999999999998 13.999999999999998 15.999999999999998
leaf_count=170 39 14 44 113 14 37 29 35 55 33 71 15 73 13 14 16
internal_value=0 -0.00464065 0.0142866 0.0174582 -0.0129174 0 0.000992754 0.0034123 0.00622179 0.00996494 0.0126812 -0.00572529 -0.00744326 0.022372 0 0
internal_weight=0 576 209 170 184 392 290 253 204 149 120 102 88 126 49 49
internal_count=785 576 209 170 184 392 290 253 204 149 120 102 88 126 49 49
is_linear=0
shrinkage=0.046


Tree=8
num_leaves=15
num_cat=0
split_feature=49 53 49 45 9 45 45 45 5 130 52 2 9 84
split_gain=31.1333 7.26456 4.9663 2.75661 2.61749 3.35244 1.692 2.3767 2.25882 1.24831 0.818581 0.707662 0.63929 0.0881166
threshold=0.69038339766706813 0.68545333730811497 -0.14276841829501816 0.51902654066140086 -0.55592019242589819 -0.63200465714466558 0.23126874120988414 1.190461406048273 -0.44743743664265695 0.81032520532608043 0.032537224636288532 0.6287806633906009 0.90963887695805201 0.21197365224361422
decision_type=2 2 2 2 2 2 2 2 2 2 2 2 2 2
left_child=1 6 3 -3 -2 -6 9 8 -8 10 12 -7 13 -1
right_child=4 2 -4 -5 5 11 7 -9 -10 -11 -12 -13 -14 -15
leaf_value=-0.0092463974911785492 0 -0.015407705728390605 0 0 0 0.024055795495429133 0 0 0.018723239519569689 0 0 0 0 0
leaf_weight=74 31 200 89 52 37 111 12.999999999999998 27 37 41 12.999999999999998 19 19 14.999999999999998
leaf_count=74 31 200 89 52 37 111 13 27 37 41 13 19 19 15
internal_value=0 -0.00521406 -0.00955602 -0.0128556 0.0159081 0.0182538 0 0.00641127 0.0128007 -0.00160014 -0.00502554 0.021968 -0.00665827 -0.00830622
internal_weight=0 580 341 252 198 167 239 77 50 162 121 130 108 89
internal_count=778 580 341 252 198 167 239 77 50 162 121 130 108 89
is_linear=0
shrinkage=0.046


Tree=9
num_leaves=15
num_cat=0
split_feature=49 53 49 46 9 46 48 46 46 68 68 25 2 49
split_gain=28.6421 6.69245 4.53406 2.42447 2.35183 2.93339 1.46567 2.00008 1.78579 1.57864 1.52173 0.524391 0.474666 0.167101
threshold=0.69038339766706813 0.68545333730811497 -0.14276841829501816 0.54847807170684126 -0.55592019242589819 -0.62633764313324958 -0.047573439798766548 -0.32315939414225842 1.4201155375559409 1.602768123149872 1.0658757090568545 0.16639494533005231 0.6287806633906009 -0.2121977362918587
decision_type=2 2 2 2 2 2 2 2 2 2 2 2 2 2
left_child=1 6 3 -3 -2 -6 11 -8 9 10 -9 13 -7 -1
right_child=4 2 -4 -5 5 12 7 8 -10 -11 -12 -13 -14 -15
leaf_value=-0.006899164854624211 0 -0.014698986980677974 0 0 0 0.022949328374544806 0 0 0 0 0.018947208246389853 0 0 0
leaf_weight=55 31 200 89 52 37 111 57 20 15.999999999999998 14.999999999999998 46 14.999999999999998 19 14.999999999999998
leaf_count=55 31 200 89 52 37 111 57 20 16 15 46 15 19 15
internal_value=0 -0.00497034 -0.00914034 -0.0122931 0.0152877 0.0175184 0 0.0035548 0.00798045 0.0110865 0.0141932 -0.00368632 0.0210232 -0.00568768
internal_weight=0 580 341 252 198 167 239 154 97 81 66 85 130 70
internal_count=778 580 341 252 198 167 239 154 97 81 66 85 130 70
is_linear=0
shrinkage=0.046


Tree=10
num_leaves=16
num_cat=0
split_feature=49 45 130 49 9 45 25 5 9 45 48 16 28 50 9
split_gain=26.463 6.12112 3.37728 3.23416 2.11086 2.55627 1.88752 3.60157 1.47133 0.861429 0.358283 0.232391 0.221465 0.104027 0.00107814
threshold=0.69038339766706813 0.23126874120988414 0.86087584495544445 -0.14276841829501816 -0.55592019242589819 -0.63200465714466558 -0.16825249783297977 -0.11082621659614571 2.1993308580159288 1.3822999390159507 0.2819892300969587 -1.0000000180025095e-35 -0.042156996561043554 0.32236984653547457 -0.79040964352733012
decision_type=2 2 2 2 2 2 2 2 2 2 2 2 2 2 2
left_child=1 2 3 8 -2 -6 12 -8 11 -9 -7 -1 -3 -5 -15
right_child=4 6 -4 13 5 10 7 9 -10 -11 -12 -13 -14 14 -16
leaf_value=0 0 0 0 0 0 0 0 0.020061160640320309 0 0 0.02136248565542322 -0.013647769880337409 -0.005345695418836143 0 -0.0020678849294538154
leaf_weight=14.999999999999998 31 12.999999999999998 41 36 37 12.999999999999998 78 32 13.999999999999998 14.999999999999998 117 235 36 12.999999999999998 52
leaf_count=15 31 13 41 36 37 13 78 32 14 15 117 235 36 13 52
internal_value=0 -0.00477621 -0.00802978 -0.00955501 0.014696 0.0168168 0.00017194 0.00524477 -0.0123348 0.0153382 0.0201219 -0.0131575 -0.00338153 0 -0.0018401
internal_weight=0 580 406 365 198 167 174 125 264 47 130 250 49 101 65
internal_count=778 580 406 365 198 167 174 125 264 47 130 250 49 101 65
is_linear=0
shrinkage=0.046


Tree=11
num_leaves=14
num_cat=0
split_feature=49 53 49 9 45 45 48 45 45 68 84 9 2
split_gain=24.3167 5.85799 3.62448 1.88625 2.20774 1.88563 1.23379 1.77739 1.593 1.37446 1.13438 0.55862 0.416096
threshold=0.69038339766706813 0.68185025600769611 -0.14276841829501816 -0.55592019242589819 -0.63200465714466558 0.51902654066140086 -0.10892263628481678 -0.34424685769314906 1.3822999390159507 1.602768123149872 0.11327805742621423 0.44065997475518792 0.6287806633906009
decision_type=2 2 2 2 2 2 2 2 2 2 2 2 2
left_child=1 6 5 -2 -5 -3 11 -8 9 10 -9 -1 -6
right_child=3 2 -4 4 12 -7 7 8 -10 -11 -12 -13 -14
leaf_value=-0.0057891605477771247 0 -0.013393280766009217 0 0 0.021008542509736612 0 0 0 0 0 0.016974513877583777 0 0
leaf_weight=63 31 201 90 37 111 52 61 20 15.999999999999998 14.999999999999998 49 12.999999999999998 19
leaf_count=63 31 201 90 37 111 52 61 20 16 15 49 13 19
internal_value=0 -0.00454897 -0.00843377 0.0141153 0.0161283 -0.011258 0 0.00323115 0.00737659 0.0102421 0.0130325 -0.00349733 0.0192376
internal_weight=0 580 343 198 167 253 237 161 100 84 69 76 130
internal_count=778 580 343 198 167 253 237 161 100 84 69 76 130
is_linear=0
shrinkage=0.046


Tree=12
num_leaves=17
num_cat=0
split_feature=48 45 38 2 155 3 45 9 7 44 50 9 25 58 8 49
split_gain=20.2915 5.52148 6.74368 2.71485 3.58562 1.50612 1.04785 0.831311 1.32603 2.18715 0.796266 0.382163 0.350904 0.200585 0.821966 0.00166011
threshold=0.034389032042995892 -0.53608539066082672 -0.01934526185985053 0.6287806633906009 1.1303284764289858 -0.39996087366577454 1.3822999390159507 1.3199954163855583 -0.74575711727863658 -0.40837828344809662 0.95330178531905396 0.85101651418269408 -1.5068422704851079 0.29157641037603177 0.8711744623353922 0.75981271566390862
decision_type=2 2 2 2 2 2 2 2 2 2 2 2 2 2 2 2
left_child=6 13 15 4 5 -4 10 8 -7 -10 11 12 -1 14 -2 -3
right_child=1 2 3 -5 -6 7 -8 -9 9 -11 -12 -13 -14 -15 -16 -17
leaf_value=0 -0.0052331041858220692 -0.00025043442534072294 0 0 0 0 0 0 0 0.030678473215525526 0 0 -0.011127075880310588 0 0 0
leaf_weight=24 79 56 15.999999999999998 30 35 23 26 14.999999999999998 17 71 19 35 269 34 19 19
leaf_count=24 79 56 16 30 35 23 26 15 17 71 19 35 269 34 19 19
internal_value=0 0.00605276 0.00975773 0.014094 0.0162715 0.0195817 -0.00864128 0.0213874 0.0231317 0.0265855 -0.00930893 -0.00983933 -0.0105421 0 -0.002081 0
internal_weight=0 414 282 207 177 142 373 126 111 88 347 328 293 132 98 75
internal_count=787 414 282 207 177 142 373 126 111 88 347 328 293 132 98 75
is_linear=0
shrinkage=0.046


Tree=13
num_leaves=18
num_cat=0
split_feature=48 45 38 2 155 157 45 50 113 173 7 25 9 58 8 9 49
split_gain=18.7533 5.07327 6.33339 2.51252 3.27874 1.58002 0.962764 0.728736 0.592723 0.372539 0.357418 0.278117 0.442908 0.164924 0.765728 0.162461 0.00151092
threshold=0.034389032042995892 -0.53608539066082672 -0.01934526185985053 0.6287806633906009 1.1303284764289858 1.0909264087677004 1.3822999390159507 0.95330178531905396 1.7733381390571596 0.93179813027381908 1.8260850560181701 -1.5068422704851079 1.0855059652841261 0.29157641037603177 0.8711744623353922 1.0855059652841261 0.75981271566390862
decision_type=2 2 2 2 2 2 2 2 2 2 2 2 2 2 2 2 2
left_child=6 13 16 4 5 9 7 8 10 -4 11 -1 -13 14 -2 -7 -3
right_child=1 2 3 -5 -6 15 -8 -9 -10 -11 -12 12 -14 -15 -16 -17 -18
leaf_value=0 -0.0049924117261104196 -0.00023891665407258091 0.0046018947789117689 0 0 0.026720405490072818 0 0 0 0 0 -0.011161326260099174 0 0 0 0 0
leaf_weight=24 79 56 38 30 35 76 26 19 13.999999999999998 14.999999999999998 14.999999999999998 262 12.999999999999998 34 19 12.999999999999998 19
leaf_count=24 79 56 38 30 35 76 26 19 14 15 15 262 13 34 19 13 19
internal_value=0 0.00585824 0.00940472 0.01361 0.0157054 0.0188761 -0.00827216 -0.00891215 -0.00941957 0.000560629 -0.00983251 -0.0102009 -0.0107368 0 -0.00188697 0.0246138 0
internal_weight=0 414 282 207 177 142 373 347 328 53 314 299 275 132 98 89 75
internal_count=787 414 282 207 177 142 373 347 328 53 314 299 275 132 98 89 75
is_linear=0
shrinkage=0.046


Tree=14
num_leaves=21
num_cat=0
split_feature=48 53 45 9 2 15 155 132 49 58 62 50 127 44 46 13 7 84 66 50
split_gain=17.2852 4.8848 5.16198 3.58586 3.16803 2.45221 4.3634 0.902193 0.894439 1.41995 1.46111 0.823809 0.646451 0.612747 0.413148 0.310457 0.148857 0.103933 0.212099 0.387567
threshold=0.034389032042995892 0.46139445367040516 -0.82384319011234342 1.6717295930377063 0.6287806633906009 -0.20042917827728005 1.1203925609588625 0.37896057963371282 -0.14276841829501816 0.27081741721335723 0.96659791292555342 -0.096571555737718348 1.3551510572433474 -0.47791941349649408 0.54847807170684126 0.18977253917086218 1.5321602362128208 0.2886467725038529 0.98269468545913707 0.057267955885765123
decision_type=2 2 2 2 2 2 2 2 2 2 2 2 2 2 2 2 2 2 2 2
left_child=7 2 -2 4 5 -4 13 -1 14 -10 -11 12 15 -7 -3 16 -9 18 -13 -20
right_child=1 8 3 -5 -6 6 -8 11 9 10 -12 17 -14 -15 -16 -17 -18 -19 19 -21
leaf_value=0 0 -0.0057195541433427317 0 0 0 0 0 -0.012492132505503914 0 0 0.015306386261215133 0 0 0.029329387267308781 0 0 0 0 0 -0.0051102800936766663
leaf_weight=12.999999999999998 45 56 14.999999999999998 23 27 15.999999999999998 23 188 59 21 30 17 15.999999999999998 75 24 29 14.999999999999998 22 15.999999999999998 57
leaf_count=13 45 56 15 23 27 16 23 188 59 21 30 17 16 75 24 29 15 22 16 57
internal_value=0 0.00565849 0.0102624 0.0138856 0.0164278 0.0194503 0.0217623 -0.00791153 0 0.00291469 0.00878773 -0.00837588 -0.0104339 0.0263579 -0.00346037 -0.0110575 -0.0119571 0 -0.00156311 -0.00302644
internal_weight=0 414 224 179 156 129 114 373 190 110 51 360 248 91 80 232 203 112 90 73
internal_count=787 414 224 179 156 129 114 373 190 110 51 360 248 91 80 232 203 112 90 73
is_linear=0
shrinkage=0.046


Tree=15
num_leaves=19
num_cat=0
split_feature=48 53 45 9 2 9 5 45 49 58 62 50 78 113 46 7 9 34
split_gain=15.8361 4.48705 4.82089 3.34671 2.88545 2.25167 2.30893 0.856985 0.791258 1.30492 1.33386 0.630901 0.529643 0.51652 0.382236 0.27832 0.164333 0.079784
threshold=0.034389032042995892 0.46139445367040516 -0.82384319011234342 1.6717295930377063 0.6287806633906009 -0.55592019242589819 1.0000000180025095e-35 1.3822999390159507 -0.14276841829501816 0.27081741721335723 0.96659791292555342 0.95330178531905396 2.2329436540603642 1.7733381390571596 0.54847807170684126 1.8260850560181701 1.0855059652841261 -0.41887984629037767
decision_type=2 2 2 2 2 2 2 2 2 2 2 2 2 2 2 2 2 2
left_child=7 2 -2 4 5 -4 -7 11 14 -10 -11 13 -8 15 -3 16 17 -1
right_child=1 8 3 -5 -6 6 12 -9 9 10 -12 -13 -14 -15 -16 -17 -18 -19
leaf_value=0 0 -0.0054565018190909365 0 0 0 0 0.026725848540787876 0 0 0 0.014602526800408437 0 0 0 0 0 0 -0.0099283289321665073
leaf_weight=12.999999999999998 45 56 18 23 27 13.999999999999998 78 26 59 21 30 19 19 13.999999999999998 24 14.999999999999998 13.999999999999998 272
leaf_count=13 45 56 18 23 27 14 78 26 59 21 30 19 19 14 24 15 14 272
internal_value=0 0.00539865 0.00981074 0.0133204 0.0157792 0.0186659 0.021162 -0.00758599 0 0.00272268 0.00837363 -0.00819053 0.0237239 -0.0086626 -0.00327622 -0.00904803 -0.00937781 -0.00966868
internal_weight=0 414 224 179 156 129 111 373 190 110 51 347 97 328 80 314 299 285
internal_count=787 414 224 179 156 129 111 373 190 110 51 347 97 328 80 314 299 285
is_linear=0
shrinkage=0.046


Tree=16
num_leaves=20
num_cat=0
split_feature=49 5 31 12 8 48 51 65 5 25 13 44 12 7 167 172 77 113 113
split_gain=14.5193 4.48513 4.03575 1.7827 2.41061 2.32958 1.9233 2.79287 1.57622 0.715568 0.598663 0.476814 0.288601 0.289677 0.108689 0.469074 0.0846899 0.0657756 0.0838066
threshold=-0.14276841829501816 0.22578500345036562 -0.11454588677656667 -1.0782841014664291 -0.88540808963126838 -0.22884383471793554 0.016489588985016582 1.4920688271522524 -0.54168857825568018 -1.0048711057405597 0.27448069679384218 1.365877520814226 1.2951627734327651 1.2382354164074714 0.82498702406883251 0.87791660428047191 1.0937773585319521 1.7733381390571596 0.41348697245121008
decision_type=2 2 2 2 2 2 2 2 2 2 2 2 2 2 2 2 2 2 2
left_child=1 10 16 -4 -5 -6 7 8 -7 -10 11 12 13 17 -3 -16 -2 18 -1
right_child=2 14 3 4 5 6 -8 -9 9 -11 -12 -13 -14 -15 15 -17 -18 -19 -20
leaf_value=0 0 0 0 0 0 0 0 0 0 0.020418222913304872 0 0 0 0 0.005598153336266315 0 -0.0020412157404231515 0 -0.01108229724066521
leaf_weight=12.999999999999998 12.999999999999998 21 13.999999999999998 59 13.999999999999998 12.999999999999998 28 32 14.999999999999998 127 34 13.999999999999998 12.999999999999998 20 39 13.999999999999998 43 12.999999999999998 230
leaf_count=13 13 21 14 59 14 13 28 32 15 127 34 14 13 20 39 14 43 13 230
internal_value=0 -0.00602962 0.00663905 0.00897363 0.00987612 0.0120391 0.0133156 0.0150204 0.0176157 0.0190317 -0.00851471 -0.00920956 -0.00961331 -0.00994892 0 0.00208292 0 -0.0104455 -0.0107479
internal_weight=0 411 358 302 288 229 215 187 155 142 337 303 289 276 74 53 56 256 243
internal_count=769 411 358 302 288 229 215 187 155 142 337 303 289 276 74 53 56 256 243
is_linear=0
shrinkage=0.046


Tree=17
num_leaves=18
num_cat=0
split_feature=49 9 66 75 86 45 4 13 2 28 3 8 118 41 62 44 28
split_gain=13.2159 4.24347 3.95076 3.72268 1.7801 1.73241 0.968731 0.684184 1.32256 1.46309 0.608346 0.873363 0.547012 0.330621 0.260435 0.0954913 0.0841785
threshold=-0.14276841829501816 0.67514942585662008 1.1588176488876345 0.69692692160606395 1.6783053278923037 0.51902654066140086 1.1881234394561455 -1.0000000180025095e-35 0.4049392961683082 -0.0065782830255795332 0.53302714023742603 -0.95859902929654595 1.3944057226181032 -0.081286529915235259 0.78876969578800182 1.365877520814226 -0.01941369333014923
decision_type=2 2 2 2 2 2 2 2 2 2 2 2 2 2 2 2 2
left_child=1 5 3 10 -5 6 15 14 9 -9 11 -2 -13 -3 -4 -1 -16
right_child=2 13 7 4 -6 -7 -8 8 -10 -11 -12 12 -14 -15 16 -17 -18
leaf_value=-0.011073994464636064 0 0 0 0.024963033793064419 0 0 0 0.01182721711264003 0 0 0 0.010783549206332883 0 0.0035341928386620125 -0.0043021788571607628 0 0
leaf_weight=233 15.999999999999998 14.999999999999998 20 55 12.999999999999998 78 13.999999999999998 52 28 36 31 37 12.999999999999998 56 43 14.999999999999998 13.999999999999998
leaf_count=233 16 15 20 55 13 78 14 52 28 36 31 37 13 56 43 15 14
internal_value=0 -0.00576878 0.00631715 0.0117151 0.0211815 -0.00816313 -0.0100232 0 0.00345008 0.00689115 0.000335672 0.0044347 0.00793171 0 -0.000931771 -0.0106959 -0.00329228
internal_weight=0 411 358 165 68 340 262 193 116 88 97 66 50 71 77 248 57
internal_count=769 411 358 165 68 340 262 193 116 88 97 66 50 71 77 248 57
is_linear=0
shrinkage=0.046


Tree=18
num_leaves=18
num_cat=0
split_feature=49 5 31 2 9 75 13 8 48 11 15 9 44 8 57 9 77
split_gain=12.0409 3.93763 3.6261 3.06632 2.07249 2.38233 3.92264 2.81738 4.01864 0.518699 1.00081 0.506321 0.390274 0.379363 0.264133 0.166842 0.0794296
threshold=-0.14276841829501816 0.22578500345036562 -0.11454588677656667 0.67354893683505934 2.0234637696898545 0.69692692160606395 -0.064351933698077762 -0.88540808963126838 -0.080651403234579214 -0.27302541661070556 -0.78220301670190973 0.85101651418269408 1.4232968025055635 1.0907472813312249 0.18038055852459947 0.67514942585662008 1.0937773585319521
decision_type=2 2 2 2 2 2 2 2 2 2 2 2 2 2 2 2 2
left_child=1 9 16 4 5 14 -7 -8 -9 -1 -11 12 -12 -10 -4 -3 -2
right_child=2 15 3 -5 -6 6 7 8 13 10 11 -13 -14 -15 -16 -17 -18
leaf_value=0 0 0 0 0 0 0 0 0 0.028140502185248929 0 -0.010655318543103844 0 0 0 0.003563636318238533 0.0032703058218024276 -0.0019768069453417938
leaf_weight=54 12.999999999999998 41 46 19 13.999999999999998 46 29 12.999999999999998 76 15.999999999999998 228 26 12.999999999999998 14.999999999999998 44 33 43
leaf_count=54 13 41 46 19 14 46 29 13 76 16 228 26 13 15 44 33 43
internal_value=0 -0.00550215 0.00603422 0.00828066 0.009803 0.0108352 0.0143034 0.0183779 0.0221186 -0.0078514 -0.00879118 -0.00947878 -0.0101973 0.0255451 0 0 0
internal_weight=0 411 358 302 283 269 179 133 104 337 283 267 241 91 90 74 56
internal_count=769 411 358 302 283 269 179 133 104 337 283 267 241 91 90 74 56
is_linear=0
shrinkage=0.046


Tree=19
num_leaves=18
num_cat=0
split_feature=50 27 4 99 75 90 23 45 50 9 130 48 8 28 50 67 65
split_gain=10.2175 3.96123 3.53791 3.3691 3.90383 0.513068 0.467355 0.43327 0.900599 2.34522 1.11827 0.663723 0.253486 0.230384 0.068042 0.196907 0.482011
threshold=0.86986054371374089 -1.0000000180025095e-35 -0.58637615264380683 1.7624854445457461 0.69692692160606395 0.51575464010238659 -0.60081241231916704 0.23126874120988414 -0.096571555737718348 0.73377178863197801 0.81032520532608043 0.42111592521994157 0.79798352267011463 -0.011963584017193692 0.45295417576207037 1.1547463536262514 1.059445917606354
decision_type=2 2 2 2 2 2 2 2 2 2 2 2 2 2 2 2 2
left_child=2 -2 5 4 -3 -1 -7 8 9 10 -4 -9 -6 -13 15 16 -10
right_child=1 3 7 -5 12 6 -8 11 14 -11 -12 13 -14 -15 -16 -17 -18
leaf_value=0 0 0 -0.010529925235089029 0 0.026876922788115723 0 -0.0096825985984854476 0 0 0 0 0 0 0.0099644283686757661 0 0 0.0091183350611084187
leaf_weight=30 75 35 88 20 55 15.999999999999998 168 67 12.999999999999998 32 34 12.999999999999998 19 23 48 13.999999999999998 19
leaf_count=30 75 35 88 20 55 16 168 67 13 32 34 13 19 23 48 14 19
internal_value=0 0.00869666 -0.00331008 0.0135857 0.0168473 -0.00799421 -0.00895692 0 -0.00145365 -0.00397196 -0.00778377 0.00195257 0.0230146 0.00706452 0 0.00176897 0.00418501
internal_weight=0 204 565 129 109 214 184 351 248 154 122 103 74 36 94 46 32
internal_count=769 204 565 129 109 214 184 351 248 154 122 103 74 36 94 46 32
is_linear=0
shrinkage=0.046


Tree=20
num_leaves=19
num_cat=0
split_feature=49 5 57 2 1 45 129 84 109 4 154 39 117 109 139 35 159 171
split_gain=12.4602 4.40254 2.25605 2.56193 1.60171 2.63502 3.8817 3.14405 1.19137 0.8475 1.09224 0.806076 0.785472 0.516012 0.673936 0.0835119 0.0206836 0.00538946
threshold=0.69038339766706813 -0.6404278694693234 0.010877994996581404 0.6287806633906009 1.0000000180025095e-35 -0.72792392362850444 1.4785020351409914 0.10004773736000062 1.342862665653229 -0.58637615264380683 1.1384596824645998 -0.085005871751595088 1.1707231402397158 1.2085739970207217 0.589483141899109 -0.24068160451623213 1.2385700941085818 1.3318431973457339
decision_type=2 2 2 2 2 2 2 2 2 2 2 2 2 2 2 2 2 2
left_child=1 9 -2 8 5 15 7 -7 -4 10 -1 -9 13 14 -6 -3 -17 -8
right_child=2 4 3 -5 12 6 17 11 -10 -11 -12 -13 -14 -15 -16 16 -18 -19
leaf_value=-0.0096569789751852677 0 0 0.017766200411528651 0 0 0 -0.00062698414411186461 0 0 0 0 0.015963449689472688 0 0 -0.0094900709251911214 0 -0.0026882271344346653 0
leaf_weight=171 55 15.999999999999998 117 20 14.999999999999998 44 29 12.999999999999998 14.999999999999998 24 15.999999999999998 95 28 12.999999999999998 61 21 32 18
leaf_count=171 55 16 117 20 15 44 29 13 15 24 16 95 28 13 61 21 32 18
internal_value=0 -0.00205937 0.0108159 0.01381 0 0.00278219 0.00619573 0.0102122 0.0161455 -0.00749182 -0.00853931 0.014435 -0.00335193 -0.00578295 -0.00731623 -0.00039642 -0.00188099 0
internal_weight=0 596 207 152 385 268 199 152 132 211 187 108 117 89 76 69 53 47
internal_count=803 596 207 152 385 268 199 152 132 211 187 108 117 89 76 69 53 47
is_linear=0
shrinkage=0.046


Tree=21
num_leaves=20
num_cat=0
split_feature=49 38 57 182 129 130 184 154 44 1 25 45 9 28 25 127 94 2 9
split_gain=11.4671 4.15718 1.99301 2.43384 0.831662 2.73212 0.968111 0.754293 0.912325 0.152198 0.67282 0.992792 0.103165 0.0481534 0.0429132 0.0378672 0.0347893 0.0743953 0.00202631
threshold=0.69038339766706813 -0.12468810337012877 0.010877994996581404 1.0628629922866824 1.4785020351409914 0.81032520532608043 2.6174919605255131 1.1384596824645998 0.28767100905466986 1.0000000180025095e-35 -1.0000000180025095e-35 -0.72792392362850444 0.73377178863197801 -0.016485581762459168 0.83568983165611654 1.0356888771057131 1.5031852126121523 0.046793108612640119 -0.2041860157737502
decision_type=2 2 2 2 2 2 2 2 2 2 2 2 2 2 2 2 2 2 2
left_child=1 7 -2 -4 5 9 -6 8 -1 10 18 -12 15 -7 -13 -11 -5 -18 -3
right_child=2 4 3 16 6 13 -8 -9 -10 12 11 14 -14 -15 -16 -17 17 -19 -20
leaf_value=-0.0099317303620507346 0 -0.00034506341643679049 0.018420595357409024 0 -0.0072302381415768101 0 0 0 0 -0.0036271131506445289 0 0.0070321642157396072 0 0.0158241126182917 0 0 0.0028220496427746773 0 0
leaf_weight=149 55 36 93 15.999999999999998 56 12.999999999999998 41 17 15.999999999999998 40 37 75 13.999999999999998 27 19 17 29 13.999999999999998 39
leaf_count=149 55 36 93 16 56 13 41 17 16 40 37 75 14 27 19 17 29 14 39
internal_value=0 -0.00199624 0.010354 0.013181 0 0.00166642 -0.00301095 -0.0078345 -0.00879634 0 0.00067587 0.00340372 -0.00179166 0.0129033 0.00620411 -0.00279776 0 0.00130827 0
internal_weight=0 596 207 152 414 317 97 182 165 277 206 131 71 40 94 57 59 43 75
internal_count=803 596 207 152 414 317 97 182 165 277 206 131 71 40 94 57 59 43 75
is_linear=0
shrinkage=0.046


Tree=22
num_leaves=19
num_cat=0
split_feature=49 38 57 2 109 19 129 130 113 48 29 1 45 21 9 9 127 48
split_gain=10.6005 3.75754 1.77802 2.2998 1.00468 0.778157 0.724595 2.55274 1.09442 0.688344 0.154132 0.127347 0.436535 0.666404 0.481673 0.0968909 0.0327925 0.0273928
threshold=0.69038339766706813 -0.12468810337012877 0.010877994996581404 0.47209170633499598 1.342862665653229 0.25990800960709298 1.4785020351409914 0.81032520532608043 1.7786207199096682 -0.54597596483974808 -0.4189664375476298 1.0000000180025095e-35 -0.72792392362850444 1.0000000180025095e-35 -0.26280837854910816 0.73377178863197801 1.0356888771057131 0.015200746944010858
decision_type=2 2 2 2 2 2 2 2 2 2 2 2 2 2 2 2 2 2
left_child=1 5 -2 4 -4 9 7 11 10 -1 -8 12 -3 14 -14 16 -13 -9
right_child=2 6 3 -5 -6 -7 8 17 -10 -11 -12 15 13 -15 -16 -17 -18 -19
leaf_value=0 0 0 0.016489196552159489 0 0 0 0 0 0 -0.0096195832368969284 -0.0080237615762893 -0.0034603076081250917 0 0 0.0081064910427168513 0 0 0.015466482043037135
leaf_weight=15.999999999999998 55 57 115 22 14.999999999999998 23 13.999999999999998 13.999999999999998 30 143 53 40 43 54 52 13.999999999999998 17 26
leaf_count=16 55 57 115 22 15 23 14 14 30 143 53 40 43 54 52 14 17 26
internal_value=0 -0.0019123 0.00995519 0.0126378 0.0149724 -0.0074605 0 0.00155075 -0.00281896 -0.00860611 -0.00678697 0 0.000560878 0.00257563 0.00502454 -0.00169768 -0.00268069 0.0124121
internal_weight=0 596 207 152 130 182 414 317 97 159 67 277 206 149 95 71 57 40
internal_count=803 596 207 152 130 182 414 317 97 159 67 277 206 149 95 71 57 40
is_linear=0
shrinkage=0.046


Tree=23
num_leaves=21
num_cat=0
split_feature=49 4 103 35 50 20 154 62 53 177 1 45 62 59 154 74 49 60 21 19
split_gain=9.72519 3.4591 1.61606 1.73349 0.968712 0.912745 0.886705 1.26921 0.729472 1.56811 1.77434 1.59176 0.677445 0.732387 0.573656 0.388063 0.492469 0.194121 0.766736 0.376635
threshold=0.69038339766706813 -0.58637615264380683 1.512300491333008 0.79174578756165881 0.95330178531905396 1.0000000180025095e-35 1.0794267654418948 0.67811456920073743 0.41791252992075817 2.382831454277039 1.0000000180025095e-35 -0.63200465714466558 1.0179826672711809 0.13854871414933242 1.1384596824645998 1.4007833600044253 0.41266612567970601 0.050226825767341519 0.16189782980788239 0.12456366736354367
decision_type=2 2 2 2 2 2 2 2 2 2 2 2 2 2 2 2 2 2 2 2
left_child=1 4 3 6 5 14 7 -2 9 10 11 -3 13 -10 -1 16 -15 -14 19 -19
right_child=2 8 -4 -5 -6 -7 -8 -9 12 -11 -12 -13 17 15 -16 -17 -18 18 -20 -21
leaf_value=-0.0097674359530886892 0 0 0 0 0 0 0 0.018711964043328033 0 0 0 0.016305589025777674 0 -0.0093187446217306222 0 0 0 0.0081118269240792427 0 0
leaf_weight=152 49 20 34 20 14.999999999999998 61 17 87 15.999999999999998 56 27 45 26 56 14.999999999999998 17 12.999999999999998 43 21 12.999999999999998
leaf_count=152 49 20 34 20 15 61 17 87 16 56 27 45 26 56 15 17 13 43 21 13
internal_value=0 -0.0018262 0.00953382 0.0113367 -0.00618866 -0.00705755 0.0130113 0.0142916 0 0.00321106 0.00725597 0.0115008 -0.000291678 -0.00377137 -0.00891998 -0.00590654 -0.00744179 0 0.00230952 0.00602496
internal_weight=0 596 207 173 243 228 153 136 353 148 92 65 205 102 167 86 69 103 77 56
internal_count=803 596 207 173 243 228 153 136 353 148 92 65 205 102 167 86 69 103 77 56
is_linear=0
shrinkage=0.046


Tree=24
num_leaves=21
num_cat=0
split_feature=50 45 2 9 45 9 25 44 4 9 60 53 8 44 84 3 15 28 8 84
split_gain=7.88086 3.07831 2.5399 2.26156 2.12932 2.06729 1.72572 2.03155 2.84742 1.68673 1.66558 1.17442 1.66884 1.17262 0.912556 1.16983 1.13473 0.335754 0.231452 0.259854
threshold=0.86986054371374089 0.23126874120988414 0.67354893683505934 1.8475966813637803 -0.91976245659618228 -0.9076543690780462 -0.16825249783297977 -1.0776319111615724 -0.67871436671235652 0.79239415140733604 0.35512890876383452 1.0405383899760581 -0.73902621030071336 0.1798503578787142 0.28297692537307745 -0.94274171257238271 -0.61598192000915841 -0.042454307352427806 1.0907472813312249 0.066360786557197585
decision_type=2 2 2 2 2 2 2 2 2 2 2 2 2 2 2 2 2 2 2 2
left_child=1 9 3 4 -2 -6 17 -8 -9 10 14 12 -7 -10 15 -1 -17 -3 19 -14
right_child=2 6 -4 -5 5 11 7 8 13 -11 -12 -13 18 -15 -16 16 -18 -19 -20 -21
leaf_value=0 0 0 0 0 0 0 0 0 0.016908770325916186 0 0 0 0 0 0 0 -0.010552397204714266 -0.0045636453189657191 0 0.023691082001178341
leaf_weight=22 23 13.999999999999998 13.999999999999998 18 13.999999999999998 31 12.999999999999998 24 58 62 51 14.999999999999998 12.999999999999998 25 36 15.999999999999998 208 36 13.999999999999998 71
leaf_count=22 23 14 14 18 14 31 13 24 58 62 51 15 13 25 36 16 208 36 14 71
internal_value=0 -0.00227184 0.0080372 0.00980545 0.0114954 0.0134125 0.000994627 0.00561247 0.00868896 -0.00484218 -0.00620723 0.0150917 0.016538 0.0130349 -0.00761544 -0.00862153 -0.0096271 -0.000888946 0.0199008 0.0216303
internal_weight=0 565 213 199 181 158 170 120 107 395 333 144 129 83 282 246 224 50 98 84
internal_count=778 565 213 199 181 158 170 120 107 395 333 144 129 83 282 246 224 50 98 84
is_linear=0
shrinkage=0.046


Tree=25
num_leaves=20
num_cat=0
split_feature=49 69 45 9 49 35 4 2 83 25 3 172 45 3 28 78 8 45 13
split_gain=7.74561 3.36819 2.14577 1.66255 1.33986 1.25991 1.14538 1.6552 0.648899 0.587585 1.50075 0.606661 0.480365 0.295979 0.280184 0.139213 0.509266 0.467337 0.438987
threshold=0.41266612567970601 1.29081666469574 0.23126874120988414 0.73377178863197801 -0.14276841829501816 0.76866718885003205 1.0476087658735698 -0.66949926649869596 0.5802697241306306 -0.16825249783297977 -0.21685903656391881 0.83740064501762401 -0.91976245659618228 -0.94274171257238271 -0.042454307352427806 2.0876147747039799 -0.59264433097015823 -0.63200465714466558 1.0000000180025095e-35
decision_type=2 2 2 2 2 2 2 2 2 2 2 2 2 2 2 2 2 2 2
left_child=2 5 3 4 6 8 7 -1 -2 14 -11 -12 -10 -9 -4 18 -17 -18 -3
right_child=1 15 9 -5 -6 -7 -8 13 12 10 11 -13 -14 -15 -16 16 17 -19 -20
leaf_value=0 0 -0.0054268960463641326 0 0 0 0 0 0 0 0 0.012241643676629855 0 0.016462272931400065 -0.010674984853246149 -0.0043964279006466246 0 0 0.0084324790215048063 0
leaf_weight=19 19 32 12.999999999999998 60 67 19 17 21 12.999999999999998 61 38 12.999999999999998 92 185 31 19 12.999999999999998 33 12.999999999999998
leaf_count=19 19 32 13 60 67 19 17 21 13 61 38 13 92 185 31 19 13 33 13
internal_value=0 0.00709957 -0.00263202 -0.0047075 -0.00615208 0.0117902 -0.00774862 -0.00868036 0.0134836 0 0.00332296 0.00930058 0.0150923 -0.00996489 -0.000384579 0 0.00207808 0.00543349 -0.000554439
internal_weight=0 253 525 369 309 143 242 225 124 156 112 51 105 206 44 110 65 46 45
internal_count=778 253 525 369 309 143 242 225 124 156 112 51 105 206 44 110 65 46 45
is_linear=0
shrinkage=0.046


Tree=26
num_leaves=19
num_cat=0
split_feature=49 69 45 9 1 83 49 4 2 25 5 28 3 78 8 45 13 163
split_gain=7.07299 3.09729 1.93533 1.54056 1.54037 1.29035 1.20626 1.0666 1.5465 0.520452 1.80794 0.256589 0.237156 0.111746 0.469162 0.431716 0.40247 0.0462879
threshold=0.41266612567970601 1.29081666469574 0.23126874120988414 0.73377178863197801 1.0000000180025095e-35 0.5802697241306306 -0.14276841829501816 1.0476087658735698 -0.66949926649869596 -0.16825249783297977 -0.0031106261812621685 -0.042454307352427806 -0.94274171257238271 2.0876147747039799 -0.59264433097015823 -0.63200465714466558 1.0000000180025095e-35 1.2187185883522036
decision_type=2 2 2 2 2 2 2 2 2 2 2 2 2 2 2 2 2 2
left_child=2 4 3 6 5 -2 7 8 -1 11 -11 -4 -10 16 -15 -16 -3 -12
right_child=1 13 9 -5 -6 -7 -8 -9 12 10 17 -13 -14 14 15 -17 -18 -19
leaf_value=0 0 -0.0051773367061517424 0 0 0 0.017984256888852128 0 0 0 0 0.013895658303950209 -0.0041942574499461462 -0.010183962064880621 0 0 0.0080447028000308375 0 0
leaf_weight=19 14.999999999999998 32 12.999999999999998 60 53 75 67 17 21 73 26 31 185 19 12.999999999999998 33 12.999999999999998 12.999999999999998
leaf_count=19 15 32 13 60 53 75 67 17 21 73 26 31 185 19 13 33 13 13
internal_value=0 0.0068052 -0.0024878 -0.00446132 0.0113031 0.0154661 -0.00585809 -0.00737325 -0.00827662 0 0.00313192 -0.000242127 -0.00952392 0 0.00188118 0.00515528 -0.000376959 0.0112353
internal_weight=0 253 525 369 143 90 309 242 225 156 112 44 206 110 65 46 45 39
internal_count=778 253 525 369 143 90 309 242 225 156 112 44 206 110 65 46 45 39
is_linear=0
shrinkage=0.046


Tree=27
num_leaves=21
num_cat=0
split_feature=50 45 2 9 45 0 9 8 9 60 25 44 4 84 3 44 48 21 12 41
split_gain=6.11197 2.29756 2.26937 2.01945 1.84508 2.01855 1.62562 2.60946 1.43422 1.57779 1.28508 1.79078 2.58277 0.905344 0.943877 0.895993 1.88383 0.593627 0.44143 0.279893
threshold=0.86986054371374089 0.13534947472604528 0.67354893683505934 1.8475966813637803 -0.91976245659618228 -0.54098473525434754 -0.55592019242589819 -0.88540808963126838 0.79239415140733604 0.35512890876383452 -0.33557621941449584 -1.154190953416689 -0.67871436671235652 0.28297692537307745 -0.94274171257238271 0.1798503578787142 -0.11748265645997515 -0.90269001389930748 0.50401381513303367 -0.15862901368938551
decision_type=2 2 2 2 2 2 2 2 2 2 2 2 2 2 2 2 2 2 2 2
left_child=1 8 3 4 -2 -6 -7 -8 9 13 19 -12 -13 14 -1 16 -14 -16 -19 -3
right_child=2 10 -4 -5 5 6 7 -9 -10 -11 11 12 15 -15 17 -17 -18 18 -20 -21
leaf_value=0 0 0 0 0 0 0 0 0.020283129089105813 0 0 0 0 0 0 0 0 0.019905255992984379 -0.010882330415832307 0 -0.0040625632787350124
leaf_weight=20 23 17 13.999999999999998 18 22 24 22 90 60 50 13.999999999999998 25 19 36 26 25 45 164 25 39
leaf_count=20 23 17 14 18 22 24 22 90 60 50 14 25 19 36 26 25 45 164 25 39
internal_value=0 -0.00193447 0.00712664 0.00885953 0.0104835 0.0122723 0.0143658 0.0167721 -0.00426982 -0.00557611 0.000401356 0.0045903 0.00754287 -0.00701061 -0.00805165 0.0115877 0.0147084 -0.00895257 -0.00989037 -0.000959665
internal_weight=0 565 213 199 181 158 136 112 381 321 184 128 114 271 235 89 64 215 189 56
internal_count=778 565 213 199 181 158 136 112 381 321 184 128 114 271 235 89 64 215 189 56
is_linear=0
shrinkage=0.046


Tree=28
num_leaves=19
num_cat=0
split_feature=5 50 45 15 115 43 15 7 9 45 65 7 25 31 58 172 12 81
split_gain=5.92542 3.34617 3.31862 2.85728 1.96592 1.89767 1.13254 1.12958 0.910145 1.60478 0.846108 0.827114 1.11637 0.367699 0.108058 0.174917 0.0691872 0.0387427
threshold=0.29759539706028798 -0.49646578309173578 -0.53608539066082672 -0.45437807600231689 2.5021481513977055 -0.72338695471992043 -0.78220301670190973 -0.74575711727863658 -0.67316491797661426 0.23126874120988414 1.4920688271522524 1.0912730065047969 -1.5068422704851079 -0.098979153557354496 0.19929213578865709 0.82759797573089611 1.1821414936756607 0.76184946298599254
decision_type=2 2 2 2 2 2 2 2 2 2 2 2 2 2 2 2 2 2
left_child=1 6 14 -4 5 -5 -1 -7 -3 -10 -9 12 -8 -11 15 -2 17 -14
right_child=2 8 3 4 -6 7 11 10 9 13 -12 -13 16 -15 -16 -17 -18 -19
leaf_value=0 -0.0043250303162667425 -0.0037086601769089869 0 0 0 0 0 0.018211675805318399 0 0 0 0 0 0.013019019644067358 0 0 0 -0.0093553509926573523
leaf_weight=19 32 49 13.999999999999998 14.999999999999998 13.999999999999998 22 20 97 117 15.999999999999998 13.999999999999998 29 12.999999999999998 32 15.999999999999998 17 15.999999999999998 224
leaf_count=19 32 49 14 15 14 22 20 97 117 16 14 29 13 32 16 17 16 224
internal_value=0 -0.00328921 0.00529246 0.00884595 0.0110604 0.0127282 -0.00633152 0.0145075 0 0.00275428 0.0165442 -0.00710951 -0.00789461 0.00983882 0 -0.00215995 -0.00875146 -0.00907613
internal_weight=0 535 241 176 162 148 321 133 214 165 111 302 273 48 65 49 253 237
internal_count=776 535 241 176 162 148 321 133 214 165 111 302 273 48 65 49 253 237
is_linear=0
shrinkage=0.046


Tree=29
num_leaves=20
num_cat=0
split_feature=4 50 15 45 65 7 28 9 44 15 172 21 7 12 31 46 161 168 172
split_gain=5.96773 3.01893 2.88983 2.53212 2.86429 1.32251 1.25452 1.09014 0.794931 0.726999 0.726532 0.473931 0.503307 0.54163 0.268613 0.880763 0.449869 0.038367 0.0320323
threshold=0.42532949715073581 -0.49646578309173578 -0.38511928571367043 -0.63200465714466558 1.4920688271522524 -0.74575711727863658 0.0027472502274322988 1.6717295930377063 -0.9372736670271925 -0.78220301670190973 0.54229095578193676 -0.90269001389930748 1.4586790312614835 1.1821414936756607 -0.094248122154188832 1.0000000180025095e-35 1.5635855197906496 1.7459258437156679 0.7750833034515382
decision_type=2 2 2 2 2 2 2 2 2 2 2 2 2 2 2 2 2 2 2
left_child=1 8 -2 -4 5 -5 7 10 -1 -10 -7 -11 13 -13 16 -16 -3 -18 -17
right_child=2 14 3 4 -6 6 -8 -9 9 11 -12 12 -14 -15 15 18 17 -19 -20
leaf_value=0 0 0 0 0 0 0 0 0 0 0 0.02250044176075932 -0.0093016133512752244 0 0 0 0.0079686619679428493 -0.0044629516511160436 0 0
leaf_weight=29 40 20 52 23 25 24 12.999999999999998 12.999999999999998 15.999999999999998 13.999999999999998 66 218 24 14.999999999999998 63 39 53 12.999999999999998 15.999999999999998
leaf_count=29 40 20 52 23 25 24 13 13 16 14 66 218 24 15 63 39 53 13 16
internal_value=0 -0.00340806 0.00507285 0.0076686 0.0104939 0.0131729 0.0152332 0.0169442 -0.00627117 -0.00701156 0.0188202 -0.00759873 -0.00804909 -0.00871961 0 0.00215028 -0.00051421 -0.00384258 0.00661802
internal_weight=0 520 256 216 164 139 116 103 316 287 90 271 257 233 204 118 86 66 55
internal_count=776 520 256 216 164 139 116 103 316 287 90 271 257 233 204 118 86 66 55
is_linear=0
shrinkage=0.046


Tree=30
num_leaves=17
num_cat=0
split_feature=4 50 15 45 65 43 44 15 21 7 7 31 46 145 155 172
split_gain=5.36679 2.76118 2.72382 2.35294 2.69373 1.88071 0.730971 0.676078 0.435052 0.445839 0.375053 0.235739 0.821332 0.578374 0.0582344 0.0145024
threshold=0.42532949715073581 -0.49646578309173578 -0.38511928571367043 -0.63200465714466558 1.4920688271522524 -0.72338695471992043 -0.9372736670271925 -0.78220301670190973 -0.90269001389930748 1.4586790312614835 -0.74575711727863658 -0.094248122154188832 1.0000000180025095e-35 1.4001623392105105 1.100334703922272 0.7750833034515382
decision_type=2 2 2 2 2 2 2 2 2 2 2 2 2 2 2 2
left_child=1 6 -2 -4 5 -5 -1 -8 -9 -10 -7 13 -13 -3 -15 -14
right_child=2 11 3 4 -6 10 7 8 9 -11 -12 12 15 14 -16 -17
leaf_value=0 0 0 0 0 0 0 0 0 -0.0083193025205642972 0 0.016470013209594184 0 0.0076021974341467817 -0.0049721857424845075 0 0
leaf_weight=29 40 18 52 18 25 21 15.999999999999998 13.999999999999998 233 24 100 63 39 55 12.999999999999998 15.999999999999998
leaf_count=29 40 18 52 18 25 21 16 14 233 24 100 63 39 55 13 16
internal_value=0 -0.00323525 0.00480602 0.00735236 0.0100774 0.0126815 -0.005976 -0.00668656 -0.00725455 -0.00768616 0.0147522 0 0.00202914 -0.000387705 -0.0042644 0.00635814
internal_weight=0 520 256 216 164 139 316 287 271 257 121 204 118 86 68 55
internal_count=776 520 256 216 164 139 316 287 271 257 121 204 118 86 68 55
is_linear=0
shrinkage=0.046


Tree=31
num_leaves=16
num_cat=0
split_feature=4 15 50 45 65 7 28 167 8 147 44 31 46 145 168
split_gain=4.77087 2.54345 2.53179 2.16179 2.51023 1.05594 1.14378 1.69992 0.737255 0.5748 0.431986 0.206587 0.766381 0.53251 0.0526719
threshold=0.42532949715073581 -0.38511928571367043 -0.49646578309173578 -0.63200465714466558 1.4920688271522524 -0.74575711727863658 0.0027472502274322988 0.85746556520462047 0.65160164333955961 1.5213981270790102 1.1234405536730241 -0.094248122154188832 1.0000000180025095e-35 1.4001623392105105 1.7459258437156679
decision_type=2 2 2 2 2 2 2 2 2 2 2 2 2 2 2
left_child=2 -2 8 -3 5 -5 7 -7 9 10 -1 13 -13 -4 -15
right_child=1 3 11 4 -6 6 -8 -9 -10 -11 -12 12 -14 14 -16
leaf_value=-0.0084533849918966408 0 0 0 0 0 0 0 0.020705009413052807 0 0 0 0 0.0061102187629214167 -0.0047540093346999527 0
leaf_weight=195 40 52 18 23 25 36 12.999999999999998 67 87 17 17 63 55 55 12.999999999999998
leaf_count=195 40 52 18 23 25 36 13 67 87 17 17 63 55 55 13
internal_value=0 0.00451008 -0.00306582 0.00700162 0.00961541 0.0121365 0.0139913 0.0156191 -0.00569384 -0.00717969 -0.00783698 0 0.00191357 -0.000241447 -0.00407943
internal_weight=0 256 520 216 164 139 116 103 316 229 212 204 118 86 68
internal_count=776 256 520 216 164 139 116 103 316 229 212 204 118 86 68
is_linear=0
shrinkage=0.046


Tree=32
num_leaves=19
num_cat=0
split_feature=49 45 58 130 163 7 19 60 130 172 15 48 75 45 106 165 109 7
split_gain=7.56611 2.17821 2.00688 1.60438 1.00849 0.610024 0.568753 0.406236 0.23288 0.211895 0.809962 1.05592 1.13776 1.44861 0.154611 0.00656869 0.00111565 0.108038
threshold=0.69038339766706813 0.23126874120988414 0.15780037550627676 0.84233027696609508 1.3018853664398196 1.8260850560181701 -0.14612501712355488 0.36530410738277858 0.81468731164932262 0.80370602011680614 -0.38511928571367043 -0.36590834490144214 1.041893005371094 1.3822999390159507 0.64360481500625621 1.3227437734603884 1.283408582210541 -0.5253135024246246
decision_type=2 2 2 2 2 2 2 2 2 2 2 2 2 2 2 2 2 2
left_child=1 3 16 5 6 7 -4 8 14 10 -3 -12 13 -13 -1 -11 17 -2
right_child=2 9 4 -5 -6 -7 -8 -9 -10 15 11 12 -14 -15 -16 -17 -18 -19
leaf_value=0 0 0 0 0 0 0 0.015752620168616917 0 0 -0.00063928386475261049 0 0.013157342964124311 0 0 -0.008089615450362941 0 0 0.002012806702267991
leaf_weight=25 18 12.999999999999998 18 56 13.999999999999998 21 76 37 23 34 19 57 12.999999999999998 21 240 12.999999999999998 24 57
leaf_count=25 18 13 18 56 14 21 76 37 23 34 19 57 13 21 240 13 24 57
internal_value=0 -0.00287633 0.00738092 -0.00482048 0.0119887 -0.00606706 0.0137052 -0.00656957 -0.00718946 0 0.00190919 0.0044334 0.00695045 0.00933919 -0.00761799 0 0 0.000177404
internal_weight=0 572 207 402 108 346 94 325 288 170 123 110 91 78 265 47 99 75
internal_count=779 572 207 402 108 346 94 325 288 170 123 110 91 78 265 47 99 75
is_linear=0
shrinkage=0.046


Tree=33
num_leaves=19
num_cat=0
split_feature=49 13 58 21 163 148 53 19 9 185 130 9 7 105 160 9 109 9
split_gain=7.00425 2.18766 1.80882 1.15779 0.921123 0.520112 0.605794 0.465789 0.274797 0.758131 0.52476 0.583363 0.258247 0.22003 0.0321406 0.0155656 0.504311 0.0852164
threshold=0.69038339766706813 -1.0000000180025095e-35 0.15780037550627676 1.1827354881572429 1.3018853664398196 1.1042277812957766 0.50700040643196209 -0.14612501712355488 0.44065997475518792 1.7372673153877261 0.80894550681114208 -0.61454255520125611 0.87082939165078466 1.3372184634208681 1.0964119434356692 -0.3214307413244662 1.283408582210541 1.2613730536102004
decision_type=2 2 2 2 2 2 2 2 2 2 2 2 2 2 2 2 2 2
left_child=1 3 15 5 7 6 -1 -4 10 14 11 -3 -9 -12 -10 -2 17 -17
right_child=2 8 4 -5 -6 -7 -8 12 9 -11 13 -13 -14 -15 -16 16 -18 -19
leaf_value=0 0 0 0 0 0 0 -0.0079603846752394833 0.016901025624092385 0 0 0.0049488930671482195 -0.0053061500102634359 0 0 0.0075186128327483347 0.0054561229885859604 0 0
leaf_weight=44 20 38 18 28 13.999999999999998 12.999999999999998 219 62 20 31 19 87 13.999999999999998 35 38 43 17 19
leaf_count=44 20 38 18 28 14 13 219 62 20 31 19 87 14 35 38 43 17 19
internal_value=0 -0.00277876 0.00708939 -0.00545483 0.0114788 -0.00645366 -0.00692047 0.0131194 0 0.00231366 -0.000765857 -0.00311807 0.0150281 0 0.00598895 0 0.000645655 0.00421189
internal_weight=0 572 207 304 108 276 263 94 268 89 179 125 76 54 58 99 79 62
internal_count=779 572 207 304 108 276 263 94 268 89 179 125 76 54 58 99 79 62
is_linear=0
shrinkage=0.046


Tree=34
num_leaves=17
num_cat=0
split_feature=13 48 2 45 149 103 172 53 35 134 5 45 91 5 47 32
split_gain=4.98094 2.77498 2.32311 2.18778 2.16977 1.95743 1.31741 1.26905 0.790624 0.599986 0.598769 0.568664 0.306645 0.291898 0.025301 0.195214
threshold=-1.0000000180025095e-35 0.0098917918312045935 0.67354893683505934 -0.91976245659618228 1.727616608142853 0.9070413112640382 0.94589233398437511 0.83391678137419978 0.79174578756165881 1.1166690587997439 1.1391234471765663 1.2863806725321119 1.0369020700454714 -0.2723996022184712 -0.51208804577715583 -0.12523222522408223
decision_type=2 2 2 2 2 2 2 2 2 2 2 2 2 2 2 2
left_child=5 14 3 -3 7 -1 9 8 13 10 11 12 -7 -5 15 -2
right_child=1 2 -4 4 -6 6 -8 -9 -10 -11 -12 -13 -14 -15 -16 -17
leaf_value=0 0 0 0 0 0 0 0 0 0 0 0 0 -0.0099490744875517841 0.013866285547301488 0 -0.0026002842064370901
leaf_weight=104 15.999999999999998 39 31 12.999999999999998 22 14.999999999999998 12.999999999999998 13.999999999999998 19 14.999999999999998 15.999999999999998 14.999999999999998 176 153 49 69
leaf_count=104 16 39 31 13 22 15 13 14 19 15 16 15 176 153 49 69
internal_value=0 0.00323061 0.00595149 0.00765173 0.00947771 -0.00415237 -0.00640169 0.0110828 0.0121094 -0.00741561 -0.00802653 -0.00869362 -0.00937091 0.0131718 0 -0.000793582
internal_weight=0 425 291 260 221 354 250 199 185 237 222 206 191 166 134 85
internal_count=779 425 291 260 221 354 250 199 185 237 222 206 191 166 134 85
is_linear=0
shrinkage=0.046


Tree=35
num_leaves=20
num_cat=0
split_feature=49 45 58 130 9 50 60 60 130 124 172 15 48 75 45 7 165 9 9
split_gain=5.95775 1.80031 1.71047 1.3915 1.18574 0.821805 0.805551 0.336613 0.385182 0.250228 0.179812 0.758513 0.973685 1.05956 1.34723 0.0483553 0.00353615 0.00165231 0.0359077
threshold=0.69038339766706813 0.23126874120988414 0.15780037550627676 0.84233027696609508 1.1441283280594841 0.86986054371374089 0.04897233916694823 0.36530410738277858 0.81468731164932262 0.42193877696990972 0.80370602011680614 -0.38511928571367043 -0.36590834490144214 1.041893005371094 1.3822999390159507 0.57690457184543542 1.3227437734603884 -0.3214307413244662 1.8475966813637803
decision_type=2 2 2 2 2 2 2 2 2 2 2 2 2 2 2 2 2 2 2
left_child=1 3 17 4 7 -4 -7 8 9 -1 11 -3 -13 14 -14 -8 -12 -2 -19
right_child=2 10 5 -5 -6 6 15 -9 -10 -11 16 12 13 -15 -16 -17 -18 18 -20
leaf_value=0 0 0 0 0 0 0 0.017561130174946909 0 0 -0.0082154955574121336 -0.00046905047120293674 0 0.012660867636940016 0 0 0 0 0.0010972761042831458 0
leaf_weight=23 20 12.999999999999998 26 56 42 15.999999999999998 52 36 22 223 34 19 57 12.999999999999998 21 13.999999999999998 12.999999999999998 66 12.999999999999998
leaf_count=23 20 13 26 56 42 16 52 36 22 223 34 19 57 13 21 14 13 66 13
internal_value=0 -0.00255436 0.00654747 -0.00433127 -0.00550506 0.0107551 0.0131738 -0.00653802 -0.00715158 -0.00768322 0 0.00175872 0.00424833 0.00666743 0.00897791 0.0155382 0 0 0.00021036
internal_weight=0 572 207 402 346 108 82 304 268 246 170 123 110 91 78 66 47 99 79
internal_count=779 572 207 402 346 108 82 304 268 246 170 123 110 91 78 66 47 99 79
is_linear=0
shrinkage=0.046


Tree=36
num_leaves=17
num_cat=0
split_feature=48 45 25 51 64 172 113 19 7 12 3 104 8 25 5 4
split_gain=2.86812 2.7393 1.80843 1.56985 1.18784 1.0357 0.88091 0.436061 0.256242 0.160117 0.133044 0.362074 0.139078 0.246528 0.305055 0.188234
threshold=0.034389032042995892 -1.0000000180025095e-35 -0.33557621941449584 0.016288516746770332 1.0311427116394045 0.29585856199264532 1.7733381390571596 0.53059669409419163 1.5321602362128208 0.56052445501158588 0.77930231637461034 1.0628021359443667 -0.37307151197432581 0.83568983165611654 -0.088385468593044955 1.2282704890511669
decision_type=2 2 2 2 2 2 2 2 2 2 2 2 2 2 2 2
left_child=4 10 -3 5 -1 -4 7 8 9 -6 12 -12 -2 14 -14 -16
right_child=1 2 3 -5 6 -7 -8 -9 -10 -11 11 -13 13 -15 15 -17
leaf_value=0 0 0 0 0 -0.0071296435561169378 0.013786075992351314 0 0 0 0 -0.0045319434050145602 0 0 0 0.0064279423077698156 0
leaf_weight=102 55 39 13.999999999999998 40 191 93 17 17 13.999999999999998 26 51 14.999999999999998 20 22 45 12.999999999999998
leaf_count=102 55 39 14 40 191 93 17 17 14 26 51 15 20 22 45 13
internal_value=0 0.0024985 0.00669483 0.00909621 -0.00310054 0.0120296 -0.00477471 -0.00564592 -0.00618194 -0.00657118 0 -0.00206515 0 0.0017154 0.00323411 0.00501925
internal_weight=0 407 186 147 367 107 265 248 231 217 221 66 155 100 78 58
internal_count=774 407 186 147 367 107 265 248 231 217 221 66 155 100 78 58
is_linear=0
shrinkage=0.046


Tree=37
num_leaves=21
num_cat=0
split_feature=49 45 9 9 1 2 49 51 4 11 15 4 3 60 163 49 113 27 21 28
split_gain=2.67644 2.59323 2.4809 2.1807 1.49149 1.21624 1.08311 1.34766 0.747983 0.690758 0.320359 0.222212 0.219137 0.131544 0.600273 0.552 0.237278 0.2021 0.272061 0.0746139
threshold=-0.14276841829501816 -1.0000000180025095e-35 -0.67316491797661426 0.67514942585662008 1.0000000180025095e-35 -0.66949926649869596 0.2043781716891844 0.016298251790866334 1.0476087658735698 -0.27302541661070556 -0.78220301670190973 -0.44117765660847935 -0.062312578572888452 0.10843581563624723 1.3125015497207644 0.13494885369234391 1.0293768644332888 0.8254486411710158 0.30773178100064819 0.0054205625576660525
decision_type=2 2 2 2 2 2 2 2 2 2 2 2 2 2 2 2 2 2 2 2
left_child=3 13 -3 5 6 -1 -4 11 9 -7 -11 -8 -5 14 15 -2 -17 18 -15 -12
right_child=1 2 4 12 -6 8 7 -9 -10 10 19 -13 -14 17 -16 16 -18 -19 -20 -21
leaf_value=0 0 0 0 0 0 0 0 0 0 0 -0.0080631935836565395 0.019333827987103678 0.0037173779466088399 0.0042707111810396164 0 0 -0.0073235927851443257 0 0 0
leaf_weight=33 13.999999999999998 26 15.999999999999998 33 47 35 13.999999999999998 14.999999999999998 13.999999999999998 12.999999999999998 218 59 34 55 15.999999999999998 30 60 14.999999999999998 13.999999999999998 12.999999999999998
leaf_count=33 14 26 16 33 47 35 14 15 14 13 218 59 34 55 16 30 60 15 14 13
internal_value=0 0.00258764 0.00673888 -0.00281403 0.00938054 -0.00486631 0.0125738 0.0145905 -0.00592716 -0.00652432 -0.0073934 0.0171953 0.000306275 0 -0.00152295 -0.00385853 -0.00549369 0 0.00248935 -0.00778928
internal_weight=0 381 177 393 151 326 104 88 293 279 244 73 67 204 120 104 90 84 69 231
internal_count=774 381 177 393 151 326 104 88 293 279 244 73 67 204 120 104 90 84 69 231
is_linear=0
shrinkage=0.046


Tree=38
num_leaves=22
num_cat=0
split_feature=49 45 9 9 49 58 2 4 11 15 53 3 60 163 49 113 27 87 8 28 58
split_gain=2.38059 2.36939 2.35115 2.00965 1.37003 2.45228 1.13623 0.702875 0.625926 0.290816 0.201431 0.340961 0.104057 0.5559 0.521048 0.20339 0.177477 0.25722 0.134069 0.0544779 0.0244921
threshold=-0.14276841829501816 -1.0000000180025095e-35 -0.67316491797661426 0.67514942585662008 0.2043781716891844 0.18248915941263905 -0.66949926649869596 1.0476087658735698 -0.27302541661070556 -0.78220301670190973 0.86603979739211934 -0.062312578572888452 0.10843581563624723 1.3125015497207644 0.13494885369234391 1.0293768644332888 0.8254486411710158 1.7031873464584353 -0.37307151197432581 0.0054205625576660525 0.11494249193757226
decision_type=2 2 2 2 2 2 2 2 2 2 2 2 2 2 2 2 2 2 2 2 2
left_child=3 12 -3 6 -4 20 -1 8 -8 -10 11 -5 13 14 -2 -16 17 18 -14 -11 -6
right_child=1 2 4 10 5 -7 7 -9 9 19 -12 -13 16 -15 15 -17 -18 -19 -20 -21 -22
leaf_value=0 0 0 0 0 0.00093714818961311054 0.018757229769071654 0 0 0 -0.0076923036395400955 0 0.00609219390436435 0 0 0 -0.006986763786944801 0 0 0.005781131723139956 0 0
leaf_weight=33 13.999999999999998 26 21 17 59 58 35 13.999999999999998 12.999999999999998 218 19 31 18 15.999999999999998 30 60 14.999999999999998 14.999999999999998 36 12.999999999999998 12.999999999999998
leaf_count=33 14 26 21 17 59 58 35 14 13 218 19 31 18 16 30 60 15 15 36 13 13
internal_value=0 0.00247462 0.00644245 -0.00262309 0.00903307 0.0108201 -0.00461829 -0.0056512 -0.00623451 -0.00706203 0.000219513 0.00299085 0 -0.00135452 -0.00366419 -0.00526912 0 0.00233278 0.0041268 -0.00743927 0
internal_weight=0 381 177 393 151 130 326 293 279 244 67 48 204 120 104 90 84 69 54 231 72
internal_count=774 381 177 393 151 130 326 293 279 244 67 48 204 120 104 90 84 69 54 231 72
is_linear=0
shrinkage=0.046


Tree=39
num_leaves=15
num_cat=0
split_feature=48 1 45 155 74 13 64 113 133 74 152 19 7 12
split_gain=2.16459 2.32744 2.22996 2.57959 2.5968 1.10254 1.03363 0.784735 0.389909 0.756739 0.470036 0.384008 0.215844 0.120494
threshold=0.034389032042995892 1.0000000180025095e-35 -0.63200465714466558 1.1325142383575442 0.69767269492149364 -0.48789272181297755 1.0311427116394045 1.7733381390571596 1.282738268375397 0.5988546907901765 0.93569049239158641 0.53059669409419163 1.5321602362128208 0.56052445501158588
decision_type=2 2 2 2 2 2 2 2 2 2 2 2 2 2
left_child=6 2 -2 4 -4 -6 -1 11 9 -3 -11 12 13 -8
right_child=1 8 3 -5 5 -7 7 -9 -10 10 -12 -13 -14 -15
leaf_value=0 0 0 0 0 0 0.015059808759621882 -0.0064440437094602692 0 0 -0.0070406784544380522 0 0 0 0
leaf_weight=102 72 12.999999999999998 38 33 13.999999999999998 110 191 17 45 69 12.999999999999998 17 13.999999999999998 26
leaf_count=102 72 13 38 33 14 110 191 17 45 69 13 17 14 26
internal_value=0 0.00222799 0.00510011 0.00773378 0.0102804 0.0135048 -0.00264103 -0.00423235 0 -0.00294683 -0.00543926 -0.00508291 -0.00559058 -0.00594774
internal_weight=0 407 267 195 162 124 367 265 140 95 82 248 231 217
internal_count=774 407 267 195 162 124 367 265 140 95 82 248 231 217
is_linear=0
shrinkage=0.046


Tree=40
num_leaves=19
num_cat=0
split_feature=47 53 48 45 143 19 5 132 11 28 62 17 3 61 50 61 15 44
split_gain=4.72699 2.39803 1.36143 0.657294 0.546 0.665749 0.675228 0.676587 0.460698 0.635519 0.641176 0.441128 0.59406 0.511137 0.101487 0.0940977 0.0624176 0.0723953
threshold=1.3148804914942753 0.46139445367040516 0.085284631383820433 1.5741384719836284 1.1564197540283205 -0.55215804385420275 -0.65838046787180404 0.72336456179618847 -0.27302541661070556 -0.0013105775268511947 0.74462006044844375 -0.3920240680029668 -0.54455399549305772 0.24713238566982587 0.25772468736182547 0.23018655214720865 1.0000000180025095e-35 -1.0000000180025095e-35
decision_type=2 2 2 2 2 2 2 2 2 2 2 2 2 2 2 2 2 2
left_child=1 4 -2 8 5 -1 -7 -8 -3 10 -10 -12 15 -14 -9 -13 17 -6
right_child=2 3 -4 -5 16 6 7 14 9 -11 11 12 13 -15 -16 -17 -18 -19
leaf_value=0 0 0 0.013012879460174733 0 0 0 0 0.013080331367169391 0 0 0 0 -0.011980249273073737 0 0 -0.0015677542728621961 0 -0.002162335477213726
leaf_weight=22 15.999999999999998 61 62 27 39 12.999999999999998 37 33 31 15.999999999999998 50 29 110 18 29 81 18 61
leaf_count=22 16 61 62 27 39 13 37 33 31 16 50 29 110 18 29 81 18 61
internal_value=0 -0.00187952 0.0098831 -0.0041967 0.000184722 0.00294711 0.00479251 0.00635724 -0.00472495 -0.00541296 -0.00591482 -0.00659253 -0.00751754 -0.0107189 0.00936037 0 0 -0.00114918
internal_weight=0 675 78 423 252 134 112 99 396 335 319 288 238 128 62 110 118 100
internal_count=753 675 78 423 252 134 112 99 396 335 319 288 238 128 62 110 118 100
is_linear=0
shrinkage=0.046


Tree=41
num_leaves=18
num_cat=0
split_feature=47 53 48 45 1 150 5 74 21 13 25 7 62 107 61 171 168
split_gain=4.29761 2.22892 1.2538 0.624446 0.48062 1.71669 1.09551 0.728211 0.444735 0.588122 0.429782 0.179222 0.366997 0.397982 0.255492 0.0316877 0.134098
threshold=1.3148804914942753 0.46139445367040516 0.085284631383820433 1.5741384719836284 1.0000000180025095e-35 1.8706066608428957 -0.67521102887412965 0.77653872966766369 1.2921109515518172 0.78272964253172206 1.0030135532376327 1.7526038510668329 0.74786967695110362 1.9579219818115237 0.32121973101635376 1.2413937449455263 0.94284704327583324
decision_type=2 2 2 2 2 2 2 2 2 2 2 2 2 2 2 2 2
left_child=1 4 -2 8 5 6 -1 -8 9 10 11 12 -3 14 -14 16 -6
right_child=2 3 -4 -5 15 -7 7 -9 -10 -11 -12 -13 13 -15 -16 -17 -18
leaf_value=0 0 0 0.012414383562844937 0 0 0 0 0.011356133824856854 0 0 0 0 -0.0071114897240093441 0 0 0 -0.0028232891118491247
leaf_weight=17 15.999999999999998 24 62 27 18 61 32 66 22 17 12.999999999999998 18 274 13.999999999999998 13.999999999999998 13.999999999999998 44
leaf_count=17 16 24 62 27 18 61 32 66 22 17 13 18 274 14 14 14 44
internal_value=0 -0.00180148 0.00940736 -0.00403958 0.000130008 0.00240878 0.00636114 0.00843412 -0.00455712 -0.00495026 -0.00539979 -0.00573613 -0.00599026 -0.00642698 -0.00679984 0 -0.00103985
internal_weight=0 675 78 423 252 176 115 98 396 374 357 344 326 302 288 76 62
internal_count=753 675 78 423 252 176 115 98 396 374 357 344 326 302 288 76 62
is_linear=0
shrinkage=0.046


Tree=42
num_leaves=17
num_cat=0
split_feature=47 53 48 45 143 1 11 28 62 50 74 17 34 60 15 130
split_gain=3.88964 1.99473 1.15513 0.581212 0.433895 1.3728 0.43208 0.583266 0.555169 0.424874 0.996066 0.403643 0.5505 0.396986 0.0595659 0.191263
threshold=1.3148804914942753 0.46139445367040516 0.085284631383820433 1.5741384719836284 1.1564197540283205 1.0000000180025095e-35 -0.27302541661070556 -0.0013105775268511947 0.74462006044844375 0.25772468736182547 0.77653872966766369 -0.3920240680029668 -0.29558614229693564 0.21971413758593428 1.0000000180025095e-35 0.80894550681114208
decision_type=2 2 2 2 2 2 2 2 2 2 2 2 2 2 2 2
left_child=1 4 -2 6 5 9 -3 8 -8 10 -1 -10 -13 -14 15 -6
right_child=2 3 -4 -5 14 -7 7 -9 11 -11 -12 12 13 -15 -16 -17
leaf_value=0 0 0 0.011843413699053647 0 -0.0029256083151733198 0 0 0 0 0 0.015343639202690749 0 -0.0097213586462399967 0 0 0
leaf_weight=19 15.999999999999998 61 62 27 62 41 31 15.999999999999998 50 45 29 62 144 32 18 38
leaf_count=19 16 61 62 27 62 41 31 16 50 45 29 62 144 32 18 38
internal_value=0 -0.00171131 0.00895349 -0.00382769 1.58744e-05 0.00261756 -0.00433078 -0.00498998 -0.00547883 0.0064112 0.00991746 -0.00610961 -0.00698265 -0.00851766 0 -0.00112263
internal_weight=0 675 78 423 252 134 396 335 319 93 48 288 238 176 118 100
internal_count=753 675 78 423 252 134 396 335 319 93 48 288 238 176 118 100
is_linear=0
shrinkage=0.046


Tree=43
num_leaves=19
num_cat=0
split_feature=49 19 142 8 103 61 99 1 68 61 45 152 39 64 106 61 13 45
split_gain=2.88081 1.47381 1.13559 1.18406 0.979008 2.05404 0.379617 0.876653 1.54086 1.23008 0.83225 0.516495 0.369281 0.451955 0.347641 0.11187 0.0946515 0.00051922
threshold=1.4193912366338937 -0.14612501712355488 0.93383255600929271 1.2371291606617798 1.472662687301636 0.072559644920995273 1.6000837087631228 1.0000000180025095e-35 0.74356433749198925 0.26336804032478683 -0.82384319011234342 0.91198197007179271 0.0024938034190134929 1.7639979124069216 1.9527832865715029 0.24296389997449461 -0.91143350992787742 0.23126874120988414
decision_type=2 2 2 2 2 2 2 2 2 2 2 2 2 2 2 2 2 2
left_child=1 2 -1 14 5 -2 7 8 17 10 -10 -12 13 15 16 -8 -4 -3
right_child=4 6 3 -5 -6 -7 12 -9 9 -11 11 -13 -14 -15 -16 -17 -18 -19
leaf_value=0 0 -0.00017229554334479758 0 0 0 0.016480598518435426 -0.0055412973361691426 0 0 0 0.013017333580911334 0 0 0 0 0 -0.0086434554790545595 0
leaf_weight=53 26 37 38 27 18 40 76 75 21 12.999999999999998 65 24 29 18 22 14.999999999999998 142 13.999999999999998
leaf_count=53 26 37 38 27 18 40 76 75 21 13 65 24 29 18 22 15 142 14
internal_value=0 -0.00156884 -0.00411063 -0.00559467 0.00727738 0.00993905 0 0.00133495 0.00363462 0.00672259 0.00861358 0.0105586 -0.00161399 -0.00323513 -0.00692002 -0.00480043 -0.00760432 0
internal_weight=0 669 282 229 84 66 387 249 174 123 110 89 138 109 202 91 180 51
internal_count=753 669 282 229 84 66 387 249 174 123 110 89 138 109 202 91 180 51
is_linear=0
shrinkage=0.046


Tree=44
num_leaves=18
num_cat=0
split_feature=13 48 7 103 45 45 154 15 170 53 49 60 50 7 42 45 84
split_gain=1.98778 1.9406 3.58713 1.6404 1.1922 1.39701 1.1168 0.817034 0.683256 0.565296 0.335085 0.1346 0.0852233 0.185572 0.0171449 0.00826749 0.0137444
threshold=-1.0000000180025095e-35 -0.045511503565072671 0.57690457184543542 0.98635718226432811 0.99862287308059516 -1.015681723080021 1.0702843070030215 -0.51440236091914371 1.6959692835807803 0.22810232947662637 0.34323680768286546 0.53393797984408897 -0.096571555737718348 0.72386698174811004 -0.13859521811713399 0.80678434011291744 0.20133193582296374
decision_type=2 2 2 2 2 2 2 2 2 2 2 2 2 2 2 2 2
left_child=3 12 4 10 5 -3 7 -7 9 -5 -1 -11 13 14 -2 16 -4
right_child=1 2 15 8 -6 6 -8 -9 -10 11 -12 -13 -14 -15 -16 -17 -18
leaf_value=0 0 0 -0.00094632992322702249 0 0 0 0 0.013925087192563707 0 -0.0071711240521572283 0.0047064371066623577 0 0 0 -0.0031607066226032906 0 0
leaf_weight=85 14.999999999999998 23 52 37 28 18 32 119 12.999999999999998 171 32 13.999999999999998 40 12.999999999999998 61 20 20
leaf_count=85 15 23 52 37 28 18 32 119 13 171 32 14 40 13 61 20 20
internal_value=0 0.00202576 0.00435437 -0.00260915 0.00783513 0.00913672 0.0105986 0.0124826 -0.00499668 -0.00573942 0 -0.0067819 -4.05187e-05 -0.0014242 -0.00274615 0 -0.000492888
internal_weight=0 441 312 352 220 192 169 137 235 222 117 185 129 89 76 92 72
internal_count=793 441 312 352 220 192 169 137 235 222 117 185 129 89 76 92 72
is_linear=0
shrinkage=0.046


Tree=45
num_leaves=19
num_cat=0
split_feature=48 45 71 9 25 187 27 184 103 19 65 41 154 94 113 91 94 157
split_gain=1.74476 1.50916 2.12487 1.38358 1.69949 1.3215 0.863074 0.649695 1.35046 0.830509 0.570458 0.483061 0.473536 0.367934 0.233696 0.401965 0.22879 0.412006
threshold=-0.3288094193307019 -0.72792392362850444 1.4011000394821169 -1.1421438201794782 0.83568983165611654 0.41619487106800085 -1.0000000180025095e-35 2.0817044973373418 1.4670859575271609 0.66594103633774082 1.346483647823334 -0.048095208972898505 1.1384596824645998 0.54795151948928844 1.8048434853553774 1.7595610618591311 1.6538934111595156 1.5680661797523501
decision_type=2 2 2 2 2 2 2 2 2 2 2 2 2 2 2 2 2 2
left_child=12 10 3 -3 5 -5 -7 9 16 -4 13 -8 -1 -2 15 -10 17 -9
right_child=1 2 7 4 -6 6 11 8 14 -11 -12 -13 -14 -15 -16 -17 -18 -19
leaf_value=-0.0052910693423895861 0 0 -0.0068629103100949617 0 0 0 0 0 -0.0045840230447843546 0 0 0.016197990629579662 0 -0.0057323656306830732 0 0 0 0.0082780600331396111
leaf_weight=144 14.999999999999998 12.999999999999998 57 12.999999999999998 35 41 20 41 64 14.999999999999998 58 77 12.999999999999998 70 20 12.999999999999998 15.999999999999998 68
leaf_count=144 15 13 57 13 35 41 20 41 64 15 58 77 13 70 20 13 16 68
internal_value=0 0.00102045 0.00267991 0.00635491 0.00767767 0.0098195 0.0112146 0 0.0014189 -0.00358945 -0.00148388 0.0140622 -0.00439269 -0.00423126 0 -0.00253402 0.00514143 0.00589536
internal_weight=0 636 493 199 186 151 138 294 222 72 143 97 157 85 97 77 125 109
internal_count=793 636 493 199 186 151 138 294 222 72 143 97 157 85 97 77 125 109
is_linear=0
shrinkage=0.046


Tree=46
num_leaves=19
num_cat=0
split_feature=13 48 7 2 45 45 103 170 53 16 9 49 60 45 3 7 45 84
split_gain=1.66078 1.68734 3.29239 1.99144 1.84494 1.7887 1.45929 0.633304 0.489172 0.425849 0.599115 0.286486 0.109186 0.0608 0.140744 0.161402 0.00910184 0.0114697
threshold=-1.0000000180025095e-35 -0.045511503565072671 0.57690457184543542 0.6287806633906009 1.190461406048273 -0.63200465714466558 0.98635718226432811 1.6959692835807803 0.22810232947662637 -1.0000000180025095e-35 0.79239415140733604 0.34323680768286546 0.53393797984408897 0.80678434011291744 -0.94274171257238271 1.0912730065047969 0.80678434011291744 0.20133193582296374
decision_type=2 2 2 2 2 2 2 2 2 2 2 2 2 2 2 2 2 2
left_child=6 13 3 4 5 -3 11 8 -8 -7 -11 -1 -10 14 -2 -16 17 -4
right_child=1 2 16 -5 -6 9 7 -9 12 10 -12 -13 -14 -15 15 -17 -18 -19
leaf_value=0 0 0 -0.0009148464704016924 0 0 0 0 0 -0.0067230658416064628 0.017024291605883049 0 0.004351780095633139 0 0 -0.0031997756590256446 0 0 0
leaf_weight=85 18 49 52 37 18 12.999999999999998 37 12.999999999999998 171 90 12.999999999999998 32 13.999999999999998 23 75 12.999999999999998 20 20
leaf_count=85 18 49 52 37 18 13 37 13 171 90 13 32 14 23 75 13 20 20
internal_value=0 0.00183109 0.00402274 0.00739017 0.0094171 0.011046 -0.00240471 -0.00466913 -0.00539568 0.0143588 0.0155223 0 -0.00636636 0 -0.00110163 -0.00220129 0 -0.000517161
internal_weight=0 441 312 220 183 165 352 235 222 116 103 117 185 129 106 88 92 72
internal_count=793 441 312 220 183 165 352 235 222 116 103 117 185 129 106 88 92 72
is_linear=0
shrinkage=0.046


Tree=47
num_leaves=16
num_cat=0
split_feature=49 58 31 65 130 129 50 65 2 4 59 7 169 2 5
split_gain=1.49611 1.6374 1.02248 0.728365 0.540817 1.09756 0.817757 1.01282 0.402088 0.248877 0.169251 0.163222 0.157793 0.138955 0.180577
threshold=0.69038339766706813 0.18248915941263905 -0.087498070640466108 1.4841323494911196 0.81032520532608043 1.4785020351409914 -0.034721799474002994 0.49756516516208654 -0.66949926649869596 1.0476087658735698 0.27441048294004283 0.57690457184543542 1.8665943145751955 -0.087511711720735394 -0.49231893264885845
decision_type=2 2 2 2 2 2 2 2 2 2 2 2 2 2 2
left_child=2 -2 8 11 6 -6 7 -4 -1 -9 12 -3 -10 -8 -15
right_child=1 3 4 -5 5 -7 13 9 10 -11 -12 -13 -14 14 -16
leaf_value=0 0 0.010891923473685526 0 0 0.0094106987948850158 0 0 -0.0059295184470863887 -0.0049889742531806424 0 0 0 0 0 0.0044587335792736814
leaf_weight=30 113 64 12.999999999999998 13.999999999999998 38 45 45 128 186 21 12.999999999999998 18 14.999999999999998 15.999999999999998 34
leaf_count=30 113 64 13 14 38 45 45 128 186 21 13 18 15 16 34
internal_value=0 0.00327548 -0.0012574 0.00770996 0 0.00354599 -0.00062563 -0.00336178 -0.0035568 -0.00516431 -0.0042895 0.00940128 -0.00462293 0 0.00242475
internal_weight=0 209 584 96 340 83 257 162 244 149 214 82 201 95 50
internal_count=793 209 584 96 340 83 257 162 244 149 214 82 201 95 50
is_linear=0
shrinkage=0.046


Tree=48
num_leaves=17
num_cat=0
split_feature=1 5 45 94 35 133 58 39 9 122 9 91 29 13 45 25
split_gain=1.69204 1.60051 2.0762 1.55049 1.43159 1.89938 2.03986 1.26781 1.17653 0.982702 0.949305 0.552062 0.120639 0.170524 0.105078 0.165907
threshold=1.0000000180025095e-35 -0.68082121587490485 -0.82384319011234342 1.6538934111595156 0.15745018786308737 0.71557262539863598 0.53884546149415746 0.0024938034190134929 -0.67316491797661426 2.0834776163101201 0.90963887695805201 0.89490166306495678 -0.92193078470394396 0.44389701203980209 0.23126874120988414 0.50104238849308447
decision_type=2 2 2 2 2 2 2 2 2 2 2 2 2 2 2 2
left_child=1 14 -3 4 5 -4 8 11 -7 10 -10 -2 -13 -14 15 -1
right_child=7 2 3 -5 -6 6 -8 -9 9 -11 -12 12 13 -15 -16 -17
leaf_value=-0.0025836881513000144 0 0 0 0 0 0 0 0 0.019402446179713838 0 0 0 -0.0070923549260575357 0 0 0
leaf_weight=88 39 78 41 50 69 22 21 63 81 19 13.999999999999998 18 130 13.999999999999998 24 13.999999999999998
leaf_count=88 39 78 41 50 69 22 21 63 81 19 14 18 130 14 24 14
internal_value=0 0.00170106 0.00351491 0.00540859 0.00685696 0.00887134 0.0111736 -0.00280197 0.0132613 0.0152195 0.0173159 -0.00486392 -0.00604675 -0.00655025 -0.000334514 -0.00152246
internal_weight=0 521 395 317 267 198 157 264 136 114 95 201 162 144 126 102
internal_count=785 521 395 317 267 198 157 264 136 114 95 201 162 144 126 102
is_linear=0
shrinkage=0.046


Tree=49
num_leaves=16
num_cat=0
split_feature=1 5 45 155 9 25 39 71 122 8 58 34 13 45 25
split_gain=1.48699 1.45964 1.94835 1.34963 1.58639 1.671 1.18616 0.711134 0.38449 0.378471 0.393458 0.337266 0.343147 0.0934316 0.155497
threshold=1.0000000180025095e-35 -0.68082121587490485 -0.82384319011234342 1.136992394924164 -0.67316491797661426 0.50104238849308447 0.0024938034190134929 1.9323591589927676 1.078088700771332 1.5298929193228898 0.60017001326505359 -0.30622324617087976 0.44389701203980209 0.23126874120988414 0.50104238849308447
decision_type=2 2 2 2 2 2 2 2 2 2 2 2 2 2 2
left_child=1 13 -3 4 -4 7 8 9 -2 10 -6 -10 -13 14 -1
right_child=6 2 3 -5 5 -7 -8 -9 11 -11 -12 12 -14 -15 -16
leaf_value=-0.0024648519860805537 0 0 0 0 0.01263521659887255 0 0 0 0 0 0 -0.0071004949929516113 0 0 0
leaf_weight=88 39 78 43 42 134 58 63 12.999999999999998 18 13.999999999999998 12.999999999999998 131 12.999999999999998 24 13.999999999999998
leaf_count=88 39 78 43 42 134 58 63 13 18 14 13 131 13 24 14
internal_value=0 0.00158238 0.00333189 0.00518054 0.00642815 0.00796541 -0.00264132 0.0102428 -0.00465292 0.0110785 0.0118266 -0.00564651 -0.00638935 -0.000251515 -0.00141993
internal_weight=0 521 395 317 275 232 264 174 201 161 147 162 144 126 102
internal_count=785 521 395 317 275 232 264 174 201 161 147 162 144 126 102
is_linear=0
shrinkage=0.046


Tree=50
num_leaves=15
num_cat=0
split_feature=1 48 45 9 35 3 94 133 54 9 25 86 8 3
split_gain=1.28606 1.33099 1.98778 1.50333 1.68842 1.26188 2.29167 1.30034 0.894948 0.54435 0.110831 0.133536 0.064209 0.000233617
threshold=1.0000000180025095e-35 -0.31813643940863329 -0.82384319011234342 -0.67316491797661426 0.1720218382155804 -0.75435372074192675 1.6507622599601748 0.71557262539863598 0.97408292268215113 0.73377178863197801 0.50104238849308447 0.89986020326614391 1.3103201003270575 -0.7933338986508921
decision_type=2 2 2 2 2 2 2 2 2 2 2 2 2 2
left_child=1 10 13 -4 5 -5 7 -7 9 -2 11 -1 -9 -3
right_child=8 2 3 4 -6 6 -8 12 -10 -11 -12 -13 -14 -15
leaf_value=0 -0.0061355438480842654 0 0 0 0 0 0 0.015579094265812107 0 0 0 -0.0027943420176807544 0 -8.1726867207770827e-05
leaf_weight=14.999999999999998 124 12.999999999999998 57 28 68 35 29 104 115 25 13.999999999999998 71 12.999999999999998 74
leaf_count=15 124 13 57 28 68 35 29 104 115 25 14 71 13 74
internal_value=0 0.00145205 0.0030348 0.00491953 0.00637693 0.00842549 0.0098347 0.0121274 -0.00247925 -0.00485789 -0.000611432 -0.00177802 0.0146486 0
internal_weight=0 521 421 334 277 209 181 152 264 149 100 86 117 87
internal_count=785 521 421 334 277 209 181 152 264 149 100 86 117 87
is_linear=0
shrinkage=0.046


Tree=51
num_leaves=16
num_cat=0
split_feature=45 9 13 67 47 9 134 34 73 3 15 72 64 130 7
split_gain=1.22053 1.0947 1.07315 0.853684 0.822737 0.799192 0.80769 0.761995 0.942175 0.665428 0.652281 0.455505 1.41594 0.22959 0.0160729
threshold=0.23126874120988414 -0.67316491797661426 1.0000000180025095e-35 1.120103180408478 1.3148804914942753 2.0820861324652125 1.1347194910049441 -0.25623231156849674 0.36156317591667181 -0.71668539387649954 -0.49593335017550461 1.0445406436920168 1.2684915065765383 0.86885297298431408 -0.74575711727863658
decision_type=2 2 2 2 2 2 2 2 2 2 2 2 2 2 2
left_child=2 -2 4 10 5 6 7 -1 -9 -10 -3 -4 -13 -11 -12
right_child=1 3 11 -5 -6 -7 -8 8 9 13 14 12 -14 -15 -16
leaf_value=0 0 0 0 0 0 0 0 0 0 -0.0089037926931104759 0 0.01149867026011811 0 0 0.0094272387572632357
leaf_weight=90 51 12.999999999999998 50 71 43 18 15.999999999999998 12.999999999999998 44 171 14.999999999999998 30 61 14.999999999999998 84
leaf_count=90 51 13 50 71 43 18 16 13 44 171 15 30 61 15 84
internal_value=0 0.00287124 -0.00108899 0.00481649 -0.00266697 -0.00356224 -0.00426491 -0.0049189 -0.00630806 -0.00712097 0.00735055 0.000237145 0.00326768 -0.00838289 0.00866401
internal_weight=0 234 551 183 410 367 349 333 243 230 112 141 91 186 99
internal_count=785 234 551 183 410 367 349 333 243 230 112 141 91 186 99
is_linear=0
shrinkage=0.046


Tree=52
num_leaves=18
num_cat=0
split_feature=47 2 58 138 7 83 9 62 4 54 84 8 17 177 13 28 13
split_gain=0.907653 1.08247 1.61399 2.364 2.08222 1.58809 0.720781 0.659668 0.672963 0.652024 1.41138 0.560439 0.428455 0.317068 0.105338 0.194852 0.0512937
threshold=-0.51208804577715583 -0.22181653205411092 0.24299322464997389 2.3229745626449589 0.65038577679677279 0.77072343230247509 0.67514942585662008 1.0782725433444971 1.0476087658735698 1.0021747980215336 0.22198786586523059 1.0175563416659474 -1.0000000180025095e-35 0.97254312038421642 -0.48789272181297755 -0.01382042603278846 -0.5726008794359575
decision_type=2 2 2 2 2 2 2 2 2 2 2 2 2 2 2 2 2
left_child=6 9 -3 4 5 -4 7 8 11 10 12 13 -2 -1 -11 -16 -15
right_child=1 2 3 -5 -6 -7 -8 -9 -10 14 -12 -13 -14 16 15 -17 -18
leaf_value=0 0 0 0 0 0 0.019285033759729484 0 0 0 0 0 0 -0.0088395474086393425 0 0.0041503649198284705 0 -0.0078342888563097991
leaf_weight=12.999999999999998 14.999999999999998 125 12.999999999999998 23 18 51 58 106 18 14.999999999999998 35 23 67 22 39 14.999999999999998 126
leaf_count=13 15 125 13 23 18 51 58 106 18 15 35 23 67 22 39 15 126
internal_value=0 0.00109296 0.00348122 0.00768553 0.0116888 0.0156167 -0.00197221 -0.00309415 -0.00463759 0 -0.00338776 -0.00559908 -0.00726574 -0.00657216 0.000729908 0.00219264 -0.00717774
internal_weight=0 416 230 105 82 64 366 308 202 186 117 184 82 161 69 54 148
internal_count=782 416 230 105 82 64 366 308 202 186 117 184 82 161 69 54 148
is_linear=0
shrinkage=0.046


Tree=53
num_leaves=15
num_cat=0
split_feature=50 2 58 97 7 127 9 62 4 54 84 15 13 34
split_gain=1.59634 1.21093 1.31721 2.05686 2.11504 1.66152 0.808055 0.776088 0.352376 0.320371 1.16136 0.511214 0.189977 0.141615
threshold=-0.096571555737718348 -0.22181653205411092 0.24299322464997389 1.5403269529342654 0.65038577679677279 0.45910087227821356 0.67514942585662008 1.0782725433444971 1.0476087658735698 1.0021747980215336 0.22198786586523059 -1.0000000180025095e-35 -0.5726008794359575 -0.33131368761380298
decision_type=2 2 2 2 2 2 2 2 2 2 2 2 2 2
left_child=6 9 -3 4 5 -4 7 8 12 10 11 -2 -1 -11
right_child=1 2 3 -5 -6 -7 -8 -9 -10 13 -12 -13 -14 -15
leaf_value=0 0 0 0 0 0 0.019812421931174617 0 0 0 0 0 -0.0081549508728582382 -0.0064628526129735043 0.0024138701881783031
leaf_weight=35 12.999999999999998 117 12.999999999999998 23 18 48 59 108 21 12.999999999999998 34 63 161 56
leaf_count=35 13 117 13 23 18 48 59 108 21 13 34 63 161 56
internal_value=0 0.00170158 0.00411841 0.00798361 0.0117208 0.0158513 -0.00240735 -0.0034797 -0.00506968 0 -0.002433 -0.00639514 -0.00567973 0.000622014
internal_weight=0 398 219 102 79 61 384 325 217 179 110 76 196 69
internal_count=782 398 219 102 79 61 384 325 217 179 110 76 196 69
is_linear=0
shrinkage=0.046


Tree=54
num_leaves=15
num_cat=0
split_feature=50 2 58 138 68 21 9 62 4 54 84 17 13 0
split_gain=1.44873 1.08629 1.16213 1.91736 1.43372 0.893266 0.760054 0.705815 0.325312 0.265032 1.07393 0.514289 0.155749 0.0340526
threshold=-0.096571555737718348 -0.22181653205411092 0.24299322464997389 2.3229745626449589 0.63959243893623363 0.16189782980788239 0.67514942585662008 1.0782725433444971 1.0476087658735698 1.0021747980215336 0.22198786586523059 -1.0000000180025095e-35 -0.5726008794359575 1.0000000180025095e-35
decision_type=2 2 2 2 2 2 2 2 2 2 2 2 2 2
left_child=6 9 -3 4 -4 -6 7 8 12 10 11 -2 -1 -11
right_child=1 2 3 -5 5 -7 -8 -9 -10 13 -12 -13 -14 -15
leaf_value=0 0 0 0 0 0.017379431094357831 0 0 0 0 0 0 -0.007932497517242872 -0.0061655798525638026 0.001410829716468733
leaf_weight=35 13.999999999999998 117 15.999999999999998 21 49 15.999999999999998 59 108 21 23 34 62 161 46
leaf_count=35 14 117 16 21 49 16 59 108 21 23 34 62 161 46
internal_value=0 0.00163542 0.00391867 0.00755478 0.0110432 0.0140937 -0.00228271 -0.00333243 -0.00484912 0 -0.00221818 -0.00608422 -0.00543554 0.000531909
internal_weight=0 398 219 102 81 65 384 325 217 179 110 76 196 69
internal_count=782 398 219 102 81 65 384 325 217 179 110 76 196 69
is_linear=0
shrinkage=0.046


Tree=55
num_leaves=14
num_cat=0
split_feature=50 3 9 36 4 35 9 62 53 4 13 45 84
split_gain=1.32303 0.999222 1.55359 1.15528 0.722659 0.782821 0.715215 0.641865 0.446451 0.30049 0.125334 0.0815846 0.348064
threshold=-0.096571555737718348 0.79161194088934306 -0.67316491797661426 -0.049865806921112997 -0.77908199069991035 0.1720218382155804 0.67514942585662008 1.0782725433444971 1.040542155215239 1.0476087658735698 -0.5726008794359575 -1.0000000180025095e-35 0.23744842410087588
decision_type=2 2 2 2 2 2 2 2 2 2 2 2 2
left_child=6 2 -2 -4 -5 8 7 9 -6 10 -1 12 -3
right_child=1 11 3 4 5 -7 -8 -9 -10 -11 -12 -13 -14
leaf_value=0 0 -0.0050246189792465413 0 0 0.0093325311522292117 0 0 0 0 0 -0.0058819807894214642 0 0
leaf_weight=35 64 36 25 21 149 31 59 108 12.999999999999998 21 161 45 13.999999999999998
leaf_count=35 64 36 25 21 149 31 59 108 13 21 161 45 14
internal_value=0 0.00158634 0.00320675 0.00517601 0.00642989 0.00733242 -0.0021638 -0.00319193 0.00861837 -0.00463871 -0.00520258 0 -0.00185795
internal_weight=0 398 303 239 214 193 384 325 162 217 196 95 50
internal_count=782 398 303 239 214 193 384 325 162 217 196 95 50
is_linear=0
shrinkage=0.046


Tree=56
num_leaves=16
num_cat=0
split_feature=49 1 70 74 8 46 84 9 111 5 156 78 134 134 133
split_gain=1.23792 1.17125 1.29171 1.1446 0.740732 0.5167 0.726221 0.247169 0.0228427 0.089449 0.0111246 0.0827093 0.00986373 0.0948919 4.79708e-05
threshold=-0.14276841829501816 1.0000000180025095e-35 1.1676066517829897 0.92134141921997081 0.65160164333955961 0.13160797934422833 0.28297692537307745 1.9062190441391385 1.2874380946159365 -0.67521102887412965 1.9429006576538088 2.2374960184097294 1.1166690587997439 0.92716172337532055 1.3859204649925234
decision_type=2 2 2 2 2 2 2 2 2 2 2 2 2 2 2
left_child=4 2 3 -2 5 6 7 -1 9 -6 -4 -12 13 -3 -10
right_child=1 12 10 -5 8 -7 -8 -9 14 -11 11 -13 -14 -15 -16
leaf_value=-0.0059156345480189569 0 0 0 0.013842158200259235 0 0 0 0 -3.9514491483259704e-05 0.0032134639069289032 0.002285539064829803 0 0 -0.0021949290875017554 0
leaf_weight=165 62 74 57 48 12.999999999999998 93 18 12.999999999999998 65 23 38 36 14.999999999999998 46 15.999999999999998
leaf_count=165 62 74 57 48 13 93 18 13 65 23 38 36 15 46 16
internal_value=0 0.00204037 0.00409613 0.00784878 -0.00161126 -0.00301172 -0.00435339 -0.00543148 0 0.00115856 0 0.000563968 0 -0.000417032 0
internal_weight=0 376 241 110 406 289 196 178 117 36 131 74 135 120 81
internal_count=782 376 241 110 406 289 196 178 117 36 131 74 135 120 81
is_linear=0
shrinkage=0.046


Tree=57
num_leaves=14
num_cat=0
split_feature=50 70 74 172 133 121 130 13 161 19 45 71 60
split_gain=0.925998 1.23311 2.65417 1.23947 0.434498 0.678993 0.345316 0.454881 0.32802 0.18735 0.0262765 0.00066029 3.41191e-06
threshold=-0.096571555737718348 1.1676066517829897 0.92134141921997081 0.54987928271293651 0.88656648993492138 0.85298800468444835 0.84354284405708324 -0.91143350992787742 1.980700731277466 1.0000000180025095e-35 0.32718800769372303 1.9695256352424624 0.083862687031123054
decision_type=2 2 2 2 2 2 2 2 2 2 2 2 2
left_child=4 2 -2 -4 12 6 7 -6 -3 10 -10 -7 -1
right_child=1 8 3 -5 5 11 -8 -9 9 -11 -12 -13 -14
leaf_value=1.1155910891431135e-05 0 -0.0045175664681120853 0 0.014270340653388575 0 0.00016234770819187794 0 -0.0060322852546326631 -0.00073114619032945349 0.0030719068088479848 0 0 0
leaf_weight=58 107 34 18 59 21 53 22 133 104 42 30 53 48
leaf_count=58 107 34 18 59 21 53 22 133 104 42 30 53 48
internal_value=0 0.00172229 0.00453118 0.0110448 -0.0014275 -0.00246249 -0.00422831 -0.00501766 0 0 0 0 0
internal_weight=0 394 184 77 388 282 176 154 210 176 134 106 106
internal_count=782 394 184 77 388 282 176 154 210 176 134 106 106
is_linear=0
shrinkage=0.046


Tree=58
num_leaves=16
num_cat=0
split_feature=49 1 151 5 8 172 46 28 183 160 111 5 134 134 121
split_gain=1.01116 1.07959 1.15437 0.866767 0.66016 0.603229 0.464117 0.183435 0.1766 0.116278 0.0194406 0.0816464 0.0126039 0.0861895 3.81198e-05
threshold=-0.14276841829501816 1.0000000180025095e-35 1.8220553398132326 -0.68082121587490485 0.65160164333955961 0.26980639994144445 0.13160797934422833 -0.048663587052576729 0.80940714478492748 1.1635875701904299 1.2874380946159365 -0.67521102887412965 1.1166690587997439 0.92716172337532055 0.86320748925209057
decision_type=2 2 2 2 2 2 2 2 2 2 2 2 2 2 2
left_child=4 2 3 -2 6 -5 7 -1 9 -7 11 -6 13 -3 -12
right_child=1 12 -4 5 10 8 -8 -9 -10 -11 14 -13 -14 -15 -16
leaf_value=0 0 0 0 0 0 0 0 -0.0044397240627120464 0 0.013454040116220962 -3.8645225164074079e-05 0.0030489273832342715 0 -0.0021315501327773163 0
leaf_weight=13.999999999999998 13.999999999999998 74 104 18 12.999999999999998 38 93 182 12.999999999999998 54 54 23 14.999999999999998 46 27
leaf_count=14 14 74 104 18 13 38 93 182 13 54 54 23 15 46 27
internal_value=0 0.00187302 0.00386675 0.006643 -0.00142159 0.00800387 -0.00276991 -0.00404018 0.009338 0.0101774 0 0.00106881 0 -0.000471412 0
internal_weight=0 376 241 137 406 123 289 196 105 92 117 36 135 120 81
